%YAML:1.0
---
opencv_ml_svm:
   format: 3
   svmType: C_SVC
   kernel:
      type: LINEAR
   C: 1.
   term_criteria: { epsilon:1.1920928955078125e-007, iterations:1000 }
   var_count: 16384
   class_count: 2
   class_labels: !!opencv-matrix
      rows: 2
      cols: 1
      dt: i
      data: [ 0, 1 ]
   sv_total: 1
   support_vectors:
      - [ -7.69028906e-004, -1.66995730e-003, 0., -4.15676877e-005,
          -2.38891970e-003, -7.58369497e-005, -5.66108502e-004,
          -1.35433422e-002, 0., 0., 0., 0., 0., 0., -7.22133322e-004,
          -5.09327278e-003, -1.31706009e-003, -1.55365525e-003, 0.,
          -5.31304104e-004, -5.63482661e-003, -4.44045843e-004, 0.,
          -9.31172632e-003, -9.41293198e-004, 0., 0., 0.,
          -1.05510782e-002, -3.05248471e-003, -4.47318796e-003,
          -2.61116140e-002, 0., 8.72582968e-005, 0., 0., 0., 0., 0., 0.,
          0., 0., 0., 0., 0., 0., 0., 0., 0., 0., 0., 0., 0., 0., 0., 0.,
          -2.34392850e-004, 0., -7.34115019e-006, 0., -2.89215078e-003,
          -6.19642029e-004, -2.30160006e-003, -2.28557154e-003,
          -1.52401556e-003, -1.92768421e-004, 0., 5.83758112e-004,
          -2.93541834e-005, -6.11546493e-005, 0., 0., 0., 0., 0., 0., 0.,
          0., 0., 8.72582968e-005, -2.40491261e-003, 0., 0., 0., 0., 0.,
          0., 0., 0., 0., 0., 0., -2.51526339e-003, -1.24662521e-003, 0.,
          -9.79898730e-004, -1.92768421e-004, 0., 0., -5.31304104e-004,
          -5.38645254e-004, 0., 0., 0., 0., 0., 0., 0., 0., 0., 0., 0.,
          -4.19965526e-003, -1.92768421e-004, 0., 0., -2.56906729e-003,
          0., 0., -3.76405823e-003, -2.00390141e-003, 0., 0., 0.,
          -1.35111548e-002, -6.19642029e-004, -2.27951840e-003,
          -5.07498113e-003, 0., 6.98649092e-004, 0., 1.33641739e-003, 0.,
          -6.19642029e-004, 0., -3.22805950e-003, 0., 0., 0., 0., 0., 0.,
          4.96499764e-004, -3.69784888e-003, 0., 0., 0., 9.92999529e-004,
          0., 0., 0., -1.07889017e-003, 0., 0., 0., 0., 0., 0., 0.,
          -2.38334970e-003, 0., 0., 0., 0., 0., 0., 0., 0., 0., 0., 0.,
          0., 0., 0., 0., 0., 0., 0., 0., 0., 0., 0., 0., 0., 0.,
          4.96499764e-004, 0., 0., 0., 0., 0., -5.05200471e-004,
          1.74516594e-004, 1.65420107e-003, 0., 6.04755990e-003, 0.,
          -2.55440501e-003, 0., -1.26325181e-002, 0., 5.63004141e-005,
          0., 0., 0., 0., 0., -2.87704403e-003, -6.19642029e-004,
          -9.07260343e-004, 0., 0., 0., 0., 0., -2.26079696e-003, 0., 0.,
          0., 0., 0., -2.23481823e-002, 0., -1.99348573e-002,
          -3.85536841e-004, -1.81335339e-003, 0., 2.51268572e-003, 0.,
          0., 0., -1.04889891e-003, 0., -5.31304104e-004, 0., 0., 0., 0.,
          0., -1.78776041e-003, -8.60540546e-004, -9.08556860e-003, 0.,
          -2.11788178e-003, 0., -5.63341600e-004, -1.05510131e-004,
          -3.95201221e-002, -2.03592514e-004, -8.78461637e-004, 0., 0.,
          -8.13066028e-004, -3.48062278e-003, -9.21604573e-004,
          2.66104847e-001, 1.99104333e-003, -1.61427399e-003,
          8.95484918e-005, 1.53698522e-004, -1.84068386e-003,
          -1.39525815e-004, 0., -9.38637927e-003, 0., 0., 0., 0., 0., 0.,
          -6.19642029e-004, -2.91043846e-003, -3.13486555e-003,
          -1.64337549e-003, 0., -7.34115019e-006, -1.77232549e-003,
          -1.12998954e-004, 0., -4.81185643e-003, 0., 0., 0., 0.,
          -6.89097727e-003, -2.44023232e-003, -5.42788347e-003,
          -3.17370258e-002, 0., 0., 0., 0., 0., 0., 0., 0., 0., 0., 0.,
          0., 0., 0., 0., 8.95484918e-005, -1.28882719e-004, 0., 0., 0.,
          -2.03592514e-004, 0., 0., 0., -5.31304104e-004, 0., 0., 0.,
          -5.89129340e-004, 0., -2.62354338e-003, -3.21922172e-003,
          1.82435411e-004, -6.19642029e-004, 0., 0., 6.67291635e-004, 0.,
          0., -1.28882719e-004, 0., 0., 0., 0., 0., 0., 0., 0.,
          -1.07394240e-003, 0., 0., 0., 0., 0., 0., 0., 0., 0., 0., 0.,
          -8.96434940e-004, -1.17649557e-003, -1.92768421e-004,
          -3.66953354e-005, -7.34115019e-006, 0., 0., 0., 0., 0., 0., 0.,
          0., 0., 0., 0., 0., 0., 0., 0., -1.21758273e-002,
          -2.94101337e-004, 0., 0., -1.62189419e-003, -2.03592514e-004,
          0., -1.12398155e-003, -4.25043283e-003, -1.92768421e-004, 0.,
          0., -1.79893430e-002, -9.05088309e-005, -3.09193460e-003,
          -6.17589848e-003, 0., 1.09015359e-003, 0., 2.54484662e-003, 0.,
          0., 0., -1.89642143e-003, 0., 0., 0., 0., 0., 0., 0.,
          -4.73213877e-004, 0., 1.04273167e-004, 0., 0., 0., 0., 0.,
          3.65450978e-005, 0., 0., 0., 0., 0., -5.31304104e-004, 0.,
          -1.62822881e-003, 0., 0., 0., 0., 0., 0., 0., 0., 0., 0., 0.,
          0., 0., 0., 0., 0., 0., 0., 0., 0., 0., 0., 0., 0., 0., 0., 0.,
          0., 0., 0., 0., 8.95484918e-005, -7.38699309e-005,
          2.46790722e-002, 0., 2.45837700e-002, 0., -3.35479272e-003, 0.,
          3.18835601e-002, 0., 0., 0., -4.41366574e-005, 0., 0., 0.,
          -2.05671322e-003, 0., 2.44029230e-004, 0., 8.72582968e-005, 0.,
          5.07767545e-004, 0., -1.35668484e-003, 0., 0., 0., 0., 0.,
          -2.34172121e-002, 0., -7.59137794e-003, 0., 1.14751775e-002,
          0., 2.64252722e-002, 0., 7.86194287e-004, 0., 6.34301547e-003,
          0., 0., 0., 7.86194287e-004, 0., 0., -6.19642029e-004,
          -6.04564790e-004, -7.39318784e-003, -8.41379538e-003, 0.,
          3.95401428e-003, 0., -3.96360934e-004, 0., -4.63271625e-002,
          -4.64432966e-003, -2.89944746e-003, 0., -4.41366574e-005,
          -4.98532970e-003, -5.43020666e-003, -1.27982884e-003,
          1.19795673e-001, -7.94938882e-004, -5.85337402e-003, 0.,
          -1.28882719e-004, -3.00439610e-003, -1.25166157e-003, 0.,
          -7.08200922e-003, 0., 0., 0., 0., 0., 0., -2.14884919e-003,
          -8.52035731e-003, -6.31118752e-003, -1.00826528e-002, 0., 0.,
          -1.73845969e-003, -2.81761895e-004, 0., -1.65165483e-003, 0.,
          0., 0., 0., -1.13477260e-002, -5.64739201e-003,
          -8.56849086e-003, -2.89356224e-002, 0., 0., 0., 0., 0., 0., 0.,
          0., 0., 0., 0., 0., 0., 0., 0., 0., -6.19642029e-004, 0., 0.,
          0., 0., 0., -1.85492434e-004, 0., -7.42434408e-004, 0., 0., 0.,
          -2.85028690e-003, -2.81761895e-004, -2.37126881e-003,
          -2.08727340e-003, -4.55653964e-004, -6.11546493e-005, 0., 0.,
          -4.33184439e-003, -6.11546493e-005, 0., 8.72582968e-005, 0.,
          0., 0., 0., -5.31304104e-004, 0., 0., -1.85492434e-004,
          -8.51783785e-004, -2.93541834e-005, 0., 0., -1.85492434e-004,
          -3.38732323e-004, 0., 0., 0., 0., 0., 0., -3.41332587e-003,
          -8.38615408e-004, 0., -9.05088309e-005, -6.19642029e-004, 0.,
          0., 0., 0., 0., 0., 0., 0., 0., 0., 0., 0., 0., 0., 0.,
          -4.93775541e-003, -1.23046269e-003, 0., 0., -6.42716594e-004,
          0., 0., -9.10411356e-004, -6.34324329e-004, 0., 0., 0.,
          -9.98995360e-003, -3.76232376e-004, -2.78548361e-003,
          -5.02548926e-003, 0., 3.69651418e-004, 0., -9.01403953e-004,
          0., 0., 0., -3.85953858e-003, 0., 9.20744351e-005, 0., 0., 0.,
          0., 0., -1.41636212e-003, 0., 0., 0., 0., 0., 0., 0., 0., 0.,
          0., 0., 0., 0., 0., 0., -1.59391249e-003, 0., 0., 0., 0., 0.,
          0., 0., 0., 0., 0., 0., 0., 0., 0., 0., 0., 0., 0., 0., 0., 0.,
          0., 0., 0., 0., 0., 0., -2.00109571e-004, 0., 0.,
          -6.19642029e-004, -7.48524733e-004, 0., 3.63655761e-002, 0.,
          1.96313020e-002, 0., -5.36003390e-005, 0., 2.62887739e-002, 0.,
          0., 0., 0., 0., 0., 0., -6.23069610e-003, 0., 4.95850283e-004,
          0., 6.90460321e-004, 0., 0., 0., 1.17121357e-003, 0., 0., 0.,
          0., 0., -2.40814425e-002, 0., -2.07567611e-003,
          -7.31610344e-004, 2.85844821e-002, 0., 1.61589123e-002, 0., 0.,
          -6.19642029e-004, 5.55545371e-003, 0., 0., 0., 0., 0., 0., 0.,
          -1.58127525e-003, -5.40380739e-003, 3.71040516e-002, 0.,
          6.79384964e-003, 0., 1.80766440e-003, 0., -5.40082250e-003,
          -7.63797725e-004, -2.13275431e-003, -7.34115019e-006,
          -2.91002565e-004, -2.58299871e-003, -5.33220591e-003,
          -2.01101345e-003, 3.84570658e-002, -1.61648775e-003,
          -7.59001495e-003, 0., -8.09889170e-004, -9.83837759e-004,
          -1.87257270e-003, -1.57801644e-003, -1.91289466e-002, 0., 0.,
          0., 0., -3.38732323e-004, 0., -1.16792298e-003,
          -5.11076767e-003, -5.32493601e-003, -6.33726595e-003, 0., 0.,
          -1.73266325e-003, 0., 0., -8.28361418e-003, -1.46823004e-005,
          0., 0., -6.19642029e-004, -5.93982544e-003, -2.53585703e-003,
          -4.56099585e-003, -2.87452023e-002, 0., 0., 0., 0., 0., 0., 0.,
          0., 0., 0., 0., 0., 0., 0., 0., 0., -3.99886980e-004,
          -8.12410493e-004, 0., 0., 0., 0., 0., 0., -7.34115019e-006, 0.,
          0., 0., -1.18468888e-003, -6.19642029e-004, -7.28836167e-004,
          -1.12678565e-003, 2.13480787e-003, 0., 0., 0.,
          -2.09390745e-003, 0., 0., 0., 0., 0., 0., 0., 0., 0., 0., 0.,
          -6.89258624e-004, 0., 0., 0., -3.38732323e-004, 0., 0., 0., 0.,
          0., 0., 0., -1.02567789e-003, -2.81761895e-004, 0.,
          -8.21654103e-004, 6.96645817e-004, 0., 0., 0., 0., 0., 0., 0.,
          0., 0., 0., 0., 0., 0., 0., 0., 6.76908158e-003,
          -2.93541834e-005, 0., 0., -2.82281335e-003, 0., 0.,
          -1.67255430e-003, 0., 0., 0., 0., -8.60886648e-003,
          -2.03592514e-004, -3.00308154e-003, -4.36298037e-003, 0.,
          -1.68959145e-003, 0., -2.42333487e-003, 0., 0., 0.,
          -4.05162852e-003, 0., 0., 0., 0., 0., 0., 0., -3.72807845e-003,
          0., 0., 0., 0., 0., 0., 0., -7.34115019e-006, 0., 0., 0., 0.,
          0., 0., 0., -2.79156794e-003, 0., 0., 0., 0., 0., 0., 0., 0.,
          0., 0., 0., 0., 0., 0., 0., 0., 0., 0., 0., 0., 0., 0., 0., 0.,
          0., 0., 0., 0., 0., 0., 0., -3.21651140e-004, 6.42719097e-004,
          3.80396284e-002, 0., 1.85450818e-002, 0., -7.75286288e-004, 0.,
          -8.61611310e-003, 0., 0., 0., 0., 0., 0., 0., -1.04582112e-003,
          0., 1.90997368e-003, 0., 1.18898497e-004, 0., 8.63791211e-004,
          0., 1.10692449e-003, 0., 0., 0., 0., 0., -3.28201056e-002, 0.,
          -4.80490830e-003, 1.05758570e-003, 8.61008372e-003, 0.,
          1.96670145e-002, 0., 0., 0., 5.44849131e-003, 0., 0., 0., 0.,
          0., 0., 0., -1.50917913e-003, 9.30761918e-003, 8.13576132e-002,
          0., 5.59573667e-003, 0., 6.86428044e-003, 0., 1.83056686e-002,
          -3.88091110e-004, 2.60109082e-003, 0., 3.89849360e-004,
          -1.92768421e-004, 5.39171696e-003, -1.56093528e-003,
          -3.35722044e-002, -1.31205772e-003, -3.65844881e-003, 0.,
          -6.19642029e-004, -1.81468530e-003, -5.45278599e-004, 0.,
          -5.71944984e-003, 0., 0., 0., 0., -7.22133322e-004,
          -6.11546493e-005, -1.14812749e-003, -8.19751644e-004,
          -9.04458761e-003, -3.33389221e-003, 0., 0., -8.35273473e-004,
          -3.46073473e-004, -6.11546493e-005, -2.92407488e-003,
          -2.92153447e-003, 0., 0., 0., -1.51139386e-002,
          -5.09993592e-003, -4.80173202e-003, -2.35022772e-002, 0., 0.,
          0., 0., 0., 0., 0., 0., 0., 0., 0., 0., 0., 0., 0., 0.,
          -2.03592514e-004, 0., 0., 0., 0., 0., 0., 0., -2.02098256e-003,
          0., 0., 0., -5.46119455e-003, -1.92768421e-004,
          -4.75431047e-003, -2.38748803e-003, 5.06525487e-003, 0., 0.,
          0., -1.60800538e-003, 0., 0., -1.85492434e-004, 0., 0., 0., 0.,
          0., 0., 0., -2.03592514e-004, 5.26095973e-003,
          -6.26983179e-004, 0., 0., -1.75695204e-005, 0., 0., 0., 0., 0.,
          0., 0., -2.28461577e-003, -9.20944440e-004, -1.92768421e-004,
          -3.07801733e-004, 0., 0., 0., 0., 0., 0., 0., 0., 0., 0., 0.,
          0., 0., 0., 0., 0., 1.73322111e-002, 0., 0., 0.,
          1.78486237e-003, -1.21407356e-004, 0., -3.15077719e-004,
          -7.42471078e-004, -6.11546493e-005, 0., 0., -2.14848686e-002,
          -3.79172794e-004, -4.52942029e-003, -1.22080818e-002, 0.,
          -6.19642029e-004, 0., 0., 0., 0., 0., -1.64504501e-003, 0., 0.,
          0., 0., 0., 0., 0., -2.78426771e-004, 0., -6.13644297e-005, 0.,
          0., 0., 0., 0., 0., 0., 0., 0., 0., 0., 0., 0.,
          -1.74464774e-003, 0., 0., 0., 0., 0., 0., 0., 0., 0., 0., 0.,
          0., 0., 0., 0., 0., 0., 0., 0., 0., 0., 0., 0., 0., 0., 0., 0.,
          0., 0., 0., 0., -3.96360934e-004, 3.38665152e-004,
          2.13344581e-002, 0., -8.37830419e-004, 0., -7.31191656e-004,
          0., -7.39319203e-003, 0., 0., 0., 0., 0., 0., 0.,
          -3.30771971e-003, -6.11546493e-005, 3.85702192e-003, 0., 0.,
          0., 1.21429516e-003, 0., -1.17389741e-003, 0., 0., 0., 0., 0.,
          -3.09496466e-002, 0., -2.75383762e-004, 1.07162527e-003,
          1.32932244e-002, 0., 4.15952783e-003, 0., 0., 0.,
          -3.16722231e-004, 0., 0., 0., 0., 0., 0., 0., -1.51771086e-003,
          3.68505083e-002, 7.45340884e-002, 0., 4.34707105e-003, 0.,
          1.14194443e-002, 0., 2.36205105e-003, 2.64659040e-002,
          1.13547668e-002, 0., 1.04459736e-003, -3.64401331e-003,
          1.45057170e-002, -2.45788833e-003, -5.45694418e-002,
          -4.66714773e-005, -5.53739816e-003, 0., -7.34115019e-006,
          -1.23046269e-003, -4.00736055e-004, -7.34115019e-006,
          -1.01831937e-002, 0., 0., 0., 0., -6.19642029e-004, 0.,
          -5.17833454e-004, -4.23151255e-003, -2.08885293e-003,
          -2.27226294e-003, 0., 0., -4.12602240e-004, -1.92768421e-004,
          0., -3.22625507e-003, -1.98780885e-003, 0., 0., 0.,
          -3.97238322e-003, -4.57415590e-003, -3.35764582e-003,
          -4.03531976e-002, 0., 0., 0., 0., 0., 0., 0., 0., 0., 0., 0.,
          0., 0., 0., 0., 0., -6.26983179e-004, 0., 0., 0., 0., 0., 0.,
          0., -1.23928406e-003, 0., 0., 0., 3.46695713e-004, 0.,
          4.15312737e-004, -1.69223279e-003, 6.82049373e-004,
          -3.38732323e-004, 0., 0., -1.18134602e-003, 0., 0., 0., 0., 0.,
          0., 0., 0., 0., 0., 0., 3.53756244e-003, -2.81761895e-004, 0.,
          0., 0., 0., 0., 0., 0., 0., 0., 0., -3.79632751e-004,
          -7.58369497e-005, -7.34115019e-006, -1.73319015e-003, 0., 0.,
          0., 0., 0., 0., 0., 0., 0., 0., 0., 0., 0., 0., 0., 0.,
          5.62536120e-002, 6.01943102e-005, 0., 0., 3.27429594e-003, 0.,
          0., -2.19833833e-004, 2.26327162e-002, 0., 6.96645817e-004, 0.,
          3.37530784e-002, -1.29650449e-004, -9.80742509e-004,
          -4.60932404e-003, 0., 0., 0., -1.64646911e-003, 0., 0., 0.,
          -9.41293198e-004, 0., 0., 0., 0., 0., 0., 0., -1.31349091e-003,
          0., 0., 0., 0., 0., 0., 0., 0., 0., 0., 0., 0., 0., 0.,
          -2.03592514e-004, -1.70877029e-003, 0., 0., 0., 0., 0., 0., 0.,
          0., 0., 0., 0., 0., 0., 0., 0., 0., 0., 0., 0., 0., 0., 0., 0.,
          0., 0., 0., 0., 0., 0., 0., 0., -7.03460129e-004, 0.,
          -5.08677820e-003, 0., -7.34896632e-004, -1.92768421e-004,
          -2.85209250e-003, 0., -1.08775096e-002, 0., 0., 0., 0., 0., 0.,
          0., -2.94098747e-003, 0., -2.09449115e-003, 0., 0., 0.,
          -5.56853542e-004, 0., -9.92345740e-004, 0., 0., 0., 0., 0.,
          -1.73054598e-002, 0., -6.42391853e-003, 1.40367221e-004,
          -1.09964539e-003, 0., -8.95585865e-004, 0., 0., 0.,
          -1.29710673e-003, 0., 0., 0., 0., 0., 0., 0., -3.38732323e-004,
          2.31762081e-002, 3.30496877e-002, 0., -8.09730904e-004,
          9.20744351e-005, 2.96975975e-003, 0., -2.19128150e-002,
          1.61833204e-002, 1.18905976e-002, 0., -6.19642029e-004,
          9.20018740e-003, 1.46677764e-002, -6.19642029e-004,
          -5.01381047e-002, 1.60734379e-003, -2.97974725e-003, 0.,
          -3.85181222e-004, -2.82462081e-003, 7.03210535e-005,
          2.67530268e-004, -1.35927098e-002, 0., 0., 0., 0.,
          5.64793823e-004, 7.01802375e-004, -1.00872701e-003,
          -2.10317248e-003, 8.07156379e-004, -2.17247987e-003, 0., 0.,
          -1.94154354e-003, -1.28882719e-004, 0., -5.39034093e-003,
          7.35394482e-004, 1.48631763e-004, 0., 1.18898497e-004,
          -9.65385791e-003, -1.58723700e-003, -6.02888269e-003,
          -2.66350023e-002, 0., 0., 0., 0., 0., 0., 0., 0., 0., 0., 0.,
          0., 0., 0., 0., 0., 1.35234988e-003, 0., 0., 0., 0., 0.,
          -6.13644297e-005, 0., 2.81185308e-003, 0., 0., 0.,
          3.73938936e-003, 7.13610716e-005, -5.09263715e-003,
          -2.01770058e-003, 2.31183469e-004, 0., 0., 0.,
          -3.69800744e-003, -1.92768421e-004, 1.65427817e-004,
          -6.02855755e-004, 0., 0., 0., 0., 1.48631763e-004, 0., 0., 0.,
          1.18194753e-003, 0., 0., 0., -3.38732323e-004, 0., 0.,
          -3.38732323e-004, -6.13644297e-005, 0., 0., 0.,
          -4.72097704e-003, -1.28882719e-004, 0., -1.05083513e-003,
          2.67530268e-004, 1.18898497e-004, 0., 0., 0., 0., 0., 0., 0.,
          0., 0., 0., 0., 0., 0., 1.18898497e-004, 2.43038479e-002,
          1.21978216e-003, 1.18898497e-004, 0., -1.66089379e-003,
          -6.11546493e-005, -6.13644297e-005, -8.92764656e-004,
          5.11284471e-002, 7.70028098e-004, 0., 0., 3.91486548e-002,
          6.74053153e-004, -1.88706780e-003, -9.71995201e-003, 0.,
          -1.39071571e-003, 0., -2.88091862e-004, 1.18898497e-004,
          1.18898497e-004, 0., -3.27019254e-003, 0., 0., 0., 0., 0.,
          1.18898497e-004, 0., -2.48058862e-003, 0., 0., 0.,
          4.04538849e-004, 0., 0., 0., -5.31304104e-004, 0., 0., 0., 0.,
          3.30855633e-004, 0., 0., -2.21266248e-003, 0., 0., 0.,
          -6.19642029e-004, 0., 0., 0., 0., 0., 0., 0., 0., 0., 0., 0.,
          0., 0., 0., 0., 0., 0., 0., 0., 1.18898497e-004, 0., 0., 0.,
          0., 0., 0., 0., 2.84326321e-004, -9.98422547e-006,
          -1.10882260e-002, 0., -2.30478449e-003, 1.48631763e-004,
          -1.50001224e-003, 0., -1.67107899e-002, 0., 0., 0.,
          -6.19642029e-004, 0., 0., 0., -4.84387344e-003,
          1.18898497e-004, -1.39752100e-003, 0., 0., 0., 0., 0.,
          -4.74530301e-004, 0., 0., 0., 0., 4.04538849e-004,
          -8.18156078e-003, 0., -6.15141680e-003, 5.85255912e-004,
          -2.05123774e-003, 0., -1.22159615e-003, 1.65427817e-004, 0.,
          0., -2.50464492e-003, 1.65427817e-004, 0., 0., 0., 0., 0., 0.,
          1.40293152e-004, 6.04784489e-003, -1.07485233e-002,
          1.48631763e-004, -4.47392929e-004, 0., 3.04334564e-004, 0.,
          -1.00542521e-002, 1.22994101e-002, 5.88081870e-003,
          1.18898497e-004, 3.29354865e-004, 9.92983952e-003,
          5.75981522e-003, 1.13788387e-003, 2.23499518e-002,
          5.54616796e-003, 2.55393243e-004, 7.13610716e-005,
          -1.03285036e-003, -5.01261966e-004, -9.14877688e-004,
          -2.03592514e-004, -8.13733600e-003, 4.96499764e-004, 0., 0.,
          0., 1.58619368e-004, 2.46590731e-004, -2.03592514e-004,
          -7.74985505e-003, -1.31041903e-004, 4.62307595e-004, 0., 0.,
          -3.56562133e-003, -3.32298665e-003, 0., -3.60550941e-003,
          8.68770352e-004, -5.27567579e-004, 0., 0., -8.68695974e-003,
          -4.25926526e-004, -9.79206897e-003, -3.52356918e-002, 0., 0.,
          0., 0., 0., 0., 0., 0., 0., 0., 0., 0., 7.13610716e-005, 0.,
          4.96499764e-004, 0., 1.44504965e-003, 0., 0., 0., 0.,
          9.20744351e-005, 5.88574214e-004, 0., 9.51442868e-004,
          4.04538849e-004, 7.13610716e-005, 0., -2.20978563e-003,
          4.04538849e-004, -4.12715739e-003, -1.87164126e-003,
          1.16301421e-003, 0., 0., 0., -2.82714725e-004, 7.13610716e-005,
          0., 1.02064187e-005, 0., 0., 0., 0., 6.25412395e-006, 0.,
          -1.92768421e-004, 0., -9.03988897e-004, 2.39249581e-004, 0.,
          0., 1.19825447e-004, -6.19642029e-004, 0., 2.46590731e-004,
          2.58938653e-005, 0., 0., 0., 7.13416375e-004, -7.34115019e-006,
          3.33849021e-004, -4.92914347e-004, 1.25183375e-004,
          4.96499764e-004, 0., 0., 3.38665152e-004, 0., 0.,
          5.63004141e-005, 0., 0., 0., 0., -1.92768421e-004, 0., 0., 0.,
          -3.86739755e-003, 1.48238521e-003, 0., 0., -1.56138139e-003,
          -4.95360640e-004, 0., 0., 3.14116734e-003, 4.75899928e-004, 0.,
          0., -3.59864114e-003, 1.97667789e-004, -9.68957087e-004,
          -6.15710858e-003, 0., -4.12899972e-004, 0., -1.43968826e-003,
          0., 0., 0., -1.69973867e-003, 0., 0., 0., 0., 0., 0., 0.,
          -1.44230458e-003, 5.67860843e-004, 0., 0., 0., 0., 0., 0., 0.,
          0., 0., 0., 0., 0., 5.63004141e-005, 0., 2.82422494e-004, 0.,
          0., 0., 0., 0., 0., 0., 0., 0., 0., 0., 0., 0., 0., 0., 0., 0.,
          0., 0., 0., 0., 0., 0., 0., 2.46590731e-004, 0., 0., 0., 0.,
          0., 0., -1.06797821e-003, -4.76919900e-004, -6.35293731e-003,
          0., -1.43703283e-003, -6.19642029e-004, -1.66622258e-003, 0.,
          -1.59582011e-002, 0., 0., 0., 0., 0., 9.20744351e-005, 0.,
          -1.91890821e-003, 1.63435499e-004, 2.31908431e-004, 0., 0., 0.,
          -6.78887963e-003, 0., 1.02064187e-005, 5.63004141e-005, 0., 0.,
          0., 8.72582968e-005, -6.34324329e-004, 0., -7.25751789e-003,
          -6.52711489e-004, -9.06973510e-005, 7.13610716e-005,
          -1.12732225e-004, 0., -2.15103180e-004, 0., -9.39800928e-004,
          0., 0., 0., 0., 0., 0., 0., -6.20494189e-004, -2.07766495e-003,
          -1.14048617e-002, 0., 4.71692096e-004, 0., -1.07860949e-003,
          0., -4.61147958e-003, -7.81896757e-004, -8.73334589e-004, 0.,
          6.25412395e-006, 6.46862958e-004, 5.73376135e-004,
          2.89827236e-003, 1.55882135e-001, -2.56534619e-003,
          -2.29215994e-003, 0., -1.07394240e-003, -2.63769506e-003,
          -1.38902012e-003, 3.80735117e-004, -7.06627080e-003, 0., 0.,
          0., 0., 0., -5.31304104e-004, -7.48524733e-004,
          -1.70925609e-003, -3.41799273e-003, -5.95946750e-003, 0.,
          -1.92768421e-004, -2.61011324e-003, -4.14891023e-004,
          -6.80796686e-004, -2.83654057e-003, -1.00517890e-003,
          -6.19642029e-004, 0., 0., -8.22585542e-003, -1.80841517e-003,
          -1.26896687e-002, -4.79714386e-002, 0., 0., 0., 0., 0., 0., 0.,
          0., 0., 0., 0., 0., 0., 0., 0., 0., -2.03592514e-004, 0., 0.,
          0., 0., 0., 0., -6.19642029e-004, -4.43257886e-004,
          -2.93541834e-005, 0., 0., -1.71863707e-003, 0.,
          -2.58401223e-003, -3.55594978e-003, -1.39908982e-003,
          -1.01952907e-003, 0., 0., 3.39386141e-004, 0., 0.,
          -5.71029319e-004, 0., 0., 0., 0., -6.11546493e-005, 0., 0.,
          -6.19642029e-004, -7.31413718e-004, 0., 0., 0., 0., 0., 0.,
          -1.22309299e-004, 0., 0., 0., 0., -8.78460007e-004,
          -7.34115019e-006, 0., -6.21812942e-004, -2.03592514e-004, 0.,
          0., 0., 0., 0., 0., 0., 0., 0., 0., 0., 0., 0., 0., 0.,
          -1.04131736e-002, -9.62558610e-004, -6.19642029e-004, 0.,
          -8.78601510e-004, 0., 0., -6.26193825e-004, -2.61473993e-004,
          0., 0., 0., -7.62556959e-003, -2.53923063e-004,
          -1.91140559e-003, -3.25905485e-003, 0., 2.64118146e-003, 0.,
          -2.85928050e-004, 0., 0., 0., -9.33104777e-004, 0., 0., 0., 0.,
          0., 0., 0., -1.52420381e-003, 6.96645817e-004, 0., 0., 0., 0.,
          0., 0., -2.78426771e-004, 0., 0., 0., 0., 0., 0., 0.,
          -2.48780125e-003, 0., 0., 0., 0., 0., 0., 0., 0., 0., 0., 0.,
          0., 0., 0., 0., 0., 0., 0., 0., 0., 0., 0., 0., 0., 0.,
          5.63004141e-005, 0., 0., 0., 0., 0., -3.38732323e-004,
          6.67291635e-004, -1.36519494e-002, 0., -1.01697294e-003,
          5.03877352e-004, -7.97473651e-004, 0., -9.05702636e-003, 0.,
          0., 0., 0., 0., 0., 0., -3.28110950e-003, 1.65341655e-004,
          -3.65962478e-004, 0., -6.19642029e-004, 0., -8.31780999e-005,
          0., -7.14964699e-004, 0., 0., 0., 0., -2.93541834e-005,
          -1.44891615e-003, 0., -1.19147059e-002, -6.02743021e-005,
          -5.32234972e-003, 0., -9.47034394e-004, 0., 0., 0.,
          -3.66883026e-003, 0., -6.19642029e-004, 0., 0., 0., 0., 0.,
          -2.20939936e-003, -3.89324641e-003, -1.42730204e-002, 0.,
          -3.11234593e-003, -6.11546493e-005, -1.06698915e-003, 0.,
          -1.05634006e-002, -2.70923367e-003, -2.52555567e-003, 0.,
          -7.34115019e-006, -2.95571564e-003, -3.34801199e-003,
          -9.97902942e-004, 2.52367854e-001, 7.57064787e-004,
          -1.27424195e-003, 1.18898497e-004, -3.68974434e-004,
          -9.14371689e-004, -1.43479439e-003, -1.92768421e-004,
          -1.31560462e-002, 0., 0., 0., 0., -6.19642029e-004,
          -1.28882719e-004, -9.31523275e-004, -7.45647866e-003,
          -5.44658722e-003, -2.23715720e-003, 0., -2.64747156e-004,
          -2.25333520e-003, -2.18637125e-003, -9.05088309e-005,
          -7.22269947e-003, -5.99892985e-004, 0., 0., 0.,
          -8.85451678e-003, -1.93440798e-003, -1.63158576e-003,
          -3.40157226e-002, 6.96645817e-004, 0., 0., 0., 0., 0., 0., 0.,
          0., 0., 0., 0., 0., 0., 0., 0., -5.69261611e-005, 0., 0., 0.,
          0., 0., 0., 0., -1.13406160e-003, 0., 0., 4.96499764e-004,
          -1.56742521e-003, 0., -2.87525379e-003, -2.51758960e-003,
          -1.50784943e-003, -6.11546493e-005, 0., 0., -7.83287978e-004,
          0., 0., 0., 0., 0., 0., 0., 0., 0., 0., 0., -1.89947092e-003,
          0., 0., 0., 0., 0., 0., 0., 0., 0., 0., 0., -1.22309299e-004,
          -7.34115019e-006, 0., -5.64394635e-004, 0., 0., 0., 0., 0., 0.,
          0., 0., 0., 0., 0., 0., 0., 0., 0., 0., -1.20249167e-002,
          -8.60296423e-004, 0., 0., -2.89735640e-003, -4.07185027e-004,
          0., -1.19698397e-003, -1.79801497e-003, 0., 0., 0.,
          -1.78614259e-002, -6.19642029e-004, -3.92671349e-003,
          -3.89142497e-003, 0., 7.86194287e-004, 0., 1.52511604e-003, 0.,
          0., 0., -4.01317724e-004, 0., 0., 0., 0., 0., 0., 0.,
          -2.74418946e-003, 0., 0., 0., 0., 0., 0., 0., 0., 0., 0., 0.,
          0., 0., 0., 0., -4.72938502e-003, 0., 0., 0., 8.72582968e-005,
          0., 0., 0., 0., 0., 0., 0., 0., 0., 0., 0., 0., 0., 0., 0., 0.,
          0., 0., 0., 0., 0., 0., 0., -1.92768421e-004, 0., 0.,
          -5.31304104e-004, -7.73234759e-004, 6.35491160e-004,
          1.31088225e-002, 0., 2.03938410e-002, 0., -6.07141061e-004, 0.,
          4.18136157e-002, 0., 0., 0., 1.48631763e-004, 0., 0., 0.,
          9.70120425e-004, -6.11546493e-005, 2.02243449e-004, 0.,
          1.75515655e-003, 0., -7.34115019e-006, 0., -2.12702958e-004,
          0., 0., 0., 0., 0., -2.68605363e-004, 0., -5.73140895e-003,
          -1.35105581e-003, 1.22734634e-002, 0., 1.73488781e-002, 0., 0.,
          0., 5.43994363e-003, 0., 0., 0., 0., 0., 0., 0.,
          -9.07142414e-004, -6.78579276e-003, -8.69351346e-003, 0.,
          2.61624157e-003, 0., -1.32025662e-003, 0., -2.44449303e-002,
          -5.62364608e-003, -1.60125364e-003, 0., -1.92768421e-004,
          -1.25396636e-003, -8.03243741e-003, -8.34433944e-004,
          1.07923903e-001, -1.43043674e-003, -1.84352999e-003, 0.,
          -1.77058822e-003, -2.12818137e-004, 1.58000505e-004,
          -6.19642029e-004, -2.51805119e-004, 0., 0., 0., 0., 0., 0.,
          -6.26983179e-004, -6.28470269e-004, -3.91031010e-003,
          -2.35459488e-003, 0., 0., -1.24517025e-003, -7.12035922e-004,
          -7.34115019e-006, -1.97075843e-003, -1.21343299e-003,
          -1.92768421e-004, 0., 0., -1.67158525e-002, -8.23234557e-004,
          -6.54143142e-003, -4.02361490e-002, 0., 0., 0., 0., 0., 0., 0.,
          0., 0., 0., 0., 0., 0., 0., 0., 0., -1.78687740e-003, 0., 0.,
          0., -6.11546493e-005, 0., 0., -7.34115019e-006,
          -5.31304104e-004, 0., 0., 0., -3.26220319e-003,
          -5.31304104e-004, -5.04755694e-003, -3.88315320e-003,
          2.21264758e-003, 0., 0., 0., 2.39907252e-003, 0., 0.,
          -7.34115019e-006, 0., 0., 0., 0., 0., 0., 0., 0.,
          2.14625077e-004, 0., 0., 0., -6.11546493e-005, 0., 0., 0., 0.,
          0., 0., 0., 0., 0., -5.31304104e-004, -9.54037023e-005, 0., 0.,
          0., 0., 0., 0., 0., 0., 0., 0., 0., 0., 0., 0., 0., 0.,
          -5.79010788e-003, -9.65715502e-004, 0., 0., -5.60854911e-004,
          -1.92768421e-004, 0., -1.19794731e-003, -3.13554960e-003, 0.,
          0., 0., -1.68382544e-002, -7.71305524e-004, -2.41734087e-003,
          -8.49425141e-003, 0., -7.24072568e-004, 0., -2.80935637e-004,
          0., 0., 0., 8.61785724e-004, 0., 0., 0., 0., 0., 0., 0.,
          1.33933884e-003, 0., 0., 0., -1.92768421e-004, 0., 0., 0.,
          3.14059580e-004, 0., 0., 0., 0., 0., 0., 0., -1.65468082e-004,
          0., 0., 0., 0., 0., 0., 0., 0., 0., 0., 0., 0., 0., 0., 0., 0.,
          0., 0., 0., 0., 0., 0., 0., 0., 0., 0., 0., 0., 0., 0., 0.,
          -3.66953354e-005, -7.34115019e-006, 3.51056717e-002, 0.,
          2.13232115e-002, 0., -5.32306440e-004, 0., 4.25980203e-002, 0.,
          0., 0., 2.46590731e-004, 0., 0., 0., -9.70544526e-004, 0.,
          -1.94934383e-003, 0., 6.96645817e-004, 0., 0., 0.,
          4.06478159e-003, 0., 0., 0., 4.04538849e-004, 0.,
          -5.67890983e-003, 0., 8.03987309e-003, 1.22891704e-003,
          9.92077403e-003, 0., 1.00100869e-002, 0., 6.96645817e-004, 0.,
          7.03908550e-003, 0., 0., 0., 0., 0., 0., -3.38732323e-004,
          -4.54300374e-004, -4.33157245e-003, 4.98118531e-003, 0.,
          4.59153578e-003, 0., 9.10977600e-004, 0., -3.25620733e-002,
          -3.03846016e-003, 1.52986997e-003, 0., 1.10366855e-004,
          -2.94616469e-003, -2.87230796e-004, -1.57801644e-003,
          3.45541723e-002, -1.00985216e-003, -3.04299546e-003, 0.,
          -1.74748187e-003, -9.03025793e-004, -1.28092198e-003,
          -3.85536841e-004, -1.26166325e-002, 0., 0., 0., 0.,
          -2.00109571e-004, 0., -9.41293198e-004, -4.09425376e-003,
          -4.25165799e-003, -1.64418831e-003, 0., 0., -8.38668377e-004,
          2.61036457e-005, 0., -2.03715940e-003, -1.70065789e-003, 0.,
          0., 0., -1.16266245e-002, -1.54706498e-003, -5.52694313e-003,
          -5.92447035e-002, 0., 0., 0., 0., 0., 0., 0., 0., 0., 0., 0.,
          0., 0., 0., 0., 0., 0., 0., 0., 0., 0., 0., 0., 0.,
          -1.92768421e-004, 0., 0., 0., -1.15006231e-003,
          -5.38645254e-004, -2.73943786e-003, -2.62545189e-003,
          4.13941871e-003, 0., 0., 0., 1.00185559e-003, 8.72582968e-005,
          -7.34115019e-006, 2.89598011e-005, 0., 0., 0., 0., 0., 0., 0.,
          -7.34115019e-006, 2.92911427e-003, -2.81761895e-004, 0., 0.,
          2.64806603e-003, 4.96499764e-004, 0., 0., -1.92768421e-004, 0.,
          0., 0., -3.67254508e-003, -2.78426771e-004, 0.,
          1.63019853e-004, 0., 0., 0., 0., 0., 0., 0., 0., 0., 0., 0.,
          0., 0., 0., 0., 0., -4.67110239e-003, -2.22122617e-004, 0., 0.,
          -1.64717273e-003, -1.83463955e-004, -6.11546493e-005,
          -1.30003248e-003, -2.78659072e-003, 0., 0., 0.,
          -1.24065066e-002, 4.74523171e-004, -5.41042723e-003,
          -8.15141946e-003, 0., 3.56570672e-005, 0., -6.44899264e-004,
          0., 0., 0., -1.51312468e-003, 0., 0., 0., 0., 0., 0., 0.,
          -4.94787190e-003, 0., 0., 0., 0., 0., 0., 0., -2.78426771e-004,
          0., 0., 0., 0., 0., 0., 0., -5.15155168e-003, 0., 0., 0., 0.,
          0., 0., 0., 0., 0., 0., 0., 0., 0., 0., 0., 0., 0., 0., 0., 0.,
          0., 0., 0., 0., 0., 0., 0., 0., 0., 0., 0., -3.32475232e-004,
          4.96499764e-004, 3.25366072e-002, 0., 2.08301283e-002, 0.,
          1.41542591e-003, 0., 2.31472626e-002, 0., 0., 0., 0., 0., 0.,
          -6.19642029e-004, -1.88615033e-003, 0., 5.62273012e-003, 0.,
          0., 0., 1.24608083e-002, 0., 4.15197900e-003, 0., 0., 0., 0.,
          0., -5.14943339e-003, 0., 2.90514361e-002, -1.12851281e-004,
          9.79344710e-004, 0., 5.89995226e-003, -2.93541834e-005, 0., 0.,
          7.74276815e-003, 0., 0., 0., 0., 0., 0., 0., -9.65715502e-004,
          3.15007917e-003, 2.01203004e-002, 0., 1.13529572e-003,
          -1.92768421e-004, 7.45869195e-003, 0., 7.06219673e-003,
          -1.59169966e-003, -1.80267659e-003, 0., 7.52946187e-004,
          -5.87823335e-003, 4.87497961e-003, -3.97198508e-003,
          -2.68474314e-003, 1.12346956e-003, -5.67546347e-003, 0.,
          -2.81761895e-004, -8.54574202e-004, -4.54860099e-004,
          4.93053289e-004, -1.11152520e-002, 0., 0., 0., 0.,
          5.63004141e-005, 0., -3.99886980e-004, -3.45412153e-003,
          -2.13473430e-003, 7.79412512e-004, 0., 0., 1.13389851e-003,
          -2.53923063e-004, 0., -2.93709827e-003, 0., 0., 0., 0.,
          -1.35491742e-002, -3.50714405e-003, -5.09527279e-003,
          -3.96053083e-002, 0., 0., 0., 0., 0., 0., 0., 0., 0., 0., 0.,
          0., 0., 0., 0., 0., -6.80796686e-004, -1.92768421e-004, 0., 0.,
          0., 0., 0., 0., -3.21651140e-004, 0., 0., 0., -3.97471711e-003,
          6.35491160e-004, -4.66472562e-003, -3.66686168e-003,
          4.71269479e-003, 5.05696167e-004, 0., 0., -1.33265147e-003,
          -2.78426771e-004, 0., -2.42551818e-004, 0., 0., 0., 0., 0., 0.,
          0., 0., 3.92508833e-003, 6.89304667e-004, 0., 0.,
          7.93716055e-004, 5.67860843e-004, 0., 0., 0., 0., 0., 0.,
          4.74580005e-003, -7.34115019e-006, 1.48631763e-004,
          -2.47830350e-004, -9.21415922e-005, 0., 0., -2.78426771e-004,
          0., 0., 0., 0., 0., 0., 0., 0., 0., 0., 0., 0.,
          1.19803688e-002, 0., 0., 0., 4.20605903e-003, 2.54976301e-004,
          0., 8.50563403e-004, -1.07721069e-004, 0., 0., 0.,
          -1.01774614e-002, -1.02025748e-003, -5.41638583e-003,
          -4.68764734e-003, 0., -1.59391249e-003, 0., -1.24010106e-003,
          0., 6.96645817e-004, 0., -3.52955563e-003, 0., 0., 0., 0., 0.,
          0., 0., -2.00566789e-003, 0., 0., 0., 0., 0., 0., 0.,
          -6.11546493e-005, 0., 0., 0., 0., 0., 0., 0., -2.70539545e-003,
          6.96645817e-004, 0., 0., 0., 0., 0., 0., 0., 0., 0., 0., 0.,
          0., 0., 0., 0., 0., 0., 0., 0., 0., 0., 0., 0., 0., 0., 0., 0.,
          0., 0., 0., 0., 0., 9.65886097e-003, 0., -1.50454568e-003, 0.,
          1.63442839e-003, 0., -1.11664878e-002, 0., 0., 0., 0., 0., 0.,
          0., -6.40364876e-003, 1.39329163e-003, 7.62618612e-004, 0., 0.,
          0., 3.75421089e-003, 0., 3.95121286e-004, 0., 0., 0., 0., 0.,
          1.20111101e-003, 0., 8.28111917e-003, 1.85436074e-004,
          7.39642128e-004, 0., -4.54838810e-005, -6.19642029e-004,
          -5.31304104e-004, 0., -5.73021173e-003, 0., 0., 0., 0., 0., 0.,
          4.93053289e-004, -1.48460874e-003, 1.23214778e-002,
          1.34778759e-002, 0., -1.26113940e-004, 6.96645817e-004,
          9.92628373e-003, 0., 5.72781311e-003, 3.26922256e-003,
          9.27657005e-004, 0., -1.09090924e-003, -1.00467680e-003,
          1.09072551e-002, -2.20499956e-003, 4.50085551e-002,
          -4.59359260e-004, -5.48532000e-003, 0., -1.87146803e-003,
          -3.78238270e-003, -9.47097316e-004, 0., -9.93706938e-003,
          -6.19642029e-004, 0., 0., 0., 0., -6.19642029e-004,
          -3.78260855e-004, -5.27637219e-003, 4.35244583e-004,
          -4.73862560e-003, 0., -1.92768421e-004, 2.32235971e-003,
          -1.74153596e-004, 6.96645817e-004, -3.06177171e-005,
          1.46666353e-004, -5.30093559e-004, 0., 0., -3.19191534e-003,
          -1.11144851e-003, -3.24450363e-003, -1.71466414e-002, 0., 0.,
          0., 0., 0., 0., 0., 0., 0., 0., 0., 0., 0., 0.,
          -1.92768421e-004, 0., 6.42385101e-004, 0., 0., 0., 0., 0., 0.,
          -2.93541834e-005, 7.70037514e-005, 0., 0., 0.,
          -1.13386055e-003, 0., 6.73093775e-004, -2.95153214e-003,
          7.32307672e-004, 5.63004141e-005, 0., 0., -9.63340921e-004, 0.,
          0., -2.94101337e-004, 0., 0., 0., 0., 0., 0., -1.92768421e-004,
          0., 5.88242617e-003, 5.63004141e-005, 0., 0., 2.10730592e-003,
          1.65427817e-004, 0., 1.48631763e-004, 6.96645817e-004, 0., 0.,
          0., 4.19910852e-004, 5.63004141e-005, 0., -2.66197079e-004,
          6.96645817e-004, -1.92768421e-004, 0., 0., 0., 0., 0., 0., 0.,
          0., 0., 0., 1.18898497e-004, 0., 0., 0., 3.47363986e-002,
          4.10877867e-004, 0., 0., 1.02046123e-002, 1.76806789e-004, 0.,
          8.95206351e-004, 3.04320939e-002, 0., 0., 0., 5.18043116e-002,
          7.50909850e-004, -1.09493732e-003, -3.55546654e-004,
          -1.92768421e-004, -3.96360934e-004, 0., -1.97469071e-003, 0.,
          -6.11546493e-005, 0., -7.09176296e-003, 0., 0., 0., 0., 0., 0.,
          0., -4.03984869e-003, 0., 0., 0., 0., 0., 0., 0.,
          -2.03592514e-004, 0., 0., 0., 0., 0., 0., 0., -3.41044180e-003,
          0., 0., 0., 0., 0., 0., 0., 0., 0., 0., 0., 0., 0., 0., 0., 0.,
          0., 0., 0., 0., 0., 0., 0., 0., 0., 0., 0., 0., 0., 0., 0.,
          -6.80950761e-004, 7.70037514e-005, -2.44738907e-003, 0.,
          -3.65930516e-003, -6.19642029e-004, -3.00272205e-003,
          -6.19642029e-004, -1.17144324e-002, 0., 0., 0., 0., 0.,
          -1.92768421e-004, 0., -2.35313713e-003, 0., -1.05149322e-003,
          0., 0., 0., 4.39930148e-003, 0., -1.33319956e-003,
          1.39329163e-003, 0., 0., 0., 0., -1.01351272e-002, 0.,
          -4.13573440e-003, 4.30739601e-004, -1.70206057e-003, 0.,
          -1.14488567e-003, 0., -5.31304104e-004, 0., -1.55075872e-003,
          -1.92768421e-004, 0., 0., -6.19642029e-004, 0.,
          -1.92768421e-004, 0., -2.21395027e-003, 7.88655039e-003,
          -4.83777560e-003, 0., -7.92721868e-004, 0., 4.03875252e-003,
          0., -1.61426738e-002, 1.32314460e-002, 7.82596297e-004, 0.,
          9.20744351e-005, 7.33271521e-003, 2.78059710e-002,
          -6.26983179e-004, -5.57431504e-002, -4.36726818e-003,
          -6.35281112e-003, 0., -6.67298737e-004, -2.56862980e-003,
          -7.00255914e-004, -1.12931838e-003, -1.03525547e-002,
          1.65427817e-004, 0., 0., 0., -7.38699309e-005, 0.,
          -7.21560151e-004, -6.45200489e-003, -5.92814526e-003,
          -2.77820276e-003, 0., 0., -3.50380200e-003, -7.41951342e-004,
          -6.11546493e-005, -1.37164467e-003, -1.42901103e-004, 0., 0.,
          0., -9.76102520e-003, -3.75529809e-004, -8.33659247e-003,
          -3.46429758e-002, 0., 0., 0., 0., 4.96499764e-004, 0., 0., 0.,
          0., 0., 0., 0., 0., 0., 0., 0., 5.12153900e-004,
          2.67530268e-004, 0., 0., -1.29794993e-004, 0.,
          -7.22133322e-004, -7.22133322e-004, 2.94804503e-003, 0.,
          -1.92768421e-004, 0., 2.97512417e-003, 0., -5.45152510e-003,
          -6.69872202e-003, -2.57073640e-004, -5.87083669e-005,
          1.65427817e-004, 0., -3.25406389e-003, 0., -2.03592514e-004,
          -3.23455519e-004, 0., 0., 0., 0., 0., 0., 0., 0.,
          -5.71273558e-004, -2.81761895e-004, 0., 0., 0.,
          -6.11546493e-005, 0., -7.34115019e-006, 4.96499764e-004, 0.,
          0., 0., -1.00834889e-003, -3.42916552e-004, 0.,
          -2.76001287e-004, 1.65427817e-004, -1.28882719e-004, 0., 0.,
          0., 0., 0., 0., 0., 0., 0., 0., 0., 0., 0., 0.,
          2.05933079e-002, -4.54214227e-004, 8.95484918e-005,
          1.65427817e-004, -1.64778088e-003, 0., -5.56853542e-004,
          -1.67971966e-003, 4.39807922e-002, 2.67530268e-004, 0., 0.,
          8.77297819e-002, 4.62434429e-004, -1.17179623e-003,
          -8.11499637e-003, 0., 0., 0., 0., 0., 0., 0., -7.48259830e-004,
          0., 0., 0., 0., 0., 0., 0., -2.72797397e-003, 0.,
          1.18898497e-004, 0., 0., 0., 0., 0., 0., 0., 0., 0., 0., 0.,
          0., 0., -2.08267337e-003, 0., 0., 0., 0., 0., 0., 0., 0., 0.,
          0., 0., 0., 0., 0., 0., -6.19642029e-004, 0., 1.48631763e-004,
          0., 0., 0., 0., 0., 0., 0., 0., 4.96499764e-004,
          -7.34115019e-006, 1.65427817e-004, 0., 0., -1.25537673e-003,
          1.18898497e-004, -3.11986264e-003, 0., -2.53923063e-004, 0.,
          -5.11373451e-004, 0., -1.12081170e-002, 0., 0., 0., 0., 0., 0.,
          0., -1.79629854e-003, -6.11546493e-005, -9.41948732e-004, 0.,
          0., 0., 0., 0., -6.03811641e-004, 0., 0., 0., 0., 0.,
          -1.76805176e-003, -7.22133322e-004, -6.61784690e-003,
          -2.03592514e-004, -5.86398295e-004, 0., -3.32475232e-004, 0.,
          -2.03592514e-004, 0., -2.57765438e-004, 0., 0., 0., 0., 0., 0.,
          0., -9.41293198e-004, -3.63355153e-004, -5.94175234e-003, 0.,
          -5.69427793e-004, -1.92768421e-004, -1.20592455e-003, 0.,
          -1.19486619e-002, 2.09277985e-003, 3.24625958e-004, 0.,
          3.14059580e-004, 4.32055164e-003, 5.88407973e-003,
          6.62752776e-004, 1.70111284e-002, 4.18844662e-004,
          -5.60637040e-004, 0., -5.31304104e-004, -1.14143163e-003,
          4.04538849e-004, 9.83072969e-005, -9.43721831e-003, 0., 0., 0.,
          0., 5.83758112e-004, -1.92768421e-004, -1.30777992e-003,
          -2.04683468e-003, 1.57995650e-003, -2.02079932e-003, 0.,
          -1.92768421e-004, -1.08035143e-004, -1.43205246e-003, 0.,
          -1.60868699e-003, 6.28682843e-004, 0., 0., 0.,
          -9.72274132e-003, -1.06453616e-003, -3.00176186e-003,
          -5.20812348e-002, 1.18898497e-004, 0., 0., 0., 0., 0., 0., 0.,
          0., 0., 0., 0., 7.13610716e-005, 0., 0., 0., 1.03470974e-003,
          2.46590731e-004, 0., 2.46590731e-004, 0., 0., 0., 0.,
          2.57991464e-003, 3.17951781e-004, 0., 0., 7.16531510e-003,
          7.70955055e-004, -2.32302188e-003, -2.84077320e-003,
          -7.64563738e-004, -2.03592514e-004, 0., 0., -4.45125450e-004,
          0., 0., -2.53923063e-004, 0., 0., 0., 0., 7.13610716e-005, 0.,
          0., -5.31304104e-004, -2.93541834e-005, 0., 0., 0., 0., 0., 0.,
          0., 7.43090524e-004, 0., 0., 0., 6.29776856e-004,
          -2.93541834e-005, 2.69462289e-005, -2.51476798e-004,
          7.99547124e-004, 0., 0., 0., 0., 0., 7.13610716e-005,
          -6.11546493e-005, 0., 0., 0., 0., 0., 0., 2.46590731e-004, 0.,
          3.89556953e-004, -1.21407356e-004, 5.63004141e-005, 0.,
          -1.28205435e-003, 0., 0., 0., 9.42040235e-003, 1.05566846e-003,
          0., 0., 2.68726479e-002, -1.04414605e-004, -2.63451744e-004,
          -9.15127341e-003, 0., -5.31304104e-004, 0., -1.11247564e-003,
          0., 0., 0., -1.03147584e-003, 0., 0., 0., 0., 0., 0., 0.,
          -1.30038988e-003, 0., 0., 0., 0., 0., 0., 0., 0., 0., 0., 0.,
          0., 0., 0., 7.13610716e-005, -3.48837744e-003, 0., 0., 0., 0.,
          0., 0., 0., 0., 0., 0., 0., 0., 0., 0., 0., -6.19642029e-004,
          0., 0., 0., 0., 0., 0., 0., 0., 5.52800193e-004, 0., 0., 0.,
          0., 0., 0., 5.63004141e-005, 5.63004141e-005, -1.63538742e-003,
          0., 1.10442539e-004, 0., -1.92768421e-004, 0.,
          -9.54752322e-003, 0., 0., 0., 0., 0., 0., 0., -2.28150352e-003,
          -5.31304104e-004, -1.25537673e-003, 0., 0., 0.,
          -7.34115019e-006, 0., -7.34115019e-006, 0., 0., 0., 0., 0., 0.,
          7.13610716e-005, -1.41746532e-002, -9.34946758e-004,
          -1.75130402e-003, 0., -6.08703704e-005, 0., 0., 0.,
          -4.26332786e-004, 0., 0., 0., 0., 0., 0., 0., -3.78260855e-004,
          -4.92711598e-003, -7.71954795e-003, 0., -6.63535553e-004, 0.,
          -7.37058755e-004, 0., -1.28247580e-002, 2.93207762e-004,
          -4.10840032e-004, 0., -1.16334209e-004, 1.05001987e-003,
          -2.27735844e-003, -8.51238437e-005, 1.17225669e-001,
          -3.19118705e-003, -7.25547737e-003, 0., -2.40859203e-003,
          -1.06982770e-003, -2.93541834e-005, -1.76937762e-003,
          -8.64087418e-003, 0., 0., 0., 0., -2.00109571e-004,
          -6.11546493e-005, -6.19642029e-004, -6.32180320e-003,
          -6.08112616e-003, -4.32483992e-003, 0., -6.19642029e-004,
          -6.21812942e-004, -7.45960453e-004, -6.19642029e-004,
          -7.86943419e-004, -1.35105581e-003, -6.19642029e-004, 0., 0.,
          -8.89663771e-003, -8.22683156e-004, -5.66299446e-003,
          -2.47325245e-002, 0., 0., 0., 0., 0., 0., 0., 0., 0., 0., 0.,
          0., 0., 0., -3.38732323e-004, 0., -1.43205246e-003, 0.,
          6.96645817e-004, 0., -5.31304104e-004, 0., 0.,
          -2.93541834e-005, -7.92778155e-004, 0., 0., 0.,
          -2.40443391e-004, 0., -3.13567021e-003, -1.32755074e-003,
          -9.41536680e-004, -6.11546493e-005, 0., 0., -5.87083669e-005,
          0., -2.93541834e-005, -1.24689017e-003, 0., 0., 0., 0., 0., 0.,
          0., -6.19642029e-004, -1.40887836e-003, -7.34115019e-006, 0.,
          0., -5.31304104e-004, 0., 0., 8.95484918e-005,
          -5.31304104e-004, 0., 0., 0., -2.53923063e-004, 0.,
          7.86194287e-004, -4.34676273e-004, -7.34115019e-006,
          -6.11546493e-005, 0., 0., 0., 0., 0., 0., 0., 0., 0., 0., 0.,
          0., 0., -7.34115019e-006, -6.70486968e-003, -2.85441085e-004,
          0., -1.92768421e-004, -5.92458760e-004, -1.92768421e-004, 0.,
          6.96645817e-004, -1.31700293e-003, 0., 0., 0.,
          -7.87622947e-003, -2.64956936e-004, -1.62547652e-003,
          -1.94862718e-003, 0., -8.12410493e-004, 0., -2.94627302e-004,
          0., 0., 6.96645817e-004, -2.63595534e-003, 0., 0., 0., 0., 0.,
          0., -6.19642029e-004, -4.01964784e-003, 0., -6.19642029e-004,
          0., -6.19642029e-004, 0., 0., 0., -3.66953354e-005, 0., 0., 0.,
          0., 0., 0., 0., -2.81380652e-003, 0., 0., 0., 0., 0., 0., 0.,
          0., 0., 0., 0., 0., 0., 0., 0., 0., 0., 0., 0., 0., 0., 0., 0.,
          0., 0., 0., 0., 0., -6.19642029e-004, 0., 0., -1.77078485e-003,
          -9.46195156e-004, -9.30564944e-003, 0., -1.20646879e-003, 0.,
          -3.38732323e-004, 0., -1.20063284e-002, 0., 0., 0., 0., 0.,
          -1.92768421e-004, 0., -2.40115635e-003, -2.53923063e-004,
          -6.29350718e-004, 0., -6.19642029e-004, 0., 0., 0.,
          -2.85767921e-004, 0., -6.11546493e-005, 0., 0., 0., 0., 0.,
          -7.86443893e-003, -1.92768421e-004, -8.14456493e-003, 0.,
          -3.08800396e-003, 0., -8.12410493e-004, 0., -2.38068681e-003,
          0., 0., 0., 0., 0., 5.03877352e-004, 0., -3.40394699e-003,
          -7.41503946e-003, -1.34573691e-002, 0., -1.01952907e-003, 0.,
          -3.44431901e-004, 0., -7.33209681e-003, -8.25292489e-004,
          -2.54132843e-004, 0., 0., -6.34324329e-004, -1.49427319e-003,
          3.03767796e-004, 2.20481545e-001, 1.17722107e-003,
          -8.64680798e-004, 0., 1.94107462e-003, 3.64523556e-004,
          -9.94259899e-005, 0., 5.02569787e-003, 0., 0., 0.,
          -7.34115019e-006, 3.50572314e-004, -2.93541834e-005,
          -1.26746367e-004, -4.52053407e-003, -3.00722662e-003,
          -1.51139451e-003, 0., -4.71195177e-004, -9.92345740e-004,
          -9.05088309e-005, -1.61585616e-004, -2.28942931e-003,
          -8.00525595e-004, -6.19642029e-004, 0., 0., -1.56292822e-002,
          -2.06526136e-003, -7.39405910e-003, -2.48356741e-002,
          7.13610716e-005, 4.96499764e-004, 0., -1.92768421e-004, 0., 0.,
          0., 6.96645817e-004, 0., 0., 0., 0., 0., 0., -6.19642029e-004,
          -6.19642029e-004, -5.54589031e-004, 0., 0., 0., 0., 0.,
          -2.93541834e-005, 2.29980433e-004, -5.70834964e-004, 0., 0.,
          0., -1.58277107e-003, 0., -8.50079767e-003, -8.15322157e-004,
          7.08463893e-004, 1.67080946e-003, 0., -6.19642029e-004,
          -9.39196470e-005, 0., 6.96645817e-004, -1.28882719e-004, 0.,
          0., 0., 0., -1.92768421e-004, 0., 0., 0., 3.27710179e-004, 0.,
          0., 0., 0., 0., 0., 0., 0., 0., 0., 0., -9.05088309e-005,
          -6.11546493e-005, 0., -3.41080704e-006, 0., -1.88878272e-004,
          0., -1.28882719e-004, 0., 0., 0., 1.19314552e-003, 0., 0., 0.,
          0., 0., 0., 0., 0., -7.10769230e-003, -4.14891023e-004, 0., 0.,
          -6.11546493e-005, 0., 0., 0., -3.73414136e-003, 0., 0., 0.,
          -1.74139570e-002, -2.83277273e-004, -8.48274864e-003,
          -7.16583338e-003, 0., 7.22405617e-004, 0., 6.58564968e-004, 0.,
          4.96499764e-004, 0., 4.18665446e-003, 0., 0., 0., 0., 0., 0.,
          0., 1.03157538e-003, 0., -7.58369497e-005, 6.96645817e-004,
          -7.34115019e-006, 0., 0., 0., -4.59943054e-004, 0., 0., 0., 0.,
          -2.03592514e-004, 0., -5.14419575e-004, -1.83479639e-003, 0.,
          0., 0., 0., 0., 0., 0., 0., 0., 0., 0., 0., 0., 0., 0., 0., 0.,
          -7.34115019e-006, 0., 6.96645817e-004, 0., 0., 0.,
          6.96645817e-004, 0., 0., 0., 0., 0., 0., -1.92768421e-004,
          -2.32102655e-004, -1.57801644e-003, 2.72094458e-003, 0.,
          8.21215007e-003, 4.96499764e-004, 3.03731358e-004, 0.,
          1.41662033e-002, 0., -6.19642029e-004, 0., 0.,
          -1.92768421e-004, -6.19642029e-004, 0., -2.58479081e-003, 0.,
          -1.25180220e-003, 0., 0., 0., 0., 0., 3.23073217e-003, 0.,
          -9.05088309e-005, 0., 0., 0., -1.34649235e-004, 0.,
          -8.52313882e-004, -1.15707668e-003, 1.99604989e-003, 0.,
          -2.60151719e-004, 0., 0., 0., 2.89549993e-004,
          -6.19642029e-004, 0., 0., 0., 0., 0., -1.92768421e-004,
          -1.27359189e-003, -6.41797110e-003, -1.20705748e-002, 0.,
          -2.61007692e-003, -6.19642029e-004, 0., 0., 2.83041759e-003,
          -2.81549222e-003, -2.32759537e-003, 0., -8.23234557e-004,
          -3.55726900e-003, -4.06847289e-003, -1.34262128e-003,
          1.18399858e-001, 1.96349877e-003, -2.30792444e-003, 0.,
          -4.92042920e-004, -8.51471385e-004, 1.55245443e-003,
          6.40199214e-005, 1.99643355e-002, 0., 0., 0., 8.95484918e-005,
          2.04932177e-004, 6.35491160e-004, -2.82539707e-003,
          1.58738606e-002, -1.39761833e-003, -1.62703265e-003, 0.,
          -1.92768421e-004, -1.74726025e-004, -3.61038838e-004,
          -2.78426771e-004, -7.55111361e-003, -1.14229112e-003,
          4.42722725e-004, 0., 0., -1.24018677e-002, -3.62497638e-003,
          -7.89944828e-003, -9.17691644e-003, 0., 0., 0., 0.,
          6.96645817e-004, 0., 0., 1.65427817e-004, 0., 0., 0., 0., 0.,
          0., 0., 0., -1.92768421e-004, 0., 0., 0., -5.38645254e-004, 0.,
          0., -7.34115019e-006, -2.73979502e-004, 0., 0., 0.,
          -2.44279951e-003, -1.46823004e-005, -5.43909054e-003,
          -2.57242797e-003, 1.89501327e-003, -7.34115019e-006, 0.,
          8.95484918e-005, -6.15752477e-004, 0., 0., 8.57219391e-004, 0.,
          0., 0., 0., 8.95484918e-005, 0., -1.92768421e-004,
          6.96645817e-004, -1.08810619e-003, 0., 0., 0., 4.96499764e-004,
          -1.57113638e-004, 0., 0., 0., 0., 0., 0., -1.82979857e-003,
          -4.82019270e-004, -5.38645254e-004, 1.32681790e-003,
          -1.20178993e-004, 0., 0., 0., 0., 0., 0., 0., 0., 0., 0., 0.,
          0., 0., 0., 0., -9.70040797e-004, 6.50101167e-004,
          -5.31304104e-004, 0., -1.08694704e-003, -1.92768421e-004, 0.,
          -6.11546493e-005, -1.00474956e-003, 1.48631763e-004, 0., 0.,
          -1.58283580e-002, -5.21316368e-004, -1.64706318e-003,
          -8.87169316e-003, -7.34115019e-006, 4.14987066e-004, 0.,
          6.03250810e-004, 0., 6.96645817e-004, 9.20744351e-005,
          9.62674711e-003, 0., 0., 0., 0., 0., 0., 0., 3.06154392e-003,
          0., 1.11557347e-004, 0., 0., 0., 0., 0., 2.06156794e-004, 0.,
          0., 0., 0., -2.78426771e-004, -7.34115019e-006, 0.,
          3.58240586e-003, 0., 0., 0., 0., 0., 0., 0., 0., 0., 0., 0.,
          0., 0., 0., 0., 0., 0., -6.19642029e-004, 0., 0., 0., 0., 0.,
          0., 0., 0., 0., 0., 0., 0., 0., 1.96098263e-004,
          -7.34115019e-006, 1.03127109e-002, 0., 6.80553960e-003,
          1.48631763e-004, -9.08211747e-004, 5.77438441e-005,
          2.53908541e-002, 0., 0., 0., 0., 0., 0., 0., 4.77645837e-004,
          0., -7.75129767e-004, 0., 9.43236519e-004, 0., 4.36146045e-004,
          0., 1.11154327e-003, 0., -6.11546493e-005, 0., 0.,
          -5.31304104e-004, -3.63050401e-003, 0., 1.81544535e-002,
          -1.28726315e-004, -1.59430981e-003, 0., -6.37415942e-005, 0.,
          -2.93541834e-005, 0., 4.95556509e-003, 6.40199214e-005, 0., 0.,
          0., 0., 0., 0., -5.55041421e-004, -3.19497264e-003,
          -1.47505589e-002, 0., -8.37698404e-004, 0., -9.56777192e-004,
          0., -2.22348161e-002, -1.40375423e-003, -1.38508319e-003, 0.,
          -1.92768421e-004, -9.84152666e-006, -4.65662358e-003,
          -1.07976026e-003, 2.40816195e-002, 1.06310390e-003,
          -5.41279605e-003, 0., -6.15183788e-004, 2.42954399e-003,
          -2.76994233e-005, -6.11546493e-005, 9.21646226e-003,
          -6.19642029e-004, 0., 0., 0., 0., -6.11546493e-005,
          -3.60619102e-004, 8.98447633e-003, -3.85858235e-003,
          -1.70573755e-003, 0., 0., 7.16273906e-004, 1.48183538e-003, 0.,
          -2.03558430e-003, -4.46691498e-004, 0., 0., 0.,
          -6.97616208e-003, -4.79879230e-003, -6.23116177e-003,
          -6.32016640e-003, 0., 0., 0., 0., 0., 0., 0., 0., 0., 0., 0.,
          0., 0., 0., 0., 0., -7.38754869e-004, 9.20744351e-005, 0., 0.,
          0., 0., 0., 0., 1.66552243e-004, 0., 0., -2.78426771e-004,
          -2.00265972e-003, 0., -1.00097456e-003, -6.67427259e-004,
          -1.21535442e-003, 0., 0., 0., 6.65425730e-004,
          -5.31304104e-004, -4.12405643e-004, -9.34180061e-005, 0., 0.,
          0., 0., -6.11546493e-005, 0., 0., 4.96499764e-004,
          -1.03623432e-003, 0., 0., 0., 2.43553706e-003, 2.31685489e-003,
          0., 0., 0., 0., 0., 0., -2.17869156e-003, -2.93541834e-005,
          -8.73565092e-004, 3.48984823e-003, 6.89304667e-004, 0., 0., 0.,
          0., 0., 0., 0., 0., 0., 0., 0., 0., 0., 0., 0.,
          1.40514679e-003, -2.72088306e-004, 0., 0., -2.19334685e-003,
          -7.22133322e-004, 0., -3.18211445e-004, 9.11420095e-004, 0.,
          0., 0., -1.48610678e-002, 0., -5.90626057e-003,
          -1.71632375e-004, 0., -6.37552934e-004, 0., -1.05290639e-003,
          0., 0., 0., 7.12922961e-003, 0., 0., 0., 0., 0., 0., 0.,
          1.70671628e-004, 0., -7.24072568e-004, 0., 9.20744351e-005, 0.,
          0., 0., -6.26983179e-004, 0., 0., 0., 0., 0., -7.34115019e-006,
          0., -6.70120993e-004, 0., 0., 0., 0., 0., 0., 0., 0., 0., 0.,
          0., 0., 0., 0., 0., 0., 0., 0., 0., 0., 0., 0., 0., 0., 0., 0.,
          0., -8.23234557e-004, 0., 0., -1.92768421e-004,
          4.80538147e-004, 2.93332705e-004, 2.23672716e-003, 0.,
          -1.40413095e-003, 2.37796994e-004, 1.79702439e-003, 0.,
          2.38111261e-002, 0., 0., 0., 0., 0., 0., 0., -7.13965623e-004,
          0., -1.28442433e-003, 0., 0., 0., 8.52580741e-003, 0.,
          3.29490239e-003, 0., 0., 0., 0., -1.92768421e-004,
          -1.01267528e-002, 0., 1.90907866e-002, 4.96536202e-004,
          -1.72985031e-003, 0., -1.21706165e-003, 0., 0., 0.,
          -1.39927689e-003, 0., -1.85492434e-004, 0., 0., 0.,
          -1.92768421e-004, 8.95484918e-005, -2.86180177e-003,
          1.06636696e-002, -1.27641461e-003, -1.85492434e-004,
          -9.23556334e-004, -5.31304104e-004, 1.32129563e-003, 0.,
          4.32545180e-003, -1.07451726e-003, 7.35175388e-004, 0.,
          -3.99811921e-004, -2.24913261e-003, -1.34400895e-003,
          4.74523171e-004, -1.27034737e-002, 2.45586038e-003,
          -2.35985802e-003, 0., 1.15884701e-004, -2.62286398e-004,
          -3.39338585e-004, 2.46590731e-004, 3.33109219e-003, 0., 0., 0.,
          0., -5.42638300e-004, -6.11546493e-005, 1.11280906e-003,
          9.59637947e-003, -5.88678615e-003, -5.12933033e-003, 0.,
          -2.78426771e-004, 2.76136445e-003, -4.83022741e-005, 0.,
          1.50384288e-003, -1.15828728e-003, 0., 0., 0., 9.87329986e-003,
          -5.76427148e-004, 4.58813459e-003, -1.19374255e-002, 0., 0.,
          0., 6.96645817e-004, 0., 0., 0., 0., 0., 0., 0., 0., 0., 0.,
          0., 0., -8.12525454e-004, 0., 0., 0., 0., 0., 0., 0.,
          4.15319664e-005, -6.19642029e-004, 0., 0., -1.09655657e-005,
          -6.19642029e-004, 5.78852324e-003, 1.93186934e-004,
          -3.76377895e-004, 6.01943102e-005, 0., 0., -1.38761557e-003,
          -6.19642029e-004, 0., -3.04286485e-004, 0., 0., 0., 0., 0., 0.,
          0., 0., -5.85121394e-004, 5.53791033e-005, 0., 0., 0.,
          1.36073635e-004, 0., 0., 6.96645817e-004, 0., 0., 0.,
          2.89072026e-003, 0., 3.14059580e-004, 2.16909661e-003,
          8.95484918e-005, 3.08401286e-005, 0., 0., 0., 0., 0.,
          6.96645817e-004, 0., 0., 0., 0., 0., 0., 0., 0.,
          2.27878219e-003, -1.18798646e-003, 0., 0., 2.21262500e-003, 0.,
          0., 4.57789836e-004, -2.30504782e-004, 0., 0., 0.,
          1.24640213e-002, 1.74661761e-003, -3.18612810e-003,
          1.57432370e-002, 0., -4.85354394e-004, 0., -4.05217143e-004,
          0., 0., 0., -4.43270896e-003, 0., 0., 0., 0., 0., 0., 0.,
          1.91827118e-003, 0., -6.84957995e-005, 0., -6.11546493e-005,
          0., 0., 0., 2.09895385e-004, 0., 0., 0., 0., 0., 0., 0.,
          -4.20954544e-004, 0., 0., 0., 0., 0., 0., 0., 0., 0., 0., 0.,
          0., 0., 0., 0., 0., 0., 0., 0., 0., 0., 0., 0., 0., 0.,
          6.96645817e-004, 0., 0., 0., 0., 0., 1.04087614e-003,
          -7.34115019e-006, -4.67344653e-003, 0., -4.91258642e-003, 0.,
          -1.64834631e-003, 0., -1.62323751e-002, 0., 0., 0., 0., 0., 0.,
          0., -3.75949522e-003, 0., -1.83120219e-003, 0., 0.,
          -2.93541834e-005, -9.42778934e-005, 0., 2.99274572e-003, 0.,
          0., 0., 0., 0., -1.78689475e-003, 0., 2.02271715e-003,
          9.72518406e-004, -2.24927231e-003, 0., -3.23581975e-003, 0.,
          -6.19642029e-004, 0., 2.48538126e-004, 0., 0., 0.,
          -1.85492434e-004, 0., 0., -1.92768421e-004, -2.44319253e-003,
          -9.71272239e-004, -1.48967728e-002, 0., -1.88167120e-004,
          -2.93541834e-005, 1.82622636e-003, 0., 1.18313078e-002,
          -3.87004972e-003, 2.20582224e-004, 0., -9.01403953e-004,
          -3.51705495e-003, 3.27223795e-003, -1.07233971e-003,
          2.14251666e-003, -6.39592938e-004, -3.07211216e-004, 0.,
          3.11108946e-004, 1.82062364e-003, 1.17306758e-004,
          -1.06139772e-003, -4.66983672e-003, 0., 0., 0., 0.,
          1.48316321e-005, 0., -2.24467809e-003, -4.10091103e-004,
          6.81270321e-004, -1.53712544e-003, 0., 0., 1.39438314e-003,
          7.22147117e-004, 0., 2.21351814e-003, -1.97569211e-003, 0.,
          6.96645817e-004, 0., 1.79317016e-002, -1.94300921e-003,
          6.30338397e-003, 2.00295891e-003, 0., 0., 0., 0., 0., 0., 0.,
          0., 0., 0., 0., 0., -5.31304104e-004, 0., 8.72582968e-005, 0.,
          8.33994593e-004, -6.19642029e-004, 0., 0., 0., 0., 0., 0.,
          1.08475855e-003, 6.96645817e-004, 0., 0., 6.94168638e-003, 0.,
          2.13463884e-003, 5.93853358e-004, -1.06225407e-003,
          6.67291635e-004, 0., 0., -2.83342437e-004, 0., 8.95484918e-005,
          7.44134944e-004, 0., 0., 0., 0., 1.19314552e-003,
          6.96645817e-004, 0., 0., 1.54794689e-004, 0., 0., 0.,
          1.01931382e-003, 0., 0., 0., 6.96645817e-004, 0., 0., 0.,
          -3.93810478e-004, -5.63523790e-004, -2.38396853e-004,
          2.98483041e-003, 0., 6.96645817e-004, 0., 0., 0., 0., 0., 0.,
          0., 0., 0., 0., 0., 0., 0., 0., 4.96436702e-003,
          -1.00563618e-003, 0., 0., 2.88785691e-003, -1.82518343e-005,
          0., 2.03365871e-005, 5.76078426e-003, 0., 0., 0.,
          3.40094119e-002, 4.03081795e-004, -2.09576939e-003,
          6.85248896e-003, 0., -1.92768421e-004, 0., -1.23928406e-003,
          0., 0., 0., -4.40771738e-003, 0., 0., 0., 0., 0., 0., 0.,
          -7.43814860e-004, 0., -1.23928406e-003, 0., 0., 0.,
          1.48631763e-004, 0., -6.19642029e-004, 0., 0., 0., 0.,
          -5.31304104e-004, -6.19642029e-004, -1.06260821e-003,
          -3.45106306e-003, 0., 0., 0., 0., 0., 0., 0., 0., 0., 0., 0.,
          0., 0., 0., 0., 0., 0., 0., 0., 0., 0., 0., 0., 0., 0., 0., 0.,
          0., 0., 0., 0., -4.13936184e-004, 0., -5.58931939e-003, 0.,
          -1.55092811e-003, 0., -2.78271385e-003, 0., -1.05435299e-002,
          0., 0., 0., 0., 0., -7.34115019e-006, 0., -2.08487245e-003,
          -2.78426771e-004, -7.73844426e-004, 0., 8.95484918e-005, 0.,
          -1.00138961e-004, 0., 9.76453826e-004, 0., 0., 0., 0.,
          -2.78426771e-004, -3.20662605e-003, 0., -3.98279633e-004,
          -3.35573313e-005, -2.71842582e-003, 0., -2.18255984e-004,
          -6.19642029e-004, 0., 0., -1.38197979e-003, 0., 0., 0., 0., 0.,
          0., 0., -1.00148004e-003, -5.06079569e-003, -1.35217281e-002,
          0., -9.28830705e-004, -5.65819733e-004, 1.30671391e-003, 0.,
          -9.21574887e-003, 1.27898518e-003, -1.11934706e-003, 0.,
          -8.19751644e-004, -1.06588867e-003, 4.04061889e-003,
          -1.13592716e-003, -1.51417358e-002, -2.00742437e-003,
          -4.51656384e-003, 0., -1.92768421e-004, -1.06852630e-003,
          -1.31650793e-003, 3.72824550e-004, -7.78769376e-003, 0., 0.,
          0., 0., -2.09987949e-004, -1.28882719e-004, -8.54533646e-005,
          -3.76105681e-003, -3.12087685e-003, -7.74540100e-003, 0.,
          -1.23928406e-003, 3.08096787e-004, 3.79083067e-004,
          -1.28882719e-004, -7.10150867e-004, -2.70269258e-004,
          -8.20407178e-004, 0., 0., 1.05795581e-002, -1.58693420e-003,
          -8.00854992e-003, -2.11433955e-002, 8.95484918e-005, 0., 0.,
          0., 0., 0., 0., -5.31304104e-004, 0., 0., 0., 0., 0., 0., 0.,
          0., -7.60298048e-004, -2.10933664e-004, 0., 0.,
          -1.92213396e-004, 0., 0., 0., 1.56739552e-003, 0., 0., 0.,
          3.10322847e-002, 0., 3.61955375e-003, -4.21840604e-003,
          -3.18501471e-003, 0., 0., 0., -2.96002650e-003,
          -7.34115019e-006, 0., -1.90247156e-004, 0., 0., 0., 0.,
          -2.93541834e-005, 0., 0., 0., -1.34085747e-003, 0., 0., 0., 0.,
          0., 0., 0., 8.95484918e-005, 0., 0., 0., -1.81245734e-003,
          -6.19642029e-004, -4.78351431e-004, -9.94535640e-007,
          1.65427817e-004, 0., 0., 0., 0., 0., 0., 0., 0., 0., 0., 0.,
          0., 0., 0., -1.28882719e-004, -3.95791978e-003,
          -8.57411535e-004, 8.95484918e-005, 0., 1.87999569e-003, 0., 0.,
          4.89158614e-004, 4.20751935e-003, 0., 0., 0., 7.19664469e-002,
          8.38318083e-004, 6.04813546e-003, -2.95332097e-003, 0.,
          -4.07560292e-004, 0., -1.49704947e-003, 0., 0., 0.,
          -3.73871741e-003, 0., 0., 0., -5.31304104e-004, 0., 0., 0.,
          -3.49842943e-003, 0., 0., 0., -5.38645254e-004, 0., 0., 0.,
          -1.24662521e-003, 0., 0., 0., 0., 0., -5.31304104e-004, 0.,
          -9.49600595e-004, 0., 0., 0., 0., 0., 0., 0., 0., 0., 0., 0.,
          0., 0., 0., 0., 0., 0., 0., 0., 0., 0., 0., 0., 0.,
          8.95484918e-005, 0., 0., -1.28882719e-004, 0., 0.,
          -2.00109571e-004, -4.49957588e-004, -2.81761895e-004,
          -5.09073539e-003, 0., -1.85349281e-003, 0., -7.80841685e-004,
          0., -1.19457142e-002, 0., 0., 0., 0., 0., 0., 0.,
          -1.93381438e-003, 1.48631763e-004, -1.06092857e-003, 0., 0.,
          0., -6.48996211e-004, 0., 0., 0., 0., 0., 0., 1.65427817e-004,
          -1.30058255e-003, -2.22122617e-004, -1.31626148e-002,
          -6.29307644e-004, -3.13654868e-003, 0., -2.52202968e-003, 0.,
          0., 0., -1.79784035e-003, 0., 0., 0., 0., 0., 0., 0.,
          -1.38205721e-003, -2.40579736e-003, -1.40664624e-002, 0.,
          -2.35337019e-003, 0., -4.44245234e-004, 0., -6.33145915e-003,
          -3.34398961e-003, -1.82878226e-003, 0., -1.06260821e-003,
          -3.21548461e-004, 1.07199105e-003, -2.57132947e-003,
          5.12831137e-002, -6.02005341e-004, -5.15036192e-003,
          -7.34115019e-006, -1.13787444e-003, -6.08299742e-004,
          -1.35105581e-003, -7.34115019e-006, -1.27382716e-002,
          1.90259569e-004, 0., 0., 0., -7.50125444e-004, 0.,
          -1.54633250e-004, -6.79814909e-003, -6.51814218e-004,
          -2.19207467e-003, 0., 0., 4.69138817e-004, -2.93541834e-005,
          -5.31304104e-004, -3.05612432e-003, -5.06662880e-004, 0., 0.,
          0., -8.15935899e-003, -6.85665727e-005, -1.03915930e-002,
          -4.06543724e-002, -1.92768421e-004, 0., 0., 0., 0., 0., 0., 0.,
          0., 0., 0., 0., 0., 0., 7.13610716e-005, 0., -8.80492560e-004,
          -1.92768421e-004, 0., 0., 0., 0., 0., 0., 2.53573968e-003, 0.,
          0., 0., 7.19948765e-003, -6.48996211e-004, -2.06502900e-003,
          -3.84444464e-003, -5.20791546e-005, 4.20068864e-005, 0., 0.,
          -2.19454727e-004, -1.85492434e-004, 0., 0., 7.13610716e-005,
          7.13610716e-005, 0., 0., 7.13610716e-005, 0., 0.,
          -1.28882719e-004, -1.70970801e-004, 0., 0., 0., 0.,
          -2.93541834e-005, 0., 0., 0., 0., 0., 0., 2.38610766e-004,
          -2.93541834e-005, -6.19642029e-004, -3.68086505e-004, 0.,
          -7.34115019e-006, 0., 0., 7.99171466e-005, 0., 0., 0., 0., 0.,
          0., 0., 0., 0., 0., 0., -5.25601069e-003, -5.86398295e-004, 0.,
          0., -1.24008837e-003, 0., 0., -1.23928406e-003,
          1.17741507e-002, 0., 7.13610716e-005, 0., 7.07314983e-002,
          1.80274853e-003, -1.02895941e-003, -2.62650754e-003, 0.,
          -7.82427087e-004, 0., -2.10400816e-004, 0., 0., 0.,
          -3.50265065e-004, 0., 0., 0., 0., 0., 0., 0., -3.68142873e-003,
          0., 0., 0., 0., 0., 0., 0., 0., 7.13610716e-005, 0., 0., 0.,
          0., -5.31304104e-004, 0., -3.80305946e-003, 0., 0., 0., 0., 0.,
          0., 0., -1.85492434e-004, 0., 0., 0., 0., 0., 0., 0., 0., 0.,
          0., 0., 0., 0., 0., 0., 0., 0., 0., 0., 0., 0., 0., 0.,
          -2.62604124e-004, -7.77951209e-004, -4.87563806e-003, 0.,
          -1.50483917e-003, 0., 1.65427817e-004, 0., -1.93927363e-002,
          0., 0., 0., -7.34115019e-006, 0., 0., 0., -3.42865428e-003,
          -1.25537673e-003, -2.93541834e-005, 0., -7.34115019e-006, 0.,
          0., 0., -6.80796686e-004, 0., -6.19642029e-004, 0., 0., 0.,
          -2.93541834e-005, 0., -1.20280972e-002, -6.05802634e-004,
          -4.13409201e-003, 0., -2.33949162e-003, 5.83758112e-004,
          -6.26983179e-004, 0., -1.64023018e-003, 0., 0., 0.,
          -6.19642029e-004, 0., 0., 0., -1.78469985e-003,
          -7.90892169e-003, -1.60005018e-002, 0., -1.54481304e-003, 0.,
          -7.42784294e-004, 0., -1.47700058e-002, -1.29524362e-003,
          -8.35284591e-004, 5.63004141e-005, -6.15837809e-004,
          -2.64627673e-003, -2.29940866e-003, -2.28798017e-003,
          1.38003990e-001, -2.58312863e-003, -2.31436081e-003,
          7.13610716e-005, -1.98657135e-003, -1.58457481e-003,
          -5.75574231e-004, -3.38732323e-004, -1.13567701e-002, 0., 0.,
          0., -1.92768421e-004, -2.61264213e-004, -9.58374352e-004,
          -1.12068024e-003, -6.24016579e-003, -3.34241940e-003,
          -2.88748741e-003, 0., 0., 0., -1.83463955e-004,
          -7.34115019e-006, -1.65738631e-003, -1.15390774e-003, 0., 0.,
          0., -7.16294162e-003, -5.26323391e-004, -4.45089303e-003,
          -3.53380367e-002, 0., 0., 0., 0., 0., 0., 0., -7.34115019e-006,
          0., 0., 0., 0., 0., 0., -1.92768421e-004, -2.00109571e-004,
          -1.46823004e-005, -5.31304104e-004, 0., -7.34115019e-006,
          -2.93541834e-005, 0., 0., 0., -1.85492434e-004,
          -6.26983179e-004, 0., 5.63004141e-005, -2.65084743e-003, 0.,
          -4.23275353e-003, -1.45267707e-003, -2.98148545e-004, 0., 0.,
          -7.34115019e-006, -4.95677581e-004, 0., 0., -5.31500729e-004,
          0., 0., 0., 0., 0., 0., -1.92768421e-004, -2.00109571e-004,
          -1.03205012e-003, 0., -1.85492434e-004, 0., 0., 0., 0., 0.,
          -2.93541834e-005, 0., 0., 0., -2.93541834e-005,
          -6.11546493e-005, 0., -2.22122617e-004, -1.08488690e-004,
          -6.19642029e-004, 0., 0., -2.93541834e-005, 0., 0., 0., 0.,
          -1.92768421e-004, 0., 0., 0., 0., 0., -7.34115019e-006,
          -6.10137312e-003, -7.50695704e-004, 0., -7.34115019e-006,
          -2.51476798e-004, 0., 0., -1.85492434e-004, -6.19370316e-004,
          -2.00109571e-004, 0., 0., -6.00114325e-003, -2.22122617e-004,
          -8.22496251e-004, -4.02168697e-003, 0., 9.93072405e-004, 0.,
          -2.33797240e-004, 0., 0., 0., -1.90561323e-003, 0., 0., 0., 0.,
          0., -1.92768421e-004, 0., -2.59103091e-003, 0.,
          -5.31304104e-004, 0., 7.13610716e-005, 0., 0., 0.,
          6.96645817e-004, 0., 0., 0., 0., 0., 0., 0., -2.21903669e-003,
          0., -5.31304104e-004, 0., 0., 0., 0., 0., 0., 0., 0., 0., 0.,
          0., 0., 0., 0., 6.96645817e-004, 0., 0., 0., 0., 0., 0., 0.,
          0., 0., 0., 8.22073416e-005, 0., 0., 0., -7.34896632e-004,
          1.37860933e-003, -4.38469136e-003, 0., 4.29051975e-003,
          -7.34115019e-006, 0., 0., -7.77847925e-003, 0., 0., 0., 0., 0.,
          -7.34115019e-006, -7.34115019e-006, -3.04783159e-003, 0.,
          -6.72618218e-004, 0., 0., 0., -6.11546493e-005, 0.,
          -2.93109071e-004, -6.19642029e-004, -2.93541834e-005, 0., 0.,
          6.96645817e-004, 0., 0., -9.93685424e-003, -8.70036427e-004,
          4.19233227e-004, 0., 1.36560306e-003, 0., 0., 0.,
          5.80410473e-004, 0., 0., 0., 0., 0., 0., 0., -1.65094633e-003,
          -3.38709913e-003, -7.43944105e-003, 0., -1.27745490e-003,
          -1.92768421e-004, -1.22309299e-004, 0., -7.37762032e-003,
          -2.47027003e-003, -1.08816905e-003, 0., -1.46823004e-005,
          -6.94312039e-004, -1.25371793e-003, -1.29800290e-003,
          1.73304513e-001, -1.47268083e-003, -7.08572683e-004, 0.,
          -8.60637636e-004, -1.06530241e-003, -3.86338332e-004,
          7.44667661e-004, 1.18052727e-003, 0., 4.96499764e-004, 0., 0.,
          -1.03492748e-004, -6.60186866e-004, -2.37332260e-005,
          -3.23871220e-003, -6.35086326e-003, -3.43727251e-003, 0.,
          -9.16840974e-004, -1.10974105e-003, 8.72582968e-005, 0.,
          -8.88798153e-004, -2.58817949e-004, 0., -1.85492434e-004, 0.,
          -9.82692093e-003, -1.06979693e-004, -3.61030269e-003,
          -2.18068827e-002, 0., 0., 0., 0., 0., 0., 0., 4.96499764e-004,
          0., 0., 0., 0., 0., 0., 0., -5.31304104e-004, -6.19642029e-004,
          0., 0., 0., 5.63004141e-005, 0., -1.28882719e-004, 0.,
          -1.69327098e-003, -2.03592514e-004, 0., 0., -2.03459221e-003,
          -6.11546493e-005, -1.74060289e-003, -1.36143493e-003,
          -1.99138909e-003, -1.15114276e-003, 5.63004141e-005,
          -1.28882719e-004, -6.82128826e-004, 0., 0., -1.33736961e-004,
          0., 0., 0., 0., 1.65427817e-004, 0., 0., 3.67617060e-004,
          -1.51663480e-004, -6.19642029e-004, 0., 0., 0., 0., 0., 0., 0.,
          0., 0., 0., -7.69301667e-004, 0., 0., -1.08573213e-003,
          -1.35453872e-003, -2.22122617e-004, 0., -7.34115019e-006,
          1.65427817e-004, 0., 0., -4.75003733e-004, 0., 0., 0., 0., 0.,
          0., 0., 0., 1.14507675e-004, -2.64747156e-004, 0., 0.,
          -9.54288174e-004, 0., 4.67145612e-004, -5.31304104e-004,
          2.16156812e-004, 0., 0., 0., -4.70494712e-003,
          -3.15077719e-004, -3.74034373e-003, -3.35630076e-003, 0.,
          -3.82482365e-004, 0., 3.90073680e-003, 0., 5.63004141e-005, 0.,
          4.62842593e-003, 0., -2.03592514e-004, 0., 0., 0., 0., 0.,
          2.68739462e-003, 0., -4.41755634e-004, 0., 0., 0.,
          -2.93541834e-005, 0., 0., 0., 0., 0., -3.38732323e-004, 0.,
          -1.28882719e-004, 0., -2.32512807e-003, 0., 0., 0., 0., 0., 0.,
          0., -5.31304104e-004, 0., 0., 0., 0., 0., 0., 0., 0., 0., 0.,
          0., 0., 0., 0., 0., 0., 0., 0., 0., 0., -7.24072568e-004, 0.,
          -6.19642029e-004, -1.09459821e-003, -5.31304104e-004,
          1.26355002e-002, 0., 1.91693585e-002, -1.28882719e-004,
          2.00383551e-003, 0., 2.23541129e-002, 0., 6.45131571e-004, 0.,
          1.65427817e-004, 7.13610716e-005, -2.93541834e-005,
          4.96499764e-004, 4.87792492e-003, -6.48996211e-004,
          1.20035571e-003, 0., 8.29949975e-004, 0., -7.34115019e-006, 0.,
          2.86277942e-003, 0., 0., 0., 0., 6.96645817e-004,
          -1.90037375e-004, 8.72582968e-005, -5.41163422e-003,
          -9.85714956e-004, 1.12930592e-002, 0., 8.62415042e-003, 0.,
          -4.78351431e-004, 4.96499764e-004, 1.11910086e-002, 0., 0., 0.,
          1.65427817e-004, 0., 0., -1.85492434e-004, -1.73848544e-004,
          -2.56683817e-003, -1.24672719e-003, 0., 3.14257783e-003,
          -7.34115019e-006, 0., 0., -3.65572190e-003, -5.42324851e-004,
          9.89589491e-004, 0., -6.51655952e-004, -7.92561274e-004,
          -1.72851048e-003, -5.80104243e-004, -4.49068192e-003,
          6.39953243e-004, 3.82336235e-004, 0., -1.19274257e-004,
          -1.45237864e-004, 4.14113514e-004, 1.56202388e-003,
          -4.95447498e-003, 0., 0., 0., 0., 8.70394695e-004,
          2.02149327e-004, -4.22965852e-004, -1.81804760e-003,
          -2.86644767e-003, -4.61870525e-003, 0., 0., -2.83198286e-004,
          8.74769408e-004, 3.65450978e-005, -4.42901440e-003,
          -1.31079857e-003, -2.03592514e-004, 0., 0., -1.48261024e-003,
          3.19561525e-003, 6.70174952e-004, -2.14062557e-002, 0., 0., 0.,
          -5.31304104e-004, 0., 0., 0., 0., 0., 0., 0., 0., 0., 0.,
          -7.34115019e-006, 0., -2.63121939e-004, 1.69078179e-004,
          6.96645817e-004, 4.96499764e-004, 0., 0., 0., 1.76806789e-004,
          5.32031758e-004, 0., 0., 1.18898497e-004, -1.90016534e-003,
          -1.28882719e-004, -2.66684475e-003, -3.01496149e-003,
          1.72316399e-003, 1.22165296e-003, 0., 6.96645817e-004,
          -1.35176245e-003, 4.04538849e-004, 1.81618743e-004,
          1.44835119e-003, -6.19642029e-004, 0., 0., 0., 0., 0.,
          5.23437338e-004, 1.65427817e-004, 2.89231219e-004,
          1.65427817e-004, 0., 0., 0., 0., 0., 3.91544687e-004, 0., 0.,
          0., 0., 1.65990193e-003, 6.09100622e-004, -2.88786425e-004,
          3.52871604e-004, -5.27567579e-004, 0., 0., 0.,
          -1.92768421e-004, 0., 0., 0., 0., 0., 0., 0., 0., 0.,
          -6.19642029e-004, 0., -6.12719217e-003, -1.34377973e-003, 0.,
          -7.34115019e-006, -3.17584927e-004, 2.61036457e-005, 0.,
          1.02208438e-003, -2.40048300e-003, 0., 0., 0.,
          -1.16098635e-002, 5.22487331e-004, -3.82184959e-003,
          -2.62841524e-004, -2.15103180e-004, 4.96613269e-004, 0.,
          1.30004089e-004, 0., 0., 0., 6.25115470e-004, 0., 0., 0., 0.,
          0., 0., 0., 5.24907373e-004, 0., 6.96645817e-004, 0., 0., 0.,
          0., 0., -2.90597935e-004, 0., -5.30093559e-004, 0., 0.,
          -1.15094613e-003, 0., 0., -2.87617580e-003, 0., 0., 0., 0., 0.,
          0., 0., 0., 0., 0., 0., 0., 0., 0., 0., 0., 0., 0., 0., 0., 0.,
          0., 0., 0., 0., 0., 0., 0., -6.19642029e-004, 0., 0.,
          -4.71308682e-004, -2.66638352e-004, 5.90710109e-003, 0.,
          3.46440775e-003, 0., 1.58409798e-003, 0., -8.27758107e-004, 0.,
          0., 0., 0., 0., 0., 0., -1.40223384e-003, -6.80796686e-004,
          3.27583955e-004, 0., 0., 0., 4.32958070e-004, 0.,
          1.46614108e-003, -7.34115019e-006, 0., 0., 0.,
          -5.31304104e-004, 2.18646531e-003, 0., -1.28802389e-003,
          -1.60507194e-003, 1.10821507e-003, 0., 1.86870852e-003,
          1.45848913e-004, 7.70037514e-005, 0., 2.84051406e-004, 0., 0.,
          0., 0., 0., 0., 0., -1.15828740e-003, -4.15760046e-003,
          -1.15466639e-002, 0., -6.74507231e-004, 2.38180262e-004,
          3.88000091e-003, 0., 1.13764927e-002, -4.37297305e-004,
          -1.74590177e-003, 0., -3.46817615e-005, -1.82726677e-003,
          -7.26522645e-004, -6.68607594e-004, 5.85425459e-002,
          -2.24583480e-003, -6.84663700e-003, 0., -1.76177337e-003,
          1.34460069e-003, -5.59491222e-004, 0., -3.65618989e-003, 0.,
          -7.34115019e-006, 0., -2.78426771e-004, 2.40706198e-004, 0.,
          -7.27677194e-004, -1.84499111e-003, -1.39683462e-003,
          -5.96143072e-004, 0., 0., -6.37686229e-004, -5.87083669e-005,
          -7.34115019e-006, -3.20606609e-003, 2.57502252e-004, 0., 0.,
          6.96645817e-004, -7.91805889e-003, -3.25663388e-003,
          -7.41285272e-003, -4.82399017e-002, -7.34115019e-006,
          -6.19642029e-004, 0., 0., 0., 0., 0., 0., 0., 0., 0., 0., 0.,
          0., 0., 1.65427817e-004, -1.61840487e-003, 0., 0., 0., 0., 0.,
          0., 0., -6.26983179e-004, 0., 0., 0., -4.62056883e-003, 0.,
          -2.35707057e-003, -8.45141942e-004, 3.22499359e-003,
          -9.98422547e-006, 8.95484918e-005, 0., 7.16683455e-004,
          9.20744351e-005, 8.08203127e-004, -9.82341444e-005, 0., 0., 0.,
          0., 0., 0., 0., -5.00743568e-004, 1.18394278e-003, 0., 0., 0.,
          5.93974546e-004, 0., 0., 4.04538849e-004, 0., 0., 0., 0.,
          -1.36918284e-003, 0., 1.41290613e-004, 1.92678635e-004,
          -8.05134478e-004, 0., 0., 0., 0., -7.34115019e-006, 0.,
          2.10972925e-004, 0., 0., 0., 0., 0., 0., 0., 0.,
          2.13296581e-002, -2.51476798e-004, 0., 0., 2.45889323e-003, 0.,
          -6.19642029e-004, 2.78078252e-004, 4.45697457e-003,
          -6.19642029e-004, -6.19642029e-004, 0., -1.28098624e-002,
          5.76782797e-004, -5.23502426e-003, -7.08678924e-003,
          9.20744351e-005, 1.40644377e-004, 0., -1.87766345e-004,
          8.95484918e-005, 0., 0., 4.54893475e-003, 0., 9.20744351e-005,
          0., 0., 0., 0., 0., -9.57680575e-004, 0., 0., 0.,
          -7.34115019e-006, 0., 0., 0., -2.03592514e-004, 0., 0., 0., 0.,
          0., 0., 0., -1.29136210e-003, 0., 0., 0., 0., 0., 0., 0., 0.,
          0., 0., 0., 0., 0., 0., 0., 0., 0., 0., 0., 0., 0., 0., 0.,
          -6.19642029e-004, 0., -1.92768421e-004, 0., 0.,
          -6.19642029e-004, 0., 0., -6.74869167e-004, 1.52161764e-003,
          1.44233080e-002, 8.95484918e-005, 8.58769659e-003,
          4.96613269e-004, 4.52654902e-004, 0., 1.72709189e-002, 0., 0.,
          0., 0., 0., 1.48631763e-004, 0., -3.19279847e-003, 0.,
          -7.20950717e-004, 0., -8.46940166e-005, 0., -1.03910177e-004,
          0., 3.91193869e-004, 0., 0., 0., 0., 0., -1.64380064e-003,
          1.65427817e-004, -4.12431639e-003, -1.84197736e-003,
          4.83045261e-003, 0., -2.50757119e-004, 0., -1.92768421e-004,
          0., -1.38196396e-003, 0., 0., 0., 0., 0., 0., 0.,
          -3.03995935e-003, 2.12978292e-003, 2.42177472e-002, 0.,
          2.45981896e-003, -7.38369825e-004, 3.31164338e-003,
          -6.19642029e-004, 5.35166170e-003, 3.96959065e-003,
          1.60430686e-003, 0., -1.15222682e-003, -1.80178578e-003,
          8.04755278e-003, -1.00256654e-003, 1.41359726e-002,
          -9.74632392e-004, -4.52890620e-003, 0., 6.04525441e-004,
          -1.60120230e-003, -8.64634523e-004, -1.14386680e-003,
          -1.60535164e-002, 0., 0., 0., 0., 1.84148870e-004,
          6.67291635e-004, -1.15938508e-003, -9.70985740e-003,
          -6.90071238e-003, -6.87352568e-003, 0., 0., 4.54150286e-004,
          -2.14846616e-004, 0., -4.26430488e-003, -4.08984815e-005,
          -7.34115019e-006, 0., -1.28882719e-004, -5.23855211e-003,
          -3.59446625e-003, -4.73284815e-003, -3.26668322e-002, 0., 0.,
          0., 0., 0., 0., 0., 0., 0., 0., 0., 0., 0., 0., 0., 0.,
          -4.43724450e-004, 0., 0., 6.96645817e-004, 0., 0., 0., 0.,
          8.07129312e-004, -8.80625521e-005, 0., -1.92768421e-004,
          8.59876350e-003, -7.34115019e-006, -2.06228229e-003,
          -4.68085008e-003, 1.06338668e-003, -9.16906167e-004, 0., 0.,
          -1.10021641e-003, 0., -2.03592514e-004, -6.49848371e-004, 0.,
          0., 0., 0., 0., 0., 0., 2.17236535e-004, 3.21595755e-004,
          -2.03592514e-004, 0., 0., -2.81761895e-004, 0., 0., 0.,
          6.96645817e-004, 0., 0., 0., 7.19156465e-004, -2.78426771e-004,
          1.04247627e-003, -9.05828492e-004, -6.44986460e-004,
          -9.58374352e-004, -6.19642029e-004, -8.98068829e-004, 0., 0.,
          0., 0., 0., 0., 0., 0., 0., 0., 0., 0., 2.73051932e-002,
          1.60534953e-004, 0., 0., 2.43580015e-003, 0., 0.,
          1.17708005e-004, 4.33984511e-002, 0., 0., 0., 5.72180226e-002,
          -1.62012890e-004, -4.33326291e-004, -8.59172607e-004, 0.,
          -9.47551685e-004, 0., -3.01103992e-003, 0., 0., 0.,
          -5.29143633e-003, 0., 0., 0., 0., 0., 0., 0., -5.63782966e-003,
          0., 0., 0., -1.28882719e-004, 0., 0., 0., -8.77377577e-004, 0.,
          0., 0., 0., 0., -2.93541834e-005, 0., -2.68915598e-003, 0., 0.,
          0., 0., 0., 0., 0., 0., 0., 0., 0., 0., 0., 0., 0., 0., 0., 0.,
          0., 0., 0., 0., 0., 0., 0., 0., 0., 0., 0., 0., 0.,
          -2.99575715e-003, -5.38645254e-004, -9.23932157e-003, 0.,
          -5.87704824e-004, 6.96645817e-004, -1.13138207e-003, 0.,
          -2.61393581e-002, 0., 0., 0., 0., 0., 0., 0., -5.90254972e-003,
          0., -2.17592996e-003, 0., -2.78426771e-004, 0., 0., 0.,
          -1.62105437e-003, 0., 0., 0., 0., 0., -5.31304104e-004,
          6.96645817e-004, -2.36940775e-002, 5.32419108e-005,
          -4.09878930e-003, 0., -2.88855191e-003, 0., -2.15103180e-004,
          0., -3.86190997e-003, 0., 0., 0., 0., 0., 0., -1.92768421e-004,
          -3.45191942e-003, 3.30701796e-003, -1.11732092e-002, 0.,
          -4.68598865e-003, 7.52946187e-004, 3.40593862e-004, 0.,
          -6.30690530e-003, 8.99198279e-003, 1.79909263e-003, 0.,
          3.15964542e-004, 9.61220451e-003, 1.17882853e-002,
          -1.10519270e-003, 6.36549890e-002, -1.41147268e-003,
          -2.51772883e-003, 0., -2.91257561e-003, 1.09566085e-003,
          -9.50336107e-004, 6.01943102e-005, -7.27831433e-003, 0., 0.,
          0., 0., -1.77166786e-003, 0., -3.04378150e-003,
          -8.69323313e-003, -4.65369970e-003, -6.78297179e-003, 0., 0.,
          -2.82231718e-004, -2.93541834e-005, 1.04228158e-004,
          -1.87774989e-004, -3.70402631e-005, 0., 0., 0.,
          1.19550771e-003, -2.08867923e-003, -3.40537424e-003,
          -1.98207889e-002, 0., 0., 0., 0., 0., 0., 0., 0., 0., 0., 0.,
          0., 0., 0., 0., 0., -8.65699258e-005, 0., 0., 0.,
          -7.34115019e-006, 0., 6.96645817e-004, 0., 1.73608831e-003, 0.,
          0., 0., 1.83734007e-003, 7.13610716e-005, -2.00218707e-003,
          -3.84992524e-003, 2.44122173e-004, -6.11546493e-005, 0.,
          8.72582968e-005, -2.37077847e-003, 5.83758112e-004,
          -2.78426771e-004, -1.44426664e-003, 0., 0., 0., 0.,
          -2.34504550e-005, 0., 7.68006837e-004, 7.13610716e-005,
          2.25803629e-003, 0., 0., 0., 4.94087348e-004, 0., 0.,
          5.63004141e-005, 0., 0., 0., 0., 2.15244087e-004,
          -1.92768421e-004, 1.19277589e-004, -2.17774534e-004,
          -2.93541834e-005, 0., 0., 0., -2.78426771e-004, 0., 0., 0., 0.,
          0., 0., 0., 4.91797167e-004, 0., 0., 0., 1.02139506e-002,
          6.96645817e-004, 0., 0., 5.55945514e-003, -8.39550106e-004, 0.,
          5.68483840e-004, 1.75024495e-002, 0., 0., 0., 1.45092737e-002,
          -2.37975037e-004, -3.28605250e-003, -3.14364413e-004, 0.,
          -1.99271087e-003, 0., -7.93330022e-004, 0., 0., 0.,
          -4.38533770e-003, 0., 4.96499764e-004, 0., 0., 0., 0., 0.,
          -2.13040947e-003, 7.13610716e-005, -6.26983179e-004, 0.,
          -2.93541834e-005, 0., 0., 0., -1.85492434e-004, 0., 0., 0., 0.,
          0., 2.54976301e-004, 0., -3.75975273e-003, 0., 0., 0., 0., 0.,
          0., 0., 0., 0., 0., 0., 0., 0., 0., 0., 0., 0., 0., 0., 0., 0.,
          0., 0., 0., 0., 0., 0., 0., 0., 0., 0., -1.23928406e-003,
          8.95484918e-005, -7.70547334e-003, 0., -1.13711506e-003, 0.,
          -2.78426771e-004, 0., -3.97571828e-003, 0., 0., 0., 0., 0., 0.,
          0., -1.22237636e-003, -6.19642029e-004, -5.06448699e-003, 0.,
          -7.92946550e-004, 0., 2.37796994e-004, 0., 1.76215754e-003, 0.,
          0., 0., -2.93541834e-005, 0., -2.48785538e-004, 0.,
          -1.18586533e-002, -7.50089006e-004, -2.97552743e-003, 0.,
          -1.78347877e-003, 0., -5.37434709e-004, 0., -4.83415928e-003,
          0., 0., 0., 0., 0., 0., 8.72582968e-005, -3.38199572e-003,
          5.21358335e-003, 1.58952654e-003, 0., -1.22748257e-003, 0.,
          1.19079626e-003, 0., 8.80632363e-003, 4.80333343e-003,
          2.44438578e-003, 0., 4.88131336e-004, 2.91271065e-003,
          9.72404424e-003, 6.06064859e-004, 4.29381579e-002,
          -2.31167045e-003, -6.72096899e-003, 0., -1.83961284e-003,
          -8.63956404e-004, -1.92768421e-004, -7.34115019e-006,
          -9.23905056e-003, 0., 4.96499764e-004, 0., 0.,
          -7.34744535e-004, 0., -1.13665476e-003, -6.03727391e-003,
          -2.63488619e-003, -3.05347214e-003, 0., 0., -4.66827303e-004,
          0., 0., -1.14575343e-003, -1.67363184e-003, 0., 0., 0.,
          -9.73789860e-003, -1.19432097e-003, -4.58037015e-003,
          -3.85684967e-002, 0., 0., 0., -6.19642029e-004, 0., 0., 0., 0.,
          0., 0., 0., 0., 0., 0., 0., 0., 2.44861498e-004, 0., 0., 0.,
          -7.82505434e-004, 0., -1.28882719e-004, 0., 1.57986197e-003,
          -1.17611932e-003, -1.92768421e-004, 8.95484918e-005,
          5.70838945e-003, 4.04538849e-004, 5.28804259e-004,
          -4.34268732e-003, -6.18316641e-004, -5.69239375e-004, 0., 0.,
          -3.58155055e-004, -1.85492434e-004, 0., -2.03592514e-004, 0.,
          0., 0., 0., -1.92768421e-004, 0., -1.92768421e-004, 0.,
          6.34986573e-005, -6.11546493e-005, 0., 0., 1.79996787e-004, 0.,
          0., 0., 1.18898497e-004, 0., 0., 0., -5.30282268e-004, 0., 0.,
          2.60249180e-005, -3.46127257e-004, 0., 0., 0., 0., 0., 0., 0.,
          0., 0., 0., 0., 0., 0., 0., 0., -3.78436432e-003,
          -8.41764675e-004, 0., 0., 2.92338571e-003, 0.,
          -1.12998954e-004, 2.46590731e-004, 2.26180647e-002, 0., 0., 0.,
          8.17882493e-002, -2.06112454e-004, -1.10709458e-003,
          -8.71172734e-003, 0., -1.14140275e-003, 0., -4.00219142e-004,
          0., 0., 0., -2.47888756e-003, 0., 0., 0., 0., 0., 0., 0.,
          -2.14657211e-003, 0., 0., 0., 0., 0., 0., 0., -5.31500729e-004,
          0., 0., 0., 0., 0., 0., 0., -1.93636294e-003, 0., 0., 0., 0.,
          0., 0., 0., 0., 0., 0., 0., 0., 0., 0., 0., 0., 0., 0., 0., 0.,
          0., 0., 0., 0., 0., 0., 0., 0., 0., 0., 0., -8.05134478e-004,
          -1.92833584e-004, -1.03830742e-002, 0., -1.86658662e-003, 0.,
          -3.38732323e-004, 0., -1.07098427e-002, 0., 0., 0., 0., 0., 0.,
          -1.92768421e-004, -4.18983912e-003, 0., -3.21148685e-003, 0.,
          -5.31304104e-004, 0., -1.85492434e-004, 0., -1.09196245e-003,
          0., -5.31304104e-004, 0., 0., 0., 5.02059011e-005, 0.,
          -8.52749310e-003, -7.07187981e-004, -6.25904929e-003, 0.,
          -1.80866441e-003, -7.34115019e-006, -3.85536841e-004, 0.,
          -3.98714095e-003, 0., 0., 0., 0., 0., 0., -6.19642029e-004,
          -2.78985407e-003, -3.96859040e-003, -1.49498209e-002,
          -1.92768421e-004, -3.25052673e-003, 0., 4.32941451e-004, 0.,
          -4.59465152e-003, 1.99932861e-003, -3.68324760e-003, 0., 0.,
          4.70914692e-003, 5.39663853e-003, -2.72220885e-003,
          8.91178176e-002, 1.23889418e-003, -4.86426661e-003, 0.,
          -2.14235089e-003, -2.38770983e-004, -5.70642529e-004, 0.,
          -1.49253765e-002, 0., 0., 0., 0., -5.00743568e-004,
          -6.26983179e-004, -8.19885638e-004, -9.39782150e-003,
          -1.78945577e-003, -3.48031404e-003, 0., -1.92768421e-004,
          -1.43205246e-003, 0., 0., -1.93859264e-003, 4.56758338e-004,
          0., 0., 0., -6.44804677e-003, -4.95514600e-004,
          -6.75004302e-003, -5.40766194e-002, 7.13610716e-005, 0., 0.,
          0., 0., 0., 0., 0., 1.48631763e-004, 0., 0., 0., 0., 0., 0.,
          0., 1.19663135e-003, 0., 0., 0., 0., 0., 0., 0.,
          2.93371873e-003, 1.48631763e-004, 0., 4.04538849e-004,
          4.26318543e-003, 1.18898497e-004, -4.27021412e-003,
          -4.18697577e-003, -1.44918670e-003, -2.14846616e-004, 0., 0.,
          -5.02967032e-006, 0., 0., 1.04273167e-004, 0., 0., 0., 0., 0.,
          0., 7.13610716e-005, -8.23234557e-004, 1.10509085e-004,
          -2.93541834e-005, 0., 0., 9.57008742e-004, 0., 0., 0.,
          -6.19642029e-004, 0., 0., 0., -1.57579035e-003, 0.,
          -3.66953354e-005, 8.80650550e-005, -3.99924378e-004, 0., 0.,
          0., 0., 0., 0., 0., 0., 0., 0., 0., 0., 0., 0., 0.,
          1.47864711e-003, -1.92768421e-004, 0., 0., -6.27496396e-004,
          4.96499764e-004, 0., -6.13644297e-005, 3.23540643e-002, 0.,
          4.96499764e-004, 0., 7.01334924e-002, 4.69984341e-004,
          2.24871351e-003, -5.66849578e-003, 0., -5.38907072e-004, 0.,
          -1.63571013e-003, 0., 0., 0., -3.53559153e-003, 0., 0., 0., 0.,
          0., 0., 0., -2.85264594e-003, 0., -9.34180061e-005, 0., 0., 0.,
          0., 0., -9.02289001e-004, 0., 0., 0., 0., 0., 0., 0.,
          -4.51363763e-003, 0., 0., 0., 0., 0., 0., 0., 0., 0., 0., 0.,
          0., 0., 0., 0., 0., 0., 0., 0., 0., 0., 0., 0., 0., 0., 0., 0.,
          4.04538849e-004, 7.13610716e-005, 0., 7.13610716e-005,
          -3.24007444e-004, -6.11546493e-005, -9.62896273e-003, 0.,
          -4.50596260e-003, 0., 0., 0., -1.68369692e-002, 0., 0., 0., 0.,
          0., 0., 0., -3.88428895e-003, 0., -1.96342170e-003, 0.,
          -6.19642029e-004, 0., 0., 0., -6.54913310e-004, 0., 0., 0., 0.,
          1.18898497e-004, -6.48996211e-004, 0., -1.46410642e-002,
          -7.34115019e-006, -3.06161214e-003, 0., -1.04483473e-003, 0.,
          -1.33643858e-003, 0., -2.34222505e-003, 0., 0., 0., 0., 0., 0.,
          0., -1.78817904e-003, -2.97185453e-003, -2.51037292e-002, 0.,
          -8.05744785e-004, 0., -4.44170233e-004, 0., -1.73478872e-002,
          2.31108861e-003, -1.04537176e-003, 0., 8.00231122e-004,
          -6.37958001e-004, 2.81183771e-003, -1.76602378e-004,
          1.30227104e-001, -1.25398091e-003, -5.10971714e-003, 0.,
          -1.19281805e-003, -1.57488335e-003, -1.92833584e-004,
          -5.31304104e-004, -5.41001465e-003, 0., 0., 0., 0.,
          -1.25298131e-004, -2.93541834e-005, -1.04839460e-003,
          -5.37008466e-003, -3.52418981e-003, -2.17579259e-003, 0.,
          -1.85492434e-004, -9.31400864e-004, 0., 0., -5.38363634e-003,
          -2.20234524e-005, -5.31304104e-004, 0., 0., -6.87956298e-003,
          -3.75427655e-004, -1.70141412e-003, -2.14059334e-002, 0., 0.,
          0., 0., 0., 0., 0., 0., 0., 0., 0., 0., 0., 0., 0.,
          8.95484918e-005, -3.92877992e-004, 0., 0., 0.,
          -2.03592514e-004, 0., 0., 0., -1.92833584e-004, 0., 0., 0.,
          -4.25325334e-003, 0., -2.10781791e-003, -1.66816881e-003,
          -1.45722658e-003, -3.14375153e-004, 0., 0., -3.86648171e-004,
          0., 0., 0., 0., 0., 0., 0., -2.32946695e-004, 0., 0., 0.,
          -4.00339050e-004, 0., 0., 0., -2.93541834e-005, 0., 0., 0.,
          -2.93541834e-005, 0., 0., 0., -3.19972605e-004, 0., 0.,
          -2.57765438e-004, -1.46823004e-005, 0., 0., -7.34115019e-006,
          -6.11546493e-005, 0., 0., 0., 0., 0., 0., 0., 0., 0., 0., 0.,
          -5.85991330e-003, -2.14846616e-004, 0., 0., -1.21179619e-003,
          0., 0., -8.74430465e-004, -1.21249643e-003, 0., 0., 0.,
          -6.43798197e-003, 0., -1.83111022e-003, -2.54182215e-003, 0.,
          3.18319770e-004, 0., 1.67961826e-003, 0., 0., 0.,
          -2.34338734e-003, 0., 0., 0., 0., 0., 0., 0., -2.10758368e-003,
          0., 0., 0., -6.11546493e-005, 0., 0., 0., 2.29030746e-004,
          -7.34115019e-006, 0., 0., 0., 0., 0., 0., -2.20619491e-003, 0.,
          0., 0., 0., 0., 0., 0., 8.95484918e-005, 0., 0., 0., 0., 0.,
          0., 0., 0., 0., 0., 0., 0., 0., 0., 0., 0., 0.,
          8.95484918e-005, 0., -7.34115019e-006, 0., 0., 0.,
          -6.13644297e-005, -5.87083669e-005, -2.78284005e-003, 0.,
          1.75829101e-002, -5.31304104e-004, 0., 0., 8.27234611e-003, 0.,
          0., 0., 0., 0., 0., 8.95484918e-005, -1.13879854e-003,
          -3.66953354e-005, -2.46647076e-004, 0., 0., 0., 0., 0.,
          -1.74219068e-003, 0., 0., 0., 0., 0., 0., 0., -7.26949498e-002,
          -1.18906214e-003, -3.72570776e-003, 0., -7.23344623e-004,
          -1.28882719e-004, 0., 0., -5.89239527e-004, 0., 0., 0., 0., 0.,
          0., 0., -2.97100400e-003, -3.60646914e-003, -1.32918712e-002,
          0., -9.99180949e-004, -1.92833584e-004, -2.87119619e-004, 0.,
          -3.86575125e-002, -1.94955617e-003, -6.01033214e-004, 0.,
          -3.78326018e-004, -9.24950291e-004, -2.69300328e-003,
          -1.94932232e-004, 2.28159070e-001, -3.72637552e-003,
          -3.55404802e-003, -3.85536841e-004, -5.81940636e-004,
          -6.75336400e-004, -2.09779872e-004, 0., -7.95354042e-003, 0.,
          -5.31304104e-004, 0., 0., -3.51005321e-004, -2.93541834e-005,
          1.32667003e-004, -3.72980093e-003, -3.90141527e-003,
          -3.71418498e-003, 0., -3.38732323e-004, -1.09403173e-003,
          -9.78499811e-005, -1.92768421e-004, -2.38652737e-003,
          -5.70462027e-004, -1.85492434e-004, 0., 0., -7.60992523e-003,
          -3.36231780e-004, -3.48013616e-003, -2.15092320e-002, 0., 0.,
          0., 0., 0., 0., 0., 0., 0., 0., 0., 0., 0., 0., 0., 0.,
          -6.17270300e-004, 0., 0., 0., 0., 0., 0., 0., -3.38732323e-004,
          0., 0., 0., -2.75183888e-003, 0., -2.03597662e-003,
          -2.42056069e-003, -1.03964063e-003, -1.92768421e-004, 0.,
          8.95484918e-005, -8.71971017e-004, 0., -3.38732323e-004,
          -7.49376952e-004, 0., 0., 0., 0., 0., 0., 0., 0.,
          -7.75504916e-004, -7.34115019e-006, 0., 0., -2.93541834e-005,
          0., 0., -7.34115019e-006, 0., 0., 0., 0., -1.46823004e-005,
          -7.34115019e-006, 0., -1.19863020e-004, -5.31304104e-004,
          -5.87083669e-005, 0., 0., -5.31304104e-004, 0., 0.,
          -1.28882719e-004, 0., 0., 0., 0., 0., 0., 0., -2.93541834e-005,
          -6.10076357e-003, -4.50239604e-004, -6.60186866e-004, 0.,
          -1.70816272e-003, 0., 0., -3.76861717e-004, -2.56753829e-003,
          0., 0., 0., -9.43303294e-003, -6.11546493e-005,
          -3.11695202e-003, -4.36263531e-003, 8.95484918e-005,
          -9.16781195e-004, 0., 1.90198989e-004, 0., -1.28882719e-004,
          0., 5.41886780e-004, 0., 0., 0., 0., -7.34115019e-006, 0., 0.,
          -1.63280801e-003, 0., 0., 0., -2.93541834e-005, 0.,
          -1.92768421e-004, 0., -1.46823004e-005, 0., -1.92768421e-004,
          0., 0., 0., -1.28882719e-004, 0., -3.63907241e-003, 0., 0., 0.,
          0., 0., 0., 0., 0., 0., 0., 0., 0., 0., 0., 0., 0., 0., 0., 0.,
          0., 0., 0., 0., 0., 0., -1.92768421e-004, 0., 0., 0., 0., 0.,
          -9.98755102e-004, 8.22073416e-005, 3.23876813e-002, 0.,
          1.67298429e-002, 0., 1.44366606e-003, 0., 3.86538915e-002, 0.,
          0., 0., 8.95484918e-005, 0., -2.32102655e-004, 0.,
          -1.49044150e-003, -5.87083669e-005, -4.35437891e-004, 0.,
          8.95484918e-005, -3.85536841e-004, -7.34115019e-006, 0.,
          5.50712226e-004, -1.28882719e-004, -2.93541834e-005, 0., 0.,
          0., -1.63899502e-004, 0., -8.88093654e-003, 3.45649227e-004,
          8.16717651e-003, 0., 1.64936893e-002, 0., -1.03196478e-003, 0.,
          5.47377672e-003, 0., 0., 0., 0., 0., 0., 0., -7.07474363e-004,
          -2.29674135e-003, 1.55048689e-003, 0., 5.76971332e-003,
          -5.31500729e-004, 2.66030867e-004, 0., -5.75171923e-003,
          -2.25078245e-003, -1.38569588e-003, 0., -8.35701532e-004,
          -5.98205999e-003, -1.61063264e-003, -3.93791683e-003,
          2.66526081e-002, -5.95984142e-003, -1.97482645e-003, 0.,
          -3.06899805e-004, 3.26469453e-004, 5.28812467e-004,
          -6.60383492e-004, 7.79068039e-004, 0., 0., 0., 0.,
          -1.41258864e-003, 0., -9.00528103e-004, -2.80385767e-003,
          -3.57976300e-003, -2.68106163e-003, 0., -6.19642029e-004,
          -1.96232475e-004, 0., -1.92768421e-004, 1.41115603e-003,
          1.21380908e-004, 0., 0., 0., -1.06565524e-002,
          -9.89468419e-004, -8.53340700e-003, -4.45652567e-002,
          -6.19642029e-004, -1.92768421e-004, 0., 0., 0., 0., 0., 0., 0.,
          0., 0., 0., 0., 0., 0., 0., -1.74019719e-003, -7.34115019e-006,
          0., 0., 0., 0., 0., 6.35491160e-004, -6.44055079e-004,
          -5.31304104e-004, 0., 0., -3.03468597e-003, -2.93541834e-005,
          -6.70415536e-003, -1.54431269e-003, 2.50117830e-003,
          4.96613269e-004, 0., 1.84148870e-004, 5.68893447e-004,
          2.46590731e-004, 1.84148870e-004, 2.11770428e-004, 0., 0., 0.,
          0., 1.65427817e-004, 0., 0., 0., 1.74064678e-003,
          -1.92768421e-004, 0., 0., 0., 0., 0., 0., -1.28882719e-004, 0.,
          0., 0., 1.53066556e-003, -9.98422547e-006, -7.34115019e-006,
          1.93269632e-004, 1.72210406e-004, -6.19642029e-004, 0.,
          1.84148870e-004, -3.78260855e-004, 0., 0., -2.00109571e-004,
          0., 0., 0., 0., 0., 0., 0., 0., 1.68953848e-003,
          -5.80534281e-004, 0., 0., -1.31835835e-003, -2.93541834e-005,
          0., -6.13644297e-005, -1.96000654e-003, -6.19642029e-004, 0.,
          0., -1.07708266e-002, -9.05088309e-005, -3.24692065e-003,
          -8.55184160e-003, 0., 6.96645817e-004, 0., -6.92049915e-004,
          0., 0., 0., 5.57316653e-003, 0., 0., 0., -7.34115019e-006, 0.,
          0., 0., -1.49145059e-003, 0., -7.34115019e-006, 0.,
          1.18898497e-004, -1.92768421e-004, 0., 0., 0., 0., 0., 0., 0.,
          1.65427817e-004, 0., 0., -1.49326283e-003, 0., 0., 0., 0., 0.,
          0., 0., 0., 0., 0., 0., 0., 0., 0., 0., 0., 0., 0., 0., 0., 0.,
          0., 0., 9.20744351e-005, 0., 0., 0., 0., 0., 0., 0.,
          -1.04578887e-003, -2.44259019e-004, 3.56701650e-002,
          -6.19642029e-004, 3.75192077e-003, -6.11546493e-005,
          5.46392519e-003, 0., 2.50959191e-002, 0., 0., 0.,
          9.20744351e-005, 0., 0., 0., -6.07467198e-004,
          -3.78260855e-004, 3.34086688e-003, 0., -5.31304104e-004, 0.,
          1.08142302e-003, 0., 3.72796319e-003, 0., 0., 0.,
          9.20744351e-005, -1.28882719e-004, 1.27828633e-003, 0.,
          -6.79415476e-004, 3.42453422e-004, 1.84167945e-003, 0.,
          8.52238014e-003, -1.92768421e-004, 0., 0., 7.03358848e-004, 0.,
          0., 0., -7.34115019e-006, 0., 0., 0., -5.64111862e-004,
          -1.79768563e-003, 1.45683568e-002, 0., 3.77863832e-003,
          -6.19642029e-004, 4.23557777e-003, 0., 2.83563100e-002,
          -1.79809483e-003, -3.66259774e-004, 0., -2.83444213e-004,
          -2.38849851e-003, 5.97085059e-003, -1.35789660e-003,
          -2.10286919e-002, -5.89948473e-003, -6.88285893e-003, 0.,
          -3.98749532e-003, -9.72118927e-004, 2.19188957e-003,
          -2.93462421e-004, -1.09312413e-002, 0., 0., 0., 0.,
          -6.26983179e-004, -5.31304104e-004, -1.33789424e-003,
          -3.24179477e-004, -3.54972528e-003, -4.59364336e-003,
          -6.19642029e-004, -7.34115019e-006, -9.06801375e-004,
          -1.17416734e-004, 5.63004141e-005, -2.57211598e-003,
          -8.63888301e-004, -6.19642029e-004, 0., 0., -5.18199103e-003,
          1.63258286e-003, -7.18375249e-003, -4.63131443e-002, 0., 0.,
          0., -1.92768421e-004, 0., 0., 0., 0., 0., 0., 0., 0., 0., 0.,
          0., -6.19642029e-004, -4.76367422e-004, -6.19642029e-004, 0.,
          0., 0., 0., 0., 0., -1.92833584e-004, 0., 0., 0.,
          4.90305363e-004, 0., -3.42619838e-003, -2.87826802e-003,
          3.12138069e-003, 6.96645817e-004, 0., 1.18898497e-004,
          -1.07370934e-003, 0., 4.89592639e-005, -7.42434408e-004, 0.,
          0., 0., 0., 6.96645817e-004, 0., 0., -5.31304104e-004,
          3.06299119e-003, 0., 0., 0., 0., 0., 0., 0., 0., 0., 0., 0.,
          2.30646529e-003, 8.95484918e-005, 0., -1.06413837e-003,
          -1.12772675e-003, 0., 0., 0., 0., 0., 0., -5.31304104e-004, 0.,
          0., 0., 0., 0., 0., 0., 0., 2.52590906e-002, 0., 0., 0.,
          4.26138239e-003, -1.00332792e-004, -1.92768421e-004,
          2.58449727e-004, 7.40677584e-003, 0., 0., 0., 3.98524962e-002,
          1.22627954e-003, -2.48857262e-003, -2.87989993e-003,
          5.63004141e-005, -9.07873909e-004, 0., -7.30015105e-004, 0.,
          0., 0., -3.35183686e-005, 0., 0., 0., 0., 0., 0., 0.,
          -1.87425700e-003, 0., 0., 0., -6.34324329e-004, 0., 0., 0.,
          -4.24296799e-004, 0., 0., 0., -1.92768421e-004, 0.,
          -5.31304104e-004, 0., -2.99171777e-003, 0., 0., 0., 0., 0., 0.,
          0., 0., 0., 0., 0., 0., 0., 0., 0., -6.19642029e-004, 0., 0.,
          0., 0., 0., 0., 0., 0., 0., 0., 0., 0., 0., 0., 0.,
