%YAML:1.0
---
opencv_ml_svm:
   format: 3
   svmType: C_SVC
   kernel:
      type: LINEAR
   C: 1.
   term_criteria: { epsilon:1.1920928955078125e-007, iterations:1000 }
   var_count: 16384
   class_count: 2
   class_labels: !!opencv-matrix
      rows: 2
      cols: 1
      dt: i
      data: [ 0, 1 ]
   sv_total: 1
   support_vectors:
      - [ 6.32745578e-005, -4.33002412e-003, 0., 2.16648696e-004,
          -1.03040948e-003, 0., 6.42887826e-005, -1.35371387e-002, 0.,
          0., 0., 0., 0., 0., 0., -9.06045083e-004, 0., 7.22162295e-005,
          0., 0., -7.80001807e-004, 0., 0., 0., 0., 0., 0., 0.,
          -4.29877043e-002, 0., -5.07373828e-003, -2.75863260e-002, 0.,
          0., 0., 0., 0., 0., 0., 0., 0., 0., 0., 0., 0., 0., 0., 0., 0.,
          0., 0., 0., 0., 0., 0., 0., 0., 0., 0., 0., -5.07371128e-003,
          0., -1.24924045e-004, -4.61888919e-003, 0., 0., 0.,
          6.42887826e-005, 0., 0., 0., -5.15484542e-004, 0., 0., 0., 0.,
          0., 0., 0., 0., 0., 0., 0., 0., 0., 0., 0., 0., 0., 0., 0., 0.,
          -3.90000903e-004, 0., 0., -2.54954444e-004, 0., 0., 0., 0., 0.,
          0., 0., 0., 0., 0., 0., 0., 0., 0., 0., 0., -7.76100671e-004,
          0., 0., 0., -1.95000460e-003, 0., 0., -7.80001807e-004, 0., 0.,
          0., 0., -3.60381827e-002, 0., 0., -3.37670259e-002, 0.,
          -4.47445642e-003, 0., -1.17523705e-004, 0., 0., 0.,
          -4.47080284e-003, 0., 0., 0., 0., 0., 7.22162295e-005,
          6.42887826e-005, -5.32358652e-003, 0., 0., 0., 1.28577565e-004,
          0., 0., 0., 0., 0., 0., 0., 0., 0., 0., 0., -9.06045083e-004,
          0., 0., 0., 0., 0., 0., 0., 0., 0., 0., 0., 0., 0., 0., 0., 0.,
          0., 0., 0., 0., 0., 0., 0., 0., 0., 6.42887826e-005, 0., 0.,
          0., 0., 0., 0., 7.22162295e-005, -2.07550321e-002, 0.,
          -3.41412611e-003, 0., -1.61784810e-005, 0., -1.79360416e-002,
          0., 0., 0., 0., 0., 0., 0., 8.37972038e-005, 7.22162295e-005,
          0., 0., 0., 0., 0., 0., -4.68317792e-003, 0., 0., 0., 0., 0.,
          0., 0., -4.44016606e-003, 0., 0., 0., 5.30165154e-004, 0., 0.,
          0., 3.45226261e-004, 0., 0., 0., 0., 0., 0., 0.,
          -4.68317792e-003, 0., -1.11844006e-003, 0., 0., 0.,
          -3.90000903e-004, 0., -2.45132092e-002, 0., 0., 0., 0., 0.,
          -3.86099768e-004, 0., 2.76235014e-001, 7.97509681e-004,
          1.28465984e-003, 0., 0., -5.63106453e-003, 6.42887826e-005, 0.,
          -2.17186529e-002, 0., 0., 0., 0., 0., 0., -1.56221527e-003,
          -1.24924045e-004, 0., 3.64123378e-004, 0., 0., 0., 0., 0., 0.,
          0., 0., 0., 0., -1.18720792e-002, 0., 0., -2.76059806e-002, 0.,
          0., 0., 0., 0., 0., 0., 0., 0., 0., 0., 0., 0., 0., 0., 0., 0.,
          0., 0., 0., 0., 0., 0., 0., 0., 0., 0., 0., 0., 0.,
          -4.68317792e-003, 0., 1.01593832e-004, 0., 0., 0.,
          -2.71135912e-004, 0., 0., -5.32355951e-003, 0., 0., 0., 0., 0.,
          0., 0., 0., 2.44348659e-004, 0., 0., 0., 0., 0., 0., 0., 0.,
          0., 0., 0., -3.90533736e-004, 0., 0., -6.50621310e-004, 0., 0.,
          0., 0., 0., 0., 0., 0., 0., 0., 0., 0., 0., 0., 0., 0., 0., 0.,
          0., 0., 0., 0., 0., -7.80001807e-004, 0., 0., 0., 0.,
          -2.47387309e-003, 0., 0., -1.77062452e-002, 0.,
          7.88055477e-004, 0., 1.04445789e-003, 0., 0., 0.,
          -4.19342751e-003, 0., 0., 0., 0., 0., 0., 0., -4.74348338e-003,
          0., 1.27599444e-004, 0., 2.25783588e-004, 0., 0., 0., 0., 0.,
          0., 0., 0., 0., 0., 0., 6.10066636e-005, 0., 0., 0., 0., 0.,
          0., 0., 0., 0., 0., 0., 0., 0., 0., 0., 0., 0., 0., 0., 0., 0.,
          0., 0., 0., 0., 0., 0., 0., 0., 0., 0., -1.24924045e-004,
          1.46424882e-005, 2.56305141e-003, 0., 9.39258467e-003, 0., 0.,
          0., -5.04134260e-002, 0., 0., 0., 0., 0., 0., 0.,
          6.47155612e-005, 0., 6.12374162e-004, 0., 2.82772264e-004, 0.,
          2.44348659e-004, 0., 2.97999824e-004, 0., 0., 0., 0., 0., 0.,
          0., -3.24411616e-002, 0., 5.21251187e-003, 0., 9.01851896e-003,
          0., 2.44348659e-004, 0., 2.33401963e-003, 0., 0., 0.,
          2.44348659e-004, 0., 0., 0., 4.46977239e-004, 0.,
          1.63420744e-003, 0., 1.39055878e-003, 0., 0., 0.,
          -2.05053370e-002, 0., 0., 0., 0., 0., 2.44348659e-004, 0.,
          1.73870072e-001, 9.68014007e-004, 3.07346316e-004, 0., 0.,
          -1.62510108e-002, 0., 0., -6.22760970e-003, 0., 0., 0., 0., 0.,
          0., -3.90000903e-004, 0., 2.43889852e-004, 0., 0., 0.,
          -1.56000361e-003, 0., 0., -2.09611561e-003, 0., 0., 0., 0.,
          -2.64750421e-002, 0., -5.07371128e-003, -5.29994704e-002, 0.,
          0., 0., 0., 0., 0., 0., 0., 0., 0., 0., 0., 0., 0., 0., 0., 0.,
          0., 0., 0., 0., 0., 0., 0., 0., 0., 0., 0., 0., 0.,
          -4.68317792e-003, -5.07371128e-003, -7.84660297e-005, 0., 0.,
          0., 0., 0., -3.90560512e-004, -1.24924045e-004, 0., 0., 0., 0.,
          0., 0., 0., 0., 0., 0., 0., 0., -3.90000903e-004, 0., 0.,
          -3.90000903e-004, 0., 0., 0., 0., -5.07371128e-003, 0., 0.,
          -1.02723734e-002, 0., 0., 0., 0., 0., 0., 0., 0., 0., 0., 0.,
          0., 0., 0., 0., 0., 4.71976309e-005, 0., 0., 0.,
          -3.27390735e-004, 0., 0., -1.95000460e-003, 0., 0., 0., 0.,
          -7.17049884e-003, 0., -3.90560512e-004, -2.58161016e-002, 0.,
          1.02558942e-003, 0., 2.65939248e-004, 0., 0., 0.,
          2.10556027e-004, 0., 7.24124140e-004, 0., 0., 0., 0., 0.,
          -1.24924045e-004, 0., 0., 0., 1.27599444e-004, 0., 0., 0., 0.,
          0., 0., 0., 0., 0., 0., 0., -2.49848090e-004, 0., 0., 0., 0.,
          0., 0., 0., 0., 0., 0., 0., 0., 0., 0., 0., 0., 0., 0., 0., 0.,
          0., 0., 0., 0., 0., 0., 0., 0., 0., 0., 0., -4.68648225e-003,
          0., 3.76892835e-002, 0., 1.62361935e-002, 0., -1.42754812e-004,
          0., 2.52414364e-002, 0., 0., 0., 0., 0., 0., 0.,
          3.50387454e-005, 0., 1.38339790e-004, 0., 1.00080378e-003, 0.,
          -1.15653544e-004, 0., 1.45053619e-003, 0., 0., 0., 0., 0.,
          -1.65219353e-005, 0., -6.81531802e-003, 0., 1.80279277e-002,
          0., 1.08186360e-002, 0., 0., 0., 8.20375141e-003, 0., 0., 0.,
          0., 0., 0., 0., 0., 2.44348659e-004, 1.94021109e-002, 0.,
          5.97792212e-003, 0., 3.53153708e-004, 0., -1.41570810e-002, 0.,
          0., 0., 0., 0., -2.44971685e-004, 0., 5.10182530e-002,
          2.43889852e-004, 1.94357347e-003, -4.68317792e-003, 0.,
          -2.12862343e-003, -1.69312430e-003, 0., -1.34011135e-002, 0.,
          0., 0., 0., 0., 0., -4.95477254e-003, -4.68317792e-003, 0.,
          9.75559407e-004, 0., 0., -1.17000274e-003, -9.91316119e-006,
          0., 1.07333821e-003, 0., 0., 0., 0., -1.46649068e-003,
          -2.45249877e-003, 4.87779704e-004, -5.41503541e-002, 0., 0.,
          0., 0., 0., 0., 0., 0., 0., 0., 0., 0., 0., 0., 0., 0., 0., 0.,
          0., 0., 0., 0., 0., 0., 0., 0., 0., 0., 0., 0., 0.,
          -3.30438706e-006, 1.13684149e-003, 0., 0., 0.,
          -2.60060799e-004, 0., 0., 0., 0., 0., 0., 0., 0., 0., 0., 0.,
          0., 0., 0., 0., -3.93305294e-004, -9.91316119e-006, 0.,
          -3.90000903e-004, 0., 0., 0., 0., 0., -5.15484542e-004, 0.,
          -1.08298520e-003, 2.44348659e-004, 0., 0., 0., 0., 0., 0., 0.,
          0., 0., 0., 0., 0., 0., 0., 0., 1.96062960e-003, 0., 0., 0.,
          3.41668667e-004, 0., 0., -1.17000274e-003, 0., 0., 0., 0.,
          -6.46801200e-004, 0., 0., -2.51387898e-003, 0., 0., 0., 0., 0.,
          0., 0., -3.90560512e-004, 0., 0., 0., 0., 0., 0., 0.,
          -6.63592666e-003, 0., 0., 0., 0., 0., 0., 0., 0., 0., 0., 0.,
          0., 0., 0., 0., -9.24738962e-003, 0., 0., 0., 0., 0., 0., 0.,
          0., 0., 0., 0., 0., 0., 0., 0., 0., 0., 0., 0., 0., 0., 0., 0.,
          0., 0., 0., 0., 0., 0., 0., 0., -3.90000903e-004,
          8.15627282e-005, 6.80682585e-002, 0., 2.58019287e-002, 0.,
          3.08573013e-004, 0., 2.01688856e-002, 0., 0., 0., 0., 0., 0.,
          0., -5.15484542e-004, 0., 3.71032371e-003, 0., 0., 0.,
          1.11801107e-003, 0., 1.49282452e-003, 0., 0., 0., 0., 0.,
          -1.17384158e-002, 0., -1.37158958e-002, 9.80420155e-004,
          1.79775562e-002, 0., 3.12402267e-002, 0., 0., 0.,
          1.33882910e-002, 0., 0., 0., 0., 0., 0., 0., 7.24124140e-004,
          4.73643094e-003, 4.82271127e-002, 0., 1.07925441e-002, 0.,
          3.04669910e-003, 0., 3.66997980e-002, 6.42887826e-005,
          9.77394637e-004, 0., 2.76679581e-004, 0., 1.41717307e-003, 0.,
          -1.59294069e-001, -3.90533736e-004, -3.90560512e-004, 0., 0.,
          -1.59380352e-003, -2.06193817e-003, 0., -1.56072350e-002, 0.,
          0., 0., 0., -4.81320824e-003, 0., -9.27849021e-003,
          -7.97272718e-004, 2.43889852e-004, 2.43889852e-004, 0., 0.,
          4.67953389e-004, -1.32175483e-005, 0., 2.43889852e-004, 0., 0.,
          0., 0., -1.01467911e-002, -3.99727374e-003, 2.38663121e-003,
          -5.38125336e-002, 0., 0., 0., 0., 0., 0., 0., 0., 0., 0., 0.,
          0., 0., 0., 0., 0., 0., 0., 0., 0., 0., 0., 0., 0., 0., 0., 0.,
          0., 9.44744024e-005, 0., 1.17171381e-003, -4.13777831e-004,
          2.57794769e-003, 0., 0., 0., 0., -3.90560512e-004, 0., 0., 0.,
          0., 0., 0., 0., 0., 0., 0., 6.22130057e-004, 0., 0., 0.,
          2.73375190e-004, -2.64350965e-005, 0., 0., 0., 0., 0., 0.,
          -1.06266106e-003, -1.29492686e-003, 0., -2.85509625e-004, 0.,
          0., 0., 0., 0., 0., 0., 0., 0., 0., 0., 0., 0., 0., 0., 0.,
          1.35328779e-002, 0., 0., 0., 1.63255166e-003, 2.43889852e-004,
          0., 0., 4.51567175e-004, 0., 0., 0., 4.49930504e-003,
          2.43889852e-004, -5.07648289e-003, -1.06858192e-002, 0., 0.,
          0., 0., 0., 0., 0., -1.24924045e-004, 0., 0., 0., 0., 0., 0.,
          0., -5.15484542e-004, 0., 0., 0., 0., 0., 0., 0., 0., 0., 0.,
          0., 0., 0., 0., 0., -5.37204382e-004, 0., 0., 0., 0., 0., 0.,
          0., 0., 0., 0., 0., 0., 0., 0., 0., 0., 0., 0., 0., 0., 0., 0.,
          0., 0., 0., 0., 0., 0., 0., 0., 0., -5.07978722e-003,
          1.18366687e-003, 3.81920822e-002, 0., 1.18366687e-003, 0.,
          -1.19925442e-003, 0., 7.72204949e-004, 0., 0., 0., 0., 0., 0.,
          0., 0., 0., 3.04166321e-003, 0., 0., 0., 2.91275355e-004, 0.,
          -2.52220721e-004, 0., 0., 0., 0., 0., -6.74054623e-002, 0.,
          -8.63985810e-003, 2.19510472e-003, 3.42583507e-002, 0.,
          6.55391999e-003, 0., 0., 0., 1.52981107e-003, 0., 0., 0., 0.,
          0., 0., 0., -1.24924045e-004, 1.45934410e-002, 7.85915405e-002,
          0., 1.63520016e-002, 0., 8.26228131e-003, 0., 2.33571138e-002,
          9.65946820e-003, 4.30993456e-003, 0., 2.98833795e-004,
          4.69673454e-004, 9.67330765e-003, 0., -7.76811615e-002,
          -1.43233701e-004, -5.15484542e-004, 0., 1.38339790e-004,
          -1.15824090e-002, -3.93864902e-004, 0., -2.48561613e-002, 0.,
          0., 0., 0., -2.43095019e-006, 1.27599444e-004,
          -9.94196627e-003, -1.46208869e-004, 1.46424882e-005,
          -6.40408602e-004, 0., 0., -2.09369573e-005, -1.98263224e-005,
          0., -1.74088680e-004, 1.27599444e-004, 0., 0., 0.,
          -1.88262537e-002, -3.77015932e-003, -5.77508647e-004,
          -6.71872124e-002, 0., 0., 0., 0., 0., 0., 0., 0., 0., 0., 0.,
          0., 0., 0., 0., 0., 3.93538678e-004, 0., 0., 0., 0., 0.,
          2.25783588e-004, 0., 0., 0., 0., 0., -2.84419832e-004, 0.,
          7.33294946e-005, -5.24207717e-003, 1.00494397e-003, 0., 0., 0.,
          0., 0., 0., 0., 0., 0., 0., 0., 0., 0., 0., 0.,
          2.70101638e-003, 0., 0., 0., -4.06739011e-004,
          -1.32175483e-005, 0., 0., 0., 0., 0., 0., -5.89563046e-004,
          -2.34018592e-003, 0., -9.89521015e-003, 0., 0., 0., 0., 0., 0.,
          0., 0., 0., 0., 0., 0., 0., 0., 0., 0., 5.49108125e-002,
          1.46424882e-005, 0., 1.27599444e-004, 2.17465637e-003, 0., 0.,
          -3.17866594e-004, 1.32691925e-002, 0., 2.44348659e-004, 0.,
          3.25823724e-002, 3.53383046e-004, 2.92774639e-004,
          -1.33579141e-002, 0., 0., 0., 0., 0., 0., 0., 0., 0., 0., 0.,
          0., 0., 0., 0., -4.81320824e-003, 0., 0., 0., 0., 0., 0., 0.,
          0., 0., 0., 0., 0., 0., 0., 0., -4.94167814e-003, 0., 0., 0.,
          0., 0., 0., 0., 0., 0., 0., 0., 0., 0., 0., 0., 0., 0., 0., 0.,
          0., 0., 0., 0., 0., 0., 0., 0., 0., 0., 0., 0.,
          -3.30438706e-006, 0., 5.87142189e-004, 0., 0., 0., 0., 0.,
          -3.90533736e-004, 0., 0., 0., 0., 0., 0., 0., 0., 0.,
          -1.39844930e-003, 0., 0., 0., 6.45112959e-005, 0., 0., 0., 0.,
          0., 0., 0., -5.09931184e-002, 0., -2.61320174e-002,
          1.94467488e-003, 3.82688449e-004, 0., 0., 0., 0., 0., 0., 0.,
          0., 0., 0., 0., 0., 0., 0., 2.59158723e-002, 7.40833133e-002,
          0., 1.27599444e-004, 1.09214964e-003, 6.32058969e-003, 0.,
          -8.20725970e-003, 1.39716268e-002, 1.59466024e-002, 0.,
          1.27599444e-004, 8.20846390e-003, 2.93417834e-002,
          4.04279039e-004, -1.91705525e-002, 9.73011483e-004,
          1.29149485e-004, 0., 2.43889852e-004, -4.74017113e-003,
          1.42241930e-004, 1.27599444e-004, -2.52815671e-002, 0., 0., 0.,
          0., 1.27599444e-004, 8.15627282e-005, -3.90533736e-004,
          -1.45673679e-004, 1.75425049e-003, -9.40677477e-004, 0., 0.,
          -2.03273492e-003, 2.25783588e-004, 0., -8.27023468e-004,
          9.26668581e-004, 2.25783588e-004, 0., 0., -1.09497004e-003,
          -2.05726363e-003, 8.83696426e-004, -8.73041227e-002, 0., 0.,
          0., 0., 0., 0., 0., 0., 0., 0., 0., 0., 0., 0., 0., 0.,
          1.27325440e-003, 3.82798346e-004, 0., 0., 0., 0., 0., 0.,
          2.20008497e-003, 1.27599444e-004, 0., 0., 1.35644013e-003,
          4.69673454e-004, 6.16618607e-004, 2.13610299e-004,
          -8.07264238e-004, 2.95224221e-004, 0., 0., -1.11044049e-002,
          0., 0., -4.68317792e-003, 0., 0., 0., 0., 0., 0., 0., 0.,
          6.70098758e-004, 0., 0., 0., -1.61784810e-005, 0., 0.,
          -1.61784810e-005, 0., 0., 0., 0., -3.34052427e-004,
          -2.08012527e-003, 0., -1.48333730e-002, 2.40426074e-004, 0.,
          0., 0., 0., 0., 0., 0., 0., 0., 0., 0., 0., 0., 0., 0.,
          4.96572666e-002, 6.79445278e-004, 1.46424882e-005, 0.,
          -2.35696491e-002, 0., 0., 1.09319190e-004, 3.03110722e-002,
          1.03282835e-003, 0., 1.27599444e-004, 4.93240692e-002,
          4.39805037e-004, 2.99741654e-003, -2.75340769e-003,
          1.38339790e-004, 0., 0., 2.58532353e-004, 0., 0., 0.,
          -7.72199535e-004, 0., 0., 0., 0., 0., 0., 0., -3.86099768e-004,
          1.27599444e-004, 2.40426074e-004, 0., 8.15627282e-005, 0., 0.,
          0., 0., 0., 0., 0., 0., 0., 0., 0., -2.43857838e-004, 0., 0.,
          0., 0., 0., 0., 0., 0., 0., 0., 0., 0., 0., 0., 0., 0., 0., 0.,
          0., 0., 0., 0., 0., 0., 0., 0., 0., 0., 0., 0., 0.,
          -5.27963639e-005, 1.38339790e-004, 1.16559269e-003, 0.,
          2.43889852e-004, 1.38339790e-004, 2.25783588e-004, 0.,
          -2.62005460e-002, 0., 0., 0., 0., 0., 0., 0., -2.58500309e-004,
          2.40426074e-004, -8.85795918e-004, 0., 0., 0.,
          -1.24924045e-004, 0., -5.71019249e-004, 0., 0., 0., 0.,
          8.15627282e-005, -1.43725388e-002, 0., -3.17019261e-002,
          1.64320960e-003, 1.13689352e-003, 0., 0., 0., 0., 0.,
          3.64123378e-004, 0., 1.27599444e-004, 0., 0., 0., 0., 0.,
          2.19902518e-004, 2.06256919e-002, 2.40380988e-002, 0.,
          1.08219846e-003, 0., 6.85326348e-004, 0., -5.80960000e-003,
          2.20790785e-002, 8.21284018e-003, 0., 0., 1.28171192e-002,
          1.37920333e-002, 2.50859582e-003, 5.59872109e-003,
          7.11299200e-003, 3.85917933e-003, 2.43889852e-004,
          1.42755674e-003, -3.72161740e-004, 0., 0., -1.51373120e-002,
          6.42887826e-005, 0., 0., 0., 2.43889852e-004, 4.59542760e-004,
          -1.61784810e-005, 2.43889852e-004, 2.53788522e-003,
          2.77243555e-003, 0., 0., 1.22008799e-003, 0., 0.,
          -6.57925993e-005, 7.52862310e-004, 7.24124140e-004, 0., 0.,
          -3.62934545e-002, -1.76207162e-004, -3.13285226e-003,
          -6.31466359e-002, 0., 0., 0., 0., 7.22162295e-005, 0., 0., 0.,
          0., 0., 0., 0., 2.43889852e-004, 0., 6.42887826e-005, 0.,
          1.59647944e-003, 0., 0., 0., 0., 7.24124140e-004,
          7.88412930e-004, 0., 4.41162987e-003, 8.15627282e-005,
          2.43889852e-004, 0., -6.83195773e-004, 8.15627282e-005,
          7.07187399e-004, -1.10472897e-002, 1.35385152e-003, 0., 0., 0.,
          4.87779704e-004, 1.13859460e-004, 0., 2.43889852e-004, 0., 0.,
          0., 0., 4.87779704e-004, 0., 0., 0., 5.32754755e-004,
          4.59542760e-004, 0., 0., 5.41105459e-004, 0., 0.,
          4.43364261e-004, 0., 0., 0., 0., -3.26929726e-002,
          -5.05719509e-004, 4.59542760e-004, -4.28191107e-003,
          7.03432597e-004, 6.42887826e-005, 0., 0., 1.18366687e-003, 0.,
          0., 0., 0., 0., 0., 0., 0., 0., 0., 7.22162295e-005,
          9.64531116e-003, 1.74787873e-003, 0., 0., 1.44824828e-003,
          4.59542760e-004, 0., -3.50223563e-004, 1.73104201e-002,
          3.25452595e-004, 0., 0., -2.47217529e-002, -8.26620322e-004,
          -4.40614391e-003, -2.07483321e-002, 0., 7.31669599e-004, 0.,
          4.87779704e-004, 0., 0., 0., 3.17056803e-003, 0., 0., 0., 0.,
          0., 0., 0., 2.43889852e-004, 3.08178627e-004, 0., 0., 0., 0.,
          0., 0., 0., 0., 0., 0., 0., 0., 0., 0., 8.46092938e-004, 0.,
          0., 0., 0., 0., 0., 0., 0., 0., 0., 0., 0., 0., 0., 0., 0., 0.,
          0., 0., 0., 0., 0., 0., 0., 4.59542760e-004, 0., 0., 0., 0.,
          0., 0., 2.85391376e-004, 4.87779704e-004, 2.43889852e-004, 0.,
          7.31669599e-004, 0., 7.96340406e-004, 0., 3.23256454e-003, 0.,
          7.22162295e-005, 0., 0., 0., 7.24124140e-004, 0.,
          4.87779704e-004, 9.68014007e-004, 6.03975204e-004, 0., 0., 0.,
          0., 0., 2.99927604e-004, 0., 0., 0., 0., 0., -2.65842187e-003,
          0., -4.58409861e-002, -1.42209916e-004, 9.68014007e-004,
          2.43889852e-004, 2.43889852e-004, 0., 8.15627282e-005, 0., 0.,
          0., 0., 0., 0., 0., 0., 0., 0., 3.81086790e-003,
          2.87901820e-003, 0., 3.72467417e-004, 0., -2.32320803e-004, 0.,
          -8.84622261e-002, 1.73041259e-003, 7.76447181e-004, 0.,
          4.87779704e-004, 6.05805265e-003, -2.78504677e-002,
          5.27044700e-004, 2.81668723e-001, -6.95348863e-005,
          5.81647444e-004, 0., 2.44348659e-004, -9.57319979e-003,
          2.44348659e-004, -8.19230845e-005, -2.40680147e-002, 0., 0.,
          0., 0., 0., 0., -1.24924045e-004, -9.66680353e-004,
          1.01593832e-004, 7.22162295e-005, 0., 0., -1.56000361e-003, 0.,
          0., -1.20235968e-003, 0., 0., 0., 0., -1.59206074e-002, 0.,
          -3.90533736e-004, -2.36698724e-002, 0., 0., 0., 0., 0., 0., 0.,
          0., 0., 0., 0., 0., 0., 0., 0., 0., 0., 0., 0., 0., 0., 0., 0.,
          0., 0., 0., 0., 0., -4.68648225e-003, 0., -6.60877413e-006, 0.,
          -2.40296780e-004, -1.42754812e-004, 0., 0., -1.59035937e-003,
          0., 0., 0., 0., 0., 0., 0., 0., 0., 0., 0., 0., 0., 0., 0., 0.,
          0., 0., 0., 0., 0., 0., 0., -5.07371128e-003, 0., 0.,
          -4.80810180e-003, 0., 0., 0., 0., 0., 0., 0., 0., 0., 0., 0.,
          0., 0., 0., 0., 0., 2.28170160e-004, 0., 0., 0.,
          -2.35618395e-003, 0., 0., -1.57618208e-003, 0., 0., 0., 0.,
          -5.98948076e-002, 0., -3.30438706e-006, -5.61079755e-003, 0.,
          8.61623499e-004, 0., 2.00793802e-004, 0., 0., 0.,
          -3.86906991e-004, 0., 0., 0., 0., 0., 0., 0., -6.68905163e-003,
          2.44348659e-004, 0., 0., 0., 0., 0., 0., -3.90000903e-004, 0.,
          0., 0., 0., 0., 0., 0., -5.98528283e-003, 0., 0., 0., 0., 0.,
          0., 0., 0., 0., 0., 0., 0., 0., 0., 0., 0., 0., 0., 0., 0., 0.,
          0., 0., 0., 0., 0., 0., 0., 0., 0., 0., 0., 2.44348659e-004,
          -1.61114894e-002, 0., 3.08637420e-004, 2.44348659e-004, 0., 0.,
          -8.94343182e-002, 0., 0., 0., 0., 0., 0., 0., -5.39755542e-003,
          2.44348659e-004, 2.44348659e-004, 0., 0., 0., -2.08176381e-004,
          0., -4.06712206e-004, 0., 0., 0., 0., 0., -1.65219353e-005, 0.,
          -1.02516692e-002, 2.44348659e-004, 2.44348659e-004, 0.,
          -4.68317792e-003, 0., 0., 0., -4.52072546e-003, 0., 0., 0., 0.,
          0., 0., 0., 6.42887826e-005, 0., -5.24338568e-003, 0.,
          2.44348659e-004, 0., -3.23569620e-005, 0., -3.02792042e-002,
          0., 0., 0., 0., 0., -6.60877413e-006, 0., 3.38797927e-001,
          7.27876206e-004, 3.32350755e-004, 0., 2.25783588e-004,
          -1.63984522e-002, 0., 1.46424882e-005, -1.88844167e-002, 0.,
          0., 0., 0., -1.24924045e-004, 0., -1.69041695e-003,
          -5.15484542e-004, 0., 0., 0., 0., -1.90496026e-003, 0., 0.,
          -5.39575762e-004, 0., 0., 0., 0., -2.59289071e-002, 0.,
          -9.50745773e-003, -4.48236167e-002, 2.44348659e-004, 0., 0.,
          0., 0., 0., 0., 0., 0., 0., 0., 0., 0., 0., 0., 0.,
          4.88697318e-004, 0., 0., 0., 0., 0., 0., 0., 0., 0., 0.,
          6.42887826e-005, -6.77404285e-004, 0., -1.66450385e-002,
          -4.94920416e-003, 0., 0., 0., 0., 0., 0., 0., 0., 0., 0., 0.,
          0., 0., 0., 0., 2.25783588e-004, 0., 0., 0., 0.,
          -3.90000903e-004, -1.98263224e-005, 0., 0., 0., 0., 0., 0.,
          -3.90000903e-004, 0., 0., -1.55040417e-002, 0., 0., 0., 0., 0.,
          0., 0., 0., 0., 0., 0., 0., 0., 0., 0., 0., 2.44348659e-004,
          2.25783588e-004, 0., 0., -1.95000460e-003, 0., 0.,
          -2.34000548e-003, 2.44348659e-004, 0., 0., 0.,
          -6.91387290e-003, 0., -1.29102566e-003, -2.16279924e-002, 0.,
          6.74010545e-004, 0., 1.36344263e-003, 0., 0., 0.,
          -3.22058704e-003, 0., 0., 0., 0., 0., 0., 0., -4.97745723e-003,
          0., 0., 0., 0., 0., 0., 0., -3.90560512e-004, 0., 0., 0., 0.,
          0., 0., 0., -7.50690175e-004, 0., 0., 0., 0., 0., 0., 0., 0.,
          0., 0., 0., 0., 0., 0., 0., 0., 0., 0., 0., 0., 0., 0., 0., 0.,
          0., 0., 0., 0., 0., 0., 0., -1.41102515e-004, 2.44348659e-004,
          8.39345902e-003, 0., 7.09556835e-003, 0., 0., 0.,
          -6.51341677e-003, 0., 0., 0., 0., 0., 0., 0., -4.31419490e-003,
          0., 6.16296718e-004, 0., 5.19193476e-004, 0., -2.64350965e-004,
          0., -2.44368101e-004, 0., 2.25783588e-004, 0., 0., 0.,
          -6.63369545e-004, 0., -1.02491667e-002, 0., 6.14349078e-003,
          0., 7.06012361e-003, 0., 0., 0., 2.12066039e-003, 0., 0., 0.,
          0., 0., 0., 0., 3.16564867e-004, 2.44348659e-004,
          1.21782068e-003, 0., 1.22174330e-003, 0., 0., 0.,
          -2.13446468e-002, 0., 0., 0., 0., 0., -2.60060799e-004, 0.,
          2.05855474e-001, 1.75300939e-003, 2.80581735e-004, 0., 0.,
          -2.21431488e-003, 4.82343778e-004, -4.68317792e-003,
          4.25997394e-004, 0., 0., 0., 0., 0., 0., -1.30445673e-003,
          -2.61539337e-003, 0., 0., 0., 0., 2.17798210e-004,
          4.40392760e-004, 0., 4.39244264e-004, 0., 0., 0., 0.,
          -2.55739484e-002, -3.90091183e-004, -1.02835298e-002,
          -5.83783612e-002, 0., 0., 0., 0., 0., 0., 0., 0., 0., 0., 0.,
          0., 0., 0., 0., 0., 0., 0., 0., 0., 0., 0., 0., 0., 0., 0., 0.,
          0., -3.86099768e-004, 0., -6.65767305e-003, -1.06740631e-002,
          1.86766509e-003, 0., 0., 0., 6.89684646e-004, 0., 0.,
          -1.24924045e-004, 0., 0., 0., 0., 0., 0., 0., 0.,
          4.88697318e-004, 0., 0., 0., -3.30438706e-006,
          -9.91316119e-006, 0., 0., 0., 0., 0., 0., -3.90533736e-004,
          -2.60060799e-004, 0., -1.43322058e-003, 0., 0., 0., 0., 0., 0.,
          0., 0., 0., 0., 0., 0., 0., 0., 0., 0., 1.71044050e-003, 0.,
          0., 0., -1.61784810e-005, 0., 0., -3.23569620e-005, 0., 0., 0.,
          0., -1.13858236e-003, 0., -3.86099768e-004, -2.50594448e-002,
          0., 1.46424882e-005, 0., 7.39514828e-004, 0., 0., 0.,
          2.74547166e-003, 0., 0., 0., 0., 0., 0., 0., 1.31083513e-003,
          0., 0., 0., 0., 0., 0., 0., 0., 0., 0., 0., 0., 0., 0., 0.,
          -1.01245758e-004, 0., 0., 0., 0., 0., 0., 0., 0., 0., 0., 0.,
          0., 0., 0., 0., 0., 0., 0., 0., 0., 0., 0., 0., 0., 0., 0., 0.,
          0., 0., 0., 0., -5.58919599e-003, 0., 3.76615562e-002, 0.,
          3.69249284e-002, 0., 1.85460621e-003, 0., 4.66119125e-002, 0.,
          0., 0., 4.59542760e-004, 0., 0., 0., 1.08601374e-003, 0.,
          5.25286130e-004, 0., 3.71948088e-004, 0., 3.42522399e-004, 0.,
          3.30045517e-003, 0., 0., 0., 8.15627282e-005, 0.,
          -2.10814141e-002, 0., -8.18157569e-003, 5.60913526e-004,
          6.81937532e-003, 0., 1.81215387e-002, 0., 2.44348659e-004, 0.,
          1.50743537e-002, 0., 0., 0., 0., 0., 0., 0., 2.44348659e-004,
          9.77394637e-004, 7.44353049e-003, 0., 4.38600685e-003, 0.,
          3.71948088e-004, 0., 1.77067686e-002, 0., 9.48579574e-004, 0.,
          4.59542760e-004, 0., 1.19040918e-003, 0., -3.04065719e-002, 0.,
          5.87142189e-004, 0., 0., -6.56118570e-003, -2.61498964e-004,
          0., -1.16282925e-002, 0., 0., 0., 0., 0., 0., -1.45896077e-002,
          -1.24924045e-004, 0., 6.42887826e-005, 0., 0.,
          -1.68846454e-004, -1.32175483e-005, 0., -3.98759003e-004, 0.,
          0., 0., 0., -6.06465619e-003, -1.56009395e-003,
          -5.20590926e-004, -5.29648066e-002, 0., 0., 0., 0., 0., 0., 0.,
          0., 0., 0., 0., 0., 0., 0., 0., 0., 0., 0., 0., 0., 0., 0., 0.,
          0., 0., 0., 0., 0., 0., 0., -3.30438706e-006, -5.20564150e-004,
          9.76787880e-004, 0., 0., 0., -3.23569548e-004, 0., 0.,
          -2.76272522e-006, 0., 0., 0., 0., 0., 0., 0., 0.,
          7.45852420e-004, 0., 0., 0., 7.28695828e-004, 5.76800121e-005,
          0., -1.61784810e-005, 0., 0., 0., 0., -2.21002824e-003,
          -2.47012614e-003, 0., -5.85367624e-003, 0., 0., 0., 0., 0., 0.,
          0., 0., 0., 0., 0., 0., 0., 0., 0., 0., 3.17653222e-003, 0.,
          0., 0., 2.44348659e-004, 0., 0., -3.17866594e-004, 0., 0., 0.,
          0., 1.10576360e-003, 2.44348659e-004, 1.38339790e-004,
          -3.61869996e-003, 0., 4.59542760e-004, 0., 0., 0., 0., 0.,
          1.84484263e-004, 0., 0., 0., 0., 0., 0., 0., -1.56224205e-003,
          0., 0., 0., 0., 0., 0., 0., 0., 0., 0., 0., 0., 0., 0., 0.,
          -8.44984839e-004, 0., 0., 0., 0., 0., 0., 0., 0., 0., 0., 0.,
          0., 0., 0., 0., 0., 0., 0., 0., 0., 0., 0., 0., 0., 0., 0., 0.,
          0., 0., 0., 0., -1.33828935e-003, 6.42887826e-005,
          5.91205247e-002, 0., 3.50990109e-002, 0., 2.20151059e-003, 0.,
          3.84625904e-002, 0., 0., 0., 0., 0., 0., 0., -5.52662066e-004,
          0., 3.37719871e-003, 0., 0., 0., 3.13731632e-003, 0.,
          2.87785684e-003, 0., 0., 0., 0., 0., -3.57799344e-002, 0.,
          -3.37751862e-003, 0., 4.01874864e-003, 0., 2.19248626e-002,
          1.38339790e-004, 0., 0., 1.57306027e-002, 0., 0., 0., 0., 0.,
          0., 0., 0., 1.29395956e-003, 2.02356689e-002, 0.,
          6.23230310e-003, 0., 6.25481643e-003, 0., 2.16911584e-002,
          2.44348659e-004, 2.44348659e-004, 0., 2.58991146e-004,
          4.88697318e-004, 2.45350692e-003, 0., -1.00615568e-001,
          6.21897925e-004, 2.44348659e-004, 0., 0., -1.62446909e-002,
          -6.62155217e-004, 2.44348659e-004, -2.32757488e-003, 0., 0.,
          0., 0., 0., 0., -4.68594069e-003, -6.35947858e-004,
          7.54177745e-004, 7.33045978e-004, 0., 0., 3.16225283e-004,
          1.27599444e-004, 0., -1.12871162e-003, 0., 0., 0., 0.,
          1.84313787e-004, -1.83632562e-003, -1.35030787e-005,
          -4.87397872e-002, 0., 0., 0., 0., 0., 0., 0., 0., 0., 0., 0.,
          0., 0., 0., 0., 0., 0., 0., 0., 0., 0., 0., 0., 0.,
          1.38339790e-004, 0., 0., 0., 4.88697318e-004, 2.44348659e-004,
          -4.85784095e-003, 1.11420959e-004, 6.66724518e-003,
          2.44348659e-004, 0., 0., -3.29288392e-004, 1.27599444e-004, 0.,
          -5.71411988e-003, 0., 0., 0., 0., 0., 0., 0., 0.,
          2.25016288e-003, 2.44348659e-004, 0., 0., 5.31020574e-004,
          3.08178627e-004, 0., 0., 0., 0., 0., 0., 9.10209928e-005,
          -1.82015472e-003, 0., -1.11537669e-002, 4.59542760e-004, 0.,
          0., 0., 0., 0., 0., 0., 0., 0., 0., 0., 0., 0., 0., 0.,
          1.19829075e-002, 0., 0., 0., 3.08158714e-003, 1.38339790e-004,
          0., -7.78488058e-004, 8.77478393e-004, 0., 0., 0.,
          7.65083963e-003, 2.80581735e-004, -1.45652273e-004,
          2.09874543e-003, 0., 0., 0., 0., 0., 2.44348659e-004, 0., 0.,
          0., 0., 0., 0., 0., 0., 0., 0., 0., 0., 0., 0., 0., 0., 0., 0.,
          0., 0., 0., 0., 0., 0., 0., -5.15484542e-004, 2.44348659e-004,
          0., 0., 0., 0., 0., 0., 0., 0., 0., 0., 0., 0., 0., 0., 0., 0.,
          0., 0., 0., 0., 0., 0., 0., 0., 0., 0., -3.90533736e-004, 0.,
          0., 0., -5.21481410e-003, 0., 3.03452108e-002, 0.,
          1.18366687e-003, 0., 3.98945436e-003, 0., 7.44129298e-003, 0.,
          0., 0., 0., 0., 0., 0., -9.06045083e-004, 4.88697318e-004,
          5.06018056e-003, 0., 0., 0., 6.76472671e-003, 0.,
          3.77436448e-003, 0., 0., 0., 0., 0., -8.29973817e-003, 0.,
          -4.32784716e-003, 5.97882550e-004, 2.76546134e-003, 0.,
          3.68626742e-003, 0., 0., 0., 2.70195259e-003, 0., 0., 0., 0.,
          0., 0., 2.41044254e-004, -3.90560512e-004, 5.07301278e-003,
          3.29390168e-002, 0., 1.98000739e-003, 2.44348659e-004,
          1.38444295e-002, 0., 2.58062650e-002, 1.53830810e-003,
          1.04961079e-003, 0., 8.51723598e-004, 9.49694659e-004,
          1.21823885e-002, 0., -8.61114636e-002, 4.75194218e-004,
          2.44348659e-004, 0., 0., -9.74866655e-003, -2.70234700e-003,
          0., -1.18395882e-002, 0., 0., 0., 0., 1.38339790e-004, 0.,
          -4.97615617e-003, -5.46427211e-003, 9.91578330e-004, 0., 0.,
          0., 1.27236918e-003, 0., 2.44348659e-004, -3.65378946e-004,
          4.88697318e-004, 0., 0., 0., -2.91270111e-003,
          -2.55447091e-003, -5.60546340e-003, -4.47228029e-002, 0., 0.,
          0., 0., 0., 0., 0., 0., 0., 0., 0., 0., 0., 0., 0., 0.,
          2.44348659e-004, 0., 0., 0., 0., 0., 0., 0., 2.44348659e-004,
          0., 0., 0., 5.02422219e-004, 0., 6.01527572e-004,
          3.01992346e-004, 1.21282146e-003, 0., 0., 0., -3.90560512e-004,
          0., 0., -1.61784810e-005, 0., 0., 0., 0., 0., 0., 0., 0.,
          1.04800649e-002, 0., 0., 0., 6.58362964e-003, 5.02463197e-004,
          0., 0., 2.44348659e-004, 0., 0., 0., -1.20402384e-003,
          -6.65618980e-004, 0., -4.33523301e-003, 3.82688449e-004, 0.,
          0., 0., 0., 0., 0., 0., 0., 0., 0., 0., 0., 0., 0., 0.,
          3.87898684e-002, 2.44348659e-004, 0., 0., 9.37575940e-003, 0.,
          0., -8.75110636e-005, 1.33977374e-002, 0., 0., 0.,
          4.12493646e-002, 8.60317028e-004, 8.52361904e-004,
          -8.93526245e-003, 0., 0., 0., 2.44348659e-004, 0., 0., 0., 0.,
          0., 0., 0., 0., 0., 0., 0., -7.81094248e-004, 0., 0., 0., 0.,
          0., 0., 0., 0., 0., 0., 0., 0., 0., 0., 0., -3.90560512e-004,
          0., 0., 0., 0., 0., 0., 0., 0., 0., 0., 0., 0., 0., 0., 0., 0.,
          0., 0., 0., 0., 0., 0., 0., 0., 0., 0., 0., 0., 0., 0., 0.,
          -4.06712206e-004, 2.44348659e-004, 4.88697318e-004, 0., 0., 0.,
          -5.15484542e-004, 0., -3.90533736e-004, 0., 0., 0., 0., 0., 0.,
          0., 0., 0., 2.25573475e-003, 0., 0., 0., 9.49263107e-003, 0.,
          -1.61784810e-005, 4.88697318e-004, 0., 0., 0., 0.,
          -2.72632483e-002, 0., -1.00829611e-002, 1.92243350e-003,
          2.44348659e-004, 0., 0., 0., 0., 0., 0., 0., 0., 0., 0., 0.,
          0., 0., 0., 3.47478641e-003, 1.84571277e-002, 0., 0., 0.,
          1.37793003e-002, 0., 2.79373094e-003, 9.87885147e-003,
          1.17857009e-003, 0., 7.24124140e-004, 6.10580109e-003,
          4.42476943e-002, 0., -9.95735005e-002, -2.08606641e-003,
          3.46049143e-004, 1.38339790e-004, 0., -2.91004237e-002,
          -1.42152968e-003, 1.27599444e-004, -5.23330877e-003,
          1.46424882e-005, 0., 0., 0., 0., 0., -4.67763096e-003,
          -1.24924045e-004, 1.91581575e-003, 1.42241930e-004, 0.,
          2.65939248e-004, -2.92265974e-003, 0., 5.89906995e-004,
          -1.42754812e-004, 3.27415124e-004, 0., 0., 0.,
          -1.02710016e-002, -2.93755252e-003, -4.18011704e-003,
          -1.04119711e-001, 0., 0., 0., 0., 6.42887826e-005, 0., 0., 0.,
          0., 0., 0., 0., 0., 0., 0., 0., 3.40968370e-004, 0., 0., 0.,
          0., 0., 0., 0., 2.67690374e-003, 2.65939248e-004, 0., 0.,
          9.81394388e-003, 0., 5.77630650e-004, -9.00707208e-003,
          -3.52367433e-003, 0., 0., 0., -5.37338294e-003, 0.,
          -2.67880200e-003, 0., 0., 0., 0., 0., 1.27599444e-004, 0., 0.,
          0., 2.25094394e-004, 0., 0., 0., 0., 0., 0., 0.,
          1.91888234e-004, 0., 0., 0., -1.61575116e-002,
          -1.24924045e-004, 0., -6.99129945e-004, 1.27599444e-004, 0.,
          0., 0., 0., 0., 0., 0., 0., 0., 0., 0., 0., 0., 0., 0.,
          3.07740476e-002, 0., 0., 5.79166634e-004, -2.33496842e-003,
          1.27599444e-004, 0., 0., 4.16346751e-002, 0., 0., 0.,
          1.34137467e-001, 8.62463959e-004, 1.80027355e-003,
          -1.75316520e-002, 0., 0., 0., 1.46424882e-005, 0., 0., 0.,
          -3.90560512e-004, 0., 0., 0., 0., 0., 0., 0., -7.81121023e-004,
          0., 0., 0., 0., 0., 0., 0., 0., 0., 0., 0., 0., 0.,
          1.38339790e-004, 0., -1.41102515e-004, 0., 0., 0., 0., 0., 0.,
          0., 0., 0., 0., 0., 0., 0., 1.38339790e-004, 0., 0., 0., 0.,
          0., 0., 0., 0., 0., 0., 0., 0., 6.42887826e-005, 0., 0., 0.,
          0., -5.37444092e-003, 0., 1.38339790e-004, 0., 0., 0.,
          -6.40408602e-004, 0., -1.81873217e-002, 0., 0., 0., 0., 0., 0.,
          0., -3.90560512e-004, 0., -7.81121023e-004, 0., 0., 0., 0., 0.,
          0., 1.27599444e-004, 0., 0., 0., 0., -4.78900783e-002, 0.,
          -6.99728308e-003, 2.40426074e-004, 2.25783588e-004, 0., 0., 0.,
          0., 0., 2.25783588e-004, 7.22162295e-005, 0., 0., 0., 0., 0.,
          0., 0., 1.87526038e-003, 4.75640548e-003, 0., 1.27599444e-004,
          0., 1.26522966e-003, 0., -4.28264466e-004, 5.95482532e-003,
          5.11245569e-004, 0., 2.25783588e-004, 8.17626808e-003,
          1.28700593e-002, 8.23081064e-004, 4.04840000e-002,
          1.17207319e-003, 9.68014007e-004, 0., 0., -6.33068848e-003,
          8.15627282e-005, 2.43889852e-004, -3.01517956e-002, 0., 0., 0.,
          0., 7.25981881e-005, 0., -4.68317792e-003, -1.41957421e-002,
          4.34362935e-003, 7.09526939e-004, 0., 0., 4.38614516e-004, 0.,
          0., -2.86317663e-003, 2.08980707e-003, 0., 0., 0.,
          -1.21063069e-002, -4.13823500e-003, -3.48157389e-003,
          -8.19737092e-002, 0., 0., 0., 0., 0., 0., 0., 0., 0., 0., 0.,
          0., 2.43889852e-004, 0., 0., 0., 1.55282090e-003,
          4.59542760e-004, 0., 4.59542760e-004, 0., 0., 0., 0.,
          4.81706811e-003, 8.41772417e-004, 0., 0., 7.75782205e-003,
          1.08221092e-003, -4.93789703e-005, 3.45746113e-004,
          2.56209205e-005, 0., 0., 0., -8.97123595e-004, 0.,
          -3.86099768e-004, -5.45981107e-003, 0., 0., 0., 0.,
          2.43889852e-004, 0., 0., 0., -2.16643023e-003, 0., 0., 0.,
          -3.90560512e-004, 0., 0., -2.85509625e-004, 5.23831521e-004,
          0., 0., 0., -8.70859437e-003, 0., -9.72471840e-004,
          -1.90198689e-003, 1.51253713e-003, 0., 0., 0., 0., 0.,
          2.43889852e-004, 0., 0., 0., 0., 0., 0., 0., 5.31758997e-004,
          0., 8.13293457e-003, 2.43889852e-004, 0., 0., -2.13904735e-002,
          0., 0., -2.82155676e-003, 1.47577664e-002, 6.94884453e-004, 0.,
          0., 4.62403335e-002, -2.38565658e-003, 3.29862494e-004,
          -4.76632547e-003, 1.38339790e-004, 0., 0., 2.43889852e-004, 0.,
          0., 0., 1.95111881e-003, 0., 0., 0., 0., 0., 0., 0.,
          -8.78079701e-003, 0., 0., 0., 0., 0., 0., 0., 0., 0., 0., 0.,
          0., 0., 0., 2.43889852e-004, -9.36635584e-003, 0., 0., 0., 0.,
          0., 0., 0., 0., 0., 0., 0., 0., 0., 0., 0., 0., 0., 0., 0., 0.,
          0., 0., 0., 0., 6.42887826e-005, 0., 0., 0., 0., 0., 0.,
          -4.97559551e-003, 0., 3.82229657e-004, 0., 1.70722895e-003, 0.,
          0., 0., -9.24903434e-003, 0., 0., 0., 0., 0., 0., 0.,
          4.87779704e-004, 0., -1.93701417e-003, 0., 0., 0., 0., 0.,
          -1.42754812e-004, 1.38339790e-004, 0., 0., 0., 0.,
          -1.32967355e-002, 2.43889852e-004, -4.62470017e-002,
          2.43889852e-004, 7.24124140e-004, 0., 4.87779704e-004, 0., 0.,
          0., 2.43889852e-004, 0., 0., 0., 0., 0., 0., 0., 0.,
          7.22162295e-005, 1.66698883e-003, 0., 2.43889852e-004, 0., 0.,
          0., -2.83356011e-001, 3.88875068e-003, 7.24124140e-004, 0., 0.,
          3.87381483e-003, -5.66854067e-002, 1.05742528e-003,
          5.26553869e-001, -4.48222691e-003, -1.46211867e-004, 0., 0.,
          -1.05231616e-003, 0., 0., -4.14778963e-002, 0., 0., 0., 0.,
          -3.86099768e-004, 0., -3.90560512e-004, -1.41706888e-003,
          -4.69935639e-003, 0., 0., 0., -4.22701232e-005,
          -4.59179646e-005, 0., -4.39095951e-004, 0., 0., 0., 0.,
          -1.87288467e-002, -1.30030396e-003, 2.44348659e-004,
          -2.00551841e-002, 0., 0., 0., 0., 0., 0., 0., 0., 0., 0., 0.,
          0., 0., 0., 0., 0., 0., 0., 2.44348659e-004, 0., 0., 0., 0.,
          0., 0., 0., 0., 0., 4.85392899e-004, 0., -5.23335708e-004,
          -1.24924045e-004, 2.44348659e-004, 0., 0., 0., 0., 0., 0., 0.,
          0., 0., 0., 0., 0., 0., 0., 0., -7.80001807e-004, 0., 0., 0.,
          0., -9.91316119e-006, 0., 0., 0., 0., 0., 0., -3.12213856e-003,
          -2.60060799e-004, 2.44348659e-004, -7.76633504e-004, 0., 0.,
          0., 0., 0., 0., 0., 0., 0., 0., 0., 0., 0., 0., 0., 0.,
          1.01593832e-004, 0., 0., 0., -1.13249363e-004, 0., 0.,
          2.11991690e-004, 0., 0., 0., 0., -5.30247912e-002,
          -4.68317792e-003, -3.30438706e-006, -8.06416292e-003, 0., 0.,
          0., 0., 0., 0., 2.44348659e-004, -5.58473542e-003, 0., 0., 0.,
          0., 0., 0., 0., -3.36538395e-003, 0., 0., 0., 0., 0., 0., 0.,
          0., 0., 0., 0., 0., 0., 0., 0., -5.19866217e-003, 0., 0., 0.,
          0., 0., 0., 0., 0., 0., 0., 0., 0., 0., 0., 0., 0., 0., 0., 0.,
          0., 0., 0., 0., 0., 0., 0., 0., 0., 0., 0., 0.,
          -2.82848050e-004, 0., -1.06801791e-002, 0., 2.44348659e-004,
          0., -1.42754812e-004, 0., -7.06226230e-002, 0., 0., 0., 0., 0.,
          0., 0., -5.11023798e-004, 0., 0., 0., 0., 0., -6.27833579e-005,
          0., -7.08400330e-004, 0., 0., 0., 0., 0., -1.04013486e-002, 0.,
          -3.28072272e-002, 0., 0., 0., 2.43889852e-004, 0., 0., 0.,
          -4.68317792e-003, 0., 0., 0., 0., 0., 2.44348659e-004, 0.,
          -5.15484542e-004, 0., -2.92978273e-003, 0., 0., 0.,
          -1.42754812e-004, 0., -1.49466135e-002, 0., 0., 0., 0., 0.,
          -1.69885741e-003, 2.44348659e-004, 3.28436017e-001,
          2.12997850e-003, 2.13706214e-003, 0., 8.61164706e-004,
          -3.31795221e-004, 2.75442551e-004, 4.96812354e-005,
          -2.25402694e-002, 0., 0., 0., 0., 3.82688449e-004, 0.,
          -4.59063798e-003, 3.17037012e-003, 2.44348659e-004,
          2.08721249e-004, 0., 0., -3.08296876e-004, 1.42494014e-006,
          2.43889852e-004, 1.05055131e-003, 3.08637420e-004, 0., 0., 0.,
          -1.38013959e-002, -8.98001192e-004, -1.18775014e-003,
          -5.71444593e-002, 2.43889852e-004, 6.42887826e-005, 0., 0., 0.,
          0., 0., 3.82688449e-004, 0., 0., 0., 0., 0., 0., 0., 0., 0.,
          0., 0., 0., 0., 0., 0., 4.87779704e-004, 0., 0., 0., 0.,
          6.27037080e-004, 0., -3.93305294e-004, 6.94185554e-004,
          3.08637420e-004, 7.32587127e-004, 0., 0., -1.61784810e-005, 0.,
          2.44348659e-004, 2.25783588e-004, 0., 0., 0., 0., 0., 0., 0.,
          0., 2.44348659e-004, 0., 0., 0., -3.30438706e-006,
          -3.30438706e-006, 0., -1.61784810e-005, 0., 0., 0., 0.,
          -1.30030399e-004, -1.30012340e-003, 0., -6.85314299e-004, 0.,
          0., 0., 0., 0., 0., 0., 3.08637420e-004, 0., 0., 0., 0., 0.,
          0., 0., 0., -6.38235433e-005, 0., 0., 0., -3.01688124e-004, 0.,
          0., -4.44442936e-004, 2.25783588e-004, 0., 0., 0.,
          -3.28374212e-003, 0., 0., -1.72014832e-002, 0.,
          1.36505012e-004, 0., 1.72938150e-003, 0., 6.42887826e-005, 0.,
          4.52576950e-003, 0., 0., 0., 0., 0., 0., 0., 6.82731741e-004,
          0., 7.22162295e-005, 2.44348659e-004, 0., 0., 0., 0.,
          2.43889852e-004, 0., 0., 0., 0., 0., 7.22162295e-005, 0.,
          1.29242765e-003, 0., 0., 0., 0., 0., 0., 0., 0., 0., 0., 0.,
          0., 0., 0., 0., 0., 0., 0., 0., 2.44348659e-004, 0., 0., 0.,
          2.44348659e-004, 0., 0., 0., 0., 0., 0., 0., -5.20564150e-004,
          0., 2.77844374e-003, 0., 3.78734409e-003, 6.42887826e-005,
          -1.75811641e-003, 0., 2.14146101e-003, 0., 0., 0., 0., 0., 0.,
          0., 1.71292480e-003, 0., 0., 0., 0., 0., -4.23044781e-004, 0.,
          5.69369935e-004, 0., 0., 0., 0., 0., -3.26309502e-002, 0.,
          -5.86944558e-002, 0., 1.43229926e-003, 0., 1.07827224e-003, 0.,
          0., 0., 7.69634789e-004, 0., 0., 0., 0., 0., 0., 0.,
          7.33045978e-004, 2.44348659e-004, -7.13774120e-004, 0., 0., 0.,
          0., 0., -8.18682835e-004, 0., 0., 0., 0., 0., -1.05278706e-003,
          0., 1.80540025e-001, 2.64326809e-003, 4.96118842e-003, 0.,
          2.32291757e-003, 6.77767734e-004, 1.42659189e-003,
          1.21641213e-004, 1.44331297e-002, 0., 0., 0., 0.,
          1.27599444e-004, 2.44348659e-004, -8.55060946e-003,
          1.75302941e-002, 1.38890918e-003, 1.27599444e-004, 0., 0.,
          -2.50418350e-004, 2.58991146e-004, 0., 1.55858905e-003, 0.,
          2.44348659e-004, 0., 0., -1.94299966e-002, -2.60006636e-003,
          1.36479095e-003, -5.67743033e-002, 0., 0., 0., 0.,
          2.44348659e-004, 0., 0., 0., 0., 0., 0., 0., 0., 0., 0., 0.,
          0., 0., 0., 0., 0., 0., 0., 0., 0., 0., 0., 0.,
          1.46333920e-003, 0., -4.11389535e-003, -7.53413551e-005,
          1.39911938e-003, 0., 0., 0., 0., 0., 0., -4.31122957e-003, 0.,
          0., 0., 0., 0., 0., 0., 2.44348659e-004, 1.38339790e-004,
          7.22162295e-005, 0., 0., 6.42887826e-005, 6.42887826e-005, 0.,
          0., 0., 0., 0., 0., -2.19482603e-003, -2.44075106e-003, 0.,
          -5.41589048e-004, 7.24124140e-004, 0., 0., 0., 0., 0., 0., 0.,
          0., 0., 0., 0., 0., 0., 0., 0., 1.22128439e-003,
          3.71948088e-004, 0., 0., 0., 0., 0., -6.51911658e-004, 0., 0.,
          0., 0., -6.60271326e-004, 2.43889852e-004, 2.43889852e-004,
          -1.86572745e-002, 0., 0., 0., 3.06473440e-003, 0.,
          2.44348659e-004, 7.24124140e-004, 1.25287250e-002, 0., 0., 0.,
          0., 0., 0., 0., 1.01377191e-002, 0., 0., 0., 0., 0., 0., 0.,
          0., 0., 0., 0., 0., 0., 0., 0., 7.06064561e-003, 0., 0., 0.,
          0., 0., 0., 0., 0., 0., 0., 0., 0., 0., 0., 0., 0., 0., 0., 0.,
          0., 0., 0., 0., 0., 0., 0., 0., 0., 0., 0., 0.,
          1.36461796e-003, 0., 7.42600067e-003, 0., 3.67855886e-003, 0.,
          1.55646459e-003, 0., 3.27573121e-002, 0., 0., 0., 0., 0., 0.,
          0., 3.09595047e-003, 0., 2.44348659e-004, 0., 7.03891390e-004,
          0., 1.43220052e-004, 0., 1.13447127e-003, 0., 0., 0., 0., 0.,
          -1.83889996e-002, 0., -4.62500267e-002, 0., 2.91388156e-003,
          0., 2.15213979e-003, 0., 0., 0., 1.87307282e-003,
          2.43889852e-004, 0., 0., 0., 0., 0., 0., 6.85326348e-004,
          2.43889852e-004, 6.16296718e-004, 0., 2.44348659e-004, 0., 0.,
          0., -2.84275669e-003, 0., 0., 0., 0., 2.44348659e-004,
          2.88276118e-004, 2.44348659e-004, 3.71919274e-002,
          4.88697318e-004, 7.03432597e-004, 2.25783588e-004,
          6.85326348e-004, -1.49617332e-003, 3.06912255e-003, 0.,
          2.70265974e-002, 0., 0., 0., 0., 1.35035414e-004, 0.,
          2.10110302e-004, 5.00704627e-003, 2.44348659e-004,
          3.72926210e-004, 0., 0., 1.32654313e-004, 1.23271451e-003, 0.,
          -1.05760875e-004, 0., 0., 0., 0., -5.45660034e-003,
          -1.17009296e-003, -4.60813241e-003, -7.84412250e-002, 0., 0.,
          0., 0., 0., 0., 0., 0., 0., 0., 0., 0., 0., 0., 0., 0., 0.,
          7.24124140e-004, 0., 0., 0., 0., 0., 0., 2.44348659e-004, 0.,
          0., 0., -1.61784810e-005, 0., 1.97489411e-004,
          -8.32333462e-004, 3.68025532e-004, 0., 0., 0., 3.55610857e-004,
          0., 0., 5.99200139e-004, 0., 0., 0., 0., 0., 0., 0.,
          6.42887826e-005, 0., 0., 0., 0., 3.31206160e-004,
          2.57155130e-004, 0., 0., 0., 0., 0., 0., -1.24353205e-003,
          -5.20031317e-004, 0., -1.06631890e-002, 2.44348659e-004, 0.,
          0., 0., 0., 0., 0., 0., 0., 0., 0., 0., 0., 0., 0., 0.,
          4.15000459e-003, 0., 0., 0., 1.18342182e-003, 0., 0.,
          -2.89924676e-004, 4.88697318e-004, 0., 0., 0., 6.00857241e-003,
          1.38339790e-004, 5.27333614e-005, -1.07109621e-002, 0.,
          4.88697318e-004, 0., 2.38272455e-003, 0., 0., 0.,
          2.06184033e-002, 0., 0., 0., -1.24924045e-004, 0., 0., 0.,
          1.05333729e-002, 0., 0., 0., 7.24124140e-004, 0., 0., 0., 0.,
          0., 0., 0., 0., 0., 0., 0., 2.25068652e-003, 0., 0., 0., 0.,
          0., 0., 0., 0., 0., 0., 0., 0., 0., 0., 0., 0., 0., 0., 0., 0.,
          0., 0., 0., 0., 0., 0., 0., 0., 0., 0., 0., -6.06352551e-005,
          9.77394637e-004, 9.11916699e-003, 0., 6.13317546e-003, 0.,
          2.89511960e-003, 0., 6.27913699e-002, 0., 0., 0., 0., 0., 0.,
          0., 7.14730425e-003, 0., 6.42887826e-005, 0., 0., 0.,
          5.14310261e-004, 0., 5.43645630e-003, 0., 0., 0., 0., 0.,
          -1.94178545e-003, 0., -2.42549628e-002, 2.44348659e-004,
          9.76935844e-004, 0., 9.48240049e-004, 0., 0., 0.,
          2.22721160e-003, 0., 0., 0., 0., 0., 0., 0., 4.59542760e-004,
          5.37521113e-003, 9.14967153e-003, 0., 2.44348659e-004, 0.,
          2.44348659e-004, 0., 1.15079740e-002, 1.22174330e-003,
          9.77394637e-004, 0., 0., 2.44348659e-004, 2.84296623e-003,
          2.44348659e-004, -8.19901451e-002, 4.24048165e-004,
          1.54744019e-003, 0., 6.22668187e-004, -9.07927100e-003,
          2.17237254e-003, 4.59542760e-004, 7.36937905e-003, 0., 0., 0.,
          0., 3.82688449e-004, 0., -2.96454265e-004, 1.74422171e-002,
          2.44348659e-004, 9.68472799e-004, 0., 0., 3.17465211e-003,
          9.68014007e-004, 0., 1.57652015e-003, 0., 0., 0., 0.,
          3.18711740e-003, 3.08178627e-004, 1.58978552e-002,
          -3.17134894e-002, 0., 0., 0., 2.44348659e-004, 0., 0., 0., 0.,
          0., 0., 0., 0., 0., 0., 0., 0., 0., 0., 0., 0., 0., 0., 0., 0.,
          4.88697318e-004, 0., 0., 0., 5.41516766e-003, 1.27599444e-004,
          8.33477173e-003, 4.89680655e-003, 5.70260047e-004, 0., 0., 0.,
          0., 0., 0., 7.24124140e-004, 0., 0., 0., 0., 0., 0.,
          -3.90560512e-004, 0., 3.82688449e-004, 7.24124140e-004, 0., 0.,
          7.28246756e-004, 1.38339790e-004, 0., 0., 2.44348659e-004, 0.,
          0., 0., 1.94548117e-003, 3.64123378e-004, 0., -8.15768261e-003,
          0., 0., 0., 0., 0., 0., 0., 2.44348659e-004, 0., 0., 0., 0.,
          0., 0., 0., 0., 5.54134231e-003, 2.44348659e-004, 0., 0.,
          1.85012154e-003, 0., 0., -4.16197836e-005, 2.71286909e-003, 0.,
          0., 0., 2.43663751e-002, 1.32249412e-003, -5.32038859e-004,
          -8.79080966e-003, 0., 0., 0., 2.44348659e-004, 0., 0., 0.,
          7.96340406e-004, 0., 0., 0., 0., 0., 0., 0., 8.92031647e-004,
          0., 0., 0., 0., 0., 0., 0., 4.59542760e-004, 0., 0., 0., 0.,
          0., 0., 0., 4.94294707e-003, 0., 0., 0., 0., 0., 0., 0., 0.,
          0., 0., 0., 0., 0., 0., 0., 0., 0., 0., 0., 0., 0., 0., 0., 0.,
          0., 2.44348659e-004, 0., 0., 0., 0., 0., 1.58732326e-003, 0.,
          1.83548965e-003, 0., 0., 0., 0., 0., 5.12564415e-003, 0., 0.,
          0., 0., 0., 0., 0., 3.99031071e-003, 0., 0., 0., 0., 0.,
          1.44824828e-003, 0., 4.53175558e-003, 0., 0., 0., 0., 0.,
          7.22162295e-005, 0., -3.63355540e-002, 9.48240049e-004, 0., 0.,
          0., 0., 0., 0., 2.44348659e-004, 0., 0., 0., 0., 0., 0., 0.,
          0., 1.95478927e-003, 3.41498014e-003, 0., 4.88697318e-004, 0.,
          1.16377370e-003, 0., -1.31398498e-003, 8.42231209e-004,
          7.33045978e-004, 0., 0., 8.82235996e-004, 4.50537913e-003,
          1.46424882e-005, -6.30680025e-002, 1.68829132e-003,
          1.14501931e-003, 0., 2.44348659e-004, -8.85174051e-003,
          1.69213815e-003, 0., -1.63952056e-002, 0., 0., 0., 0.,
          4.40241740e-004, 1.46424882e-005, -3.05877905e-003,
          4.18630894e-003, 1.22698699e-003, 1.10681262e-003, 0., 0.,
          4.35904553e-003, 3.75896064e-003, 0., 1.00670720e-003,
          2.73174839e-004, 0., 2.44348659e-004, 0., 1.59449745e-002,
          2.54859403e-003, 1.52759440e-002, -2.55640619e-003, 0., 0., 0.,
          0., 0., 0., 0., 0., 0., 0., 0., 0., 0., 0., 0., 0.,
          4.44164325e-004, 0., 0., 0., 0., 0., 0., 0., 8.05262185e-004,
          2.44348659e-004, 0., 0., 7.08636595e-003, 7.22162295e-005,
          7.24712852e-003, 8.89133010e-003, 1.70151878e-003,
          2.58991146e-004, 0., 0., -1.24924045e-004, 1.27599444e-004, 0.,
          3.71408220e-007, 0., 0., 0., 0., 3.08637420e-004,
          2.44348659e-004, 0., 0., 1.52046455e-003, 0., 0., 0.,
          2.69620400e-003, 0., 0., 0., 2.44348659e-004, 0., 0., 0.,
          -4.08723764e-003, 0., 6.42887826e-005, -4.34674090e-003,
          1.46424882e-005, 2.44348659e-004, 0., 0., 0., 0., 0., 0., 0.,
          0., 0., 0., 0., 0., 0., 0., 7.28239771e-003, 4.59542760e-004,
          0., 0., 2.87943985e-003, 0., 0., -2.03946911e-004,
          3.60223022e-003, 0., 0., 0., 2.67040115e-002, 9.26752749e-004,
          2.29801540e-003, -4.09533363e-003, 0., 1.46424882e-005, 0., 0.,
          0., 0., 0., 2.58177053e-004, 0., 0., 0., 0., 0., 0., 0.,
          6.58175035e-004, 0., 0., 0., 0., 0., 0., 0., 0., 0., 0., 0.,
          0., 0., 0., 0., -3.48617393e-003, 0., 0., 0., 0., 0., 0., 0.,
          0., 0., 0., 0., 0., 0., 0., 0., 0., 0., 0., 0., 0., 0., 0., 0.,
          0., 0., 0., 0., 0., 0., 0., 0., -1.06727742e-002, 0.,
          2.44348659e-004, 0., 0., 0., 1.38339790e-004, 0.,
          -1.03375630e-003, 0., 0., 0., 0., 0., 0., 0., 7.74392334e-004,
          1.46424882e-005, 9.68472799e-004, 0., 0., 0., 7.24124140e-004,
          0., 3.45483684e-004, 0., 0., 0., 0., 0., 0., 1.46424882e-005,
          -4.51195762e-002, 2.58991146e-004, 0., 0., 2.44348659e-004, 0.,
          0., 0., 1.43220052e-004, 0., 0., 0., 0., 0., 0., 0.,
          -3.75891250e-004, 9.33728006e-004, 6.16849260e-003, 0.,
          2.44348659e-004, 4.59542760e-004, 3.17302067e-003, 0.,
          -7.13949790e-003, 2.87886010e-003, 4.59542760e-004, 0., 0.,
          7.85454118e-004, 8.16967711e-003, 2.23363735e-004,
          -4.82755601e-002, -8.19212850e-003, 0., 0., 0.,
          -1.20332632e-002, 0., 2.02628580e-004, -2.07981504e-002, 0.,
          0., 0., 0., -3.75891250e-004, 1.46424882e-005,
          -4.49806714e-004, 1.13381011e-005, -4.45134565e-003, 0., 0.,
          0., 2.33626668e-003, 6.42887826e-005, 0., -5.71019249e-004,
          3.04129790e-004, 0., 0., 0., -7.86504894e-003,
          -3.90560512e-004, 3.39600141e-003, -2.68368814e-002, 0., 0.,
          0., 0., 0., 0., 0., 0., 0., 0., 0., 0., 0., 0.,
          1.38339790e-004, 0., 3.70216061e-004, 0., 0., 0., 0., 0., 0.,
          0., 1.15727074e-003, 0., 0., 0., 2.38052681e-002, 0.,
          5.73141268e-003, 1.13888399e-003, -4.15407214e-003, 0., 0., 0.,
          -5.35760401e-003, -9.06045083e-004, -4.68317792e-003,
          -1.61784810e-005, 0., 0., 0., 0., 0., 0., 0., -3.90533736e-004,
          8.15627282e-005, 0., 0., 0., -2.85509625e-004, 0., 0., 0., 0.,
          0., 0., 0., -1.37622934e-004, -3.90560512e-004, 0.,
          -1.17578580e-004, 0., 0., 0., 0., 0., 0., 0., 0., 0., 0., 0.,
          0., 0., 0., 0., 0., -2.72567081e-003, -4.41502198e-006, 0., 0.,
          1.77269196e-003, 0., 1.46424882e-005, -5.06730459e-004,
          5.97975170e-003, 0., 0., 0., 1.14645317e-001, -4.79582651e-003,
          7.74472067e-003, -2.73888651e-002, 0., 0., 0., 0., 0., 0., 0.,
          0., 0., 0., 0., 0., 0., 0., 0., -4.68317792e-003, 0., 0., 0.,
          0., 0., 0., 0., 0., 0., 0., 0., 0., 0., 0., 0.,
          -3.90000903e-004, 0., 0., 0., 0., 0., 0., 0., 0., 0., 0., 0.,
          0., 0., 0., 0., 0., 0., 0., 0., 0., 0., 0., 0., 0., 0., 0., 0.,
          0., 0., 0., 0., -2.71132914e-004, 0., 0., 0., 0., 0.,
          -1.61288038e-003, 0., -1.05535910e-002, 0., 0., 0., 0., 0., 0.,
          0., -4.42797877e-003, 0., 0., 0., 0., 0., 0., 0.,
          -2.82155676e-003, 0., 0., 0., 0., -1.64750149e-004,
          -1.17165479e-003, 0., -2.98750270e-002, 1.99815666e-004, 0.,
          0., 0., 0., 0., 0., 0., 0., 0., 0., 0., 0., 0., 0.,
          1.46424882e-005, 1.28577565e-004, 8.60629196e-004, 0., 0., 0.,
          -4.28264466e-004, 0., -1.88186932e-002, 0., 8.68587158e-005,
          0., 0., 1.14648731e-003, -1.32678775e-002, 2.70819495e-004,
          5.06938621e-002, 1.70543778e-003, 3.45024891e-004, 0.,
          4.87779704e-004, -7.09042791e-003, -5.19639440e-003, 0.,
          -4.96597812e-002, 2.43889852e-004, 0., 0., 0., 6.42887826e-005,
          0., -5.31636237e-004, -2.92781711e-004, 2.12726858e-003,
          1.45851518e-004, 0., 0., -6.73509110e-003, 0., 0.,
          -1.91798788e-002, 2.43889852e-004, 0., 0., 0.,
          -2.39496454e-004, -1.03809861e-002, -3.42240604e-003,
          -9.56773534e-002, 0., 0., 0., 0., 0., 0., 0., 0., 0., 0., 0.,
          0., 0., 0., 2.43889852e-004, 0., 1.83907140e-003, 0., 0., 0.,
          0., 0., 0., 0., 4.72379103e-003, 0., 0., 0., 1.84205510e-002,
          1.38339790e-004, 3.85704986e-003, -4.71454114e-003,
          -3.74220806e-004, 2.43889852e-004, 0., 0., 0.,
          -2.49848090e-004, 0., -4.82593244e-003, 2.43889852e-004,
          2.43889852e-004, 0., 0., 2.43889852e-004, 0., 0., 0.,
          -1.51553750e-005, 1.38339790e-004, 0., 0., 0., 0., 0., 0., 0.,
          0., 0., 0., -4.24038572e-003, -3.04233958e-003, 0.,
          -2.25853687e-003, 0., 0., 0., 0., 0., 0., 0., 0., 0., 0., 0.,
          0., 0., 0., 0., 0., -4.97811660e-003, 0., 0., 0.,
          -2.24028882e-002, 0., 0., -8.03640578e-003, 1.34155955e-002,
          0., 2.43889852e-004, 0., 1.01474829e-001, 1.33173189e-005,
          5.32137789e-003, -2.18301779e-003, 1.38339790e-004,
          2.43889852e-004, 0., -1.46643884e-004, 0., 0., 0.,
          2.16211789e-004, 0., 0., 0., 0., 0., 0., 0., -1.14819808e-002,
          0., 0., 0., 0., 0., 0., 0., 0., 2.43889852e-004, 0., 0., 0.,
          0., 0., 0., -1.18730043e-003, 0., 0., 0., 0., 0., 0., 0., 0.,
          0., 0., 0., 0., 0., 0., 0., 0., 2.25783588e-004, 0., 0., 0.,
          0., 0., 0., 0., 0., 0., 0., 0., 0., 0., 0., 3.19698389e-004,
          0., -4.65588644e-003, 0., 0., 0., -4.47510369e-003, 0.,
          -4.12943214e-002, 0., 0., 0., 0., 0., 0., 0., -5.46427211e-003,
          0., -9.03369684e-004, 0., 0., 0., 0., 0., -1.42754812e-004, 0.,
          0., 0., 0., 0., -1.10730186e-001, 0., -5.01172878e-002,
          4.87779704e-004, 0., 0., 0., 6.42887826e-005, 0., 0., 0., 0.,
          0., 0., 0., 0., 0., 0., 4.87779704e-004, 5.96047787e-004,
          -1.01812454e-002, 0., 0., 0., -2.61451327e-003, 0.,
          -8.52660760e-002, 1.38339790e-004, 0., 0., 6.42887826e-005,
          6.86661864e-004, -4.28932812e-003, 0., 4.28595871e-001,
          1.44899578e-003, 7.96875916e-004, 2.43889852e-004, 0.,
          -7.25232484e-003, 0., -4.68317792e-003, -2.56932788e-002, 0.,
          0., 0., 0., 0., 0., 4.88238496e-004, -5.07373828e-003,
          -1.61830743e-004, -9.22756619e-004, 0., 0., 0., 0., 0.,
          -4.10433684e-004, 0., 0., 0., 0., -5.05034951e-003,
          -2.48276046e-003, -3.90000903e-004, -2.45918892e-002, 0., 0.,
          0., 0., 0., 0., 0., 0., 0., 0., 0., 0., 0., 0., 0., 0., 0., 0.,
          -1.61784810e-005, 0., 0., 0., 0., 0., 0., 0., 0., 0., 0., 0.,
          -6.88929635e-004, -3.93305294e-004, 1.01593832e-004, 0., 0.,
          0., -1.24924045e-004, 0., 0., -1.81153056e-003, 0., 0., 0., 0.,
          0., 0., 0., 0., 0., 0., 0., 0., 0., 0., 0., 0., 0., 0., 0., 0.,
          -5.58810355e-003, -2.73000635e-003, 0., -1.41325372e-003,
          2.44348659e-004, 0., 0., 0., 0., 0., 0., 0., 0., 0., 0., 0.,
          0., 0., 0., 0., -9.91582219e-003, -1.61784810e-005, 0., 0., 0.,
          0., 0., 0., 0., 0., 0., 0., -4.61348295e-002, 0.,
          -1.61784810e-005, -2.03525042e-003, 0., 4.88697318e-004, 0.,
          2.44348659e-004, 0., 0., 0., -4.58501419e-003, 0., 0., 0., 0.,
          0., 0., 0., -5.36105270e-003, 0., 0., 0., 2.43889852e-004, 0.,
          0., 0., 2.44348659e-004, 0., 0., 0., 0., 0., 0., 0.,
          -5.15484542e-004, 0., 0., 0., 0., 0., 0., 0., 0., 0., 0., 0.,
          0., 0., 0., 0., 0., 2.44348659e-004, 0., 0., 0., 0., 0., 0.,
          0., 0., 0., 0., 0., 0., 0., 0., -1.24924045e-004,
          4.88697318e-004, 8.34639766e-004, 0., 1.95478927e-003,
          -3.90000903e-004, -1.42754812e-004, 0., -1.35179743e-001, 0.,
          0., 0., 0., 0., 0., 0., -5.34482067e-003, 0., -1.45652273e-004,
          0., 0., 0., -3.90000903e-004, 0., -9.45791369e-004, 0., 0., 0.,
          0., 2.44348659e-004, -1.98900457e-002, 0., -2.13426687e-002,
          0., 9.77394637e-004, 0., 7.33045978e-004, 0., 0., 0.,
          9.77394637e-004, 0., 0., 0., 0., 0., 0., 0., 0.,
          2.44348659e-004, -4.27260762e-004, 0., 0., 0., 0., 0.,
          -1.98849756e-002, 0., 0., 0., 0., 0., -5.51224779e-003, 0.,
          3.56535256e-001, 1.68213260e-003, 1.77904591e-003, 0.,
          1.36505012e-004, -1.79268438e-002, 1.27599444e-004,
          3.08178627e-004, -9.84331779e-003, 0., 6.42887826e-005, 0., 0.,
          6.42887826e-005, 0., -8.53997481e-004, 1.16052615e-004, 0.,
          -1.42754812e-004, 0., 0., -2.62381829e-004, 0., 0.,
          -2.13293402e-004, 0., 0., 0., 0., -2.02816483e-002,
          -2.27571675e-003, -4.62219352e-003, -6.67920113e-002, 0., 0.,
          0., 0., 0., 0., 0., 6.42887826e-005, 0., 0., 0., 0., 0., 0.,
          0., 0., 0., 1.38339790e-004, 0., 0., 0., 0., 0., 0., 0., 0.,
          0., 0., 0., 0., -6.12706132e-003, -7.32424378e-004,
          2.65426352e-004, 1.38339790e-004, 0., 7.22162295e-005,
          -4.60014911e-003, -3.90000903e-004, 0., -1.01474496e-002, 0.,
          0., 0., 0., 0., 0., 0., 6.42887826e-005, 0., 0., 0., 0., 0.,
          0., 0., 0., 0., 0., 0., 0., -5.99646801e-003, -1.31275761e-003,
          0., -2.23774766e-003, 1.52982277e-004, 7.22162295e-005, 0., 0.,
          2.25783588e-004, 0., 0., 0., 0., 0., 0., 0., 0., 0., 0., 0.,
          -2.06298137e-004, 0., 0., 0., -8.56528932e-004, 0.,
          6.42887826e-005, -2.85509625e-004, 0., 0., 0., 0.,
          -1.52816130e-002, 0., 1.38339790e-004, -1.94078144e-002, 0.,
          1.11483736e-003, 0., 1.04385230e-003, 0., 0., 0.,
          2.27740593e-003, 0., 0., 0., 0., 0., 0., 0., -2.90593272e-003,
          0., 0., 0., 0., 0., 0., 0., 0., 0., 0., 0., 0., 0., 0., 0.,
          -7.44976045e-004, 0., 0., 0., 0., 0., 0., 0., 0., 0., 0., 0.,
          0., 0., 0., 0., 0., 0., 0., 0., 0., 0., 0., 0., 0., 0., 0., 0.,
          0., 0., 0., 0., -1.05374241e-002, 2.14458167e-004,
          1.67517085e-002, 7.22162295e-005, 1.28198089e-002,
          1.27599444e-004, 9.64391002e-005, 0., 1.20225279e-002, 0.,
          6.42887826e-005, 0., 0., 2.43889852e-004, 1.27599444e-004,
          6.42887826e-005, 1.62382866e-003, 0., 9.05910332e-004, 0.,
          6.27037080e-004, 0., 2.25783588e-004, 0., 1.15753559e-003, 0.,
          0., 0., 0., 2.44348659e-004, -7.41001731e-003, 0.,
          -1.62281655e-002, 1.38339790e-004, 8.29081424e-003, 0.,
          8.05826578e-003, 0., 0., 6.42887826e-005, 6.07852917e-003, 0.,
          0., 0., 0., 0., 7.22162295e-005, 0., 3.88781104e-004, 0.,
          3.09607317e-003, 0., 4.13976563e-003, 0., 0., 0.,
          -4.77417139e-003, 0., 4.88697318e-004, 0., 1.46424882e-005,
          1.27599444e-004, -8.14902014e-005, -1.61784810e-005,
          1.45036340e-001, 4.28588782e-003, 2.74153193e-003, 0.,
          5.03339805e-004, -5.47685288e-003, 8.70468153e-004,
          4.18812211e-004, -2.57067438e-002, 0., 0., 0., 0.,
          1.45851518e-004, 0., -6.67024695e-004, 2.65191402e-003,
          1.77925642e-004, 7.23656849e-004, 0., 0., 1.90985622e-004,
          2.02628580e-004, 0., -8.24221024e-006, 0., 0., 0., 0.,
          -9.79874469e-003, 3.18139559e-004, 4.35498514e-005,
          -5.73476218e-002, 0., 0., 0., 0., 0., 0., 0., 0., 0., 0., 0.,
          0., 0., 0., 0., 0., 4.58806811e-004, 9.68472799e-004,
          2.44348659e-004, 6.42887826e-005, 0., 0., 0., 0.,
          1.91888234e-004, 1.27599444e-004, 0., 0., 4.71847568e-004, 0.,
          1.77103575e-004, 2.02985902e-004, 3.30640515e-003,
          1.27581914e-003, 0., 2.44348659e-004, 1.81162776e-003,
          8.15627282e-005, 7.24124140e-004, 5.27504482e-004, 0., 0., 0.,
          0., 0., 0., 2.09162172e-004, 0., 9.03134351e-004,
          1.38339790e-004, 0., 0., 0., 0., 0., 6.42887826e-005, 0., 0.,
          0., 0., 4.61995194e-004, 6.42887826e-005, 1.38339790e-004,
          -4.88124613e-004, 8.51723598e-004, 7.22162295e-005, 0., 0., 0.,
          0., 0., 0., 0., 0., 0., 0., 0., 0., 0., 0., 7.75879947e-004,
          0., 0., 0., 1.14229857e-003, 2.65939248e-004, 0.,
          -1.83915821e-004, 3.53383046e-004, 0., 0., 0.,
          -8.45843833e-003, 2.71380777e-005, 6.00425177e-004,
          -1.13210920e-002, 8.15627282e-005, 8.05686868e-004, 0.,
          8.60186585e-004, 0., 0., 0., 1.28816289e-003, 0.,
          1.27599444e-004, 0., 0., 0., 0., 0., 2.99042993e-004, 0.,
          2.44348659e-004, 0., 0., 0., 0., 0., 8.62463959e-004, 0., 0.,
          0., 0., 0., 0., 0., -3.91697604e-003, 0., 0., 0., 0., 0., 0.,
          0., 0., 0., 0., 0., 0., 0., 0., 0., 0., 0., 0., 0., 0., 0., 0.,
          0., 0., 0., 0., 0., 2.10556027e-004, 0., 0., 0.,
          -3.02555884e-004, 1.38339790e-004, 1.00164469e-002, 0.,
          4.72082524e-003, 0., 1.07046484e-003, 0., 1.04674054e-002, 0.,
          0., 0., 7.22162295e-005, 0., 0., 0., 3.43969301e-003, 0.,
          7.68132042e-004, 0., 0., 0., 4.15019400e-004, 0.,
          7.66198733e-004, 0., 0., 0., 0., 0., 2.52537336e-003, 0.,
          -2.41616368e-002, 4.80982475e-004, 4.18999745e-003, 0.,
          3.04828817e-003, 0., 2.44348659e-004, 0., 1.86945335e-003, 0.,
          0., 0., 0., 0., 0., 0., 9.87759442e-004, 4.99547517e-004,
          -6.96408562e-004, 0., 2.86782952e-003, 0., 3.71489296e-004, 0.,
          -1.44871566e-002, 2.44348659e-004, 5.34421008e-004, 0.,
          3.93408351e-004, 1.52982277e-004, -3.22543667e-003,
          3.64123378e-004, 8.05962831e-002, 4.58907010e-003,
          1.82305055e-003, 0., 9.65908053e-004, -9.12745297e-003,
          6.08472037e-004, 0., -1.79407112e-002, 0., 0., 0., 0.,
          7.24124140e-004, 0., -4.86784335e-003, -1.34068672e-002,
          9.58829536e-004, 1.27599444e-004, 1.38339790e-004, 0.,
          2.19953872e-004, 0., 0., -9.17721016e-004, 9.49907757e-004, 0.,
          0., 2.44348659e-004, -1.38754789e-002, 1.27599444e-004,
          -4.18677879e-003, -7.52021670e-002, 0., 0., 0., 0., 0., 0., 0.,
          0., 0., 0., 0., 0., 0., 0., 0., 0., 7.24124140e-004, 0., 0.,
          0., 0., 0., 0., 0., 1.46424882e-005, 0., 0., 0.,
          5.60913526e-004, 0., 2.98616442e-006, 8.71704717e-004,
          5.32956887e-003, 0., 2.65939248e-004, 0., 1.17415539e-003,
          7.24124140e-004, 4.70132247e-004, -3.90560512e-004, 0., 0., 0.,
          0., 2.25783588e-004, 0., 0., 1.34157553e-005, 1.51487428e-003,
          0., 0., 0., 2.44688184e-004, 0., 0., 9.62052145e-005, 0., 0.,
          0., 0., -5.36060135e-004, 0., 0., -9.78325988e-005,
          3.53383046e-004, 0., 0., 0., 0., 0., 0., 7.24124140e-004, 0.,
          0., 0., 0., 0., 0., 0., 0., 3.77700701e-002, 0., 0., 0.,
          1.80647301e-003, 0., 0., 2.86874099e-004, 7.85243791e-003, 0.,
          0., 0., 2.29706783e-002, 2.44348659e-004, 7.81514100e-005,
          -7.92898703e-003, 8.51723598e-004, 9.66255553e-004, 0.,
          1.52814831e-003, 1.27599444e-004, 1.27599444e-004, 0.,
          2.99231382e-003, 0., 7.24124140e-004, 0., 0., 0., 0., 0.,
          1.56359817e-003, 0., 0., 0., 2.25783588e-004, 0., 0., 0.,
          -3.75891250e-004, 0., 0., 0., 0., 0., 0., 0., -9.20222700e-003,
          0., 0., 0., 0., 0., 0., 0., 0., 0., 0., 0., 0., 0., 0., 0., 0.,
          0., 0., 0., 0., 0., 0., 0., 0., 0., 0., 0., 0., 0., 0., 0.,
          1.35035414e-004, 2.02091271e-003, 2.11951863e-002, 0.,
          8.24515801e-003, 8.05686868e-004, 1.13591494e-003, 0.,
          8.64324253e-003, 0., 0., 0., 0., 0., 0., 0., -1.17523705e-004,
          0., 1.21401215e-003, 0., 0., 0., 1.38339790e-004, 0.,
          2.25783588e-004, 0., 1.27599444e-004, 0., 0., 0., 0., 0.,
          -1.98482107e-002, 1.39812508e-003, 9.35450010e-003,
          1.38339790e-004, 3.27901240e-003, 2.65939248e-004,
          1.27599444e-004, 0., 2.58854893e-003, 0., 0., 0., 0., 0., 0.,
          0., 9.62005928e-004, 1.01206647e-002, 3.59950475e-002, 0.,
          1.45278021e-003, 4.98958398e-004, 2.69192108e-003, 0.,
          6.31820236e-004, 5.79393748e-003, 2.70199776e-003, 0., 0.,
          6.30447548e-003, 9.15929861e-003, 1.18366687e-003,
          -6.54173568e-002, 3.16170976e-003, 5.70260047e-004, 0.,
          3.25911387e-004, -6.82427688e-003, 0., 0., -1.07130362e-002,
          0., 0., 0., 0., -3.23492941e-003, 2.44348659e-004,
          -5.38214948e-003, 9.72688213e-005, 1.84637588e-003, 0., 0., 0.,
          -1.72668631e-004, 0., 0., -2.03946911e-004, 2.44348659e-004,
          0., 0., 0., -2.03691702e-002, -8.56528932e-004,
          8.44265160e-004, -5.84391467e-002, 0., 0., 0., 0., 0., 0., 0.,
          0., 0., 0., 0., 0., 0., 0., 0., 0., 6.42887826e-005, 0., 0.,
          2.44348659e-004, 0., 0., 0., 0., 6.91325869e-004, 0., 0., 0.,
          4.16562008e-003, 0., 4.21604898e-004, -5.64927841e-003,
          1.69197412e-003, 0., 0., 0., 5.97882550e-004, 0., 0.,
          -4.80810180e-003, 0., 0., 0., 0., 0., 0., 0., 4.59542760e-004,
          1.10681262e-003, 0., 0., 0., 0., 0., 0., -1.42754812e-004,
          2.44348659e-004, 0., 0., 0., 1.59147952e-004, 0.,
          3.25911387e-004, -7.45322905e-004, 2.44348659e-004, 0., 0., 0.,
          0., 0., 0., 0., 0., 0., 0., 0., 0., 0., 0., 0.,
          4.21817861e-002, 2.44348659e-004, 0., 0., 6.81903213e-004, 0.,
          0., -1.11476518e-004, 4.14628312e-002, 0., 0., 0.,
          5.54075204e-002, -2.03946911e-004, 2.51936098e-003,
          -1.52488789e-002, 0., 4.59542760e-004, 0., 8.15627282e-005, 0.,
          0., 0., 5.41105459e-004, 0., 0., 0., 0., 0., 0., 0.,
          -2.34628722e-004, 0., 0., 0., 0., 0., 0., 0., 0., 0., 0., 0.,
          0., 0., 0., 0., -1.79843663e-003, 0., 0., 0., 0., 0., 0., 0.,
          0., 0., 0., 0., 0., 0., 0., 0., 0., 0., 0., 0., 0., 0., 0., 0.,
          0., 0., 0., 0., 0., 0., 0., 0., -9.36966017e-003, 0.,
          3.62427346e-003, 0., 7.85454118e-004, 2.44348659e-004, 0., 0.,
          1.07705104e-003, 0., 0., 0., 0., 0., 0., 0., -4.33613095e-005,
          0., 0., 0., 0., 0., 0., 0., 0., 0., 0., 0., 0., 0., 0.,
          2.44348659e-004, -1.23749385e-002, 6.42887826e-005,
          7.24124140e-004, 0., 5.41105459e-004, 0., 8.15627282e-005, 0.,
          7.03891390e-004, 0., 0., 0., 0., 0., 0., 0., 0.,
          1.09416721e-002, 1.41170295e-002, 0., 1.88789784e-003,
          2.44348659e-004, 2.95988517e-003, 0., 3.67907109e-003,
          1.52118299e-002, 5.58706746e-003, 0., 3.25911387e-004,
          1.72807854e-002, 1.96737121e-003, 0., -8.66983011e-002,
          1.56168488e-003, 1.27499993e-003, 0., 8.15627282e-005,
          -1.50611764e-002, -1.42754812e-004, 7.22162295e-005,
          -2.91885007e-002, 0., 0., 0., 0., 0., 2.40426074e-004,
          8.58420273e-004, 6.69235829e-003, 1.79880590e-003,
          9.49907757e-004, 0., 0., 6.86956977e-004, 0., 4.88238496e-004,
          1.62086671e-003, 3.16564867e-004, 1.46424882e-005, 0.,
          2.25783588e-004, 3.60487076e-003, -8.70706164e-004,
          8.40227772e-003, -2.77868249e-002, 0., 0., 0., 0., 0., 0., 0.,
          0., 0., 0., 0., 0., 0., 0., 0., 0., 4.36236878e-004, 0., 0.,
          1.38339790e-004, 0., 0., 2.44348659e-004, 0., 1.46563316e-003,
          0., 0., 0., 1.89341733e-003, 2.43889852e-004, 5.60873479e-004,
          7.03432597e-004, 2.80581735e-004, 0., 0., 0., 9.03134351e-004,
          6.42887826e-005, 0., -5.39205596e-003, 0., 0., 0., 0., 0., 0.,
          4.88238496e-004, 2.43889852e-004, 8.15395790e-004, 0., 0., 0.,
          8.15627282e-005, 0., 0., 0., 0., 0., 0., 0., 1.44315520e-004,
          -2.85509625e-004, 0., -1.03445770e-002, 0., 0., 0., 0., 0., 0.,
          0., 0., 0., 0., 0., 0., 7.82583447e-005, 0., 0., 0.,
          1.40377562e-002, 2.44348659e-004, 0., 2.25783588e-004,
          6.88381493e-003, 0., 0., 1.00064825e-003, 1.20206596e-002,
          1.38339790e-004, 0., 0., 1.29396105e-002, -2.85509625e-004,
          9.66794207e-004, -7.53708882e-004, 0., 2.25783588e-004, 0.,
          7.96340406e-004, 0., 0., 0., 2.73268041e-003, 0.,
          6.42887826e-005, 0., 0., 0., 0., 0., -1.86397675e-002,
          2.43889852e-004, 0., 0., 0., 0., 0., 0., 0., 0., 0., 0., 0.,
          0., 0., -3.90560512e-004, -1.04260445e-003, 0., 0., 0., 0., 0.,
          0., 0., 0., 0., 0., 0., 0., 0., 0., 0., 0., 0., 0., 0., 0., 0.,
          0., 0., 0., 0., 0., 0., 0., 0., 0., 0., -1.41102515e-004, 0.,
          1.11198276e-002, 0., 2.56996229e-003, 2.25783588e-004,
          1.52982277e-004, 0., 1.14606041e-002, 0., 0., 0., 0., 0., 0.,
          0., 2.16476340e-003, 0., 1.73445535e-003, 0., 0., 0.,
          1.38339790e-004, 0., 1.65576930e-003, 0., 0., 0., 0., 0.,
          1.67764404e-006, 0., -3.86550240e-002, 2.44348659e-004,
          2.54947064e-003, 0., 2.01469893e-003, 0., 0., 0.,
          3.71489296e-004, 0., 0., 0., 0., 0., 0., 0., 3.70216061e-004,
          5.57456352e-003, 1.68176163e-002, 0., 1.87186862e-003, 0.,
          2.63963337e-003, 0., 2.90288404e-002, 5.65093756e-003,
          4.94406698e-003, 0., 1.18366687e-003, 4.15770477e-003,
          -3.59850783e-005, 1.40147493e-003, -5.12255393e-002,
          4.17671807e-004, 1.27599444e-004, 0., 0., -6.42031385e-003,
          -1.42754812e-004, -3.30438706e-006, -3.20649333e-003, 0.,
          6.42887826e-005, 0., 0., 1.19379757e-003, 0., -1.49060525e-002,
          -5.15484542e-004, 8.91748932e-004, 6.42887826e-005, 0., 0.,
          1.07957947e-003, 0., 0., 1.27599444e-004, 2.43889852e-004, 0.,
          0., 0., -2.30288915e-002, -7.74966204e-004, 4.86300932e-003,
          -7.76185691e-002, 0., 0., 0., 0., 0., 0., 0., 0., 0., 0., 0.,
          0., 0., 0., 0., 0., 7.76227098e-004, 0., 0., 0., 0., 0., 0.,
          0., 5.00066846e-004, 0., 0., 0., 1.25148818e-002,
          8.15627282e-005, -7.09202606e-003, -2.69692251e-003,
          3.07346316e-004, 0., 0., 0., 1.28320884e-003, 0., 0.,
          -3.90560512e-004, 0., 0., 0., 0., 0., 0., 0., 0.,
          1.18791650e-003, 1.38339790e-004, 0., 0., 6.85326348e-004, 0.,
          0., 0., 0., 0., 0., 0., -4.77843778e-003, -2.85509625e-004, 0.,
          -7.24703888e-004, 0., 1.27599444e-004, 0., 0., 0., 0., 0., 0.,
          0., 0., 0., 0., 0., 0., 0., 0., 1.14805168e-002, 0., 0., 0.,
          5.46791684e-003, 0., 1.42241930e-004, 4.59542760e-004,
          1.71355363e-002, 0., 0., 1.27599444e-004, 9.70863551e-002,
          2.75168131e-004, 1.06767649e-002, -3.44574079e-002, 0., 0., 0.,
          0., 0., 0., 0., -7.81121023e-004, 0., 0., 0., 0., 0., 0., 0.,
          -1.14010472e-003, 0., 0., 0., 0., 0., 0., 0., 0., 0., 0., 0.,
          0., 0., 0., 0., -5.31663012e-004, 0., 0., 0., 0., 0., 0., 0.,
          0., 0., 0., 0., 0., 0., 0., 0., 0., 0., 0., 0., 0., 0., 0., 0.,
          0., 0., 0., 0., 0., 0., 0., 0., -5.18788933e-004, 0.,
          1.46424882e-005, 0., 0., 0., 0., 0., -6.80261466e-004, 0., 0.,
          0., 0., 0., 0., 0., -7.84425414e-004, 0., 0., 0., 0., 0., 0.,
          0., 0., 0., 0., 0., 0., 0., -4.41502198e-006, 0.,
          -2.52236426e-002, 0., 0., 0., 2.25783588e-004, 0., 0., 0.,
          2.25783588e-004, 0., 0., 0., 0., 0., 0., 0., 0.,
          1.84254337e-003, 2.66467477e-003, 0., 0., 1.46424882e-005,
          1.37280789e-003, 0., 9.89993103e-004, 5.22869639e-003,
          6.63119426e-004, 0., 2.25783588e-004, 6.14813389e-003,
          -5.63474000e-003, 1.04023027e-003, 2.21571308e-002,
          -1.06440149e-002, -4.14349517e-004, 0., 9.72191920e-005,
          -5.38673345e-003, -9.72471840e-004, -2.45301845e-003,
          -4.10674289e-002, 0., 0., 0., 0., 0., 2.25783588e-004,
          -3.93305294e-004, -2.80372612e-003, 8.55007675e-004,
          -7.46688223e-004, 0., 0., -2.32990622e-003, 0., 0.,
          -8.56972113e-003, 8.15627282e-005, 0., 0., 0.,
          -1.25641478e-002, -2.70867138e-004, -3.24011897e-003,
          -4.37003188e-002, 2.43889852e-004, 0., 0., 0., 0., 0., 0., 0.,
          0., 0., 0., 0., 7.22162295e-005, 0., 0., 0., 1.07848528e-003,
          0., 0., 0., 1.27599444e-004, 0., 0., 0., 3.87978344e-003,
          -9.72471840e-004, 0., 8.15627282e-005, 9.30813048e-003, 0.,
          1.10599096e-003, -9.95898712e-003, -5.16766729e-003,
          1.38339790e-004, 0., 0., -9.02782846e-003, 0., 1.38339790e-004,
          0., 0., 0., 0., 0., 0., 1.46424882e-005, 2.43889852e-004, 0.,
          4.67751815e-004, 0., 0., 0., 1.97651074e-003, 0., 0., 0.,
          7.22162295e-005, 0., 0., 0., -5.73711796e-003, 0., 0.,
          -3.91397346e-003, 7.03432597e-004, 0., 0., 0., 0., 0., 0., 0.,
          0., 0., 0., 0., 0., 0., 0., 0., -1.00465771e-003,
          2.65939248e-004, 0., 0., -3.54133011e-003, 7.89312762e-005, 0.,
          1.27599444e-004, 2.55583376e-002, 7.22162295e-005,
          6.42887826e-005, 0., 5.86668029e-002, 6.99968834e-004,
          -5.40541206e-003, -1.04765622e-002, 0., 0., 0., 0., 0., 0., 0.,
          -5.46427211e-003, 0., 0., 0., 0., 0., 0., 0., -1.01474226e-002,
          0., 7.24124140e-004, 0., 0., 0., 0., 0., 0., 0., 0., 0., 0.,
          -2.67880200e-003, 0., 0., -2.95039662e-003, 0., 0., 0., 0., 0.,
          0., 0., 0., 0., 0., 0., 0., 0., 0., 0., 0., 0.,
          2.25783588e-004, 0., 0., 0., 0., 0., 0., 0., 0., 0.,
          8.15627282e-005, 4.69673454e-004, 0., 2.43889852e-004,
          4.07015323e-004, 0., -7.03660818e-003, 0., 5.88914787e-004, 0.,
          -5.00511425e-003, 0., -4.80119027e-002, 0., 0., 0., 0., 0., 0.,
          0., -7.75254006e-003, 0., -9.72471840e-004, 0., 0., 0.,
          -9.72471840e-004, 0., -2.67880200e-003, 0., -2.67880200e-003,
          0., 0., 0., -9.72471840e-004, 0., -6.76598474e-002, 0.,
          2.43889852e-004, 0., 2.43889852e-004, 0., 0., 0.,
          -9.72471840e-004, 0., 0., 0., 0., 0., 0., 0., -3.90560512e-004,
          -3.57905752e-003, -1.50275351e-002, 0., 9.68014007e-004, 0.,
          0., 0., -2.16753781e-002, 3.52281984e-003, 1.19507436e-004, 0.,
          1.28577565e-004, -4.81959491e-004, -1.11376960e-002,
          4.00774268e-004, 2.94194520e-001, 0., 0., 0., 2.44348659e-004,
          -3.12591344e-003, 0., 0., -3.64443399e-002, 0., 0., 0., 0.,
          -3.90533736e-004, 0., -1.16610585e-003, -5.14924934e-004, 0.,
          0., 0., 0., -1.24924045e-004, 0., 0., -2.73800851e-003, 0., 0.,
          0., 0., -1.26230493e-002, 0., -4.06179402e-004,
          -3.19639258e-002, 0., 0., 0., 0., 0., 0., 0., 0., 0., 0., 0.,
          0., 0., 0., 0., 0., 0., 0., 0., 0., 0., 0., 0., 0., 0., 0., 0.,
          0., 0., 0., -6.85723033e-004, -1.61784810e-005, 0., 0., 0., 0.,
          0., 0., 0., -1.03096908e-003, 0., 0., 0., 0., 0., 0., 0., 0.,
          0., 0., 0., 0., 0., 0., 0., -3.90560512e-004, 0., 0., 0., 0.,
          0., 0., 0., -1.31382316e-003, 0., 0., 0., 0., 0., 0., 0., 0.,
          0., 0., 0., 0., 0., 0., 0., 0., -1.05335228e-002, 0., 0., 0.,
          -1.24924045e-004, 0., 0., -1.24924045e-004, 0., 0., 0., 0.,
          -3.06107327e-002, 0., 0., -7.27708964e-003, 0.,
          2.44348659e-004, 0., 7.33045978e-004, 0., 0., 0.,
          -4.80750787e-005, 0., 0., 0., 0., 0., 0., 0., -2.47320021e-003,
          0., 0., 0., 0., 0., 0., 0., 2.44348659e-004, 0., 0., 0., 0.,
          0., 0., 0., -1.24924045e-004, 0., 0., 0., 0., 0., 0., 0., 0.,
          0., 0., 0., 0., 0., 0., 0., 0., 0., 0., 0., 0., 0., 0., 0., 0.,
          0., 0., 0., 0., 0., 0., 0., -9.06045083e-004, 0.,
          -4.03488055e-003, 0., 6.84176199e-003, 0., -4.28264466e-004,
          0., -2.98218131e-002, 0., 0., 0., 0., 0., 0., 0.,
          -5.36772364e-004, 0., 0., 0., 0., 0., 0., 0., -3.57466424e-003,
          0., 0., 0., 0., 0., 0., 0., -3.38604860e-002, 0.,
          2.44348659e-004, 0., 7.33045978e-004, 0., 0., 0.,
          4.88697318e-004, 0., 0., 0., 0., 0., 0., 0., 0., 0.,
          -1.04329325e-002, 0., 0., 0., 0., 0., -2.83153951e-002, 0., 0.,
          0., 0., 0., -1.53638897e-002, 0., 2.61753738e-001,
          7.86947028e-004, 1.46645145e-003, 0., 2.90072378e-004,
          -1.25321634e-002, 1.38339790e-004, 0., -7.48335151e-004, 0.,
          1.27599444e-004, 0., 0., 0., 0., 0., -3.10483330e-004,
          -1.61784810e-005, 0., 0., 0., -1.74474320e-003, 0., 0.,
          -3.66392662e-003, 0., 0., 0., 0., -2.18320601e-002, 0.,
          -5.11023798e-004, -5.01276590e-002, 0., 0., 0., 0., 0., 0., 0.,
          1.38339790e-004, 0., 0., 0., 0., 0., 0., 0., 0., 0., 0., 0.,
          0., 0., 0., 0., 0., 0., 1.27599444e-004, 0., 0.,
          -5.11023798e-004, 0., -2.32552015e-003, -1.02885417e-003,
          1.27599444e-004, 0., 0., 0., -5.15181804e-004, 0., 0.,
          -1.24924045e-004, 0., 0., 0., 0., 0., 0., 1.38339790e-004, 0.,
          0., 0., 0., 0., -1.42754812e-004, 0., 0., -7.81121023e-004, 0.,
          0., 0., 0., -6.12540590e-003, 0., 0., -5.61048090e-003, 0., 0.,
          0., 0., 0., 0., 0., 0., 0., 0., 0., 0., 0., 0., 0., 0.,
          2.44348659e-004, 0., 0., 0., -1.14203850e-003, 0., 0.,
          -1.88749807e-003, 0., 0., 0., 0., -3.72901792e-003,
          -1.61784810e-005, -5.11023798e-004, -3.30105647e-002, 0.,
          5.59995940e-004, 0., 9.30834387e-004, 0., 0., 0.,
          1.43240287e-003, 0., 0., 0., 0., 0., 0., 0., -6.69218367e-004,
          0., 0., 0., 0., 0., 0., 0., 1.27599444e-004, 0., 0., 0., 0.,
          0., 0., 0., -2.62961083e-004, 0., 0., 0., 0., 0., 0., 0., 0.,
          0., 0., 0., 0., 0., 0., 0., 0., 0., 0., 0., 0., 0., 0., 0., 0.,
          0., 0., 0., 0., 0., 0., 0., -1.82824186e-003, 0.,
          2.03788206e-002, 0., 8.41315091e-003, 0., 6.48627698e-004, 0.,
          2.51687858e-002, 0., 0., 0., 1.46424882e-005, 0., 0., 0.,
          7.07744213e-004, 0., 7.52904511e-004, 0., 0., 0., 0., 0.,
          4.15678893e-004, 0., 0., 0., 1.46424882e-005, 0., 0., 0.,
          -5.36215072e-003, 2.44348659e-004, 4.80604172e-003, 0.,
          7.61087798e-003, 0., 1.38339790e-004, 0., 4.63802787e-003, 0.,
          0., 0., 0., 0., 0., 0., 2.06530720e-004, 0., 5.80867380e-003,
          0., 2.72175763e-003, 0., 0., 0., -1.48659442e-002, 0.,
          1.38339790e-004, 0., 1.27599444e-004, 0., -7.13774120e-004, 0.,
          8.30584317e-002, 6.49030879e-003, 4.76495276e-004, 0.,
          2.43889852e-004, -1.54978258e-003, 1.27599444e-004, 0.,
          -1.11588240e-002, 0., 0., 0., 0., 0., 0., 0., 2.89804419e-004,
          6.85326348e-004, 0., 0., 0., 3.13690485e-004, 0., 0.,
          -9.62641148e-004, 7.22162295e-005, 0., 0., 0.,
          -1.43755609e-002, -5.71019249e-004, -3.21080239e-004,
          -1.05361588e-001, 0., 0., 0., 0., 0., 0., 0., 0., 0., 0., 0.,
          0., 0., 0., 0., 0., 7.24124140e-004, 0., 0., 0., 0., 0., 0.,
          2.44348659e-004, 0., 0., 0., 0., 1.11420959e-004, 0.,
          -5.35613042e-004, 7.22162295e-005, 6.77602272e-003,
          8.05686868e-004, 0., 1.44824828e-003, 3.66338575e-003,
          4.59542760e-004, 1.58658810e-003, 8.15627282e-005, 0., 0., 0.,
          0., 0., 0., 0., 0., 1.63125456e-004, 0., 0., 0., 0., 0., 0.,
          -5.15484542e-004, 0., 0., 0., 0., 6.50905189e-004,
          -1.42754812e-004, 7.22162295e-005, -7.55249476e-003,
          7.24124140e-004, 0., 0., 1.44824828e-003, 0., 0., 0., 0., 0.,
          0., 0., 0., 0., 0., 0., 0., 5.65679371e-003, 1.52982277e-004,
          1.27599444e-004, 1.27599444e-004, 9.77333169e-004,
          2.25783588e-004, 0., -2.67678872e-004, 4.59542760e-004, 0., 0.,
          0., 3.11536132e-003, -8.56528932e-004, 0., -1.89811923e-002,
          0., 2.44348659e-004, 0., 3.16106074e-004, 0., 0., 0.,
          2.02968088e-003, 0., 0., 0., 0., 0., 0., 0., -1.04140677e-003,
          0., 0., 0., 0., 0., 0., 0., 0., 0., 0., 0., 0., 0., 0., 0.,
          -5.36745589e-004, 0., 0., 0., 0., 0., 0., 0., 0., 0., 0., 0.,
          0., 0., 0., 0., 0., 0., 0., 0., 0., 0., 0., 0.,
          7.24124140e-004, 0., 0., 0., 0., 0., 0., 0., -7.76633504e-004,
          7.24124140e-004, 3.11143938e-002, 0., 7.83883967e-003, 0.,
          3.08025395e-003, 0., 2.15394534e-002, 0., 0., 0.,
          7.24124140e-004, 0., 0., 0., 3.19240266e-004, 0.,
          1.48408161e-003, 0., 0., 0., 1.91888234e-004, 0.,
          1.29450264e-003, 0., 0., 0., 7.24124140e-004, 0.,
          1.86326774e-003, 0., -7.83009827e-003, 1.38339790e-004,
          6.62659574e-003, 0., 7.54494732e-003, 0., 7.22162295e-005, 0.,
          1.14264013e-003, 7.22162295e-005, 0., 0., 0., 0., 0., 0.,
          4.10371693e-004, 5.91960503e-004, 1.45635754e-002, 0.,
          4.07884270e-003, 1.38339790e-004, 3.26839695e-003, 0.,
          -3.04032094e-003, 6.77350792e-004, 2.09162172e-004, 0.,
          2.52575544e-003, 2.65939248e-004, -4.51105786e-003, 0.,
          2.57751960e-002, 1.58472382e-003, 1.31477253e-003, 0.,
          2.76679581e-004, -9.70226596e-004, 7.33045978e-004,
          7.24124140e-004, -1.13871163e-002, 0., 0., 0., 0., 0., 0.,
          -1.07115344e-003, 2.31856247e-003, 9.62882536e-004,
          1.52982277e-004, 0., 0., 2.44348659e-004, 0., 0.,
          -4.99696180e-004, 0., 0., 0., 0., -4.55687381e-003,
          -6.53341238e-004, 1.14848845e-004, -7.90811405e-002, 0., 0.,
          0., 0., 0., 0., 0., 0., 0., 0., 0., 0., 0., 0., 0., 0.,
          8.15627282e-005, 0., 0., 0., 0., 0., 0., 0., 0., 0., 0., 0.,
          1.41411542e-003, 0., -2.83502246e-004, -2.34909530e-005,
          5.22914203e-003, 3.82688449e-004, 0., 0., 1.46424882e-005,
          2.55198887e-004, 0., 0., 0., 0., 0., 0., 2.44348659e-004, 0.,
          0., 0., 3.52688436e-003, 0., 0., 0., 0., 0., 0., 0., 0., 0.,
          0., 0., 1.90146593e-003, -1.42754812e-004, 0.,
          -5.84591087e-003, 1.27599444e-004, 0., 0., 0., 0., 0., 0., 0.,
          0., 0., 0., 0., 0., 0., 0., 0., 4.80329953e-002, 0., 0., 0.,
          5.03839832e-003, 0., 0., 0., 1.08029265e-002, 1.38339790e-004,
          0., 0., 5.72066233e-002, 9.55072232e-004, -1.45652273e-004,
          -1.55452052e-002, 0., 2.00793802e-004, 0., 7.22162295e-005, 0.,
          0., 0., 8.64818227e-004, 0., 0., 0., 0., 0., 0., 0.,
          -4.99270856e-004, 0., 0., 0., 0., 0., 0., 0., 0., 0., 0., 0.,
          0., 0., 0., 0., 2.44348659e-004, 0., 0., 0., 0., 0., 0., 0.,
          0., 0., 0., 0., 0., 0., 0., 0., 0., 0., 0., 0., 0., 0., 0., 0.,
          0., 0., 0., 0., 0., 0., 0., 0., 0., 1.38339790e-004,
          1.25400405e-002, 0., 1.04588550e-002, 0., 1.75809267e-003,
          9.68014007e-004, 8.30374472e-003, 0., 0., 0., 0., 0., 0., 0.,
          4.88697318e-004, 0., 9.32981202e-004, 0., 2.43889852e-004, 0.,
          5.49063494e-004, 0., -1.30423476e-004, 0., 0., 0., 0., 0.,
          5.31611731e-003, 0., -2.99839471e-002, 6.42887826e-005,
          4.07155370e-003, 0., 3.02348961e-003, 0., 3.82229657e-004, 0.,
          1.68760377e-003, 0., 0., 0., 0., 0., 0., 0., 0.,
          3.00755585e-003, 1.84909012e-002, 0., 1.10008812e-003,
          1.46289077e-003, 6.51193550e-003, 0., 1.21149363e-003,
          2.50651548e-003, 3.04234819e-003, 0., 0., 1.15579795e-002,
          2.10675970e-002, 1.38339790e-004, -1.15366086e-001,
          3.71948088e-004, 1.27599444e-004, 0., 0., -2.13094195e-003, 0.,
          0., -3.22259497e-003, 0., 0., 0., 0., 0., 0., -1.24924045e-004,
          -1.24924045e-004, 1.01544627e-003, 0., 0., 0., 1.86899328e-003,
          0., 0., 0., 7.14480877e-004, 0., 0., 0., -1.73381669e-003,
          -4.28264466e-004, 9.57911718e-004, -9.69918743e-002, 0., 0.,
          0., 0., 0., 0., 0., 0., 0., 0., 0., 0., 0., 0., 0., 0.,
          3.64123378e-004, 0., 0., 0., 0., 0., 0., 0., 1.09727925e-003,
          1.38339790e-004, 0., 0., 3.87509959e-003, 0., -3.51075869e-005,
          -1.61233984e-004, 6.42887826e-005, 0., 0., 0., 7.95717206e-005,
          0., 0., -1.24924045e-004, 0., 0., 0., 0., 0., 0., 0., 0.,
          3.08976974e-004, 0., 0., 0., 0., 0., 0., 0., 0., 0., 0., 0.,
          3.11198935e-004, 0., 0., -2.38493900e-003, 0., 0., 0., 0., 0.,
          0., 0., 0., 0., 0., 0., 0., 0., 0., 0., 0., 4.28095758e-002,
          1.27599444e-004, 0., 0., 2.32386915e-003, 0., 0.,
          4.59542760e-004, 4.34045605e-002, 0., 0., 0., 6.83404431e-002,
          1.02274662e-005, 9.52294329e-004, -7.65106687e-003, 0., 0., 0.,
          0., 0., 0., 0., -3.90560512e-004, 0., 0., 0., 0., 0., 0., 0.,
          -3.90560512e-004, 0., 0., 0., 0., 0., 0., 0., 0., 0., 0., 0.,
          0., 0., 0., 0., -5.11023798e-004, 0., 0., 0., 0., 0., 0., 0.,
          0., 0., 0., 0., 0., 0., 0., 0., 0., 0., 0., 0., 0., 0., 0., 0.,
          0., 0., 0., 0., 0., 0., 0., 0., -7.65332661e-004, 0.,
          6.54499466e-003, 0., 4.59542760e-004, 0., 9.19085520e-004, 0.,
          9.09685506e-004, 0., 0., 0., 0., 0., 0., 0., -5.15484542e-004,
          0., 8.15627282e-005, 0., 0., 0., 0., 0., 6.22668187e-004, 0.,
          0., 0., 0., 0., 0., 0., -4.03969996e-002, 3.08637420e-004,
          8.15627282e-005, 0., 1.62331644e-003, 0., 0., 0.,
          4.59542760e-004, 0., 0., 0., 0., 0., 0., 0., 2.44348659e-004,
          6.57299720e-003, 1.94090139e-002, 0., 8.15627282e-005,
          6.42887826e-005, 2.51192390e-003, 0., 1.12597570e-002,
          1.21331047e-002, 5.49491821e-003, 0., 4.59542760e-004,
          8.23419634e-003, 2.34181955e-002, 1.27599444e-004,
          -1.13660842e-001, 0., 0., 0., 0., -2.27895915e-003, 0.,
          -3.90560512e-004, -4.53224080e-003, 0., 0., 0., 0., 0., 0.,
          -1.36639166e-004, -1.03096908e-003, 4.59542760e-004, 0., 0.,
          0., 2.44348659e-004, 0., 0., 0., 0., 0., 0., 0.,
          -1.15029467e-002, 0., -3.88289220e-004, -9.55635831e-002, 0.,
          0., 0., 0., 0., 0., 0., 0., 0., 0., 0., 0., 0., 0., 0., 0., 0.,
          0., 0., 0., 0., 0., 0., 0., 6.42887826e-005, 0., 0., 0.,
          -1.85057332e-004, 0., -1.33334775e-004, -6.53925701e-004,
          4.68710437e-003, 0., 0., 0., -3.90560512e-004, 0.,
          8.15627282e-005, -3.90560512e-004, 0., 0., 0., 0., 0., 0., 0.,
          0., 8.78809195e-004, 0., 0., 0., 7.73261709e-004, 0., 0., 0.,
          0., 0., 0., 0., -8.39709595e-004, 0., 0., -6.89141825e-003, 0.,
          0., 0., 0., 0., 0., 0., 0., 0., 0., 0., 0., 0., 0., 0., 0.,
          3.36118266e-002, 0., 0., 0., 5.85982809e-003, 0., 0., 0.,
          1.47472406e-002, 0., 2.44348659e-004, 0., 4.30559814e-002,
          4.59542760e-004, 7.34429850e-005, -1.58579964e-002, 0., 0., 0.,
          0., 0., 0., 0., 0., 0., 0., 0., 0., 0., 0., 0.,
          -1.93701417e-003, 0., 0., 0., 0., 0., 0., 0., 0., 0., 0., 0.,
          0., 0., 0., 0., -1.29214488e-003, 0., 0., 0., 0., 0., 0., 0.,
          0., 0., 0., 0., 0., 0., 0., 0., 0., 0., 0., 0., 0., 0., 0., 0.,
          0., 0., 0., 0., 0., 0., 0., 0., -5.27199707e-004, 0.,
          1.15939705e-002, 0., 0., 8.15627282e-005, 0., 0.,
          1.06341555e-003, 0., 0., 0., 0., 0., 0., 0., -5.15484542e-004,
          0., 3.01465247e-004, 0., 0., 0., 3.83027975e-004, 0.,
          9.61172860e-004, 0., 0., 0., 0., 0., 0., 0., -3.64983529e-002,
          1.61137374e-003, 8.05686868e-004, 0., 5.41105459e-004, 0., 0.,
          0., 8.15627282e-005, 0., 0., 0., 0., 0., 0., 0., 0.,
          4.55529429e-003, 4.62251045e-002, 0., 1.44824828e-003, 0.,
          6.31082756e-003, 0., 2.20665913e-002, 8.28883611e-003,
          3.79487546e-003, 0., 1.12225174e-003, 5.20188920e-003,
          3.09325457e-002, 0., -7.06749856e-002, 8.40324719e-005, 0., 0.,
          0., -7.98732415e-003, 0., 0., -8.43429752e-003, 0., 0., 0., 0.,
          0., 0., -3.30438706e-006, -1.30030399e-004, 1.65332400e-003,
          0., 0., 0., 1.95661280e-003, 1.27599444e-004, 0.,
          -7.82613293e-004, 2.25783588e-004, 0., 0., 0.,
          -2.04250086e-002, 4.59542760e-004, -4.15485338e-005,
          -7.15682283e-002, 0., 0., 0., 0., 0., 0., 0., 0., 0., 0., 0.,
          0., 0., 0., 0., 0., 2.44348659e-004, 0., 0., 0., 0., 0., 0.,
          0., 2.92118755e-004, 0., 0., 0., 3.27504775e-003, 0.,
          -6.38092868e-004, 1.93975618e-004, 1.13730878e-003, 0., 0., 0.,
          -3.86099768e-004, 0., 0., 0., 0., 0., 0., 0., 0., 0., 0., 0.,
          2.68449681e-003, 0., 0., 0., 1.32682500e-003, 1.27599444e-004,
          0., 0., 0., 0., 0., 0., 3.04998318e-003, 0., 0.,
          -9.37140733e-003, 0., 0., 0., 0., 0., 0., 0., 0., 0., 0., 0.,
          0., 0., 0., 0., 0., 3.38037089e-002, 0., 0., 0.,
          1.08194547e-002, 0., 0., -4.38558840e-004, 2.16540061e-002,
          1.46424882e-005, 0., 0., 1.03877656e-001, 2.77297082e-003,
          2.00004946e-003, -3.07240840e-002, 0., 0., 0., 0., 0., 0., 0.,
          -6.40408602e-004, 0., 0., 0., 0., 0., 0., 0., -1.93255348e-003,
          0., 0., 0., 0., 0., 0., 0., 0., 0., 0., 0., 0., 0., 0., 0.,
          -5.11023798e-004, 0., 0., 0., 0., 0., 0., 0., 0., 0., 0., 0.,
          0., 0., 0., 0., 0., 0., 0., 0., 0., 0., 0., 0., 0., 0., 0., 0.,
          0., 0., 0., 0., 2.25783588e-004, 0., 0., 0., 0., 0., 0., 0.,
          -7.81121023e-004, 0., 0., 0., 0., 0., 0., 0., -5.15484542e-004,
          0., 1.53778965e-004, 0., 0., 0., 8.15627282e-005, 0.,
          1.27599444e-004, 0., 0., 0., 0., 0., 7.88412930e-004, 0.,
          -3.40384804e-002, 0., 0., 0., 0., 0., 0., 0., 0., 0., 0., 0.,
          0., 0., 0., 0., 0., 1.15845853e-003, 4.42069862e-003, 0., 0.,
          0., 3.26604932e-003, 0., -3.90412053e-003, 4.60731983e-003,
          1.68614858e-003, 0., 0., 1.05897728e-002, 3.24024409e-002, 0.,
          -5.80353513e-002, -8.68208520e-003, 7.72304542e-004, 0., 0.,
          -1.58452541e-002, 1.27599444e-004, 2.43889852e-004,
          -3.14605646e-002, 0., 0., 0., 0., 0., 0., 1.80434261e-004,
          2.25783588e-004, 1.23035745e-003, 2.25783588e-004, 0., 0.,
          5.91188378e-004, 0., 1.46424882e-005, -3.57223372e-003,
          1.05701643e-003, 0., 0., 0., -8.72407854e-003, 0.,
          -1.95500138e-003, -7.25134686e-002, 2.65939248e-004,
          -9.72471840e-004, 0., 0., 0., 0., 0., 0., 0., 0., 0., 0., 0.,
          0., 0., 0., -2.52581970e-003, 1.38339790e-004, 0., 0.,
          2.25783588e-004, 0., 0., 0., 5.28377946e-003, 0., 0.,
          2.43889852e-004, 4.51571792e-002, 0., 7.26662530e-003,
          -1.71598163e-003, -4.93478030e-003, 1.46424882e-005, 0., 0.,
          -2.62401474e-004, 0., 2.25783588e-004, -3.77117976e-004, 0.,
          0., 0., 0., 2.65939248e-004, 0., 0., 0., -7.28790509e-003, 0.,
          0., 0., -9.72471840e-004, 0., 0., -1.30030399e-004, 0., 0., 0.,
          0., -1.59773566e-002, 0., 2.43889852e-004, -7.72797177e-003,
          1.38339790e-004, 0., 0., 0., 2.25783588e-004, 0., 0., 0., 0.,
          0., 0., 0., 2.25783588e-004, 0., 0., 0., -4.44902433e-003, 0.,
          0., 0., -1.32635394e-002, 0., -2.67880200e-003,
          -7.14865921e-004, 2.09368654e-002, 0., 0., 0.,
          -1.10208271e-002, 1.60494004e-004, 2.35714391e-003,
          -1.18427854e-002, 1.46424882e-005, 0., 0., 1.27599444e-004, 0.,
          0., 0., -1.24924045e-004, 0., 0., 0., 0., 0., 0., 0.,
          -1.19571923e-003, 2.43889852e-004, 0., 0., 0., 0., 0., 0., 0.,
          0., 0., 0., 0., 0., 0., 0., 1.00859550e-004, 0., 0., 0., 0.,
          0., 0., 0., 0., 0., 0., 0., 0., 0., 0., 0., 0., 0., 0., 0., 0.,
          0., 0., 0., 0., 0., 0., 0., 0., 0., 1.27599444e-004,
          2.25783588e-004, 3.44749395e-004, 2.55068560e-004,
          -5.06433891e-003, 1.27599444e-004, 0., 0., -4.86235926e-003,
          0., -3.13048400e-002, 0., 0., 0., 0., 0., 0., 0.,
          -2.47759977e-004, 0., -9.72471840e-004, 0., 0., 0.,
          -1.94494368e-003, 0., 0., 0., -9.72471840e-004, 0., 0.,
          1.27599444e-004, -5.59621770e-003, 0., -5.58072291e-002,
          1.38339790e-004, 0., 0., 0., 0., -9.72471840e-004, 0.,
          2.65939248e-004, 0., 0., 0., 0., 0., 0., 0., 1.38339790e-004,
          -8.15587409e-004, -3.65127390e-003, 0., 0., 1.38339790e-004,
          0., 0., -2.05622111e-002, -2.03052838e-003, -1.66826404e-003,
          0., -5.90242154e-004, 3.31491488e-003, -1.73629858e-002,
          2.43889852e-004, 2.91373312e-001, 1.08994241e-003,
          -1.30030399e-004, 0., 2.41044254e-004, -2.23974138e-003,
          -8.56528932e-004, 0., -2.64777150e-002, 2.25783588e-004, 0.,
          0., 0., 0., 0., -5.46424510e-003, -7.14697735e-003,
          1.46424882e-005, 0., -3.30438706e-006, 0., 0., 0., 0., 0., 0.,
          0., 0., 0., -1.43312505e-002, -3.30438706e-006,
          -1.01753725e-002, -9.60267633e-002, 0., 0., 0., 0., 0., 0., 0.,
          0., 0., 0., 0., 0., 0., 0., 0., 0., 0., 0., 0., 0., 0., 0., 0.,
          0., 0., 0., 0., 0., -1.61784810e-005, 0., -7.78169488e-004,
          -6.61236281e-003, 1.42241930e-004, 0., 0., 1.46424882e-005, 0.,
          0., 0., -1.24924045e-004, 0., 0., 0., 0., 0., 0., 0., 0., 0.,
          0., 0., 0., 0., 0., 0., 0., 0., 0., 0., 0., -1.48987479e-003,
          0., -3.86099768e-004, -1.68265181e-003, 0., 0., 0., 0., 0., 0.,
          0., 0., 2.25783588e-004, 0., 0., 0., 0., 0., 0., 0.,
          -2.85509625e-004, 0., 0., 0., 0., 0., 0., 0., 1.46424882e-005,
          0., 0., 0., -2.94660381e-003, -4.28264466e-004, 0.,
          -1.44437319e-002, 0., 0., 0., 7.33045978e-004, 0., 0., 0.,
          1.64003903e-003, 0., 0., 0., 0., 0., 0., 0., -1.27632963e-003,
          0., 0., 0., 2.44348659e-004, 0., 0., 0., 0., 0., 0., 0.,
          2.44348659e-004, 0., 0., 0., -1.68713939e-003, 0., 0., 0., 0.,
          0., 0., 0., 0., 0., 0., 0., 0., 0., 0., 0., 0., 0., 0., 0., 0.,
          0., 0., 0., 0., 0., 0., 0., 0., 0., 0., 0., -3.90533736e-004,
          0., -3.02965695e-004, 0., 9.77394637e-004, 0.,
          -1.57910195e-004, 0., 6.86517218e-003, 0., 0., 0., 0., 0., 0.,
          0., -5.59098902e-004, 0., -3.86099768e-004, 0., 0., 0.,
          -3.86099768e-004, 0., -2.85509625e-004, 0., 0., 0., 0., 0.,
          -6.81552663e-003, 0., -2.79524419e-002, 1.46424882e-005, 0.,
          0., 0., 0., 0., 0., 2.44348659e-004, 0., 0., 0., 0., 0., 0.,
          0., 0., 0., -6.03761000e-004, 0., 0., 0., -1.42754812e-004, 0.,
          2.25888885e-004, 0., 0., 0., 0., -3.90000903e-004,
          -1.38928462e-003, 1.46424882e-005, 2.21602455e-001,
          4.64568380e-004, 2.03363760e-003, 0., 1.16121199e-003,
          -2.55365181e-003, 4.09515051e-004, -3.90000903e-004,
          -6.24389062e-003, 0., 0., 0., 0., 0., 0., -5.17052086e-003,
          -9.86870658e-003, 0., 0., 0., 0., -5.06730459e-004, 0., 0.,
          2.38323672e-004, 0., 0., 0., 0., -2.31676567e-002,
          -5.85196540e-004, -1.06797582e-002, -1.12331517e-001, 0., 0.,
          0., 0., 0., 0., 0., 0., 0., 0., 0., 0., 0., 0., 0.,
          -3.30438706e-006, 0., 0., 0., 0., 0., 0., 0., 0., 0., 0., 0.,
          0., 0., 0., -7.92279141e-004, -5.13982959e-003,
          2.65939248e-004, 0., 0., 0., -1.42754812e-004,
          -1.42754812e-004, 0., -7.80561415e-004, 0., 0., 0., 0., 0., 0.,
          0., 0., 1.27599444e-004, 0., 0., 0., 0., 0., 0.,
          7.22162295e-005, 0., 0., 0., 0., -9.14954348e-004,
          -1.42754812e-004, 0., -1.66707125e-003, 0., 0., 0., 0., 0., 0.,
          0., 0., 0., 0., 0., 0., 0., 0., 0., 0., -1.84597629e-005, 0.,
          0., 0., -2.85509625e-004, 0., 0., -4.28264466e-004, 0., 0., 0.,
          0., -5.78598725e-003, -5.71019249e-004, 0., -1.80731155e-002,
          0., 2.43889852e-004, 0., 2.25783588e-004, 0., 0., 0.,
          7.14730285e-003, 0., 0., 0., 0., 0., 0., 0., 9.46429383e-004,
          0., 0., 0., 0., 0., 0., 0., 0., 0., 0., 0., 0., 0., 0., 0.,
          -5.64424973e-003, 0., 0., 0., 0., 0., 0., 0., 0., 0., 0., 0.,
          0., 0., 0., 0., 0., 0., 0., 0., 0., 0., 0., 0., 0., 0., 0., 0.,
          0., 0., 0., 0., -1.55775459e-003, 6.42887826e-005,
          5.01364982e-003, 0., 4.36275220e-003, 0., 1.94544002e-004, 0.,
          3.47025469e-002, 0., 6.42887826e-005, 0., 0., 0., 0., 0.,
          1.59772253e-003, 0., 3.82798346e-004, 0., 0., 0., 0., 0.,
          8.73196113e-004, 0., 0., 0., 0., 0., 1.28577565e-004, 0.,
          -2.08389573e-002, -3.30438706e-006, 0., 0., 4.69547173e-004,
          0., 0., 0., 6.15837926e-004, 0., 0., 0., 0., 0., 0., 0., 0.,
          1.27599444e-004, 1.35571856e-004, 0., 6.42887826e-005, 0.,
          -1.57910195e-004, 0., 8.48688069e-004, 0., 0., 0., 0., 0.,
          -2.91141262e-003, 0., 1.74517497e-001, 2.02218723e-003,
          1.53185031e-003, 0., 3.88322311e-004, -4.30133240e-003,
          1.40844972e-003, 8.15627282e-005, -7.63676013e-004, 0., 0., 0.,
          0., 0., 0., -4.43241559e-004, -5.31983934e-003, 0., 0., 0.,
          7.22162295e-005, 7.22162295e-005, 0., 0., -2.34336313e-003, 0.,
          0., 0., 0., -2.33887155e-002, 8.71472643e-004,
          -6.69976603e-003, -5.65280542e-002, 0., 0., 0., 0., 0., 0., 0.,
          0., 0., 0., 0., 0., 0., 0., 0., 0., 0., 0., 0., 0., 0., 0., 0.,
          0., 0., 0., 0., 0., 8.15627282e-005, 0., -2.34542065e-003,
          -8.52914411e-004, 3.26671265e-003, 0., 0., 0.,
          -2.27435055e-004, 0., 0., 6.03975204e-004, 0., 0., 0., 0.,
          -3.90560512e-004, 0., 0., 0., 9.82656493e-004, 0., 0., 0., 0.,
          0., 0., 0., 0., 0., 0., 0., 8.93259014e-004, 1.63125456e-004,
          0., -2.90734484e-003, 7.24124140e-004, 0., 0., 0., 0., 0., 0.,
          0., 0., 0., 0., 0., 0., 0., 0., 0., 1.91445800e-003, 0., 0.,
          0., 7.24124140e-004, 0., 0., 0., 0., 0., 0., 0.,
          -6.69296889e-004, 3.16787919e-004, -3.93864902e-004,
          -1.72218625e-002, 0., 6.22668187e-004, 0., 1.11190369e-003, 0.,
          0., 0., 6.24957215e-003, 0., 0., 0., 0., 0., 0., 0.,
          4.68283513e-004, 0., 0., 0., 0., 0., 0., 0., 1.91888234e-004,
          0., 0., 0., 0., 0., 0., 0., -4.52716416e-003, 0., 0., 0., 0.,
          0., 0., 0., 0., 0., 0., 0., 0., 0., 0., 0., 0., 0., 0., 0.,
          8.15627282e-005, 0., 0., 0., 0., 0., 0., 0., 0., 0., 0., 0.,
          -1.09943852e-003, 1.38339790e-004, 2.55849566e-002, 0.,
          1.34002818e-002, 0., 1.72504515e-003, 0., 4.20193635e-002, 0.,
          0., 0., 0., 7.22162295e-005, 0., 0., 1.85675104e-003, 0.,
          1.67624778e-004, 0., 1.44824828e-003, 0., 9.35737626e-005, 0.,
          2.18022615e-003, 0., 0., 0., 0., 2.43889852e-004,
          1.67302450e-003, 0., -2.64767967e-002, 3.53383046e-004,
          5.66149829e-003, 0., 8.45952705e-003, 0., 0., 0.,
          4.48618224e-003, 0., 0., 0., 0., 0., 0., 4.59542760e-004,
          7.22162295e-005, 3.36761615e-004, 7.56961154e-003, 0.,
          2.74189585e-003, 0., 6.53610681e-004, 0., 1.84479393e-002, 0.,
          2.25783588e-004, 0., 0., 1.46424882e-005, 3.20012658e-003, 0.,
          -1.12311114e-002, 7.90410792e-004, 2.82213744e-003, 0.,
          3.72467417e-004, -5.93508035e-003, 5.74556238e-004,
          1.31126633e-003, -1.20432936e-002, 0., 0., 0., 0.,
