%YAML:1.0
---
opencv_ml_svm:
   format: 3
   svmType: C_SVC
   kernel:
      type: LINEAR
   C: 1.
   term_criteria: { epsilon:1.1920928955078125e-007, iterations:1000 }
   var_count: 16384
   class_count: 2
   class_labels: !!opencv-matrix
      rows: 2
      cols: 1
      dt: i
      data: [ 0, 1 ]
   sv_total: 1
   support_vectors:
      - [ -3.10772541e-003, -1.73678691e-003, 0., 0., 0., 0., 0.,
          -1.39405229e-003, 0., 0., 0., 0., 0., 0., -1.02820387e-003,
          -1.71367323e-003, -3.42734624e-004, 0., 0., 0.,
          -6.85469247e-004, 0., 0., -3.42734624e-004, -6.85469247e-004,
          0., 0., 0., 0., 0., -1.37093849e-003, -2.05640774e-003, 0., 0.,
          0., 0., 0., 0., 0., 0., 0., 0., 0., 0., 0., 0., 0.,
          -3.42734624e-004, 0., 0., 0., 0., 0., 0., 0., 0.,
          -1.02820387e-003, 0., 0., 0., -3.42734624e-004, 0., 0.,
          -6.85469247e-004, -3.42734624e-004, 0., 0., 0., 0., 0., 0., 0.,
          0., 0., 0., 0., 0., 0., 0., 0., -3.42734624e-004, 0., 0., 0.,
          0., 0., 0., 0., -3.42734624e-004, 0., 0., 0., 0., 0., 0., 0.,
          0., 0., 0., 0., 0., 0., 0., -3.42734624e-004, 0., 0., 0., 0.,
          0., 0., 0., 0., -2.05640774e-003, -6.85469247e-004, 0., 0., 0.,
          0., -3.42734624e-004, 0., -4.45555011e-003, 0., 0., 0.,
          -3.77008086e-003, 0., -3.42734624e-004, -1.02820387e-003, 0.,
          0., 0., -3.42734624e-004, 0., 0., 0., 0., 0., 0., 0., 0., 0.,
          0., 0., -6.85469247e-004, 0., -6.85469247e-004, 0., 0., 0., 0.,
          0., 0., 0., 0., 0., 0., 0., 0., 0., -3.42734624e-004, 0., 0.,
          0., 0., 0., 0., 0., 0., 0., 0., 0., 0., 0., 0., 0., 0., 0., 0.,
          0., 0., 0., 0., 0., 0., 0., 0., 0., 0., 0., 0., 0., 0., 0.,
          -1.80612830e-003, 0., 0., 0., 0., 0., -7.08583044e-004, 0., 0.,
          0., 0., 0., 0., 0., 0., 0., 0., 0., 0., 0., 0., 0.,
          -3.42734624e-004, -3.42734624e-004, 0., 0., 0., 0., 0., 0.,
          -1.02820387e-003, 0., 0., 0., -7.31696840e-004, 0., 0.,
          -3.42734624e-004, 0., 0., 0., 0., 0., 0., 0., 0.,
          -6.85469247e-004, 0., -7.08583044e-004, 0., -3.65848420e-004,
          0., 0., 0., -3.42734624e-004, -6.85469247e-004, 0., 0., 0.,
          -3.42734624e-004, -3.42734624e-004, 0., 4.17482555e-002,
          -4.18215711e-003, -5.32780774e-004, 0., 0., -7.08583044e-004,
          -7.08583044e-004, 0., -7.31696840e-004, -3.42734624e-004,
          -3.42734624e-004, 0., 0., 0., 0., 0., -3.65848420e-004,
          -1.26447761e-003, 0., 0., 0., 0., 0., 0., 0., 0., 0., 0., 0.,
          -7.31696840e-004, -7.31696840e-004, -3.42734624e-004,
          -3.65848420e-004, 0., 0., 0., 0., 0., 0., 0., 0., 0., 0., 0.,
          0., 0., 0., 0., 0., 0., 0., 0., 0., -3.42734624e-004, 0., 0.,
          0., -7.31696840e-004, 0., 0., 0., -2.81121861e-003,
          -3.65848420e-004, -3.65848420e-004, -3.65848420e-004,
          -1.07443146e-003, 0., 0., 0., -3.65848420e-004,
          -3.65848420e-004, 0., 0., 0., 0., 0., 0., 0., 0., 0., 0.,
          -7.31696840e-004, 0., 0., 0., 0., 0., 0., 0., -3.42734624e-004,
          0., 0., 0., -7.31696840e-004, 0., 0., -3.65848420e-004, 0., 0.,
          0., 0., 0., 0., 0., 0., 0., 0., 0., 0., 0., 0., 0., 0.,
          -2.92678736e-003, 0., 0., 0., 0., 0., 0., -3.65848420e-004,
          -4.64046048e-003, 0., 0., 0., -8.64167977e-003, 0.,
          -2.10263534e-003, 0., 0., -6.85469247e-004, 0., 0., 0., 0., 0.,
          -3.65848420e-004, 0., 0., 0., -3.42734624e-004, 0., 0., 0.,
          -7.08583044e-004, 0., 0., 0., 0., 0., 0., 0., 0., 0., 0., 0.,
          0., 0., 0., -3.42734624e-004, 0., 0., 0., 0., 0., 0., 0., 0.,
          0., 0., 0., 0., 0., 0., 0., 0., 0., 0., 0., 0.,
          -3.42734624e-004, 0., 0., 0., 0., 0., 0., 0., -3.42734624e-004,
          0., 0., 0., 0., -1.11193908e-003, -5.87931601e-003, 0.,
          -2.17765057e-003, 0., -3.65848420e-004, 0., -3.92315770e-003,
          0., 0., 0., 0., 0., 0., 0., -3.65848420e-004, 0., 0., 0., 0.,
          0., 0., 0., 0., 0., -3.65848420e-004, 0., 0., -3.42734624e-004,
          0., 0., -1.46339368e-003, -3.65848420e-004, -1.85802963e-003,
          0., -1.43155991e-003, 0., -3.65848420e-004, 0.,
          -1.45467371e-003, 0., 0., 0., 0., 0., 0., 0., -3.65848420e-004,
          -2.92678736e-003, -5.80734713e-003, 0., -1.08882529e-003, 0.,
          -3.65848420e-004, 0., -3.65848420e-004, -1.39405229e-003,
          -2.53782514e-003, 0., 0., -1.80612830e-003, -7.31696840e-004,
          -3.42734624e-004, 8.13257620e-002, -1.47772464e-003,
          3.53077333e-003, 1.93733769e-003, -8.35988962e-004,
          4.41156188e-003, -3.65848420e-004, 3.66872828e-003,
          2.07990757e-003, 0., -3.65848420e-004, 0., 0., 0.,
          -8.47560354e-004, 5.76780061e-004, 1.99361332e-003,
          1.24044379e-003, 5.13742678e-004, 0., 0., 1.09052274e-003, 0.,
          0., 3.12967994e-003, 4.37523995e-005, 0., 0., 0.,
          -1.11881073e-003, 3.77863966e-004, 2.71433941e-003,
          2.05646968e-003, 0., -7.46090605e-004, 0., 0.,
          -3.65848420e-004, 0., 0., 0., 0., 0., 0., -2.85841874e-004, 0.,
          0., 0., 0., 7.28474057e-004, 0., 0., 0., 0., 0., 0.,
          5.15679305e-004, -2.78779662e-005, 0., 0., 0.,
          -3.29263578e-003, -3.65848420e-004, -2.56093894e-003,
          -1.46339368e-003, -1.79514594e-004, 5.11274557e-004, 0., 0.,
          0., -2.85841874e-004, 0., 0., 0., 0., 0., 0., 0., 0., 0., 0.,
          -8.47560354e-004, 0., 0., 0., 0., 0., 0., 0., 0., 0., 0., 0.,
          0., 0., 0., 0., 0., -1.49218121e-003, 0., 0., 0., 0., 0.,
          -1.13340223e-003, 0., 0., 0., 0., 0., 0., 0., 0.,
          -5.98721323e-004, 0., 0., -3.27176327e-004, 5.63403126e-004,
          0., 0., 3.77863966e-004, -1.78301451e-003, 0., 0., 0.,
          -1.13163386e-002, -7.31696840e-004, -2.19509052e-003,
          -1.46339368e-003, -6.51690294e-004, -2.49251095e-003, 0.,
          -1.13340223e-003, 0., 0., 0., -9.11702286e-004, 0., 0., 0., 0.,
          0., 0., 0., 5.11274557e-004, -1.02571642e-003, 0., 0., 0., 0.,
          0., 0., 5.11274557e-004, 0., 0., 0., 0., 0., 0., 0.,
          -2.61706591e-004, 0., -3.27176327e-004, 0., 0., 0., 0., 0., 0.,
          0., 0., 0., 0., 0., 0., 0., 0., 0., 1.43243035e-003, 0., 0.,
          0., 0., 0., 0., 0., 0., 0., 0., 0., 0., 0., 0.,
          -3.12325195e-003, -3.80162075e-002, 0., -1.73403285e-002, 0.,
          0., 0., -7.18064886e-003, 0., -5.37880289e-004, 0., 0., 0.,
          -2.75073544e-004, 0., -1.06041378e-003, 0., -4.00735252e-003,
          0., 0., 0., -1.01422577e-003, 0., 2.40539113e-004, 0.,
          3.77863966e-004, 0., 0., 0., 0., 0., 5.13742678e-004,
          -2.17336719e-003, -3.06208488e-002, 0., -1.12772090e-002, 0.,
          0., 0., -5.24693169e-003, 0., -7.46090605e-004, 0., 0., 0., 0.,
          0., -2.38566264e-003, -8.06493778e-003, -1.19225569e-002, 0.,
          -2.96481606e-003, 0., -5.12858212e-004, 1.34527290e-004,
          -6.24460308e-003, -1.02820387e-003, -1.28929934e-003, 0.,
          -6.80776837e-004, -1.01753871e-003, -7.31696840e-004, 0.,
          1.66957036e-001, 1.08995638e-003, 1.45061258e-002, 0., 0.,
          1.09994728e-002, 1.76949752e-003, 2.18396983e-003,
          1.86286345e-002, 0., -3.27176327e-004, 0., 0., 5.04442118e-003,
          4.27198783e-003, 2.21839063e-002, 2.76695807e-002,
          9.28406697e-003, 1.01416055e-002, 0., -2.85841874e-004,
          6.17658626e-003, 4.42112272e-004, 6.25967979e-003,
          1.06914416e-002, -5.20177651e-004, 2.61361152e-003, 0.,
          1.98916081e-004, 4.03716676e-002, 6.21215906e-003,
          2.63339616e-002, 9.23354328e-002, 0., 0., 0., 0., 0., 0., 0.,
          0., 0., 0., 0., 0., 0., 0., 0., 0., 6.98518520e-003,
          4.28753468e-004, -3.94934963e-004, 0., -5.44502458e-004, 0.,
          4.99524933e-004, -3.27176327e-004, 0., 0., 0., 0.,
          3.95036163e-003, 7.55727931e-004, 1.11720841e-002,
          1.20911775e-002, 2.76657753e-003, -9.04981163e-004, 0., 0.,
          9.31160583e-004, 0., 1.98916081e-004, 3.44394986e-003,
          -1.01422577e-003, 0., 0., 0., 0., 0., 1.98916081e-004, 0.,
          1.50381657e-003, 0., 0., 0., 0., 0., 0., 0., 0., 0., 0., 0.,
          2.06932251e-004, 0., 4.09600820e-004, 2.86945258e-003,
          1.04141822e-004, -5.12858212e-004, 0., 0., 0., 0., 0., 0., 0.,
          0., 0., 0., 0., 0., 0., -1.01422577e-003, 3.89652589e-004,
          1.54240266e-003, 0., 0., 1.36932905e-003, 0., 2.04147957e-003,
          1.36932905e-003, 8.48512398e-004, 0., 0., 0., 5.16334968e-003,
          1.98916081e-004, 1.89490872e-003, 1.21599454e-002, 0.,
          -2.89300922e-003, 0., -3.27176327e-004, 0., 0., 0.,
          3.61221610e-004, 0., 0., 0., 0., 0., 5.15679305e-004, 0.,
          5.20167174e-003, 0., 0., 0., 0., 0., 0., 0., 0., 0., 0., 0.,
          0., 0., 0., 0., 6.52981410e-003, -5.12858212e-004, 0., 0., 0.,
          0., 0., 0., 0., 0., 0., 0., 0., 0., 0., 0., 0., 0.,
          -5.12858212e-004, 0., -2.75073544e-004, 0., 0., 0., 0., 0., 0.,
          0., 0., 0., 0., 0., 7.99051579e-003, -3.17690335e-003,
          -4.37791012e-002, 0., -1.19782314e-002, 0., -1.91809994e-003,
          0., 8.59908760e-003, 0., -3.94934963e-004, 0., 0., 0., 0., 0.,
          8.15958623e-003, 0., 7.14595371e-004, 0., -3.65848420e-004, 0.,
          0., 0., 9.82263125e-004, 0., 0., 0., 0., 0., 2.23648371e-004,
          0., 4.84530143e-002, -1.08353421e-002, -1.40365064e-001, 0.,
          -2.29669847e-002, -1.64302636e-003, -5.37880289e-004, 0.,
          -1.30280247e-002, 0., -1.64302636e-003, 0., -2.85841874e-004,
          0., 0., -1.01422577e-003, -5.36291720e-003, -1.79827102e-002,
          -1.60668179e-001, -3.42734624e-004, -2.03361977e-002,
          -7.46090605e-004, -1.01628399e-003, 0., -3.40948754e-004,
          -3.31741502e-003, -7.49956025e-003, 0., -8.47560354e-004,
          -1.38245244e-003, -2.39195977e-003, -7.37669587e-004,
          4.63829143e-003, 6.88860705e-003, 1.01599013e-002, 0.,
          -3.42734624e-004, 3.78986355e-003, 5.41906245e-003,
          4.87801299e-004, 1.74300652e-002, 0., 0., 0., 0.,
          2.27530813e-003, -2.43403309e-004, 6.06953353e-003,
          2.43480969e-002, 1.89173203e-002, 1.99255310e-002,
          -5.37880289e-004, 0., 4.97117965e-003, 4.34765033e-003, 0.,
          4.32852097e-003, 0., 0., 0., 0., 1.87268890e-002,
          4.60533146e-003, 2.04665512e-002, 5.36799245e-002, 0., 0., 0.,
          0., 0., 0., 0., 0., 0., 0., 0., 0., 0., 0., 0., 0.,
          5.34081273e-003, 2.29855930e-003, 0., 0., 0., 0.,
          1.04141822e-004, -3.42734624e-004, 0., 0., 0., 0.,
          6.01213565e-003, 0., 6.21600868e-003, 5.86788869e-003,
          -2.75079510e-003, 3.88997396e-005, 0., -3.42734624e-004,
          4.68241610e-003, 3.61221610e-004, 0., 2.13625375e-003, 0., 0.,
          0., 0., 0., 0., 0., 0., -1.05770223e-003, 0., 0., 0.,
          8.53649748e-004, 2.17382517e-003, 0., 5.15679305e-004, 0., 0.,
          0., 0., 5.85307926e-003, -3.94934963e-004, 1.36522425e-003,
          1.95029727e-003, -2.48242775e-003, 0., 0., 0., 0., 0., 0., 0.,
          0., 0., 0., 0., 0., 0., 0., 0., -6.05375543e-002,
          3.19979759e-003, -6.41948776e-004, -1.01422577e-003,
          -7.33975787e-004, -3.27176327e-004, 0., 0., -6.48980075e-003,
          0., 0., 0., 2.00178493e-002, 4.09600820e-004, 9.65357665e-003,
          9.77565162e-003, 0., 1.58212380e-003, 0., 0., 0., 0., 0.,
          1.07120874e-003, 0., 0., 0., 0., 0., 0., 0., 4.03524656e-003,
          0., 0., 0., 0., 0., 0., 0., 0., 0., 0., 0., 0., 0., 0., 0.,
          2.68509961e-003, 0., 0., 0., 0., 0., 0., 0., 0., 0., 0., 0.,
          0., 0., 0., 0., 0., 0., 0., 0., 0., 0., 0., 0., 0., 0., 0., 0.,
          0., 0., 0., 0., 1.07120874e-003, -2.32849550e-003,
          -1.61694977e-002, 0., -2.56817066e-003, 0., -3.92329227e-003,
          0., 8.35648086e-003, 0., 0., 0., 0., 0., -5.12858212e-004, 0.,
          6.05966616e-003, 0., -7.86972756e-004, 0., 0., 0., 0., 0.,
          3.37970472e-004, 0., 0., 0., 0., 0., 5.36886510e-004, 0.,
          8.95179994e-003, -1.51743256e-002, -2.56339833e-002, 0.,
          -4.14032722e-003, 0., 0., 0., -2.28201970e-003, 0., 0., 0., 0.,
          0., 0., 0., -6.92488218e-004, -1.59080565e-001,
          -2.22026557e-001, -7.46090605e-004, -5.70527092e-003,
          -5.12858212e-004, -3.68234701e-003, -5.37880289e-004,
          -1.15731414e-002, -2.36276034e-002, -1.49527118e-002, 0.,
          -5.37880289e-004, -7.62973493e-003, -2.44822334e-002,
          1.56962065e-004, 2.77038962e-001, 2.74991593e-003,
          6.99192053e-004, 0., 0., 0., 0., 0., 0., 0., 0., 0., 0., 0.,
          0., 0., 0., 2.18674857e-002, 6.73647097e-004, 0., 0.,
          4.47238423e-003, 0., 3.61221610e-004, 0., 5.11274557e-004, 0.,
          0., 0., 1.52731249e-002, 0., 7.22443219e-004, 3.61221610e-004,
          0., -3.94934963e-004, 0., 0., 0., 0., 0., 0., 0., 0., 0., 0.,
          0., 0., 0., 0., 1.91231370e-002, 1.85603520e-003, 0., 0.,
          3.77863966e-004, 0., 4.44913330e-003, 0., -1.94441807e-003, 0.,
          0., 0., 1.90981124e-002, 0., 1.99033376e-002, 1.54263317e-003,
          1.72534876e-003, 5.15679305e-004, 0., 0., 0., 0.,
          3.61221610e-004, 0., 0., 0., 0., 0., 0., 0., 0., 0., 0., 0.,
          0., 0., 0., 0., 0., -3.42734624e-004, 0., 0., 0., 0.,
          7.26056099e-003, 0., 0., 0., -5.12858212e-004, 0., 0., 0., 0.,
          0., 0., 0., 0., 0., 0., 0., 0., 0., 0., 0., -4.32895385e-002,
          4.53628413e-003, 0., 0., 6.82193926e-003, 0., -8.47560354e-004,
          1.07120874e-003, -5.85476160e-002, 0., -2.85841874e-004, 0.,
          2.16121376e-001, 3.77863966e-004, 1.03712277e-002,
          8.65022559e-003, 0., -5.37880289e-004, 0., 0., 0., 0., 0., 0.,
          0., 0., 0., 0., 0., 0., 0., 0., 0., 0., 0., 0., 0., 0., 0., 0.,
          0., 0., 0., 0., 0., 0., 0., 0., 0., -3.42734624e-004, 0., 0.,
          0., 0., 0., 0., 0., 0., 0., 0., 0., 0., 0., 0., 0., 0., 0., 0.,
          0., 0., 0., 0., 0., 0., 0., 0., 0., 0., 0., 0.,
          -1.55614340e-003, -3.95017816e-003, 0., 0., 0., 0., 0.,
          -2.97553284e-004, 0., 0., 0., 0., 0., 0., 0., 0., 0.,
          -3.42734624e-004, 0., 0., 0., 0., 0., 0., 0., 0., 0., 0., 0.,
          0., 0., 0., -3.73628130e-003, -9.26158391e-003, 0.,
          -2.97553284e-004, 0., 0., 0., 0., 0., 0., 0., 0., 0., 0., 0.,
          0., -2.22768694e-001, -3.86106186e-002, -2.71878694e-003,
          -3.91035341e-003, -1.34994276e-004, 0., 0., -1.99265080e-003,
          -8.12223032e-002, -1.21659115e-002, 0., -5.37880289e-004,
          -1.14708589e-002, 9.38791782e-003, -4.57002362e-003,
          1.25348210e-001, 2.09511700e-003, 0., 0., 0., 2.13625375e-003,
          0., 0., 0., 0., 0., 0., 0., 0., 0., 0., 0., 9.68157034e-003,
          0., 0., 0., -5.09589852e-004, 0., 0., 0., 4.82005795e-004, 0.,
          0., 0., 6.10033888e-003, 0., 1.57168822e-003, 4.89722425e-003,
          2.17382517e-003, 0., 0., 0., 0., 0., 0., 0., 0., 0., 0., 0.,
          0., 0., 0., 0., -1.57941470e-003, 3.61221610e-004, 0., 0., 0.,
          0., 0., 0., 8.36453110e-004, -7.26816012e-004,
          -2.75073544e-004, 0., 1.22887013e-003, 0., 4.49522352e-003,
          3.77863966e-004, 3.09670414e-003, 0., 0., 0., 4.34765033e-003,
          0., 0., 0., 0., 0., 0., 0., 0., 0., -8.47560354e-004, 0.,
          4.09600820e-004, 0., 0., 0., 0., 0., 0., 0., 0., 0., 0., 0.,
          1.93733769e-003, 0., 0., 0., 4.89911530e-004, 0., 0., 0., 0.,
          0., 0., 0., 0., 0., 0., 0., 0., 0., 0., 0., 2.59221927e-003,
          4.98928304e-004, 1.04141822e-004, 0., 1.71139173e-003, 0., 0.,
          0., -1.53727634e-002, 0., 5.76780061e-004, 0., 9.17105824e-002,
          2.79364618e-003, 2.47515133e-003, 6.13316800e-003,
          5.15679305e-004, 0., 0., 0., 0., 0., 0., 0., 0., 0., 0., 0.,
          0., 0., 0., 0., -8.47560354e-004, 3.77863966e-004, 0., 0., 0.,
          0., 0., 0., 0., 0., 0., 0., 0., 0., 0., 0., 0., 0., 0., 0., 0.,
          0., 0., 0., 0., 0., 0., 0., 0., 0., 0., 0., 0., 0., 0., 0., 0.,
          0., 0., 0., 0., 0., 0., 0., 0., 0., 0., 0., 0., 0., 0., 0., 0.,
          0., 0., 0., 0., 0., 0., 0., 0., 0., 0., 0., 0., 0., 0., 0., 0.,
          0., 0., 0., 0., 0., 0., 0., 0., 0., 0., 0., -5.95106569e-004,
          3.77863966e-004, 0., 0., 0., 0., 0., 0., 0., 0., 0., 0., 0.,
          0., 0., 0., -2.00093202e-002, 5.53494552e-003, 0.,
          5.31584374e-004, 4.09600820e-004, 0., 0., 0., -2.28132643e-002,
          -3.10661853e-003, -8.47560354e-004, 4.25581774e-003,
          -6.18369319e-003, 5.94005361e-003, -2.45561032e-003,
          -9.70883369e-002, -1.62331050e-003, 0., 0., 0., 0., 0., 0., 0.,
          0., 0., 0., 0., 0., 0., 0., 0., 0., 0., 0., 0., 0., 0., 0., 0.,
          0., 0., 0., 0., -6.85469247e-004, 0., 0., 0., 0., 0., 0., 0.,
          0., 0., 0., 0., 0., 0., 0., 0., 0., 0., 0., 0.,
          -2.97553284e-004, 0., 0., 0., 0., 0., 0., 0., 0., 0., 0., 0.,
          -9.83022503e-004, 0., 0., 0., 0., 0., 0., 0., 0., 0., 0., 0.,
          0., 0., 0., 0., 0., 0., 0., 0., 0., 0., 0., 0., 0., 0., 0., 0.,
          0., 0., 0., 0., -6.85469247e-004, 0., 0., 0., 0., 0., 0., 0.,
          0., 0., 0., 0., 0., 0., 0., 0., 0., 0., 0., 0.,
          -6.24086987e-003, 0., 0., 0., 0., 0., -2.97553284e-004, 0.,
          -3.70618352e-003, 0., -3.42734624e-004, 0., -3.36344889e-003,
          0., -1.28057587e-003, -3.42734624e-004, 0., 0., 0.,
          -2.97553284e-004, 0., 0., 0., 0., 0., 0., 0., 0., 0., 0., 0.,
          0., 0., 0., 0., 0., 0., 0., 0., 0., 0., 0., 0., 0., 0., 0., 0.,
          0., 0., 0., 0., 0., 0., 0., 0., 0., 0., 0., 0., 0., 0., 0., 0.,
          0., 0., 0., 0., 0., 0., 0., 0., 0., 0., 0., 0., 0., 0., 0., 0.,
          0., 0., 0., 0., 0., 0., 0., 0., 0., 0., 0., 0., 0., 0., 0., 0.,
          0., 0., 0., 0., 0., 0., 0., 0., 0., 0., 0., 0., 0., 0., 0., 0.,
          0., 0., 0., 0., 0., 0., 0., 0., 0., 0., 0., 0., 0., 0., 0., 0.,
          0., -3.38216498e-003, -5.95106569e-004, 0., -6.85469247e-004,
          0., 0., 0., 0., -3.03943036e-003, -3.42734624e-004,
          -3.42734624e-004, 0., -2.97553284e-004, 0., -6.40287937e-004,
          2.94719581e-002, -3.17706703e-003, -7.31696840e-004, 0.,
          -3.65848420e-004, -1.05131767e-003, 0., -3.65848420e-004,
          -1.82924222e-003, 0., 0., 0., 0., -3.42734624e-004, 0.,
          -3.65848420e-004, -2.92678736e-003, -6.85469247e-004, 0., 0.,
          0., -7.08583044e-004, 0., 0., 0., -1.02820387e-003,
          -3.42734624e-004, 0., 0., -3.83942225e-003, 0.,
          -7.08583044e-004, -3.65848443e-003, 0., 0., 0., 0., 0., 0., 0.,
          0., 0., 0., 0., 0., 0., 0., 0., 0., 0., -3.65848420e-004, 0.,
          0., 0., 0., 0., 0., -1.37093849e-003, 0., 0., 0.,
          -3.47357383e-003, -3.42734624e-004, -2.17197672e-003,
          -6.85469247e-004, -7.08583044e-004, 0., 0., 0., 0., 0.,
          -7.08583044e-004, 0., 0., 0., 0., 0., 0., 0., 0., 0., 0., 0.,
          0., 0., 0., 0., 0., 0., 0., 0., 0., 0., 0., 0., 0., 0., 0., 0.,
          0., 0., 0., 0., 0., 0., 0., 0., 0., 0., 0., 0., 0., 0.,
          -4.11281548e-003, 0., 0., 0., -3.42734624e-004, 0.,
          -3.65848420e-004, 0., -3.08461161e-003, 0., 0., 0.,
          -5.14101936e-003, -3.42734624e-004, 0., -1.41716609e-003,
          -3.42734624e-004, 0., 0., 0., 0., 0., 0., -7.31696840e-004, 0.,
          0., 0., 0., 0., 0., 0., -1.82924222e-003, 0., 0., 0., 0., 0.,
          0., 0., -3.65848420e-004, 0., 0., 0., 0., 0., 0.,
          -3.42734624e-004, -7.31696840e-004, 0., 0., 0., 0., 0., 0., 0.,
          0., 0., 0., 0., 0., 0., 0., 0., -3.42734624e-004, 0., 0., 0.,
          0., 0., 0., 0., 0., 0., 0., 0., 0., 0., 0., 0., 0., 0., 0., 0.,
          -1.09754526e-003, 0., 0., 0., 0., 0., 0., 0., 0., 0., 0., 0.,
          -3.65848420e-004, 0., 0., 0., 0., 0., 0., 0., -7.31696840e-004,
          0., 0., 0., 0., 0., 0., 0., -3.42734624e-004, -3.42734624e-004,
          0., 0., 0., -3.65848420e-004, 0., 0., -3.65848420e-004, 0., 0.,
          0., 0., 0., 0., 0., 0., -1.71367323e-003, -2.05640774e-003, 0.,
          0., 0., -3.42734624e-004, 0., -3.42734624e-004,
          -1.02820387e-003, -3.42734624e-004, 0., 0., -1.71367323e-003,
          -3.42734624e-004, 0., 6.29443526e-002, 1.02169381e-003,
          1.79724153e-002, 1.98916081e-004, -3.44589324e-004,
          -3.70612601e-004, 0., -7.46090605e-004, -1.66187447e-003, 0.,
          -3.65848420e-004, 0., 0., -1.41716609e-003, 0.,
          -1.07443146e-003, -4.61734692e-003, -1.05131767e-003,
          2.11453950e-003, 0., 0., 0., 0., 0., -6.64239749e-004, 0., 0.,
          0., 0., -6.17319532e-003, -3.47498804e-004, -5.00630913e-003,
          -1.34056965e-002, -3.42734624e-004, 0., 0., 0., 0., 0., 0., 0.,
          0., 0., 0., 0., 0., 0., 0., 0., 3.85739433e-004, 0., 0., 0.,
          0., 0., 1.07120874e-003, 1.07120874e-003, -3.42734624e-004, 0.,
          0., 0., -2.14886293e-003, 3.37970472e-004, -3.63537041e-003,
          -2.51947576e-003, 1.56630843e-003, 0., 0., -7.46090605e-004,
          -4.35998139e-004, 0., 0., -1.83491583e-003, 0., 0., 0., 0., 0.,
          0., 0., -3.65848420e-004, 0., 0., 0., 0., 0., 0., 0., 0., 0.,
          0., 0., 0., -7.31696840e-004, 0., -3.42734624e-004,
          -3.65848420e-004, 1.04141822e-004, -3.65848420e-004, 0., 0.,
          0., 0., 0., 0., 0., 0., 0., 0., 0., 0., 3.37970472e-004, 0.,
          -2.78779662e-005, 0., 0., 0., 0., 0., 0., -3.42734624e-004,
          -4.76417290e-006, 0., 0., 0., -2.53782514e-003, 0.,
          -6.85469247e-004, -1.44027988e-003, 4.11116285e-003,
          -1.58761395e-003, 0., -9.04137996e-005, 0., 0., 0.,
          9.96582303e-003, 0., 0., 0., 0., 0., 1.93733769e-003, 0.,
          1.90945971e-003, -3.42734624e-004, 0., 0., 1.93733769e-003,
          -3.65848420e-004, -3.42734624e-004, 0., 3.02747474e-003, 0.,
          0., 0., 0., 0., 1.07120874e-003, 0., 1.44584989e-003, 0., 0.,
          0., 0., 0., 0., 0., 0., 0., 0., 0., 0., 0., 0., 0., 0., 0., 0.,
          0., 0., 0., 0., 0., 0., 0., 0., 0., 0., -3.42734624e-004, 0.,
          0., -3.42734624e-004, 2.20230431e-003, 7.26370960e-002, 0.,
          3.64419855e-002, 0., 1.92235527e-003, 0., 1.15947761e-001, 0.,
          -5.37880289e-004, 0., -2.75073544e-004, 0., 0., 0.,
          6.03315793e-003, 0., 2.44621746e-003, 0., 5.23149827e-003, 0.,
          0., 0., 2.32399628e-003, 0., 0., 0., -3.42734624e-004, 0., 0.,
          0., 1.36016007e-003, 0., 4.77592321e-003, 0., 1.33313797e-002,
          0., 2.17382517e-003, 0., 1.68574918e-002, 0., 0., 0.,
          -1.43818557e-004, 0., 0., 0., 1.57771911e-003, 6.99192053e-004,
          8.78765061e-003, 0., 1.11817522e-002, 0., 1.27012481e-003, 0.,
          1.76614765e-002, -3.42734624e-004, 1.98916081e-004, 0.,
          1.07120874e-003, 1.07120874e-003, 1.27012481e-003,
          -2.78779662e-005, -3.18514019e-001, -1.03067758e-003,
          7.02060992e-003, -3.65848420e-004, -5.37880289e-004, 0.,
          -3.34270248e-006, 0., -4.88148117e-003, 0., 0., 0., 0.,
          -3.65848420e-004, -3.65848420e-004, -3.65848420e-004,
          1.95663329e-003, -7.31696840e-004, 0., 0., 0., 3.37970472e-004,
          5.11274557e-004, -3.42734624e-004, 1.88798318e-003,
          -7.31696840e-004, 0., 0., 0., -7.31696840e-004, 0., 0.,
          9.50947870e-004, 0., 0., 0., 0., 0., 0., 0., 0., 0., 0., 0.,
          0., 0., 0., 0., -3.42734624e-004, 0., -5.12858212e-004, 0., 0.,
          0., 0., 0., 3.61221610e-004, 0., 0., 0., 0., -1.09754526e-003,
          0., 0., -7.31696840e-004, -1.63599977e-003, 0., 0., 0., 0., 0.,
          0., 0., 0., 0., 0., 0., 0., 0., 0., 0., 0., 0., 0., 0., 0., 0.,
          0., 0., 0., 0., 0., 0., -3.65848420e-004, 0., 0., 0.,
          -3.42734624e-004, 0., 0., 0., 0., 0., 0., 0., 0., 0., 0., 0.,
          0., 0., 0., 0., -6.23911968e-004, 0., 0., 0., 0., 0., 0., 0.,
          -7.08583044e-004, 0., 0., 0., -6.95112022e-003, 0., 0.,
          -3.65848420e-004, 4.09600820e-004, 9.16702487e-003, 0.,
          -1.05696381e-003, 0., 0., 0., -5.88493561e-003, 0., 0., 0., 0.,
          0., 0., 0., 8.66460323e-004, 0., 0., 0., 0., 0., 0., 0.,
          2.17382517e-003, 0., 0., 0., 0., 0., 0., 0., -7.22111261e-004,
          0., 0., 0., 0., 0., 0., 0., 0., 0., 0., 0., 0., 0., 0., 0., 0.,
          0., 0., 0., 0., 0., 0., 0., 4.09600820e-004, 0., 0., 0., 0.,
          0., 0., 0., 0., 2.53504678e-003, -5.84507920e-002, 0.,
          -5.29583693e-002, 0., 1.71338972e-002, 0., 1.41123161e-001, 0.,
          0., 0., -5.37880289e-004, 0., 0., 0., 9.79136955e-003, 0.,
          5.39888488e-003, 0., 0., 0., 2.70718476e-003, 0.,
          1.17768412e-002, 0., 0., 0., 0., 0., 2.34299488e-002, 0.,
          2.02464759e-002, -3.42734624e-004, -2.91639622e-002, 0.,
          -6.38371557e-002, 0., -2.18975692e-004, 0., -2.52329191e-004,
          0., 0., 0., 4.09600820e-004, 0., 4.09600820e-004, 0.,
          -1.35696039e-003, -3.77008086e-003, 3.99465114e-003, 0.,
          6.85525185e-004, 0., 1.10541936e-004, 0., 3.62546481e-002,
          -6.85469247e-004, -1.08882529e-003, 0., 0., 0.,
          9.56779625e-003, 0., -6.71673045e-002, 0., -1.01966457e-003,
          0., 0., 1.91321922e-003, -1.24249526e-003, 0.,
          -1.36827854e-002, 0., 0., 0., 0., -3.42734624e-004, 0., 0.,
          -2.74187699e-003, -1.71367323e-003, -6.54352654e-004, 0., 0.,
          0., -2.54268106e-003, 0., -4.55436588e-004, -3.42734624e-004,
          0., 0., 0., 1.04924594e-003, 0., 0., -2.61626416e-003, 0., 0.,
          0., 0., 0., 0., 0., 0., 0., 0., 0., 0., 0., 0., 0., 0., 0., 0.,
          0., 0., 0., 0., 0., 0., -3.42734624e-004, 0., 0., 0., 0., 0.,
          0., 0., 2.49339007e-002, 0., 0., 0., 5.99862915e-003, 0., 0.,
          2.65193311e-003, 0., 0., 0., 0., 0., 0., 0., 0.,
          -3.93307814e-003, 0., 0., 0., 0., -1.17473665e-003, 0., 0., 0.,
          0., 0., 0., 1.23758946e-004, 0., 0., 0., 0., 0., 0., 0., 0.,
          0., 0., 0., 0., 0., 0., 0., 0., 0., 0., 0., -1.52628142e-002,
          0., 0., 0., 1.43047902e-004, 0., 0., 0., -3.42734624e-004, 0.,
          0., 0., -5.03425021e-003, 0., -3.27176327e-004,
          -5.60915447e-004, 0., -1.37093849e-003, 0., -1.44266686e-003,
          0., 0., 0., -2.01122649e-003, 0., 0., 0., 0., 0., 0., 0.,
          5.97515726e-004, 0., 0., 0., 0., 0., 0., 0., 0., 0., 0., 0.,
          0., 0., 0., 0., -1.02820387e-003, 0., 0., 0., 0., 0., 0., 0.,
          0., 0., 0., 0., 0., 0., 0., 0., 0., 0., 0., 0., 0., 0., 0., 0.,
          0., 0., 0., 0., 0., 0., 0., 0., 0., 1.18736608e-003,
          -3.83355096e-002, 0., -2.22443864e-002, 8.93543242e-004,
          1.72123630e-002, 0., 2.98754331e-002, 0., -3.42734624e-004, 0.,
          0., 0., -3.42734624e-004, 0., -6.85469247e-004, 0.,
          -1.32484240e-002, 0., 0., 0., -2.95587741e-002, 0.,
          -8.60550907e-003, 0., 0., 0., 0., 0., 2.19519343e-002, 0.,
          7.86910485e-003, 6.91952417e-003, -6.86656907e-002, 0.,
          -3.54190841e-002, 0., 3.37970472e-004, 0., 3.09647829e-003, 0.,
          0., 0., 0., 0., 0., 0., 0., -9.26194247e-003, -6.24479167e-002,
          0., -1.15188984e-002, 0., 6.90390840e-002, 0., 6.89930469e-002,
          -3.09237652e-003, -1.81903376e-003, 0., 5.03353029e-003, 0.,
          -7.79380091e-004, 0., 9.67333987e-002, 3.47974035e-003, 0., 0.,
          0., 6.44671358e-003, -6.85469247e-004, 0., -2.05640774e-003,
          0., 0., 0., 0., 0., 0., 0., -6.51195832e-003, -6.22331689e-004,
          1.98916081e-004, 0., 0., 1.06059678e-003, -2.54268106e-003, 0.,
          2.58342596e-003, 0., 0., 0., 0., -5.33662364e-003,
          2.32307706e-003, -2.74187699e-003, -6.82829740e-003, 0., 0.,
          0., 0., 0., 0., 0., 0., 0., 0., 0., 0., 0., 0., 0., 0., 0., 0.,
          0., 0., 0., 0., 0., 0., 0., 0., 0., 0., 5.11274557e-004, 0.,
          7.28474057e-004, 1.25186844e-003, 2.88407169e-002, 0., 0., 0.,
          1.02175493e-002, 1.98916081e-004, 0., 4.09600820e-004, 0., 0.,
          0., 0., -3.27176327e-004, 0., 0., 0., -1.13303075e-002, 0., 0.,
          0., 3.59748048e-003, -1.69512071e-003, 0., 0.,
          -3.27176327e-004, 0., 0., 0., -2.89847190e-003,
          -6.28576498e-004, 0., -1.12263393e-003, 4.11116285e-003, 0.,
          0., 0., 0., 0., 0., 0., 0., 0., 0., 0., 0., 0., 0., 0.,
          -5.48272990e-002, 0., 0., 0., 3.21345739e-002, 2.58342596e-003,
          0., 3.44735716e-004, 2.73763039e-003, 0., 0., 0.,
          9.88604873e-002, -9.45777341e-004, 4.34765033e-003,
          -1.02043257e-003, 0., 0., 0., 0., 0., 0., 0., -6.85469247e-004,
          0., 0., 0., 0., 0., 0., 0., -6.85469247e-004, 0., 0., 0., 0.,
          0., 0., 0., 0., 0., 0., 0., 0., 0., 0., 0., -1.02820387e-003,
          0., 0., 0., 0., 0., 0., 0., 0., 0., 0., 0., 0., 0., 0., 0., 0.,
          0., 0., 0., 0., 0., 0., 0., 0., 0., 0., 0., 0., 0., 0., 0., 0.,
          1.57871854e-003, 1.25407672e-003, 0., -1.32680347e-003, 0.,
          3.81252822e-003, 0., 2.54649669e-002, 0., 0., 0., 0., 0., 0.,
          0., -6.85469247e-004, 0., -1.86665524e-002, 0., 0., 0.,
          -1.29812595e-003, 0., -4.09467684e-005, 0., 0., 0., 0., 0.,
          -9.24504828e-003, 0., -8.13886803e-003, -3.67598818e-003,
          -2.39010807e-002, 0., 4.02221875e-003, 2.17382517e-003, 0., 0.,
          -6.63401734e-004, 0., 0., 0., 0., 0., 0., 0., -3.42734624e-004,
          -5.30389436e-002, -8.83738995e-002, 0., 1.11115654e-003,
          3.32506350e-003, 4.18772399e-002, 0., 6.47877231e-002,
          -1.57903694e-002, -5.39840199e-003, 0., 9.17571539e-004,
          5.61102293e-003, -4.58111353e-002, 2.47422419e-003,
          1.58671662e-002, -1.76031631e-003, 0., 0., 0., 3.61221610e-004,
          0., 0., -3.42734624e-004, 0., 0., 0., 0., -3.27176327e-004, 0.,
          -3.42734624e-004, -6.85469247e-004, -1.38741184e-003, 0., 0.,
          0., 1.83101872e-003, 0., 0., 0., 0., 0., 0., 0.,
          -3.96476919e-003, 0., -1.37093849e-003, -2.33119004e-003, 0.,
          0., 0., 0., 0., 0., 0., 0., 0., 0., 0., 0., 0., 0., 0., 0.,
          -3.27176327e-004, 0., 0., 0., 0., 0., 0., 0., 1.41066348e-003,
          1.07120874e-003, 0., 0., 7.63105787e-003, 0., 1.93733769e-003,
          0., 5.99563867e-003, 0., 0., 0., 1.07120874e-003, 0., 0., 0.,
          0., 0., 0., 0., 0., 0., 0., 0., 6.17151440e-004, 0., 0., 0.,
          6.19309256e-004, 0., 0., 0., 0., 0., 0., 0., -2.47262389e-004,
          0., 0., 0., 7.39085604e-004, 0., 0., 0., -7.46090605e-004, 0.,
          0., 0., 0., 0., 0., 0., 0., 0., 0., 0., -3.59583274e-002, 0.,
          0., 0., 1.43495603e-002, -2.85841874e-004, 0., 0.,
          -4.13526222e-003, 0., 0., 0., 1.65437758e-001, 1.36142526e-005,
          4.09600820e-004, -3.65096406e-004, 0., 0., 0., 0., 0., 0., 0.,
          0., 0., 0., 0., 0., 0., 0., 0., 0., 0., 0., 0., 0., 0., 0., 0.,
          0., 0., 0., 0., 0., 0., 0., 0., 0., 0., 0., 0., 0., 0., 0., 0.,
          0., 0., 0., 0., 0., 0., 0., 0., 0., 0., 0., 0., 0., 0., 0., 0.,
          0., 0., 0., 0., 0., 0., 0., 0., 0., 0., 0., 0., 0., 0., 0., 0.,
          0., 0., 0., 0., 0., 0., 0., 0., 0., 0., 6.49742840e-004, 0.,
          0., 0., -7.89869926e-004, 0., 0., 0., 0., 0., 0., 0., 0., 0.,
          1.46658713e-005, 6.78829383e-004, -5.95106569e-004, 0., 0., 0.,
          0., 0., 0., 0., 0., 0., 0., 0., 0., 0., 0., -1.32700130e-001,
          2.76080589e-003, 0., -1.76031631e-003, -1.02116412e-003,
          1.76860674e-004, 0., 8.59131478e-003, -6.88503087e-002,
          1.92088354e-002, -7.46090605e-004, -6.36361772e-004,
          2.64610387e-002, 4.25452851e-002, -9.10083938e-004,
          -4.19955663e-002, -1.80433458e-003, 2.16495059e-003, 0., 0.,
          2.27796682e-003, 0., 0., 3.61221610e-004, 0., 0., 0., 0.,
          1.04141822e-004, 0., 3.77863966e-004, 0., 2.41361372e-002,
          7.28474057e-004, 0., 3.37970472e-004, 3.77863966e-004,
          -3.42734624e-004, 0., 0., 2.99704789e-005, 5.15679305e-004, 0.,
          0., 6.43525971e-003, 1.04141822e-004, 2.26560936e-004,
          -3.52298887e-003, -2.60310131e-004, 0., 0., 0., 0., 0., 0., 0.,
          0., 0., 0., 0., 0., 0., -3.27176327e-004, 0., 4.59964061e-003,
          -8.47560354e-004, 1.04141822e-004, 0., 0., 0., 0., 0.,
          1.78088117e-002, 1.40917918e-003, 0., 0., 1.13657089e-002,
          -1.15026080e-004, 3.94911086e-003, 1.03135861e-003,
          2.01303908e-003, 0., 0., 0., 0., 0., 0., 0., 0., 0., 0., 0.,
          0., 0., 0., 0., -6.40287937e-004, 1.04141822e-004, 0., 0., 0.,
          0., 0., 0., 1.98916081e-004, 0., 0., 0., 5.60137676e-004, 0.,
          0., 0., 1.48080953e-003, -2.38592809e-004, 0., 0., 0., 0., 0.,
          0., 0., 0., 0., 0., 0., 0., 9.25280096e-004, 0.,
          4.44064848e-003, -7.68169353e-004, 1.04141822e-004, 0.,
          4.20383178e-003, 0., 0., 0., 2.46270336e-002, 7.08456559e-004,
          2.03622403e-004, 0., 1.33199319e-001, 1.08969572e-003,
          6.72019552e-003, 7.58704031e-003, 3.37970472e-004, 0., 0., 0.,
          0., 1.04141822e-004, 0., 3.37970472e-004, 0., 0., 0., 0., 0.,
          0., 0., 0., 0., 0., 0., 0., 0., 0., 0., 0., 0., 0., 0., 0.,
          4.09600820e-004, 0., 0., 9.25280096e-004, 0., 0., 0., 0., 0.,
          0., 0., 0., 0., 0., 0., 0., 0., 0., 0., 0., -3.42734624e-004,
          0., 0., 0., 0., 0., 0., 0., -3.27176327e-004, 0., 0.,
          3.77863966e-004, 1.07120874e-003, 0., 0., 0., 1.04141822e-004,
          8.74964288e-004, 0., 0., 0., 1.04141822e-004, 0., 0., 0., 0.,
          0., 0., 0., 0., 0., 0., 0., -1.26679672e-003, 0., 0., 0., 0.,
          0., 0., -6.69910980e-004, 0., 0., 0., 0., 0., 0.,
          -6.85469247e-004, 1.88502949e-004, 4.09600820e-004, 0.,
          1.71008025e-004, 0., 0., 0., 1.04141822e-004, 0., 0., 0., 0.,
          0., 0., 0., 0., -1.40614598e-003, -7.43001292e-005, 0.,
          6.19821076e-004, -1.01422577e-003, 0., 0., 0.,
          -1.42608294e-002, 6.68572541e-003, -2.85841874e-004,
          -2.85841874e-004, 3.58311199e-002, 4.48365370e-003,
          3.83608928e-003, -2.94102937e-001, -3.36009753e-003, 0., 0.,
          0., -9.83022503e-004, 0., 0., -6.40287937e-004, 0., 0., 0., 0.,
          -3.94934963e-004, 0., -3.42734624e-004, -3.42734624e-004,
          -2.07952154e-003, 0., 0., 0., -3.42734624e-004, 0., 0., 0.,
          -1.37795752e-003, 0., -3.42734624e-004, 0., -2.08654068e-003,
          -3.42734624e-004, -3.42734624e-004, -1.37093849e-003, 0., 0.,
          0., 0., -3.42734624e-004, 0., 0., 0., 0., 0., 0., 0., 0., 0.,
          0., 0., -1.96709135e-003, -3.42734624e-004, 0., 0.,
          -2.97553284e-004, 0., 0., 0., -3.64260213e-003, 0., 0., 0.,
          -2.53908429e-003, -3.65848420e-004, -3.42734624e-004,
          -2.97553284e-004, -6.40287937e-004, 0., 0., 0., 0., 0., 0.,
          -3.42734624e-004, 0., 0., 0., 0., 0., 0., 0., 0.,
          -3.65848420e-004, 0., 0., 0., 0., 0., 0., 0., 0., 0., 0., 0.,
          0., 0., 0., 0., -3.42734624e-004, 0., 0., 0., 0., 0., 0., 0.,
          0., 0., 0., 0., 0., 0., 0., 0., -7.76452944e-003, 0., 0., 0.,
          0., 0., 0., -6.40287937e-004, -2.35877223e-002,
          -1.25850830e-003, 0., 0., -1.42076984e-002, -3.42734624e-004,
          -5.95106569e-004, -3.65848420e-004, 0., -2.97553284e-004, 0.,
          0., 0., 0., 0., 0., 0., 0., 0., 0., 0., 0., 0., 0., 0., 0., 0.,
          0., 0., 0., 0., -3.42734624e-004, 0., 0., 0., -3.42734624e-004,
          0., 0., 0., 0., 0., 0., 0., 0., 0., 0., 0., 0., 0., 0., 0., 0.,
          0., 0., 0., 0., 0., 0., 0., 0., 0., 0., 0., 0., 0., 0., 0., 0.,
          -2.97553284e-004, 0., 0., 0., 0., -1.02820387e-003, 0., 0., 0.,
          0., 0., -6.85469247e-004, 0., 0., 0., 0., 0., 0., 0., 0., 0.,
          0., 0., 0., 0., 0., 0., 0., -3.42734624e-004, 0., 0., 0., 0.,
          0., 0., -3.42734624e-004, -9.83022503e-004, -9.83022503e-004,
          0., 0., 0., 0., 0., 0., 0., 0., 0., 0., 0., 0., 0., 0.,
          -6.40287937e-004, -3.08565795e-003, 0., 0., 0., 0., 0.,
          -1.02820387e-003, -5.62369591e-003, -1.25850830e-003, 0.,
          -3.42734624e-004, -3.59144807e-003, -1.25850830e-003,
          -2.97553284e-004, 9.77140442e-002, -3.58914281e-003,
          -1.41716609e-003, 0., 0., -3.42734624e-004, -3.42734624e-004,
          0., -2.49159755e-003, -3.42734624e-004, 0., 0., 0.,
          -3.65848420e-004, 0., -7.08583044e-004, -3.58914281e-003,
          -1.75990083e-003, -1.05131767e-003, 0., 0., 0., 0., 0.,
          -3.65848420e-004, -1.39405229e-003, 0., 0., 0.,
          -9.02666897e-003, 0., -4.57111932e-003, -5.76111954e-003, 0.,
          0., 0., 0., 0., 0., 0., 0., 0., 0., 0., 0., 0., 0., 0., 0.,
          -7.08583044e-004, 0., 0., 0., 0., 0., 0., -3.65848420e-004,
          -6.85469247e-004, 0., 0., 0., -6.94714766e-003, 0.,
          -6.28479244e-003, -1.44027988e-003, -4.08235413e-004, 0., 0.,
          0., 0., 0., 0., 0., 0., 0., 0., 0., 0., 0., -3.42734624e-004,
          0., 0., -3.42734624e-004, 0., 0., 0., 0., 0., 0., 0., 0., 0.,
          0., -1.05131767e-003, 0., -3.42734624e-004, -3.65848420e-004,
          0., 0., 0., 0., 0., 0., 0., 0., 0., 0., 0., 0., 0., 0., 0., 0.,
          -1.18231925e-003, 0., 0., 0., 0., 0., -3.65848420e-004, 0.,
          -6.85469247e-004, 0., -3.42734624e-004, 0., -5.84960263e-003,
          0., -2.46848376e-003, -3.17706703e-003, 0., 0., 0., 0., 0., 0.,
          0., 0., 0., 0., 0., 0., 0., 0., 0., -1.05131767e-003, 0., 0.,
          0., 0., 0., 0., 0., 0., 0., 0., 0., 0., 0., 0., 0.,
          -1.46339368e-003, 0., 0., 0., 0., 0., 0., 0., 0., 0., 0., 0.,
          0., 0., 0., 0., 0., 0., 0., 0., 0., 0., 0., 0., 0., 0., 0., 0.,
          0., 0., 0., 0., 0., 0., -3.65848420e-004, 0., -7.31696840e-004,
          0., 0., 0., -7.31696840e-004, 0., 0., 0., 0., 0.,
          -3.65848420e-004, 0., 0., 0., 0., 0., 0., 0., 0., 0., 0., 0.,
          0., 0., 0., -3.65848420e-004, 0., 0., -3.42734624e-004, 0., 0.,
          0., -7.31696840e-004, -3.65848420e-004, 0., 0., 0., 0., 0., 0.,
          0., 0., 0., -3.65848420e-004, 0., 0., -1.11681852e-003, 0.,
          -7.50970037e-004, 0., 0., 0., -3.65848420e-004,
          -3.42734624e-004, 0., 0., 0., -3.42734624e-004, 0.,
          -3.42734624e-004, 8.06205794e-002, -2.17058230e-003,
          2.80757435e-002, -3.42734624e-004, 7.09647918e-003,
          -1.62324589e-003, -2.75496533e-003, 1.44320971e-003,
          -5.79791330e-002, 0., 2.17382517e-003, 0., 0., 0., 0.,
          -3.13356519e-004, -2.68807337e-002, 2.88401567e-003,
          3.06104892e-003, 0., 2.58342596e-003, -3.42734624e-004, 0., 0.,
          6.40903739e-003, 1.83109043e-003, -3.65848420e-004, 0., 0.,
          -3.81306629e-003, 0., -2.00343691e-003, -1.60336550e-002, 0.,
          -1.51636632e-004, 0., 0., -3.42734624e-004, -3.42734624e-004,
          0., -5.27086202e-004, 0., 0., 0., 0., 0., 0., 0.,
          1.84869768e-005, 0., 0., 0., 5.11274557e-004, 0., 0.,
          -3.42734624e-004, -5.37880289e-004, -3.42734624e-004, 0., 0.,
          0., -3.13083921e-003, 0., -1.05131767e-003, -6.54352654e-004,
          -5.24484843e-004, -5.37880289e-004, 0., 0., 0., 0.,
          -3.42734624e-004, 1.48080953e-003, 0., 0., 0., 0., 0., 0., 0.,
          -3.65848420e-004, 2.17382517e-003, 0., 0., 0., 0., 0., 0., 0.,
          0., 0., 0., 0., -2.10263534e-003, -6.85469247e-004, 0.,
          -1.73678691e-003, 3.61221610e-004, 1.98916081e-004, 0.,
          3.37970472e-004, 0., 0., 0., 0., 0., 0., 0., 0., 0., 0., 0.,
          3.61221610e-004, 1.68539918e-004, 0., 0., 0., -6.85469247e-004,
          0., 0., 1.93733769e-003, -6.85469247e-004, 0., 0., 0.,
          -5.16413338e-003, 0., 0., -2.02127849e-003, 0.,
          4.36772127e-004, 0., -1.22133899e-003, 0., 0., 0.,
          -2.57872138e-002, 0., 0., 0., 0., 0., 0., 0., -3.79737727e-002,
          0., 0., 0., 0., -3.42734624e-004, 0., 0., -2.28703348e-003, 0.,
          0., 0., 0., 0., 0., 0., -1.83904525e-002, 0., 0., 0., 0., 0.,
          0., 0., 0., 0., 0., 0., 0., 0., 0., 0., 0., 0.,
          1.98916081e-004, 0., 0., 0., 0., 0., -8.65056645e-004, 0., 0.,
          0., 0., 0., 0., 0., -5.37772372e-004, 0., 9.13439225e-003, 0.,
          6.48654439e-003, 2.17382517e-003, -3.42734624e-004, 0.,
          6.98047224e-003, 0., 0., 0., 0., 0., 0., 0., -8.13519675e-003,
          0., 7.15834438e-004, 0., 1.18968356e-003, 0., 0., 0.,
          6.74171781e-004, 0., 0., 0., 2.17382517e-003, 0.,
          -1.02820387e-003, 0., -2.47236583e-002, 0., 4.18696925e-003,
          0., 2.97907181e-003, 0., 0., 0., 9.64179449e-003, 0., 0., 0.,
          -1.64302636e-003, 0., 0., 0., 1.08805462e-003, 0.,
          2.65516620e-003, 0., 1.31521001e-003, 0., 0., 0.,
          2.12040357e-003, 0., 0., 0., 0., -6.85469247e-004, 0.,
          -3.65848420e-004, 1.43970653e-001, 1.32778827e-002,
          3.02703697e-002, 0., -1.06158725e-003, 8.18968751e-003,
          3.16400663e-003, 5.71707962e-003, -4.36229110e-002, 0.,
          5.15679305e-004, 0., 0., -8.66773131e-004, 5.11274557e-004,
          -3.99573939e-003, -9.83789042e-002, 6.28729118e-003,
          1.37966443e-002, 0., 7.22443219e-004, -1.27427047e-003, 0.,
          3.37970472e-004, 1.84998638e-003, 1.15959928e-003,
          1.93733769e-003, 0., 0., 2.05860939e-003, 2.61898153e-003,
          -1.02237733e-002, -1.49028733e-001, 0., 0., 0., 0., 0., 0., 0.,
          1.89875148e-003, 0., 0., 0., 0., 0., 0., 0., 4.09600820e-004,
          0., 1.98916081e-004, 0., 0., 0., 0., 0., 0., 0., 0., 0., 0.,
          0., 0., 1.95576600e-003, 7.35779817e-004, 1.73053110e-003,
          2.63652974e-003, 0., 0., 5.36886510e-004, 0., 1.93733769e-003,
          1.04350294e-003, 0., 0., 0., 0., 0., 0., 0., 6.19311060e-004,
          5.76780061e-004, 1.93733769e-003, 0., 0., 0., 0., 0.,
          3.37970472e-004, 0., 0., 0., 0., 5.15679305e-004, 0., 0.,
          2.77565233e-003, 0., 0., 0., 0., 0., 0., 0., 1.98916081e-004,
          0., 0., 0., 0., 0., 0., 3.61221610e-004, 0., 3.03057896e-004,
          -8.15309642e-004, 0., 0., 0., 0., 0., 5.11274557e-004, 0., 0.,
          0., 0., -3.42734624e-004, 0., 3.90980486e-003, 4.66376310e-004,
          0., 1.12822070e-003, 0., -1.89961877e-003, 0., 0., 0.,
          8.15251202e-004, 0., 0., 0., 0., 0., 5.15679305e-004, 0.,
          -3.71254757e-002, 0., 4.89862729e-003, 0., 0., 0., 0., 0.,
          1.02790422e-004, 0., 0., 0., 0., 0., 0., 3.37970472e-004,
          -3.14668603e-002, 0., 0., 0., 0., 0., 0., 0., -2.97553284e-004,
          0., 0., 0., 0., 0., 0., 0., 0., 0., 0., 0., 0., 0., 0., 0., 0.,
          0., 0., 0., 0., 0., 0., 0., -3.72230075e-004, 1.98916081e-004,
          2.46644709e-002, 0., -4.51117521e-003, -1.01422577e-003,
          2.93840766e-002, 1.98916081e-004, 8.92934129e-002, 0., 0., 0.,
          0., 0., 4.09600820e-004, 0., 7.79325841e-003, 0.,
          3.80576192e-003, 0., -8.64394882e-004, 0., 3.37970472e-004, 0.,
          3.03199189e-003, 0., 0., 0., 0., 0., 5.15679305e-004, 0.,
          -1.06120920e-002, 0., 1.55444129e-003, 0., -3.55727412e-003,
          0., 0., 0., 5.86673338e-003, 0., 0., 0., 0., 0., 0., 0.,
          4.86189907e-004, -1.01422577e-003, 1.23401172e-002, 0.,
          -6.53004157e-004, 3.37970472e-004, 1.36932905e-003, 0.,
          2.63286456e-002, 0., -1.01422577e-003, 0., 0.,
          -1.01422577e-003, 0., 0., 7.12994635e-002, 6.21522916e-003,
          3.45956255e-003, 0., 2.31925119e-003, 1.62875801e-002,
          3.97296157e-003, 5.15679305e-004, -1.00029588e-001, 0., 0., 0.,
          0., -7.46090605e-004, 2.17382517e-003, 9.34241805e-004,
          -5.69815226e-002, 2.30547375e-004, 3.24503379e-003, 0., 0.,
          1.06633641e-002, 4.53386077e-004, 0., 1.35705210e-002, 0., 0.,
          0., 5.11274557e-004, -9.63754859e-003, -2.86241237e-004,
          5.56996674e-004, -4.37910855e-002, 0., 0., 0., 0., 0., 0., 0.,
          0., 0., 0., 0., 0., 0., 0., 0., 0., 0., 0., 0., 0., 0., 0., 0.,
          0., 0., 0., 0., 0., 0., 0., 1.10176520e-003, -1.18657260e-003,
          1.48537857e-002, 0., 0., 0., 1.37092024e-002, 0., 0.,
          2.70474283e-003, 0., 0., 0., 0., 0., 0., -2.97553284e-004,
          2.17382517e-003, 6.08516915e-004, 0., 0., 0., 4.15511429e-003,
          2.23648371e-004, 0., 5.36886510e-004, 0., 0., 0., 0.,
          3.46293394e-003, 1.39632681e-003, 1.04141822e-004,
          -8.34523176e-004, 0., 0., 0., 0., 0., 0., 0., 0., 0., 0., 0.,
          0., 0., 0., 0., 0., 2.01240135e-003, 0., 0., 0.,
          1.70520265e-002, 3.54315410e-003, 0., 1.01170260e-002, 0., 0.,
          0., 0., 1.93571870e-003, -9.27790708e-004, -7.46090605e-004,
          -2.78177089e-003, 0., -2.75868428e-004, 0., -9.01994528e-004,
          0., 0., 0., -4.85375486e-002, 0., 0., 0., 0., 0., 0.,
          4.09600820e-004, -4.33332957e-002, 0., 0., 0., 0., 0., 0., 0.,
          6.76273776e-004, 0., 0., 0., 0., 0., 0., 0., -1.82758011e-002,
          0., 0., 0., 0., 0., 0., 0., -3.42734624e-004, 0., 0., 0., 0.,
          0., 0., 0., -3.42734624e-004, 0., 0., 0., 0., 0., 0., 0., 0.,
          0., 0., 0., 2.17382517e-003, 0., 0., 0., -1.93927641e-004, 0.,
          8.55791732e-005, 0., -4.70307982e-003, 0., 9.80559364e-003, 0.,
          -5.95270023e-002, 0., 0., 0., 0., 0., 0., 0., 4.90290998e-003,
          0., 4.21477249e-003, 0., 0., 0., 5.72306849e-003, 0.,
          2.91718333e-003, 0., 0., 0., 0., 0., -5.71683748e-004, 0.,
          -7.25791156e-002, 2.17382517e-003, -4.14801668e-003, 0.,
          -8.11380614e-003, 0., 0., 0., -7.44162127e-004, 0., 0., 0., 0.,
          0., 0., 0., 3.10121523e-003, 0., 3.19380090e-002, 0.,
          3.18487000e-004, 0., 7.74240047e-002, 0., 1.39412433e-001, 0.,
          0., 0., 2.68509961e-003, 0., 1.43354796e-002, 0.,
          3.37391160e-002, 2.02603061e-002, 1.16797525e-003, 0., 0.,
          1.30303567e-002, -2.15033768e-003, 2.71919742e-003,
          3.32287140e-003, 1.93733769e-003, 0., 0., 0., 1.40917918e-003,
          1.07120874e-003, 3.76532134e-003, 5.38639491e-004,
          1.13936923e-002, 3.15046310e-003, 3.61221610e-004, 0.,
          9.61811282e-003, 9.21624178e-006, 0., 1.58216488e-002,
          6.08516915e-004, 0., 0., 0., -5.28557599e-002,
          -5.62172907e-004, -4.09973301e-002, -5.20571098e-002, 0., 0.,
          0., 0., 0., 0., 0., 0., 0., 0., 0., 0., 0., 0., 0., 0.,
          3.52939195e-003, 6.19821076e-004, 0., 0., 2.78658257e-003, 0.,
          3.37970472e-004, 0., 5.72319934e-003, 3.37970472e-004, 0., 0.,
          -1.16343815e-002, 1.71328174e-005, -5.57637587e-002,
          -1.11203641e-002, 2.29300070e-003, 0., 0., 0., 1.80003501e-003,
          0., 1.04141822e-004, 5.11274557e-004, 0., 0., 0., 0., 0., 0.,
          0., 2.17382517e-003, -5.92129247e-004, 0., 0., 0.,
          -1.57794100e-003, -6.04624918e-004, 0., 3.37970472e-004, 0.,
          0., 0., 0., -4.21045534e-003, -5.46249561e-004,
          7.14595371e-004, -1.26150046e-002, 0., 0., 0., 0., 0., 0., 0.,
          0., 0., 0., 0., 0., 0., 0., 0., 0., 1.71787608e-002, 0., 0.,
          0., 2.82377545e-002, 4.10453090e-003, 1.93733769e-003,
          3.16208531e-003, 1.08111661e-003, 2.17382517e-003, 0., 0.,
          1.40448548e-002, 7.17244670e-003, 4.35211044e-003,
          -3.12348846e-002, 0., 0., 0., 0., 0., 0., 0., -1.95226597e-003,
          0., 0., 0., 0., 0., 0., 0., 4.76102141e-004, 0., 0., 0., 0.,
          0., 0., 0., 0., 0., 0., 0., 0., 0., 2.17382517e-003, 0.,
          4.64678538e-004, 0., 0., 0., 0., 0., 0., 0., 0., 0., 0., 0.,
          0., 0., 0., 0., 0., 0., 0., 0., 0., 0., 0., 0., 0., 0., 0., 0.,
          0., 0., 0., 3.77863966e-004, 7.02079060e-003, 4.09600820e-004,
          -8.68294155e-004, 0., -1.37093849e-003, 0., -1.69186445e-003,
          0., -1.38141084e-002, 0., 0., 0., 0., 0., 0., 0.,
          1.48835580e-003, 2.17382517e-003, 0., 0., 0., 0.,
          -6.76255266e-004, 0., 1.96947600e-003, 0., 0., 0., 0.,
          4.09600820e-004, -1.52156677e-003, 0., -2.05471143e-002, 0.,
          0., 0., 0., 0., 0., 0., 3.85739433e-004, 0., 0., 0., 0., 0.,
          0., 0., 4.09600820e-004, 1.85867352e-003, -4.23888490e-003, 0.,
          1.07120874e-003, 0., 1.94690041e-002, 0., 4.77467813e-002,
          7.43046729e-003, 0., 0., 0., 6.28632773e-003, -7.87717756e-003,
          1.63594470e-003, 3.49061191e-002, 1.93251278e-002,
          1.68740954e-002, 0., 1.22146518e-003, 1.05344951e-002,
          3.58991302e-003, 2.66326312e-003, 9.51211620e-003, 0., 0., 0.,
          0., 1.17558602e-003, 3.61221610e-004, 6.54352480e-004,
          9.89600085e-004, 4.42916192e-002, 2.32670195e-002, 0.,
          1.63547078e-003, 4.70277620e-003, 8.03106814e-005,
          1.99648878e-003, 5.60250413e-003, 3.61799891e-003,
          2.70816009e-003, 5.15679305e-004, 0., -7.16639832e-002,
          1.13409124e-002, -1.25223696e-001, -1.33417234e-001, 0., 0.,
          0., 0., 0., 0., 0., 1.98916081e-004, 0., 0., 0., 0., 0., 0.,
          0., 0., 2.94758449e-003, 4.09600820e-004, 0., 0., 0., 0.,
          7.70822458e-004, 0., 5.88540128e-003, 0., 0., 0.,
          -2.61591636e-002, 7.70822458e-004, -3.54533382e-002,
          -2.99419556e-002, 5.68912877e-003, 2.17382517e-003, 0., 0.,
          7.82047864e-003, 0., 5.15679305e-004, 5.11274557e-004, 0., 0.,
          0., 0., 0., 0., 0., -3.94934963e-004, 3.22467950e-003,
          1.93733769e-003, 0., 0., -6.40287937e-004, -3.94934963e-004,
          0., 3.51293347e-005, 4.09600820e-004, 0., 0., 0.,
          5.84146427e-003, -2.97553284e-004, 2.44861213e-003,
          4.63723531e-003, 1.93733769e-003, 4.09600820e-004, 0., 0., 0.,
          0., 0., 1.07120874e-003, 0., 0., 0., 0., 0., 0., 0., 0.,
          1.37510113e-002, 3.96091165e-003, 0., 0., 1.03936065e-003, 0.,
          1.93733769e-003, -3.42734624e-004, -1.37551622e-002,
          1.04141822e-004, 0., 0., -7.79700056e-002, 1.59202900e-003,
          1.32089723e-002, -2.33871210e-002, 0., 1.04141822e-004, 0., 0.,
          2.17382517e-003, 0., 0., 1.55321450e-003, 0., 0., 0., 0., 0.,
          0., 0., 2.92952266e-003, 0., 7.10190623e-004, 0., 0., 0., 0.,
          0., 3.77863966e-004, 0., 0., 0., 0., 0., 0., -2.75073544e-004,
          5.86837856e-003, 0., 0., 0., 0., 0., 0., 0., 0., 0., 0., 0.,
          0., 0., 0., 0., 0., 0., 5.11274557e-004, 0., 0., 0., 0., 0.,
          0., 0., 0., 0., 0., 0., 0., 1.07120874e-003, 4.09600820e-004,
          1.07120874e-003, 7.08418246e-003, 0., 3.97832162e-004, 0., 0.,
          0., 6.92463946e-003, 0., 0., 0., 0., 0., 5.15679305e-004, 0.,
          6.58878591e-003, 0., 4.55448963e-003, 0., 0., 0.,
          2.31520156e-003, 0., 3.27806250e-004, 0., 1.93733769e-003, 0.,
          0., 3.24503379e-003, 5.15679305e-004, 5.15679305e-004,
          2.36210064e-003, 0., 5.15679305e-004, 0., 0., 0.,
          1.93733769e-003, 0., 6.08516915e-004, 0., 0., 0., 0., 0., 0.,
          0., 9.69738525e-004, 1.62623567e-003, 1.49666555e-002, 0.,
          5.15679305e-004, 0., -9.71006986e-004, 0., 2.86871218e-003,
          1.91737211e-003, 1.98745728e-003, 0., 0., 6.42517582e-003,
          8.45864136e-003, 5.25401486e-003, 1.86272427e-001,
          1.33245755e-002, 2.78234202e-003, 0., 0., 1.60851562e-003, 0.,
          8.19201639e-004, -3.47498804e-004, -3.27176327e-004, 0., 0.,
          0., 4.59570810e-003, 0., 2.05808203e-003, -1.37093849e-003,
          2.46406291e-002, 4.75725112e-003, 0., 0., -3.44681670e-003, 0.,
          0., 1.12047543e-004, 2.45512128e-002, 0., 0., 5.15679305e-004,
          -4.97602373e-002, 2.10038363e-003, -8.54790211e-003,
          -2.53738835e-002, 0., 0., 0., 0., 0., 0., 0., 0.,
          4.09600820e-004, 0., 0., 0., 0., 0., 0., 0., 1.30696064e-002,
          0., 0., 0., 1.98916081e-004, 0., 0., 0., 7.98952114e-003, 0.,
          0., 0., -9.76493955e-002, 1.07120874e-003, -2.77832206e-002,
          -1.20150717e-002, 1.93733769e-003, 0., 0., 0., 0., 0.,
          1.98916081e-004, 0., 0., 0., 0., 0., 3.61221610e-004, 0., 0.,
          0., -1.44411030e-003, 0., 0., 0., 6.19821076e-004, 0., 0., 0.,
          3.50925210e-003, 0., 0., 0., 3.34362360e-003, 0.,
          3.37970472e-004, -9.32815252e-004, 5.51691744e-004, 0., 0., 0.,
          0., 0., 0., 0., 0., 0., 0., 0., 0., 0., 0., 0.,
          2.06468441e-002, 2.37274123e-003, -1.99909846e-004, 0.,
          -1.57935801e-003, 0., -3.42734624e-004, 0., -5.89179993e-002,
          -1.14511361e-003, 8.19201639e-004, 0., -1.22787394e-001,
          -9.35707882e-004, -2.17823172e-003, -2.27515474e-002, 0., 0.,
          0., 0., 0., 0., 0., 0., 0., 0., 0., 0., 0., 0., 0.,
          4.09600820e-004, 0., 0., 0., 0., 0., 0., 0., 0.,
          7.47571292e-004, 0., 0., 0., 8.89138493e-004, 5.11274557e-004,
          5.15679305e-004, -7.37669587e-004, 0., 0., 0., 0., 0., 0., 0.,
          0., 0., 0., 0., 0., 0., 0., 0., 0., 0., 0., 0.,
          2.17382517e-003, 0., 0., 0., 0., -1.64302636e-003, 0., 0., 0.,
          -6.53004157e-004, 0., 0., -1.01422577e-003, 3.37970472e-004,
          0., 0., 1.98916081e-004, 0., 0., 0., 0., 0., 0., 0., 0., 0.,
          0., 0., -3.42734624e-004, 0., 0., 0., 0., 0., 0., 0., 0., 0.,
          0., 0., 0., 1.98916081e-004, 1.04141822e-004, 0.,
          3.37970472e-004, 0., 3.37970472e-004, 0., 0., 0., 0.,
          3.61221610e-004, 0., 0., 0., 0., 0., 0., 0., 0.,
          4.09600820e-004, 4.71522473e-003, 1.27482472e-003, 0.,
          1.15717214e-003, 0., -2.97553284e-004, 0., 0.,
          -1.35908881e-003, 2.70816009e-003, 0., 0., 1.22414781e-002,
          -8.98286991e-004, 3.79708596e-004, 2.77469158e-001,
          6.10077637e-004, -6.85469247e-004, 0., 0., -3.71458213e-004,
          0., -6.85469247e-004, -3.42734624e-004, 0., 0., 0., 0., 0., 0.,
          0., 0., -8.33914673e-004, 3.61221610e-004, 0., 0., 0., 0., 0.,
          0., -6.48735848e-004, 0., 0., 0., -2.96660583e-003,
          3.37970472e-004, 1.84869768e-005, -1.35245163e-003,
          3.51293347e-005, 0., 0., 0., 0., 0., 0., 0., 0., 0., 0., 0.,
          0., 0., 0., 0., 4.71337960e-004, -3.42734624e-004, 0., 0., 0.,
          0., 0., 0., -1.66793051e-003, 0., -8.47560354e-004, 0.,
          -6.94439607e-003, 0., -7.60783383e-004, 3.37970472e-004,
          -2.50730343e-004, 0., 0., 0., -1.70709882e-005, 0., 0., 0., 0.,
          0., 0., 0., 0., 0., 0., 4.09600820e-004, 0., 0., 0., 0., 0.,
          0., 0., 0., 2.17382517e-003, 0., 0., 0., -8.92659882e-004, 0.,
          0., 0., -2.97553284e-004, 0., 0., 0., 3.37970472e-004, 0., 0.,
          0., -3.65848420e-004, 0., 0., 0., 0., 0., 0., 0.,
          6.97040837e-003, 0., 0., 0., 4.09600820e-004, 0., 0., 0.,
          -3.48440791e-003, -3.42734624e-004, 0., 0., -1.01606539e-002,
          -3.65848420e-004, 7.17816409e-004, -3.65848420e-004, 0., 0.,
          0., 0., 0., 0., 0., 0., 0., 0., 0., 0., 0., 0., 0., 0., 0., 0.,
          0., 0., 0., 0., 0., 0., 0., 0., 0., 0., 0., 0., 0.,
          -2.97553284e-004, 0., 0., 0., 0., 0., 0., 0., 0., 0., 0., 0.,
          0., 0., 0., 0., 0., -3.42734624e-004, 0., 0., 0., 0., 0., 0.,
          0., -2.97553284e-004, 0., 0., -3.94934963e-004,
          -8.47560354e-004, 0., 0., -9.37841192e-004, 0., 0., 0., 0., 0.,
          0., 0., 0., 0., 0., 0., 0., 0., 0., 0., 0., 0., 0., 0., 0., 0.,
          0., 0., 0., 0., 0., 0., 0., 0., 0., 0., -3.42734624e-004,
          -2.97553284e-004, 0., 0., 0., -3.94934963e-004, 0., 0., 0., 0.,
          0., 0., 0., 0., 0., 0., 0., -4.76417290e-006, 5.15679305e-004,
          0., 0., 0., 0., 0., 0., -1.33847340e-003, 9.93776484e-005, 0.,
          1.98916081e-004, -1.12662662e-003, 0., 0., 2.76114754e-002,
          -3.21986945e-003, -3.25249764e-003, 0., 0., -2.98502250e-003,
          0., 0., -2.77454220e-003, 0., 0., 0., 0., -3.42734624e-004,
          -3.42734624e-004, -1.01422577e-003, -2.02845153e-003,
          -3.42734624e-004, 0., 0., 0., 0., 0., 0., 0., -3.42734624e-004,
          0., 0., 0., -1.37093849e-003, 0., 0., -3.42734624e-004, 0., 0.,
          0., 0., 0., 0., 0., 0., 0., 0., 0., 0., 0., 0., 0., 0.,
          -3.42734624e-004, 0., 0., 0., -3.42734624e-004, 0., 0., 0., 0.,
          0., 0., 0., -6.85469247e-004, 0., 0., 0., -2.58166669e-003, 0.,
          0., 0., -1.22470618e-003, 0., 0., 0., 0., 0., 0., 0.,
          -3.42734624e-004, 0., 0., 0., 0., 0., 0., 0., 0., 0., 0., 0.,
          0., 0., 0., 0., 0., 0., 0., 0., 0., 0., 0., 0., 0., 0., 0., 0.,
          0., 0., 0., 0., 0., 0., 0., 0., -4.35958803e-003, 0., 0., 0.,
          -2.04117713e-003, 0., 0., 0., -3.42734624e-004, 0., 0., 0.,
          -3.67411855e-003, -4.08235413e-004, -7.50970037e-004, 0., 0.,
          -1.76031631e-003, 0., 0., 0., 0., 0., -1.01422577e-003, 0., 0.,
          0., 0., 0., 0., 0., -1.01422577e-003, -1.01422577e-003, 0., 0.,
          0., 0., 0., 0., 0., 0., 0., 0., 0., 0., 0., 0., 0., 0., 0., 0.,
          0., 0., 0., 0., 0., 0., 0., 0., 0., 0., 0., 0., 0., 0., 0., 0.,
          0., 0., 0., 0., 0., 0., 0., 0., 0., 0., 0., 0., 0., 0., 0., 0.,
          -1.01422577e-003, 0., 0., 0., -3.52063263e-003, 0., 0., 0., 0.,
          0., 0., 0., 0., 0., 0., 0., 0., 0., 0., 0., 0., 0., 0., 0., 0.,
          0., 0., 0., 0., 0., 0., 0., 0., 0., 0., 0., 0., 0., 0., 0., 0.,
          0., 0., 0., 0., -4.08235413e-004, -8.16470827e-004, 0.,
          -1.22470618e-003, -4.08235413e-004, -4.08235413e-004, 0.,
          -1.22470618e-003, 0., 0., 0., 0., 0., -2.04117713e-003, 0.,
          5.13257049e-002, 2.38379370e-002, 1.62884705e-002,
          8.76900915e-004, 5.91719104e-003, 1.42298045e-003,
          1.41493918e-003, -8.03000235e-004, -2.56034732e-002, 0.,
          8.72496166e-004, 0., 0., -2.15588463e-003, -5.12858212e-004,
          -2.43353564e-003, -3.49487029e-002, -9.78988362e-004,
          2.49747536e-003, 0., 0., 7.10190623e-004, 1.98916081e-004,
          2.68509961e-003, 1.17535051e-003, -3.42734624e-004, 0., 0., 0.,
          -4.32496611e-003, 0., -7.74921244e-003, -1.41231567e-002,
          4.09600820e-004, 1.98916081e-004, 0., 0., 0., 0., 0., 0., 0.,
          0., 0., 0., -2.75073544e-004, 0., 0., 0., 1.93733769e-003, 0.,
          0., 0., 0., 0., 0., 1.98916081e-004, 0., 2.53504678e-003, 0.,
          0., -6.85469247e-004, 0., -2.85841874e-004, 1.42038125e-003,
          3.30858026e-003, 5.11274557e-004, 0., 0., -1.43818557e-004, 0.,
          -5.12858212e-004, 0., 0., 4.09600820e-004, 0., 0., 0., 0.,
          3.61221610e-004, 0., -1.19086260e-004, 0., 0., 0., 0., 0.,
          1.98916081e-004, 0., 0., 0., 0., 0., 1.48835580e-003, 0.,
          -2.75073544e-004, 0., 2.45301705e-003, 0., 0., 0., 0., 0., 0.,
          0., 0., 0., 0., 0., 0., 0., 1.98916081e-004, 0.,
          9.09133756e-004, 0., 1.98916081e-004, 0., 5.11274557e-004, 0.,
          3.77863966e-004, 0., 0., 1.98916081e-004, 0., -1.01422577e-003,
          -1.87502848e-003, 0., 0., 0., 1.04816107e-003, 3.24972416e-003,
          0., 1.05587365e-002, 0., 2.31520156e-003, 0., -2.62239147e-002,
          0., 1.07120874e-003, 0., 0., 0., 0., -2.75073544e-004,
          -1.56354718e-002, 0., 0., 0., 5.15679305e-004, 0., 0., 0.,
          -7.46090605e-004, 0., 0., 0., 0., 0., 5.11274557e-004, 0.,
          -1.11399000e-004, 0., 0., 0., -3.94934963e-004, 0., 0., 0.,
          -2.85841874e-004, 0., 0., 0., 0., 0., 0., 3.37970472e-004, 0.,
          0., 1.07120874e-003, 0., 0., 0., 0., 0., 0., 0., 0., 0., 0.,
          0., 0., 0., -2.85841874e-004, 3.28082242e-003, 1.91982891e-002,
          0., 2.09654705e-003, 2.09766766e-003, 5.15860878e-003,
          4.09600820e-004, -5.96605241e-002, 2.17382517e-003, 0., 0., 0.,
          0., 0., 0., -2.32986431e-003, 0., 3.74388555e-003, 0.,
          4.21530474e-003, 0., 0., 0., 2.71180557e-004, 0., 0., 0., 0.,
          0., -6.69910980e-004, -5.37880289e-004, -7.58502074e-003,
          1.27294578e-003, 1.55930016e-002, 0., 1.10037979e-002, 0.,
          -5.37880289e-004, 0., 7.58173177e-003, 3.37970472e-004, 0., 0.,
          8.49245000e-004, 0., 0., -1.64302636e-003, 1.41705282e-003,
          -2.96594284e-004, 2.61322269e-003, 0., 6.75218832e-003, 0.,
          1.02695380e-003, 0., 2.79428018e-003, 3.97832162e-004,
          3.50383669e-003, 0., 5.59217576e-003, -2.83682276e-003,
          -4.43252269e-004, -2.85841874e-004, 2.01629270e-002,
          2.20636794e-004, 1.02838576e-002, 0., 4.21150529e-004,
          5.81659051e-003, 1.67590636e-003, -4.13833768e-004,
          -7.65689136e-003, -3.42734624e-004, 0., 0., 0.,
          -1.20534643e-003, -3.27176327e-004, 2.61821970e-003,
          -1.62531752e-002, 2.62083975e-003, 5.06780110e-003,
          3.37970472e-004, 0., 4.73395223e-003, 5.36886510e-004,
          3.37970472e-004, 4.56966041e-003, -1.93638564e-003, 0., 0., 0.,
          1.57289170e-002, 4.73606726e-003, -1.98218022e-002,
          3.92790027e-002, 0., 0., 0., 0., 0., 0., 0., 0., 0., 0., 0.,
          0., 0., 0., 0., -1.26516237e-003, 2.25432668e-004,
          4.09600820e-004, 4.09600820e-004, 0., -5.12858212e-004, 0., 0.,
          8.49245000e-004, 0., 3.37970472e-004, 1.93733769e-003,
          3.37970472e-004, -4.68654372e-003, 0., 1.88364356e-003,
          -4.45555808e-004, -2.70547275e-003, 8.96320911e-004, 0., 0.,
          4.44385828e-003, 4.09600820e-004, 7.47571292e-004,
          1.15658017e-003, 0., 0., 0., 0., -1.15314615e-003, 0.,
          -2.32954370e-003, 3.61221610e-004, -9.04262357e-004, 0., 0.,
          3.61221610e-004, -4.05448052e-004, 0., 0., 2.17382517e-003, 0.,
          0., 0., 0., 7.44851772e-003, 9.25280096e-004, -7.46090605e-004,
          8.37202556e-003, 1.79365196e-003, 0., 0., 0., 0.,
          1.98916081e-004, 0., 7.85366807e-004, 0., 0., 0., 0., 0., 0.,
          -5.37880289e-004, 0., 5.12915198e-003, 0., 1.93733769e-003, 0.,
          3.64705385e-003, 0., 0., -1.93411455e-004, 9.79106058e-004,
          3.37970472e-004, 0., -5.12858212e-004, 3.44118550e-002,
          2.17382517e-003, 4.40112222e-003, 8.44813325e-003, 0.,
          -3.67874140e-003, 0., -1.74880691e-003, 0., 0., 0.,
          -1.95691567e-002, 0., 0., 0., 0., 0., 0., 0., -6.18650299e-003,
          0., 2.17382517e-003, 0., 0., -2.85841874e-004, 0., 0.,
          4.82005795e-004, 0., 0., 0., 0., 0., 0., 0., 2.42094649e-003,
          0., 0., 0., 0., 0., 0., 0., 0., 0., 0., 0., 0., 0., 0., 0., 0.,
          0., 1.93733769e-003, 0., 0., 0., 0., 0., 0., 0., 0., 0., 0.,
          0., 0., 0., 1.21014717e-003, 1.18698587e-003, -2.98561510e-002,
          0., -1.39680086e-002, 0., 5.60778845e-003, 0.,
          -1.48713375e-002, 0., -3.27176327e-004, 0., 0., 0., 0., 0.,
          -1.21439947e-003, 0., -3.62762739e-003, 0., -1.55210600e-003,
          0., 5.05391276e-004, 0., -1.57125457e-003, 0.,
          -2.85841874e-004, 0., 3.77863966e-004, -7.46090605e-004,
          1.02179665e-002, -2.85841874e-004, 2.12063417e-002,
          -2.14461377e-003, -5.96808381e-002, 0., -2.20180806e-002,
          -8.47560354e-004, -2.49058660e-003, 0., -1.38136395e-003, 0.,
          -8.47560354e-004, 0., 0., 0., 0., -2.85841874e-004,
          -1.51288440e-003, -9.42524173e-004, -6.77084923e-002, 0.,
          -1.66178611e-003, -7.43418525e-004, 7.50280684e-003, 0.,
          3.53368744e-002, 1.23129971e-003, -8.42163514e-004, 0.,
          3.25118104e-004, -1.79524696e-003, 1.45973712e-002,
          -6.37388381e-004, 2.64349990e-002, -1.80416659e-003,
          -2.57333728e-008, 0., 1.83109043e-003, -3.45288217e-003, 0.,
          -1.40916067e-003, 1.20063615e-003, 0., 0., 0., 0.,
          -1.46936649e-003, 0., -2.37118616e-003, 3.53573659e-003,
          -4.62681601e-006, 0., 0., 0., 0., -3.42734624e-004,
          3.37970472e-004, -1.64302636e-003, 0., -3.27176327e-004, 0.,
          0., -8.42504762e-003, 0., -3.80036905e-002, -3.20362560e-002,
          0., 0., 0., 0., 0., 0., 0., 0., 0., 0., 0., 0., 0., 0., 0., 0.,
          0., 0., 0., 0., 0., 0., 0., 0., 0., -3.42734624e-004, 0., 0.,
          -1.01885258e-003, 0., -4.70990734e-003, -4.76807076e-003,
          1.67641568e-003, 0., 0., 0., -1.52127162e-004, 0., 0.,
          -3.65848420e-004, 0., 0., 0., 0., 0., 0., 0., 0.,
          -4.62681601e-006, -3.42734624e-004, 0., -2.97553284e-004,
          -8.47560354e-004, 0., 0., -8.47560354e-004, 0., 0., 0., 0.,
          -9.37841192e-004, 0., 0., -5.02951210e-004, 1.87627180e-003,
          0., 0., 0., -3.65848420e-004, 0., 0., 0., 0., 0., 0., 0., 0.,
          0., 0., 0., -8.09869077e-003, 3.61221610e-004, 0., 0.,
          -1.32434571e-003, 0., 0., 3.37970472e-004, -6.77060755e-003,
          0., 0., 0., -1.72101613e-002, 0., 9.92666930e-004,
          2.95255147e-003, 0., 4.07791522e-004, 0., 4.60955827e-003, 0.,
          0., 2.17382517e-003, 1.78259350e-002, 0., 0., 0., 0., 0., 0.,
          0., -6.70194253e-003, 0., 0., 0., 6.99192053e-004, 0., 0., 0.,
          1.58248330e-003, 0., 0., 0., 0., 0., 0., 3.37970472e-004,
          2.86717340e-003, 0., 0., 0., 0., 0., 0., 0., -1.64302636e-003,
          0., 0., 0., 0., 0., 0., 0., 0., 0., 0., 0., 0., 0., 0., 0., 0.,
          0., 0., 0., 0., 0., 0., 0., 8.98108119e-004, 2.00224342e-003,
          8.16735178e-002, 0., -5.37338629e-002, -3.70475231e-004,
          6.30386453e-003, 0., 7.23434761e-002, 0., -3.42734624e-004, 0.,
          0., 0., 0., 0., 4.28325869e-003, 0., 5.20268641e-003, 0., 0.,
          0., 0., 0., -1.58928498e-003, -1.01422577e-003, 0., 0., 0., 0.,
          -5.71683748e-004, 0., -9.32615064e-003, -2.51045247e-004,
          -4.01300052e-003, 0., 3.91160464e-003, 1.44907273e-003,
          2.79770955e-003, 0., 1.55426525e-002, 0., 0., 0., 0., 0., 0.,
          0., -2.47331383e-003, -8.07874836e-003, 2.07096320e-002, 0.,
          1.18690357e-002, 0., 1.56655237e-002, 0., 3.68755846e-003,
          -2.07062718e-003, 2.51179561e-003, 0., 9.84282931e-004,
          1.20606746e-005, 3.45368520e-003, 2.53504678e-003,
          -7.10657686e-002, 6.17879350e-003, -1.67762744e-003, 0.,
          1.42773450e-003, 3.71743622e-003, -6.41948776e-004, 0.,
          -2.73703458e-003, 0., 0., 0., 0., -3.65848420e-004, 0.,
          -2.02845153e-003, -1.01040108e-002, 6.53223135e-003, 0., 0.,
          0., -3.28262150e-003, 0., 0., -1.01422577e-003,
          -7.46090605e-004, 0., 0., 0., -1.32584171e-002, 0.,
          -2.75575723e-002, -6.76140115e-002, 0., 0., 0., 0., 0., 0., 0.,
          0., 0., 0., 0., 0., 0., 0., 0., 0., 1.17535051e-003,
          2.17382517e-003, 0., 0., 2.17382517e-003, 0., 0., 0.,
          6.95498846e-003, 0., 0., 0., -3.68013717e-002,
          -7.46090605e-004, -8.83824285e-003, -3.36302281e-003,
          1.77850593e-002, 0., 0., 0., 1.17497914e-003, 0., 0.,
          4.65363439e-004, 0., 0., 0., 0., 0., 0., 0., 0.,
          4.24155453e-003, 0., 0., 0., 1.93733769e-003, 3.77863966e-004,
          0., -1.01422577e-003, 2.04755552e-003, 0., 0., 0.,
          -2.38271779e-003, 0., -2.78779662e-005, -2.39429995e-003,
          1.74559758e-003, 0., 0., 0., 5.15679305e-004, 0., 0., 0., 0.,
          0., 0., 0., -1.01422577e-003, 0., 0., 0., 5.24459109e-002,
          5.15679305e-004, -2.85841874e-004, 0., 1.62347164e-002, 0.,
          1.04141822e-004, -3.42734624e-004, -1.16165332e-001,
          1.58688799e-003, 0., 0., 4.44792360e-002, 1.67038743e-004,
          -2.34926818e-003, -7.22309761e-003, 0., 0., 0., 0., 0., 0., 0.,
          0., 0., 0., 0., 0., 0., 0., 0., 0., 0., 0., 0., 0., 0., 0., 0.,
          0., 0., 0., 0., 0., -2.85841874e-004, 0., -2.75073544e-004,
          -1.02925010e-003, 0., 0., 0., 0., 0., 0., 0., 0., 0., 0., 0.,
          0., 0., 0., 0., 0., 0., 0., 0., 0., 0., 0., 0., 0., 0., 0., 0.,
          0., -7.46090605e-004, 0., 0., 0., 6.68661960e-005,
          -1.50683755e-002, 0., -7.91395505e-005, 0., -3.73672484e-003,
          0., -3.45451222e-003, 0., 0., 0., 0., 0., 0., 0.,
          -1.85802963e-003, 0., 1.51030114e-003, 0., 0., 0.,
          -7.46090605e-004, 0., 0., 5.15679305e-004, 0., 0., 0.,
          -2.85841874e-004, 0., 0., -4.05690307e-003, 7.74414570e-004,
          -1.00922259e-003, 0., -2.18466949e-003, 0., -3.65848420e-004,
          0., 4.13508707e-004, 0., 0., 0., 0., -7.46090605e-004, 0., 0.,
          -1.01422577e-003, 1.36321522e-002, 6.01759665e-002, 0.,
          2.01205519e-004, 6.99192053e-004, 1.28806252e-002, 0.,
          7.09920144e-003, 1.17189027e-002, 1.83284953e-002,
          -5.12858212e-004, 3.77863966e-004, 2.83891074e-002,
          4.19614017e-002, 4.95461421e-003, -2.84272823e-002,
          3.45553178e-003, -3.64939007e-003, 0., 5.36607811e-003,
          9.77482367e-003, 8.49245000e-004, 2.05255277e-003,
          -5.59228892e-003, -9.09753144e-005, 0., 0., -3.94934963e-004,
          3.19511280e-003, 1.71223702e-003, -2.95398757e-003,
          -1.47454394e-002, 3.30220745e-003, 1.33360492e-003, 0.,
          -2.75073544e-004, -2.48678582e-004, 2.41081201e-004,
          -3.94934963e-004, -9.54926712e-004, 3.24503379e-003, 0., 0.,
          -5.37880289e-004, -3.59271392e-002, 2.86938110e-003,
          -3.28937024e-002, -7.74422586e-002, 0., 0., 0., 0., 0., 0., 0.,
          0., 0., 0., 0., 0., 0., 0., 0., 0., 1.89377286e-003,
          4.09600820e-004, 0., 0., -5.37880289e-004, 0., 3.37970472e-004,
          -1.64302636e-003, -7.55015790e-005, 2.17382517e-003, 0., 0.,
          -9.60332283e-004, 0., -7.57478550e-003, 1.73087436e-004,
          9.63333715e-003, -1.64302636e-003, 0., 0., 6.76838774e-003,
          1.98916081e-004, 1.59460306e-003, 1.17655424e-003, 0., 0., 0.,
          0., 3.61221610e-004, 0., 0., 0., -5.67091978e-004, 0., 0., 0.,
          -4.70994884e-004, 1.98916081e-004, 0., 0., 0., 0., 0., 0.,
          -6.11430907e-004, 7.12658744e-004, 1.85706350e-003,
          -1.38889684e-003, 1.50095054e-003, 5.11274557e-004, 0., 0., 0.,
          0., 0., 0., 0., 0., 0., 0., 0., 0., -5.12858212e-004, 0.,
          1.19050983e-002, 1.39293435e-003, 0., 0., 9.73344315e-003,
          4.09600820e-004, 1.32599077e-003, -3.29596660e-004,
          9.55799595e-002, 1.93733769e-003, 0., 0., 9.02937129e-002,
          -2.02911743e-003, -3.18418560e-003, -2.01066467e-003, 0.,
          2.17382517e-003, 0., 0., 0., 2.17382517e-003, 0.,
          -4.84852848e-004, 0., 0., 0., 0., 0., 0., 0., -1.31895576e-004,
          0., 1.98916081e-004, 0., 0., 0., 0., 0., 0., -2.85841874e-004,
          0., 0., 0., 0., 0., 0., 1.02912227e-003, 0., 0., 0.,
          -2.85841874e-004, 0., 0., 0., 2.17382517e-003, 0., 0., 0., 0.,
          0., 0., 0., 0., 0., 0., 0., 0., 0., 0., 0., 0., 0., 0., 0.,
          1.93733769e-003, 0., 0., 0., 1.53142866e-003, -6.73453731e-004,
          -1.10095050e-002, 0., -1.53404765e-003, 0., 1.18244614e-003,
          0., -3.12425219e-003, 0., 0., 0., 0., 0., 1.93733769e-003, 0.,
          1.84511382e-003, 0., 1.76733464e-003, 0., 1.98916081e-004, 0.,
          1.98916081e-004, 0., -6.40287937e-004, -5.71683748e-004, 0.,
          0., 0., 0., 2.69441586e-003, 0., -4.55421023e-003,
          -1.70480704e-003, -2.54156557e-003, 0., -4.08942066e-003, 0.,
          -5.37880289e-004, 0., -3.48058925e-003, 0., 0., 0., 0.,
          -1.64302636e-003, 0., 0., 1.02537114e-003, -4.35052626e-002,
          -4.64590564e-002, 0., 3.23032960e-003, -1.64302636e-003,
          -4.73082531e-003, 0., -1.39145963e-002, 7.53557018e-004,
          7.43656978e-003, -1.01422577e-003, 1.80905813e-003,
          1.52154891e-002, -9.14476253e-003, 3.45211918e-003,
          2.39035562e-002, 5.03887376e-003, -5.55510982e-004, 0., 0.,
          -6.15224999e-005, 3.37970472e-004, -1.64137571e-003,
          -1.23815262e-003, 0., 0., 0., 0., 6.28969137e-005, 0.,
          -6.32634200e-003, -8.63836054e-003, 5.22289611e-003,
          7.59053743e-004, 0., 1.04141822e-004, 1.98412198e-003, 0.,
          5.11274557e-004, -3.94934963e-004, 5.11712115e-003, 0., 0., 0.,
          -5.28557450e-002, 3.27508256e-004, -6.75718188e-002,
          -5.26077077e-002, 1.93733769e-003, 0., 0., 0., 0., 0., 0., 0.,
          0., 0., 0., 0., -7.46090605e-004, 0., 0., 0., 1.60287023e-002,
          3.37970472e-004, 0., 0., 3.61221610e-004, 0., -9.10083938e-004,
          9.23111918e-004, 1.24411173e-002, 0., 0., 0., -3.59837338e-002,
          0., -2.85857040e-002, -5.04922401e-003, 2.32492806e-003,
          -3.94934963e-004, 0., 0., 7.73426378e-003, 0., 0., 0., 0., 0.,
          0., 0., 1.27012481e-003, 0., 3.77863966e-004, -8.47560354e-004,
          -9.10419330e-005, 0., 0., 0., 0., 0., 0., 0., 0., 0., 0., 0.,
          1.71538341e-004, 0., -1.53888448e-003, -2.19239388e-003,
          4.55136207e-004, 0., 0., 0., 1.39945734e-003, 0., 0.,
          -1.01422577e-003, 0., 0., 0., 0., 0., 0., 0., -3.94934963e-004,
          4.54794131e-002, 0., 0., 0., 7.61601422e-003, 0.,
          3.61221610e-004, 0., 8.24480578e-002, 1.62934582e-003,
          1.48080953e-003, 0., 6.82469904e-002, 3.93649191e-003,
          1.24439858e-002, -1.05029941e-002, 0., 0., 0., 1.04141822e-004,
          0., 0., 0., 0., 0., 0., 0., 0., 0., 0., 0., -3.42734624e-004,
          0., 0., 0., 5.15679305e-004, 0., 0., 0., 0., 0., 0., 0., 0.,
          0., 0., 0., 0., 0., 0., 0., 0., 0., 0., 0., 0., 0., 0., 0., 0.,
          0., 0., 0., 0., 0., 0., 0., 0., 0., 0., 0., 0., 0., 0., 0., 0.,
          -3.28760012e-004, 0., 0., -1.68759492e-003, 0.,
          -3.42734624e-004, 0., 0., 0., 0., 0., -1.75189530e-003, 0., 0.,
          0., 0., 0., 0., 0., -6.16925245e-004, 0., 0., 0., 0., 0., 0.,
          0., 0., 0., 0., 0., 0., 0., 0., 0., -2.12408928e-003, 0.,
          -1.88161910e-003, -3.42734624e-004, 4.09600820e-004,
          -3.94934963e-004, 0., 0., 0., 0., 0., 0., 0., 0., 0., 0.,
          1.04141822e-004, 1.68163333e-005, -3.74310161e-003,
          4.09600820e-004, 0., 1.93733769e-003, -3.42734624e-004, 0.,
          9.25280096e-004, 2.60044709e-002, -7.93347484e-004, 0.,
          -1.45490270e-003, 3.04215271e-002, -3.04137100e-003,
          -2.33472238e-004, -5.01533188e-002, 1.19231353e-002,
          3.77863966e-004, 0., 0., 4.67889222e-005, 4.09600820e-004, 0.,
          4.09600820e-004, 0., 0., 0., 0., 3.37970472e-004, 0., 0., 0.,
          5.04417112e-003, 5.15679305e-004, 0., 3.37970472e-004,
          5.15679305e-004, 0., 0., 0., 1.71211094e-003, 0., 0., 0.,
          1.17103402e-002, 2.17382517e-003, 9.79106058e-004, 0., 0., 0.,
          0., 0., 0., 0., -2.97553284e-004, 0., 0., 0., 0., 0., 0., 0.,
          0., 0., -7.80095943e-005, -2.97553284e-004, 0., 0., 0., 0., 0.,
          0., 3.93024972e-003, 2.17382517e-003, 0., 0., 7.99546688e-005,
          -1.42683694e-003, 4.83100256e-003, 3.38854804e-003,
          9.23911924e-004, 0., 0., 0., 3.70774302e-003, 0., 0., 0., 0.,
          0., 0., 0., -2.97553284e-004, 0., 0., 0., 1.17535051e-003, 0.,
          0., 0., 0., 0., 0., 0., 0., 0., 0., 0., -2.97553284e-004, 0.,
          0., 3.61221610e-004, 4.04171733e-005, 0., -3.65848420e-004, 0.,
          0., 0., 0., 0., 0., 0., 0., 0., -2.97553284e-004, 0., 0., 0.,
          1.09587666e-002, 3.37970472e-004, 5.11274557e-004, 0.,
          8.19201639e-004, 0., 0., 0., -3.38771450e-003, 0.,
          4.68794256e-003, 0., -3.71893197e-002, 3.37970472e-004,
          9.69656836e-003, -9.15562443e-004, 1.93733769e-003,
          -3.65848420e-004, 0., 0., 0., 0., 0., -3.65848420e-004, 0., 0.,
          0., 0., 0., 0., 0., 0., 3.77863966e-004, 4.09600820e-004, 0.,
          0., 0., 0., 0., 0., 1.93733769e-003, 0., 0., 0., 0., 0., 0.,
          -4.37959505e-004, 0., 0., 0., 0., 0., 0., 0., 0., 0., 0., 0.,
          0., 0., 0., 0., 0., 0., 0., 0., 0., 0., 0., 0., 0.,
          2.13625375e-003, -3.65848420e-004, 0., 0., 0., 0., 0.,
          1.98916081e-004, 0., 0., 0., 0., 0., 0., 0., -3.65848420e-004,
          0., 0., 0., 0., 0., 0., 0., 0., 0., 0., 0., 0., 0., 0., 0., 0.,
          0., 0., 0., 0., 0., 0., 0., 0., 0., 0., 0., 0., 0., 0., 0., 0.,
          0., 0., 0., 0., 0., 0., 0., 0., 5.09522157e-003,
          8.53649748e-004, 0., 4.09600820e-004, 0., 0., 0., 0.,
          1.07056573e-002, 1.58833060e-003, 0., 1.07120874e-003,
          7.57982861e-003, 7.97176175e-003, 2.65723001e-003,
          -8.26331228e-002, -4.26738337e-003, -1.49218121e-003, 0.,
          -1.76031631e-003, -1.01422577e-003, 0., 0., -2.77454220e-003,
          0., 0., 0., 0., 0., -1.01422577e-003, 0., 0., 0., 0., 0., 0.,
          0., 0., 0., 0., 0., 0., 0., 0., 0., 0., 0., 0., 0., 0., 0., 0.,
          0., 0., 0., 0., 0., 0., 0., 0., 0., 0., 0., 0., 0., 0., 0., 0.,
          0., 0., 0., 0., 0., 0., 0., 0., 0., 0., 0., 0.,
          -3.04267718e-003, 0., 0., 0., -7.46090605e-004, 0., 0.,
          -7.46090605e-004, 0., 0., 0., 0., 0., 0., -1.01422577e-003, 0.,
          -1.01422577e-003, 0., 0., 0., -1.01422577e-003, 0., 0., 0., 0.,
          0., 0., 0., 0., 0., 0., 0., 0., 0., 0., 0., 0., 0., 0., 0., 0.,
          0., 0., 0., 0., 0., 0., 0., -1.24066407e-002, 0., 0., 0.,
          -4.47786413e-003, -4.08235413e-004, -4.08235413e-004, 0.,
          -3.46363825e-003, 0., 0., 0., -1.71204358e-002, 0.,
          -4.08235413e-004, -1.01422577e-003, -1.01422577e-003, 0., 0.,
          -1.01422577e-003, 0., -7.46090605e-004, 0., -4.74467920e-003,
          0., 0., 0., 0., 0., -1.01422577e-003, 0., 0., 0., 0., 0., 0.,
          0., 0., 0., 0., 0., 0., 0., 0., 0., 0., 0., -1.76031631e-003,
          0., 0., 0., 0., 0., 0., 0., 0., 0., 0., 0., 0., 0., 0., 0., 0.,
          0., 0., 0., 0., 0., 0., 0., 0., 0., 0., 0., 0., 0., 0., 0., 0.,
          0., -5.28094918e-003, 0., -5.75890485e-003, 0.,
          -2.02845153e-003, 0., -1.67987589e-002, 0., 0., 0., 0., 0., 0.,
          0., -2.02845153e-003, 0., 0., 0., -1.49218121e-003, 0.,
          -1.01422577e-003, 0., -1.76031631e-003, 0., 0., 0., 0., 0., 0.,
          0., 0., -1.01422577e-003, -1.01422577e-003, 0.,
          -7.46090605e-004, 0., 0., 0., -2.77454220e-003, 0., 0., 0., 0.,
          0., 0., 0., 0., 0., -1.90852601e-002, 0., 0., -4.08235413e-004,
          -3.45091266e-003, 0., -8.13925732e-003, 0., -1.83069659e-003,
          0., 0., -2.23893207e-003, -7.32278638e-003, 0.,
          1.54089078e-001, -9.90692177e-004, 1.44536211e-003, 0.,
          2.29531247e-003, 4.90600057e-003, 2.13625375e-003, 0.,
          1.04285032e-002, 0., 0., 0., 3.37970472e-004, 0., 0., 0.,
          2.00289325e-003, -1.01422577e-003, 0., 0., 2.08283644e-004, 0.,
          0., 0., 0., 0., 0., 0., 0., 0., 0., 0., 0., 0., 0., 0., 0., 0.,
          0., 0., 0., 0., 0., 0., 0., 0., 0., 0., 0., 0., 0., 0., 0., 0.,
          0., 0., 0., 0., 0., 0., 0., 5.15679305e-004, 0., 0.,
          5.15679305e-004, 3.48444004e-003, 0., 0., 0., 2.82056606e-003,
          0., 0., 0., 0., 0., 0., 0., 0., 0., 0., 0., 0., 0., 0., 0., 0.,
          0., 0., 0., 0., 0., 0., 0., 0., 0., 0., 0., 0., 0., 0., 0., 0.,
          0., 0., 0., 0., 0., 0., 0., 0., 0., 0., 0., -4.98546462e-004,
          -4.08235413e-004, 0., 0., -4.08235413e-004, 0.,
          -4.08235413e-004, 5.15679305e-004, 0., 0., 0., 0.,
          -4.08235413e-004, 0., 0., 0., 0., 1.61602627e-003, 0.,
          -5.44513692e-004, 0., 0., 0., 6.59983698e-003, 0., 0., 0., 0.,
          0., 0., 0., 7.23962905e-004, 0., 3.61221610e-004, 0.,
          1.93733769e-003, 0., 0., 0., 0., 0., 0., 0., 0., 0., 0., 0.,
          -1.03076641e-003, 0., 0., 0., 0., 0., 0., 0., -3.27176327e-004,
          0., 0., 0., -5.12858212e-004, 0., 0., 0., 0., 0., 0., 0., 0.,
          0., 0., 0., 0., 0., 0., 0., 3.37970472e-004, 0.,
          5.15679305e-004, 0., 3.37970472e-004, 2.29855930e-003,
          4.69349064e-002, 0., -8.29394162e-002, 0., 3.17596714e-003, 0.,
          -1.53996563e-002, 0., 0., 0., -4.37959505e-004, 0., 0., 0.,
          8.86328518e-004, 0., 4.13263682e-003, 0., -1.14922004e-003, 0.,
          0., 0., 2.51072040e-003, 0., 5.15679305e-004, 0., 0.,
          1.93733769e-003, 0., 0., 1.62435919e-002, 1.07120874e-003,
          1.41755966e-002, 0., -2.56284303e-003, 0., 0., 0.,
          3.25214886e-003, 0., 0., 0., -1.64302636e-003, 0.,
          2.17382517e-003, 0., 3.47530656e-003, -6.16393576e-004,
          1.53701548e-002, 0., 1.43894767e-002, 0., 1.07120874e-003, 0.,
          1.96654778e-002, 0., 3.40381591e-003, 0., 5.31992933e-004,
          -4.08235413e-004, 1.07120874e-003, 0., -9.06213149e-002,
          1.55250740e-003, 2.46570189e-003, 0., 2.14241748e-003,
          -6.80503203e-004, 0., 8.53649748e-004, 1.20396446e-002, 0., 0.,
          0., 0., 0., 0., 1.07120874e-003, 2.16906099e-003,
          1.72944652e-004, 0., 0., 0., 0., 0., 0., 1.58688799e-003, 0.,
          0., 0., 0., 1.16768875e-003, 0., 0., 6.74018124e-003, 0., 0.,
          0., 0., 0., 0., 0., 0., 0., 0., 0., 0., 0., 0., 0., 0., 0., 0.,
          0., 0., 0., 0., 0., 0., 0., 0., 0., 0., 0., 0.,
          5.15679305e-004, 0., 1.89724844e-002, 0., 0., -3.65848420e-004,
          -1.81154319e-004, 5.15679305e-004, 0., 1.01222936e-003, 0., 0.,
          0., 0., -3.65848420e-004, 0., 0., 5.15679305e-004,
          7.70822458e-004, 0., 0., 0., 0., 0., 0., -2.97553284e-004, 0.,
          0., 0., 0., 8.14538449e-003, 0., 2.51179561e-003,
          3.61221610e-004, 0., 0., 1.93733769e-003, 0., 0., 0., 0.,
          1.93733769e-003, 0., 0., 0., 0., 0., 0., 0., 0.,
          4.65384964e-003, 0., 0., 0., -2.34816063e-004, 0.,
          3.77863966e-004, 7.05360260e-004, 5.15679305e-004, 0., 0., 0.,
          1.98787218e-003, 2.17382517e-003, 0., 1.96475186e-003, 0.,
          7.39085604e-004, 0., 2.62214243e-003, 0., 0., 0.,
          8.04173853e-003, 0., 0., 0., 0., 0., 0., 0., -4.98546462e-004,
          0., 0., 0., 0., 0., 0., 0., 0., 0., 0., 0., 0., 0., 0., 0.,
          6.19821076e-004, 0., 0., 0., 0., 0., 0., 0., 0., 0., 0., 0.,
          0., 0., 0., 0., 0., 0., 0., 0., 0., 0., 0., 0., 0., 0., 0., 0.,
          0., 0., 0., 0., 5.15679305e-004, 5.11274557e-004,
          -9.39834677e-003, 0., -6.41651601e-002, 5.11274557e-004,
          8.67450982e-003, -7.46090605e-004, -1.35773793e-001, 0., 0.,
          0., 0., 0., 0., 0., -1.01926492e-003, 0., 1.59916151e-002, 0.,
          2.71071168e-003, 0., 5.27180126e-003, 0., 1.16941403e-003, 0.,
          0., 0., 0., 0., 4.12998628e-003, 0., 2.64788587e-002,
          2.97837937e-003, 1.49919046e-002, 0., -1.79524999e-002,
          -3.65848420e-004, 3.37970472e-004, 0., -4.06418107e-002, 0.,
          0., 0., 0., 0., 0., 0., -1.01422577e-003, 1.12047543e-004,
          6.60018921e-002, 0., 1.50346328e-002, 3.77863966e-004,
          7.52121257e-003, 0., 3.76912765e-002, 2.17382517e-003,
          1.40917918e-003, 0., 1.70252158e-003, 1.94810960e-003,
          1.83221735e-002, 0., -5.64263240e-002, 5.28127979e-003,
          6.02766918e-003, 0., 1.23694623e-002, -1.00861880e-005,
          1.02501723e-003, 7.70822458e-004, 1.31790685e-002, 0., 0., 0.,
          0., 5.15679305e-004, 0., 0., 8.04725289e-003, -4.54088062e-004,
          6.64279505e-004, 0., 5.11274557e-004, 0., 0., 0.,
          4.09600820e-004, 2.17382517e-003, 0., 0., 0., -1.61885063e-003,
          1.02254911e-003, 2.17382517e-003, 3.68572795e-003, 0., 0., 0.,
          0., -3.42734624e-004, 0., 0., 1.93733769e-003, 0., 0., 0., 0.,
          0., 0., 0., 0., 0., 0., 0., 0., 0., 0., 0., 0., 0., 0., 0., 0.,
          -1.35696039e-003, 0., -1.01422577e-003, 5.41885896e-003,
          6.34551980e-003, 1.93733769e-003, 0., 0., 5.24280034e-003, 0.,
          9.20875405e-004, 5.57185158e-005, 0., 0., 0., 0., 0., 0.,
          -4.76417290e-006, 0., -1.01422577e-003, 4.09600820e-004, 0.,
          0., 0., 0., 0., 4.09600820e-004, 0., 0., 0., 0.,
          -8.11380614e-003, -5.02951210e-004, 0., -6.36361772e-004,
          1.04141822e-004, 0., 0., 0., 3.37970472e-004, 0., 0.,
          1.07120874e-003, 0., 0., 0., 0., 0., 0., 0., 0.,
          -3.68660539e-002, 2.34693848e-003, 0., 0., -5.28081041e-003,
          0., 0., 0., -1.67286769e-002, 0., 0., 0., -1.81628410e-002,
          -1.01422577e-003, 1.52082089e-003, -3.15033656e-004, 0.,
          6.70617819e-003, 0., 1.30401133e-002, 0., 0., 0.,
          2.74594184e-002, 0., 1.07120874e-003, 0., 0., 0., 0.,
          2.17382517e-003, 2.62442324e-003, 0., 0., 0., 2.34693848e-003,
          0., 0., 0., 0., 0., 0., 0., 0., 0., 0., 0., 1.78704318e-003,
          0., 0., 0., 0., 0., 0., 0., 0., 0., 0., 0., 0., 0., 0., 0., 0.,
          0., 0., 0., 0., 0., 0., 0., 0., 0., 0., 0., 0., 0., 0., 0., 0.,
          2.29043490e-003, 6.15956746e-002, 0., -1.15650274e-001,
          1.98916081e-004, -1.36074639e-004, 0., 3.91431190e-002,
          -1.01422577e-003, 0., 0., 0., 0., 0., 0., 5.19634737e-003, 0.,
          3.53935012e-003, 0., 1.51336438e-003, 0., 2.86704837e-003, 0.,
          -3.57881165e-003, 0., 0., 0., 0., 0., 5.55762369e-003, 0.,
          -3.26251313e-002, 9.02828237e-004, 2.88693630e-003, 0.,
          -4.53966809e-003, 0., 0., 0., 8.11699126e-003, 0., 0., 0., 0.,
          0., 0., 0., 3.77863966e-004, -1.36693604e-002, 2.62644999e-002,
          0., 1.35799516e-002, 1.98916081e-004, -1.87876094e-002, 0.,
          8.14097840e-003, -5.58869634e-003, -2.44443049e-003, 0.,
          1.93733769e-003, -4.96331742e-003, -1.86229963e-002, 0.,
          -1.23760980e-002, 1.65413208e-002, 3.60107911e-003, 0., 0.,
          3.79471551e-003, 8.49245000e-004, 8.76900915e-004,
          6.08516915e-004, 0., 0., 0., 0., 4.09600820e-004, 0., 0., 0.,
          7.08535174e-003, 1.54510117e-003, 0., 1.93733769e-003,
          2.74866261e-003, 0., 3.37970472e-004, 8.07432982e-004,
          5.43119153e-003, 2.17382517e-003, 0., 0., 1.20865749e-002,
          3.00824293e-003, 9.14750504e-004, 1.27140724e-003, 0., 0., 0.,
          0., 0., 0., 0., 0., 0., 0., 0., 0., 0., 0., 0., 0.,
          1.97647139e-003, 0., 0., 0., 1.07120874e-003, 0., 0., 0.,
          9.16473847e-003, 0., 0., 0., 1.33515745e-002, 8.89138493e-004,
          1.95279357e-003, -6.04624918e-004, 1.28437439e-002,
          1.07120874e-003, 0., 4.09600820e-004, 6.37215097e-003, 0., 0.,
          3.37970472e-004, 0., 0., 0., 0., 0., 0., 0., 0.,
          5.31537551e-003, 1.98916081e-004, 0., 0., -5.07112872e-003, 0.,
          0., 0., 3.71873705e-003, 0., 0., 0., 6.70130318e-003,
          3.77863966e-004, 0., -1.01422577e-003, 3.36948759e-003, 0., 0.,
          0., 0., 0., 0., 0., 0., 0., 0., 0., 0., 0., 0., 0.,
          3.46485786e-002, 3.07431864e-003, 0., 0., 5.32358652e-003, 0.,
          3.61221610e-004, 6.08516915e-004, -1.98080942e-001, 0., 0., 0.,
          4.35418114e-002, 2.79130368e-003, 2.27412162e-003,
          3.47663928e-003, 0., 1.98916081e-004, 0., 0., 0.,
          4.09600820e-004, 0., 0., 0., 0., 0., 0., 0., 0., 0., 0., 0.,
          1.93733769e-003, 0., 0., 0., 0., 0., 0., 0., 0., 0., 0., 0.,
          0., 0., -1.01422577e-003, 0., 0., 0., 0., 0., 0., 0., 0., 0.,
          0., 0., 0., 0., 0., 0., 0., 0., 0., 0., 0., 0., 0., 0., 0., 0.,
          0., 0., 0., 0., 0., 0., -1.01422577e-003, 3.35051026e-003,
          -2.63796598e-002, 0., -9.22122225e-003, -4.08120162e-004,
          1.03135861e-003, 0., -7.43745593e-003, 0., 0., 0., 0., 0., 0.,
          0., 0., 2.29855930e-003, 1.24597258e-003, 0., 0., 0.,
          7.70822458e-004, 0., -2.02845153e-003, 2.37945002e-003, 0., 0.,
          0., 1.43243035e-003, 6.90796413e-003, 0., -8.68852192e-004,
          7.92686269e-003, -2.82192137e-003, 0., -3.25249764e-003,
          1.98916081e-004, -7.46090605e-004, 0., -6.37047319e-003, 0.,
          0., 0., 0., 0., 0., 0., 2.17382517e-003, 2.13993955e-002,
          -3.54354549e-003, 0., -1.17774191e-003, 1.11897592e-003,
          2.66883406e-003, 0., -2.58329455e-002, -1.13356449e-002,
          2.22499692e-003, 0., -1.01422577e-003, 7.75359478e-003,
          -7.23831961e-003, 4.09600820e-004, 1.73870046e-002,
          -9.80906654e-004, 0., 0., 0., -1.49218121e-003, 0., 0.,
          -2.97553284e-004, 0., 0., 0., 0., 0., 0., 0., 0.,
          1.03026582e-003, 1.07120874e-003, 0., 0., 1.93107850e-003, 0.,
          0., 0., 1.30314403e-003, 0., 0., 0., 2.96225975e-004, 0., 0.,
          2.14241748e-003, 0., 0., 0., 0., 0., 0., 0., 0., 0., 0., 0.,
          0., 0., 0., 0., 0., 3.61221610e-004, 0., 0., 0., 0., 0., 0.,
          0., 4.57959191e-004, 1.07120874e-003, 0., 0., 3.17536271e-003,
          0., 3.77863966e-004, 0., 5.30988000e-005, 0., 0., 0.,
          4.76102141e-004, 0., 0., 0., 0., 0., 0., 0., 0., 0., 0., 0.,
          9.32013709e-003, 0., 0., 0., 1.51458569e-003, 0., 0., 0.,
          -7.46090605e-004, 0., 0., 0., 6.64246548e-003,
          -8.47560354e-004, 0., 0., 4.70887171e-003, 0., 0., 0., 0., 0.,
          0., 0., 0., 0., 0., 0., 0., 0., 0., 0., 1.89800654e-002, 0.,
          0., 0., 1.27131576e-002, 1.07120874e-003, 0., 0.,
          7.60452310e-003, 8.93543242e-004, 0., 0., 1.15157850e-001,
          3.32627824e-004, 1.12974423e-003, 2.35492527e-003, 0., 0., 0.,
          0., 0., 0., 0., 0., 0., 0., 0., 0., 0., 0., 0., 0., 0., 0., 0.,
          0., 0., 0., 0., 0., 0., 0., 0., 0., 0., 0., 0., 0., 0., 0., 0.,
          0., 0., 0., 0., 0., 0., 0., 0., 0., 0., 0., 0., 0., 0., 0., 0.,
          0., 0., 0., 0., 0., 0., 0., 0., 0., 0., 0., 0., 0.,
          -7.46090605e-004, -5.17696440e-002, 0., -7.09958002e-003, 0.,
          -1.35696039e-003, 0., -2.18846034e-002, 0., 0., 0., 0., 0., 0.,
          0., 0., 0., -5.30848862e-004, 0., 0., 0., -6.40287937e-004, 0.,
          -3.18746152e-003, 0., 0., 0., 0., -7.46090605e-004,
          4.12637339e-004, 0., -4.63351607e-003, 3.24503379e-003,
          -6.08535437e-003, 0., -4.42275126e-003, 0., 0., 0.,
          -7.09958002e-003, 0., 0., 0., 0., 0., 0., 0., 0.,
          8.54934659e-003, -1.59428269e-002, 0., -3.04267718e-003, 0.,
          -2.00403132e-003, 0., -4.23114635e-002, -1.69949643e-002,
          2.33793110e-002, 0., -3.42734624e-004, -1.13393012e-002,
          2.24781204e-002, 0., -4.76902276e-002, -1.98133304e-004,
          3.62396264e-003, 0., 0., -4.48354520e-004, 0., 8.53649748e-004,
          8.49245000e-004, -1.01422577e-003, 0., 0., 0.,
          -5.02951210e-004, 0., -1.01422577e-003, 0., 5.09592099e-003,
          9.93280322e-004, 0., 1.04141822e-004, -6.85469247e-004, 0., 0.,
          0., 1.38862222e-003, 1.93733769e-003, 0., 0., 1.78993959e-002,
          4.09600820e-004, 2.45714048e-003, 4.29992191e-003, 0., 0., 0.,
          0., 0., 0., 0., 0., 0., 0., 0., 0., 0., 0., 0., 0.,
          1.67334196e-003, 0., 0., 0., 0., 0., 0., 0., 2.02097129e-002,
          0., 0., 0., 4.73796837e-002, 5.11274557e-004, 1.31134419e-002,
          3.80372885e-003, 3.72275244e-004, 0., 0., 0., 2.59328284e-003,
          0., 0., -1.01422577e-003, 0., 0., 0., 0., 0., 0., 0., 0.,
          -1.83526531e-003, 0., 0., 0., -3.42734624e-004, 0., 0., 0., 0.,
          0., 0., 0., -6.02409896e-003, 0., 0., 0., 1.99648878e-003, 0.,
          0., 0., 0., 0., 0., 0., 0., 0., 0., 0., 0., 0., 0., 0.,
          5.90383587e-003, 1.12543523e-003, -1.01422577e-003, 0.,
          -7.94559065e-003, 0., 0., -6.85469247e-004, -1.76797025e-002,
          3.41814710e-003, 0., 0., 5.96643873e-002, 4.30583721e-003,
          2.06657555e-002, 1.96987018e-003, 0., 0., 0., 5.15679305e-004,
          0., 0., 0., 0., 0., 0., 0., 0., 0., 0., 0., 5.11274557e-004,
          0., -1.01422577e-003, 0., 3.37970472e-004, 0., 0., 0., 0., 0.,
          0., 0., 0., 0., 0., 0., 5.11274557e-004, 0., 0., 0., 0., 0.,
          0., 0., 0., 0., 0., 0., 0., 0., 0., 0., 0., 0., 0., 0.,
          3.61221610e-004, 0., 0., 0., 0., 0., 0., 0., -2.85841874e-004,
          3.37970472e-004, 1.04141822e-004, 0., 0., -1.01422577e-003,
          3.37970472e-004, 0., 0., 0., 0., 0., -1.01422577e-003, 0., 0.,
          0., 0., 0., 4.09600820e-004, 0., 0., -6.04624918e-004, 0., 0.,
          0., 0., 5.11274557e-004, 0., 0., 0., 0., 0., 0., 0., 0., 0.,
          -1.60933228e-003, -2.02845153e-003, 5.15679305e-004, 0., 0.,
          0., 0., 0., 0., 0., 0., 0., 0., 0., 0., 0., 0.,
          8.51501187e-004, 2.60112202e-003, 0., 1.43655471e-003,
          1.07120874e-003, -1.53302960e-003, 0., -3.34192766e-003,
          1.46049755e-002, 5.93386637e-003, -2.85841874e-004,
          9.20220773e-005, 7.45939696e-003, -1.06270388e-002,
          7.85063719e-004, -2.04145044e-001, 2.07623257e-003,
          8.14574829e-004, 0., 0., 1.20564085e-003, -3.65848420e-004, 0.,
          -1.09754526e-003, 0., 0., 0., 0., 4.50018008e-004, 0., 0.,
          4.04974009e-004, 8.41073226e-003, 4.09600820e-004, 0., 0.,
          -6.63401734e-004, 0., 0., 0., 2.55019730e-003,
          -2.97553284e-004, 0., 0., 7.37032760e-003, 2.96128984e-003,
          2.16919836e-003, -2.78343650e-004, 4.09600820e-004, 0., 0., 0.,
          0., 0., 0., 0., 0., 0., 0., 0., 0., 0., 0., 0.,
          1.66046259e-003, 0., 0., 0., 0., 0., 0., -3.65848420e-004,
          -1.98725564e-003, 0., 0., 0., -1.49232838e-002, 0.,
          4.69200080e-003, -5.99733379e-004, 4.04171733e-005, 0., 0., 0.,
          3.77863966e-004, 0., 0., -3.65848420e-004, 0., 0., 0., 0., 0.,
          0., 0., 0., -3.70475231e-004, 0., 0., 0., 0., 0., 0., 0., 0.,
          0., 0., 0., 1.43827766e-003, -3.65848420e-004, 3.61221610e-004,
          0., 1.05380488e-003, 0., 0., 0., 0., 0., 0., 0., 0., 0., 0.,
          0., 0., 0., 0., 0., 6.92938222e-003, 4.09600820e-004,
          1.98916081e-004, 0., 3.77863966e-004, 0., 0., 0.,
          -3.32536399e-002, 4.09600820e-004, 0., 0., -1.02835603e-001,
          1.23371778e-003, 6.73783419e-004, 3.26252717e-004, 0., 0., 0.,
          0., 0., 0., 0., 0., 0., 0., 0., 0., 0., 0., 0., 0., 0., 0., 0.,
          0., 0., 0., 0., 0., 0., 0., 0., 0., 0., 0., -2.97553284e-004,
          -2.97553284e-004, 0., 0., 0., 0., 0., 0., 0., 0., 0., 0., 0.,
          0., 0., 0., 0., 0., 0., -3.65848420e-004, 0., 0., 0., 0., 0.,
          0., 0., 0., 0., -2.38592809e-004, 0., 0., 0., 3.37970472e-004,
          -3.65848420e-004, -3.70475231e-004, 0., 0., -3.65848420e-004,
          0., 0., -3.65848420e-004, 0., 0., 0., 0., 0., 0., 0., 0., 0.,
          -3.65848420e-004, 0., 0., 0., 0., 0., 0., 0., 0., 0., 0., 0.,
          0., 0., 0., 1.04141822e-004, 0., 0., 0., 0., 0., 0., 0., 0.,
          0., 0., 0., 0., 0., 0., 0., 6.44525746e-003, 2.50135735e-003,
          0., -2.97553284e-004, 0., 0., 0., 0., 8.47536605e-003,
          1.04141822e-004, 0., 7.29714811e-004, 7.53315073e-003,
          7.57347094e-004, 1.20444898e-003, 8.34927633e-002,
          -2.16855179e-003, -1.01422577e-003, 0., -7.46090605e-004, 0.,
          -2.02845153e-003, 0., -2.77454220e-003, 0., 0., 0., 0., 0., 0.,
          0., -1.42246112e-003, -2.44941236e-003, -1.63294165e-003, 0.,
          0., -1.01422577e-003, 0., 0., 0., 0., 0., 0., 0., 0., 0., 0.,
          0., 0., 0., 0., 0., 0., 0., 0., 0., 0., 0., 0., 0., 0., 0., 0.,
          0., 0., 0., 0., 0., 0., 0., 0., 0., 0., 0., 0., 0., 0., 0., 0.,
          0., 0., -1.01422577e-003, 0., 0., 0., 0., 0., 0., 0., 0., 0.,
          0., 0., 0., 0., 0., 0., 0., 0., 0., 0., 0., 0., 0., 0., 0., 0.,
          0., 0., 0., 0., 0., 0., 0., 0., 0., 0., 0., 0., 0., 0., 0., 0.,
          0., 0., 0., 0., 0., -8.16470827e-004, 0., 0., 0., 0., 0., 0.,
          0., 0., 0., 0., 0., -8.16470827e-004, 0., 0., 0., 0., 0., 0.,
          0., 0., 0., 0., -3.73045332e-003, 0., 0., 0., 0., 0., 0., 0.,
          0., 0., 0., 0., 0., 0., 0., 0., 0., 0., 0., 0., 0., 0., 0., 0.,
          0., 0., 0., 0., 0., 0., 0., 0., 0., 0., 0., 0., 0., 0., 0., 0.,
          0., 0., 0., 0., 0., 0., 0., 0., 0., 0., 0., 0., 0., 0., 0., 0.,
          0., 0., -3.04267718e-003, 0., 0., 0., 0., 0., -2.50640698e-003,
          0., 0., 0., 0., 0., 0., 0., 0., 0., -1.01422577e-003, 0., 0.,
          0., 0., 0., -1.01422577e-003, 0., 0., 0., 0., 0.,
          -1.01422577e-003, 0., -2.84492224e-003, 0., 0., 0., 0., 0., 0.,
          0., -1.76031631e-003, 0., 0., 0., 0., 0., 0., 0., 0.,
          -1.63294165e-003, -4.08235413e-004, 0., 0., 0.,
          -1.42246112e-003, 0., -7.11230608e-003, -4.08235413e-004,
          -4.08235413e-004, 0., 0., -8.16470827e-004, -1.22470618e-003,
          0., 4.82591130e-002, -8.45892995e-004, 1.41125149e-003, 0.,
          -7.49175146e-004, 3.25749000e-003, 2.55222176e-003,
          1.02695380e-003, 6.35204017e-002, 0., 0., 0., -3.27176327e-004,
          0., 0., 0., 1.50905466e-002, -4.08235413e-004,
          -1.63178041e-003, 0., 5.15679305e-004, -2.43668677e-003, 0.,
          0., 1.12839520e-003, 0., 0., 0., 0., 1.07120874e-003, 0., 0.,
          7.04294024e-003, 0., 0., 0., 0., 0., 0., 0., 0., 0., 0., 0.,
          0., 0., 0., 0., 0., 0., 1.07120874e-003, 0., 0., 0., 0., 0.,
          0., 0., 0., 0., 0., 0., 0., 0., 3.93941486e-003,
          1.35851535e-003, 0., 0., 0., -1.97146856e-003, 0., 0.,
          3.61221610e-004, 0., 0., 0., 0., 0., 0., 0., 0.,
          6.62973325e-004, 0., 0., 0., 0., 0., 0., 0., 1.98916081e-004,
          0., 0., 0., 0., 0., 0., 3.61221610e-004, 0., -1.01422577e-003,
          0., 0., 0., 0., 0., 0., 0., 0., 0., 0., 0., 0., 0., 0.,
          6.62973325e-004, 0., 0., 0., -2.64716730e-003, 0., 0., 0.,
          -4.08235413e-004, 0., 0., 0., -3.46363825e-003, 0.,
          -1.63294165e-003, 1.07120874e-003, 0., -1.16102060e-003, 0.,
          -1.16250757e-002, 0., 0., 0., -1.50363203e-002, 0., 0., 0.,
          -1.01422577e-003, 0., 0., 0., 2.30257977e-002, 0., 0., 0., 0.,
          0., 0., 0., 1.98299112e-003, 0., 0., 0., 0., 0., 0., 0.,
          1.51900891e-002, 0., 0., 0., 1.04141822e-004, 0., 0., 0.,
          1.93733769e-003, 0., 0., 0., 0., 0., 0., 0., 3.77863966e-004,
          0., 0., 0., 0., 0., 0., 0., 0., 0., 0., 0., -7.46090605e-004,
          0., 0., 0., 1.98000530e-003, 0., 1.29677914e-003, 0.,
          -1.91355366e-002, 0., 3.61221610e-004, 0., -3.60663794e-002,
          0., 0., 0., -9.46596731e-004, 0., 0., 0., 1.48622170e-002, 0.,
          -5.72113437e-004, 0., 1.98916081e-004, 0., 0., 0.,
          7.36763526e-004, 0., 0., 0., 0., 0., 0., 0., 1.26035130e-002,
          0., 3.03057896e-004, 0., -2.56498833e-003, 2.17382517e-003, 0.,
          0., -5.56732854e-003, 0., 0., 0., 0., -4.08235413e-004, 0., 0.,
          -4.68985490e-005, 0., 2.90956668e-004, 0., -1.04459713e-003,
          -4.08235413e-004, 0., 0., 8.77528265e-003, 0.,
          -8.16470827e-004, 0., -4.80897346e-004, -1.22470618e-003,
          -1.22470618e-003, -4.08235413e-004, -7.44702294e-002,
          -1.40682026e-003, 1.07134855e-003, 0., 1.25036016e-003,
          3.78108188e-003, 5.34721231e-003, 0., 1.39249442e-002, 0., 0.,
          0., 0., 0., 0., 1.44907273e-003, 4.54850728e-003, 0., 0., 0.,
          1.07120874e-003, 2.14241748e-003, 0., 0., 1.95135374e-003, 0.,
          0., 0., 0., -1.47722429e-004, 2.68950430e-003, 7.05360260e-004,
          1.41848205e-002, 0., 0., 0., 0., 0., 0., 0., 0., 0., 0., 0.,
          0., 0., 0., 0., 0., 0., 0., 0., 0., 0., 0., 0., 0., 0., 0., 0.,
          0., 0., 0., 0., 0., 9.51487757e-003, 0., 0., 0.,
          2.57073669e-003, 0., 0., 3.28459369e-004, 0., 0., 0., 0., 0.,
          0., 0., 0., -2.97553284e-004, 0., 0., 0., -8.47560354e-004, 0.,
          0., -7.46090605e-004, 0., 0., 0., 0., -1.54526741e-003,
          -1.32680347e-003, 0., 4.34765033e-003, 1.93733769e-003, 0., 0.,
          0., 0., 0., 0., 0., 0., 0., 0., 0., 0., 0., 0., 0.,
          1.24463998e-002, 0., 0., 0., 1.29485712e-003, 0.,
          -8.47560354e-004, -8.47560354e-004, 2.17382517e-003, 0., 0.,
          0., 1.93435177e-002, 0., 0., 3.27790185e-004, 0.,
          -4.62681601e-006, 0., -1.18745316e-003, 0., -2.97553284e-004,
          0., -1.40939672e-002, 0., 0., 0., 0., 0., 0., 0.,
          -1.07119151e-003, 0., 1.07120874e-003, 0., 0., 0., 0., 0., 0.,
          0., 0., 0., 0., 0., 0., 0., 6.00371277e-003, 0., 0., 0., 0.,
          0., 0., 0., 0., 0., 0., 0., 0., 0., 0., 0., 0., 0., 0., 0., 0.,
          0., 0., 0., 0., 0., 0., 0., 0., 0., 0., 0., -7.46090605e-004,
          -2.97553284e-004, 1.23452302e-002, 0., -2.73312833e-002, 0.,
          1.54757861e-003, 0., -1.02519631e-001, 0., 0., 0., 0., 0.,
          1.04141822e-004, 2.17382517e-003, 5.21971798e-003, 0.,
          4.58094897e-003, 0., 0., 0., 4.43150871e-004, 0.,
          9.00931016e-004, 0., -6.63401734e-004, 0., 0., 0.,
          -1.31356297e-003, 0., 1.98042709e-002, 8.72496166e-004,
