%YAML:1.0
---
opencv_ml_svm:
   format: 3
   svmType: C_SVC
   kernel:
      type: LINEAR
   C: 1.
   term_criteria: { epsilon:1.1920928955078125e-007, iterations:1000 }
   var_count: 16384
   class_count: 2
   class_labels: !!opencv-matrix
      rows: 2
      cols: 1
      dt: i
      data: [ 0, 1 ]
   sv_total: 1
   support_vectors:
      - [ -4.28771228e-002, -1.66099146e-002, -2.91048060e-003,
          -2.20750924e-002, -1.17896395e-002, -8.47319514e-003,
          -5.91140985e-003, -7.70155266e-002, -1.33531820e-003,
          -4.84429765e-004, -4.18471493e-004, -4.12193767e-004,
          -5.12836175e-003, -8.02528870e-004, -6.18573418e-003,
          -3.55497301e-002, -1.42958956e-002, -4.63920459e-003, 0.,
          -2.24690698e-003, 2.86017731e-003, -6.35298085e-004,
          -5.98075101e-004, -4.98339813e-003, 9.29430686e-003, 0.,
          3.56459932e-004, -5.55434555e-004, 3.13238949e-002,
          -5.47100150e-004, 2.73703001e-002, 2.38865148e-002,
          -4.75210691e-004, 0., 0., 0., -1.22101737e-005, 0., 0.,
          -1.46216282e-003, -4.02610807e-004, 0., 0., 0.,
          -4.75210691e-004, -1.22101737e-005, -4.50445004e-005,
          -2.01027025e-003, 5.06818341e-003, 8.36692576e-004,
          -1.11371766e-004, -1.25899119e-003, -4.18471493e-004, 0., 0.,
          -2.40234146e-003, 3.05166859e-002, -2.24325340e-003,
          8.34962528e-004, -2.94481916e-003, 1.20822350e-002,
          1.63160102e-003, 3.08916140e-002, 7.58027378e-003,
          -3.80648812e-003, -6.76819356e-004, -4.50445004e-005,
          -1.15065346e-003, -1.33422459e-003, 0., -7.15719478e-004,
          -5.86582464e-004, -1.98518950e-003, -1.22101737e-005,
          1.43544155e-003, -4.18471493e-004, -2.23674648e-003, 0.,
          -8.67162365e-004, -1.98224047e-003, -4.63279197e-003, 0., 0.,
          0., 0., 0., 0., -1.26977323e-003, -3.65033234e-003,
          -9.58297096e-006, 0., -8.18189656e-005, -9.47363675e-004,
          7.50457344e-004, -1.33065926e-003, -4.75210691e-004,
          -1.46995706e-003, 7.90755032e-004, 0., 0., -4.02610807e-004,
          0., -3.68839479e-004, -8.18189656e-005, -8.79372528e-004, 0.,
          -8.18189656e-005, 0., -8.47623043e-004, 0., 0., 0.,
          5.25207724e-003, 1.05278799e-003, -5.55653009e-004,
          -1.05376961e-003, 9.34836804e-004, 0., 0., 7.44808116e-004,
          1.57754168e-001, -3.04302876e-003, -2.86175543e-003,
          -1.64180400e-003, 6.29558340e-002, 4.39864583e-003,
          2.45595109e-002, -2.43143132e-003, -1.67090865e-003,
          2.63178663e-004, 0., -1.02070030e-002, 0., -1.44724885e-003,
          -4.40264645e-004, -8.94281864e-002, 0., 0., 0., 0., 0., 0.,
          -4.50445004e-005, -3.29543650e-002, 6.62989158e-004,
          -4.18471493e-004, 0., -8.75806843e-004, 0., 0., 0.,
          -1.60087971e-003, 0., 3.56459932e-004, 0., -1.85796525e-004,
          1.36319071e-003, -4.02610807e-004, 0., 4.70987195e-003, 0., 0.,
          0., -3.38768761e-004, 0., 0., 0., -3.61708022e-004, 0., 0., 0.,
          0., 0., 0., 0., -1.72479579e-003, 0., -7.91289320e-004, 0.,
          -9.58297096e-006, 0., 0., 0., -2.08428944e-003,
          -4.02610807e-004, -7.91289320e-004, 0., -2.67788040e-004,
          1.36319071e-003, -1.95464279e-004, -7.91289320e-004,
          -4.57839575e-003, 8.69023672e-004, 2.37508323e-002,
          -7.76529021e-004, 2.67894547e-002, -1.59191829e-003,
          1.60098629e-004, -1.31453061e-003, -1.85843091e-002,
          -4.50445004e-005, -5.72307210e-004, 0., -6.61007187e-004,
          -9.14019402e-005, 0., -2.71353801e-003, -1.36019299e-002,
          -2.04083533e-003, -9.58297096e-006, 0., 9.60666948e-005, 0.,
          -5.95000398e-004, 0., -1.57778489e-003, -1.59890333e-003, 0.,
          -3.97169555e-004, 2.13520508e-003, 7.44808116e-004,
          -4.14245180e-004, -6.37472025e-004, -2.31448910e-003,
          6.11047447e-003, 1.36587294e-002, 0., 2.35136412e-002, 0.,
          -7.91289320e-004, 0., 5.89794898e-003, -4.18471493e-004,
          -5.95000398e-004, 0., 6.63803541e-004, -7.91289320e-004, 0.,
          -6.35298085e-004, -4.68528923e-003, 1.00604586e-004,
          9.05607361e-003, -5.49062854e-004, 6.99257187e-004,
          -7.91289320e-004, -1.85796525e-004, 0., -9.81594087e-004,
          3.87249491e-003, 2.51979148e-003, -3.97169555e-004,
          1.25511957e-003, 4.68352018e-003, 3.24553368e-003,
          -1.39176799e-002, -3.27242948e-002, -1.27195194e-002,
          -3.17592709e-003, -8.25213865e-005, -1.13599515e-002,
          -3.41677084e-003, -3.62567208e-003, -3.32352100e-003,
          -5.30381948e-002, -4.39488795e-003, -4.18471493e-004, 0., 0.,
          -6.84220903e-003, -6.91946538e-004, -7.86394440e-003,
          -7.04686046e-002, -3.71985626e-003, 1.40860176e-003,
          1.69576251e-005, 7.35960610e-004, 3.07440618e-003, 0.,
          6.26438879e-004, -2.94801150e-003, -6.74635917e-003,
          -7.64335447e-004, 0., -1.27194670e-003, -1.67269409e-002,
          2.33626086e-003, -1.27934795e-002, -1.10305371e-002,
          -6.17664598e-004, 3.07979848e-004, 0., -5.94107318e-004, 0.,
          0., -4.50445004e-005, 1.69576251e-005, -3.52125062e-004, 0.,
          0., 0., -5.95000398e-004, -5.55653009e-004, 4.63242119e-004,
          8.40441207e-004, 7.99080590e-006, 0., 0., -4.54316556e-004, 0.,
          -9.00890009e-005, 3.40304279e-004, -4.50445004e-005,
          -3.10921445e-002, -2.83321919e-004, 9.00819199e-004,
          1.67117058e-003, -9.33662280e-002, -5.55653009e-004,
          -1.72899533e-002, -8.39739223e-004, 1.80393888e-003,
          7.50406040e-003, -2.21692142e-003, 0., -1.10134797e-003,
          -5.95000398e-004, -1.65353599e-003, 1.75467727e-003,
          -3.52125062e-004, 0., -1.22101737e-005, 0., -1.09400135e-003,
          0., 3.72283539e-004, 0., -1.92407484e-003, 0.,
          -4.87420853e-004, 0., -3.52125062e-004, -5.95000398e-004, 0.,
          0., -6.82920334e-004, 0., 0., 0., -5.39005596e-005,
          -4.50445004e-005, -1.72530286e-004, 2.62365281e-003,
          6.53038779e-003, -2.78838124e-004, 0., 3.40304279e-004,
          -1.85796525e-004, 1.32760708e-003, 0., -4.88394580e-004, 0.,
          0., 0., -4.50445004e-005, -1.20031554e-003, 0.,
          5.34803607e-004, 6.91464345e-004, 1.35667948e-002,
          9.22390143e-004, 0., -1.31934663e-004, 2.16375059e-003, 0.,
          1.25154573e-003, 1.38575549e-003, -2.26444621e-002,
          -6.90559449e-004, -1.75911596e-003, -4.75210691e-004,
          -2.46155988e-002, 8.32257851e-004, -3.13186995e-003,
          -9.77073447e-004, -1.13414612e-003, 1.06727593e-002, 0.,
          1.55107575e-002, 1.23017735e-003, 2.47739488e-004, 0.,
          1.96741987e-002, 0., 0., 0., -4.75210691e-004, 0.,
          -5.49062854e-004, 1.36319071e-003, -9.26987827e-003,
          -1.09385652e-003, -4.05845291e-004, 0., 1.46276015e-003, 0.,
          0., 0., -5.45309507e-004, -6.35298085e-004, 0.,
          -5.55653009e-004, 3.07979848e-004, -1.73432473e-003,
          7.80594186e-004, -1.76084461e-003, 2.08200701e-003, 0.,
          -7.46669830e-004, 0., 1.36319071e-003, 0., 0., 0.,
          7.61765754e-004, 0., 0., 0., 0., 0., 0., 0., -3.20559181e-003,
          -6.37253514e-004, -4.80035815e-004, 0., -4.75210691e-004,
          -4.18471493e-004, 0., 0., -1.36889284e-003, 9.84911690e-004,
          -7.91289320e-004, 0., -4.87420853e-004, -1.93190732e-004,
          -9.97611205e-004, -2.15279637e-003, 1.98316551e-003,
          1.22437617e-002, 4.23404649e-002, -3.19046230e-004,
          1.31091643e-002, -6.35298085e-004, 1.68538524e-003,
          -6.04583358e-004, 4.43402715e-002, -4.18471493e-004,
          9.31973162e-004, 0., 0., -2.45434552e-004, -1.80414732e-004,
          -1.55500474e-003, -4.24942933e-003, 1.11252477e-003,
          1.55262256e-004, 0., -3.80723242e-004, 0., 0.,
          -1.22101737e-005, -2.18678801e-003, 9.09248833e-004, 0., 0.,
          -7.56252921e-005, -7.90464692e-004, -6.37253514e-004,
          1.24338863e-003, -2.44041177e-004, 5.15870154e-002,
          3.96461636e-002, 6.63803541e-004, 1.50051368e-002,
          -2.41082977e-004, 1.96608104e-004, 1.09628343e-003,
          1.97846666e-002, 0., 1.44840014e-004, 0., -4.30681685e-004, 0.,
          7.44808116e-004, -1.23013440e-003, -2.77561042e-003,
          1.09536178e-001, 2.54309569e-002, -6.83858874e-004,
          1.09752733e-002, 0., 7.44808116e-004, 1.34958932e-003,
          1.07150720e-002, 1.34383459e-002, 2.52243131e-003,
          1.45862112e-004, 1.21971208e-003, -3.06510250e-003,
          -2.48425640e-003, -4.30093613e-003, -2.77750175e-002,
          -2.66991239e-002, -7.45114544e-003, -1.57000194e-003,
          1.20239123e-003, -9.00581537e-004, -5.53483050e-003,
          5.08385804e-003, -6.05456997e-003, -1.42594019e-003, 0.,
          -4.75210691e-004, 1.43544155e-003, 2.64872890e-003,
          -7.90464692e-004, 1.25357816e-002, -2.97631286e-002,
          -1.71032210e-003, -1.06795155e-003, 0., 9.00070358e-004,
          1.02387683e-003, 0., 1.64063624e-003, -4.53938585e-004,
          -2.18928629e-003, 3.56459932e-004, 0., 1.67678122e-003,
          7.29066320e-003, -6.03778055e-004, 5.80676273e-002,
          4.26868014e-002, -2.97410064e-003, 0., 0., 0., 1.55262256e-004,
          0., 0., -6.70674955e-004, -4.50445004e-005, 0., 0., 0., 0., 0.,
          0., -6.97764626e-004, -1.22614391e-002, -1.07021106e-003, 0.,
          0., -9.95492097e-004, 0., 5.11272228e-005, 4.76746209e-004,
          -5.31370146e-003, 0., -4.18471493e-004, -9.47125431e-004,
          -9.35839955e-003, 7.42564793e-004, 4.44662711e-003,
          9.79015324e-003, -2.48094765e-003, -2.20027845e-003, 0.,
          -1.46460731e-003, -1.44564721e-003, 0., 0., -5.20424044e-004,
          -1.03086373e-003, 0., 0., 0., 2.24444061e-003, 0.,
          1.55262256e-004, -4.88394580e-004, -6.66629407e-004, 0., 0.,
          0., 3.56459932e-004, 0., 0., 0., -2.86055583e-004, 0., 0., 0.,
          9.07610447e-005, 0., 3.54708493e-004, 5.87134855e-004,
          -1.49555719e-002, -5.49062854e-004, 0., 1.36441915e-004,
          -5.55653009e-004, 0., 0., -4.75210691e-004, 0., 0., 0.,
          1.23995298e-003, 3.11678450e-004, 0., -5.55653009e-004,
          -5.49062854e-004, -1.26979798e-002, -9.03961889e-004,
          1.09628343e-003, 0., 4.55780857e-004, 0., 0., -4.18471493e-004,
          -2.20040511e-002, 4.43578552e-004, -1.39736175e-003,
          1.53399553e-004, -4.88538342e-003, 1.43544155e-003,
          -3.11536365e-004, -1.19026413e-003, -1.14952773e-003,
          -5.36771398e-003, -6.35298085e-004, 6.57162687e-004, 0.,
          2.85006652e-004, -1.74582583e-005, -3.63356508e-002, 0., 0.,
          0., -2.80868753e-005, -1.22101737e-005, 3.56459932e-004, 0.,
          -9.88155697e-003, -1.45229651e-003, -2.52096518e-003, 0.,
          -1.15043495e-003, 0., 0., 0., -8.75061494e-004, 0.,
          3.07979848e-004, 0., 1.36319071e-003, 0., 6.64439809e-004,
          -1.13564532e-003, 6.54435763e-003, -8.18189656e-005,
          -8.18189656e-005, 0., -8.67162365e-004, 0., 0., 0.,
          1.55262256e-004, 0., 0., 0., 0., 0., 0., -3.52125062e-004,
          1.36441915e-004, -2.06907303e-003, -8.18189656e-005, 0.,
          -1.22101737e-005, -1.10449735e-003, 0., 0., -1.11371766e-004,
          -4.50445004e-005, -1.11371766e-004, -5.55434555e-004,
          -1.19095109e-003, -1.46860280e-003, -4.46705235e-004,
          -7.06445833e-004, 4.70682420e-003, -5.60603524e-003,
          6.48123026e-002, 0., 3.23522463e-002, -5.95000398e-004,
          5.81984525e-004, -1.42281537e-003, -9.94873978e-003, 0., 0.,
          0., -8.93682183e-004, 1.43544155e-003, 1.27417047e-003,
          -1.85796525e-004, 3.13051753e-002, 0., -2.95761041e-003, 0.,
          -5.86582464e-004, 0., 0., 0., -1.78807415e-003, 0., 0., 0., 0.,
          -5.49062854e-004, -1.18207681e-005, -8.18189656e-005,
          7.47103617e-003, -2.58386992e-002, 5.15453443e-002,
          1.70663421e-004, 6.66289628e-002, -6.13172015e-004,
          -6.50833885e-004, -6.66806300e-004, 5.16012963e-003, 0.,
          -8.58441286e-004, 0., -1.41517623e-004, 0., -1.03064522e-003,
          -1.38628972e-003, 6.59875805e-004, -3.45280394e-002,
          -1.92190949e-002, -9.58297096e-006, -2.05550832e-003,
          -2.45055859e-003, -1.64957112e-003, -1.79816817e-003,
          -5.39309904e-003, 6.08947594e-004, -1.90544445e-002,
          -5.55653009e-004, -3.28731490e-003, -6.87079504e-003,
          -7.87063595e-003, -7.12882495e-003, -9.44746099e-003,
          -9.86703299e-003, -4.68965247e-003, -2.02632952e-003,
          -1.35792114e-004, -1.88207487e-003, -2.49866489e-003,
          -1.77647755e-003, -2.09501758e-002, 0., -4.88394580e-004, 0.,
          0., -5.49062854e-004, -3.90928559e-004, -5.99469012e-003,
          -2.77715772e-002, -7.97556248e-003, -3.58316442e-003,
          -4.88394580e-004, -4.75210691e-004, -3.85061698e-003,
          -1.60765951e-003, -1.25600758e-003, -4.48189583e-003,
          -1.17742410e-003, -1.11371766e-004, 0., 0., -7.11764023e-003,
          -1.70768204e-003, -1.44272121e-002, -1.71028506e-002,
          -6.60910038e-003, -1.11371766e-004, 0., 0., 0., 0., 0., 0., 0.,
          0., 0., 0., 0., 0., 0., -1.95464279e-004, -3.33820307e-003,
          -3.58642515e-004, -5.38695429e-004, -6.35298085e-004,
          -2.95255380e-003, 0., -3.64335225e-004, -4.18471493e-004,
          -5.03715826e-003, -1.85796525e-004, -4.88394580e-004,
          -1.95464279e-004, -7.82355200e-003, -6.70674955e-004,
          -6.46969164e-003, -5.95822372e-003, 1.74741945e-004,
          -8.29822966e-004, -1.22101737e-005, -1.22101737e-005,
          -8.72380217e-004, 0., 4.43578552e-004, 0., 0., 0., 0., 0.,
          -1.95464279e-004, 0., -1.60765951e-003, 0., -9.87423118e-004,
          -1.11371766e-004, -4.88394580e-004, 0., -1.11371766e-004,
          -1.11371766e-004, 0., 0., 0., 0., 0., 0., 1.55262256e-004,
          -1.95464279e-004, -1.22101737e-005, -8.40519671e-004,
          2.31875852e-003, -1.75378867e-003, 0., 0., 0., 0.,
          1.36319071e-003, 6.63803541e-004, 0., -4.75210691e-004, 0., 0.,
          0., 0., 0., -8.67162365e-004, 1.16281975e-002, 2.22681649e-003,
          -9.58297096e-006, -1.07021106e-003, -4.12799884e-003, 0.,
          -1.21463335e-003, 0., 1.19308410e-002, -1.60765951e-003,
          -4.75210691e-004, 0., 5.39987255e-003, -3.52125062e-004,
          -5.75688155e-003, -5.34323370e-003, -1.14150043e-003,
          4.73786145e-003, 0., 4.53109061e-003, 0., 0., 0.,
          -9.05149058e-003, 0., 0., 0., -4.75210691e-004, 0., 0.,
          -6.70674955e-004, -1.38608292e-002, -1.52898021e-003,
          -3.71593051e-004, 0., -4.88394580e-004, 0., 0., 0.,
          -4.75210691e-004, 0., 0., 0., 0., -1.95464279e-004, 0.,
          -7.90464692e-004, -4.51786537e-003, -1.95464279e-004,
          -5.26858086e-004, 0., 0., 0., 0., 0., 0., 0., -4.75210691e-004,
          0., 0., 0., 0., 0., 0., -2.28546816e-003, -5.49062854e-004, 0.,
          0., -4.18471493e-004, 0., 0., 0., -1.26649998e-003,
          -5.49062854e-004, 0., 0., -8.75806843e-004, 0.,
          -1.94601796e-003, -2.39407038e-003, 3.24889575e-003,
          4.09662910e-002, 1.09628343e-003, 9.96156968e-003,
          3.56459932e-004, -2.00692972e-004, 0., -1.25635379e-005, 0.,
          -4.75210691e-004, 0., 0., 0., 0., 0., -2.30275467e-003,
          -1.40767707e-003, -4.01811115e-003, 0., 1.40271301e-003,
          9.31973162e-004, -1.60765951e-003, 0., 9.88585874e-004,
          3.07979848e-004, 1.38575549e-003, 0., 0., 0., -1.22101737e-005,
          9.00819199e-004, -5.94423525e-003, 3.97566520e-002,
          3.02799623e-002, 0., 2.34764684e-002, 1.95745291e-004,
          4.47196327e-003, 5.46229530e-005, 6.49645319e-003,
          -1.08339498e-003, -6.69939164e-003, 0., -1.54307613e-003,
          -7.91289320e-004, -1.51051348e-003, -3.17673804e-003,
          -9.91145428e-003, 1.31320953e-001, 2.19976716e-002,
          -6.35298085e-004, -4.43865266e-003, -2.43381853e-003,
          -1.78155722e-003, 6.96734467e-004, -3.56590585e-003,
          2.10444797e-002, 1.48314436e-003, 0., -3.41557036e-003,
          -5.24019217e-003, 8.40624422e-003, -1.82510186e-002,
          -5.51175699e-002, -2.00658236e-002, -4.97001130e-003,
          -4.00390767e-004, 0., -4.75210691e-004, -1.42563204e-003, 0.,
          -2.20265985e-003, 0., 0., -4.75210691e-004, 0.,
          -8.93682183e-004, -4.75210691e-004, -1.98128517e-003,
          -1.62586407e-003, -2.06189901e-002, -4.08070907e-003, 0.,
          -7.70596555e-004, -1.95464279e-004, 0., -1.59066322e-003,
          -4.75210691e-004, -3.55569203e-003, -1.60765951e-003, 0., 0.,
          -9.41096433e-003, 0., -8.69448856e-003, -2.02063238e-003,
          -1.68132072e-003, -1.85796525e-004, 0., -4.75210691e-004, 0.,
          0., 0., 0., 0., 0., 0., 0., 0., 0., 0., 0., -4.53099236e-003,
          -1.18671649e-003, 0., -5.55653009e-004, -1.23581936e-004,
          3.56459932e-004, 0., 0., -6.45161653e-003, 0., 0., 0.,
          -2.63578501e-002, -5.18731354e-003, -2.66391737e-003,
          -2.27833446e-003, -2.82727706e-005, -4.19591466e-004, 0.,
          -5.95000398e-004, -1.22101737e-005, 0., -4.88394580e-004, 0.,
          0., 0., 0., 0., -1.22101737e-005, 0., 0., -1.22101737e-005,
          -2.58759479e-004, -5.33439103e-004, 0., -4.75210691e-004,
          -2.44203475e-005, 0., 0., 0., 0., 0., 0., 0., 0.,
          -1.22101737e-005, 0., -4.75210691e-004, 9.56363697e-003,
          -1.66935602e-003, -4.75210691e-004, 0., -5.55653009e-004, 0.,
          0., 0., -4.02610807e-004, 0., 0., 0., 0., 0., -1.60765951e-003,
          0., -1.88664496e-002, 2.27628392e-003, -1.95464279e-004, 0.,
          -2.87914881e-003, 3.40304279e-004, -1.22101737e-005, 0.,
          -1.63316615e-002, -2.09245319e-003, 0., 0., -4.61760238e-002,
          -3.72930150e-003, -1.14490809e-002, -3.56744393e-003,
          -4.64811819e-005, -2.64379964e-003, 0., 0., 0.,
          -1.85796525e-004, 0., 0., -4.75210691e-004, 0., 0., 0., 0., 0.,
          0., 0., 3.86401458e-004, -4.33944020e-004, 0., 0., 0., 0., 0.,
          0., 0., 0., 0., 0., 0., 0., 0., -4.75210691e-004,
          -4.02610807e-004, 0., 0., 0., 0., 0., 0., 0., 0., 0., 0., 0.,
          0., 0., 0., -4.75210691e-004, -1.49411382e-004,
          -1.27608294e-003, 0., 0., 0., 0., 0., -1.03086373e-003,
          -1.95464279e-004, -8.18189656e-005, 0., 0., -1.22101737e-005,
          -5.95000398e-004, 0., -8.27335753e-004, -6.23883912e-003,
          -6.97148638e-003, -4.75210691e-004, -4.75210691e-004,
          -5.55653009e-004, 0., 0., -1.60765951e-003, 0., 0., 0., 0., 0.,
          0., -1.15065346e-003, -2.14042212e-003, -4.31320193e-004,
          -1.35609123e-003, 0., -5.95000398e-004, 0., 0.,
          -4.18471493e-004, 0., 0., 0., 0., 0., -3.52125062e-004, 0.,
          -4.75210691e-004, -3.24670738e-003, 4.12765108e-002,
          -6.25599548e-002, 3.40304279e-004, -4.76035103e-003,
          -7.42826145e-004, -1.00137992e-003, -9.50421381e-004,
          -2.67963368e-003, 1.66814585e-004, -3.28798487e-004,
          -5.95000398e-004, 0., -4.34004731e-004, -9.98687115e-004,
          -5.02282754e-004, -1.02559663e-002, 2.54367173e-001,
          9.28487033e-002, 4.82347677e-004, -4.41109901e-003,
          6.94558024e-003, 1.27044367e-003, 1.88592836e-004,
          -5.02359867e-003, 2.02669809e-003, 1.39297806e-002,
          -4.75210691e-004, -9.62649472e-004, 7.22142984e-004,
          1.29273307e-004, -4.95704776e-003, -3.71348150e-002,
          -1.59849394e-002, -6.02317788e-003, -1.86994334e-003,
          -9.98719968e-003, -5.65845286e-003, -4.75210691e-004,
          -2.31649750e-003, -1.35541912e-002, -6.61007187e-004,
          -1.85796525e-004, 0., 0., -2.88651884e-003, -4.75210691e-004,
          -1.52977754e-003, -1.95055734e-003, 3.50724760e-004,
          1.09919238e-004, 0., -5.95000398e-004, -1.60300478e-004, 0.,
          0., 1.38575549e-003, -5.65033779e-003, -3.34526849e-004, 0.,
          0., -8.75983667e-003, 0., 3.76251061e-003, 2.32614623e-003,
          -1.16098544e-003, 0., 0., -1.95464279e-004, -4.75210691e-004,
          0., 0., -4.88394580e-004, 0., 0., 0., -4.75210691e-004,
          -1.84874248e-003, 0., 0., -4.75210691e-004, -3.59798032e-005,
          2.19876016e-003, 0., 6.48107671e-005, -1.24623533e-003, 0., 0.,
          -8.67162365e-004, -1.39673753e-002, -6.35298085e-004, 0., 0.,
          -5.49130747e-003, -5.93384774e-003, -5.85738802e-003,
          -4.03813738e-003, -3.69812036e-003, -1.53222959e-003,
          -1.95464279e-004, 0., -1.07021106e-003, 0., -9.74124530e-004,
          -8.27335753e-004, 0., 0., 0., 0., 0., 0., 0., 0.,
          -1.88484043e-003, 0., 0., 0., -3.38768761e-004, 0., 0.,
          -3.52125062e-004, 0., 0., 0., 0., -1.33388757e-003, 0.,
          -6.70674955e-004, 1.06841512e-003, -4.92657255e-003,
          -1.78421862e-004, 0., 0., -1.71903125e-003, 0., 0., 0., 0., 0.,
          0., 0., -6.80257916e-004, 0., -7.91289320e-004, 0.,
          -3.59345898e-002, 1.50949054e-004, 0., -1.07021106e-003,
          1.61535456e-003, -1.09812571e-003, -5.55653009e-004, 0.,
          -3.64527553e-002, -1.26219005e-003, 0., 0., -5.92411458e-002,
          1.51015318e-003, -1.28660621e-002, -9.15580150e-003,
          -1.26478227e-003, -1.90133136e-003, 0., -8.95233732e-003,
          -4.75210691e-004, 0., -5.95000398e-004, -2.18665190e-002, 0.,
          0., 0., 0., 0., 0., -4.75210691e-004, -1.46739222e-002,
          6.63803541e-004, -1.12088909e-003, 0., 0., 0., 0., 0., 0., 0.,
          0., 0., 0., 0., 0., -5.55653009e-004, -8.93682183e-004, 0.,
          -1.95464279e-004, 0., 0., 0., 0., 0., 0., 0., 0., 0.,
          -4.75210691e-004, 0., 0., 0., -1.34237309e-003,
          -1.11371766e-004, -1.40766473e-003, 0., 0., -4.75210691e-004,
          -4.50445004e-005, -4.75210691e-004, 0., 0., 0., 0., 0.,
          -2.97168270e-004, -4.50445004e-005, 0., -5.66129852e-003,
          -3.72139533e-004, -1.19553937e-003, 0., -7.70335505e-003, 0.,
          -3.19948420e-004, 0., -7.95799214e-003, 0., 0., 0., 0., 0., 0.,
          0., -7.44164130e-003, -8.58694402e-005, -1.95464279e-004, 0.,
          0., 0., 0., 0., -3.90928559e-004, -9.50421381e-004,
          -5.95000398e-004, 0., 0., -4.75210691e-004, 0., 0.,
          -1.76084461e-003, 9.16885957e-002, 3.37774098e-001,
          -1.11371766e-004, 2.52775615e-003, -1.11708289e-003,
          -4.02610807e-004, -4.50445004e-005, -5.61029511e-003, 0.,
          -5.95000398e-004, 0., 3.07979848e-004, -5.49062854e-004,
          -5.55434555e-004, -4.75210691e-004, -7.10619381e-003,
          -2.35970393e-002, 1.31272092e-001, -5.55653009e-004,
          1.09401755e-002, -7.97760382e-004, 8.68750794e-004,
          -8.67162365e-004, -1.24769122e-003, -4.00922187e-002,
          -8.69106781e-003, -5.87310409e-004, 3.02710570e-004,
          -2.06377525e-002, -1.45832179e-002, -1.18087400e-002,
          -5.70462719e-002, -2.38596238e-002, -1.03761423e-002,
          -2.66906503e-003, -9.93572176e-003, -6.09482126e-003,
          -9.50421381e-004, -4.62350994e-003, -3.34281065e-002,
          -2.29726476e-003, 0., 0., 0., -3.05040437e-003,
          -1.53783732e-003, -5.14750462e-003, -1.89830847e-002,
          -2.03027856e-003, -3.58908740e-003, 0., -5.33439103e-004,
          -6.23527775e-003, -9.50421381e-004, -1.22101737e-005,
          -1.76835025e-003, -3.18737421e-003, -4.75210691e-004, 0.,
          -8.67162365e-004, -1.93823949e-002, -3.69052961e-003,
          -1.15903495e-002, -1.62206963e-002, 4.48693841e-004,
          -5.20255184e-004, -4.75210691e-004, -3.64335225e-004,
          1.88592836e-004, 0., -2.17931447e-005, -3.52125062e-004,
          -5.55653009e-004, 0., 0., 0., 0., -4.18471493e-004,
          -2.05623033e-003, -5.55434555e-004, 1.03308270e-002,
          1.12566294e-003, -2.78838124e-004, 1.95745291e-004,
          -8.25841387e-004, 0., 0., -1.19390013e-003, 2.41609197e-002,
          1.92638591e-003, -4.12193767e-004, -1.27608294e-003,
          2.63676955e-003, -2.08287011e-003, -4.53032879e-003,
          -1.14477519e-002, -2.34229432e-004, 1.09628343e-003, 0., 0.,
          -1.34237309e-003, -4.18471493e-004, -4.02610807e-004,
          -4.88394580e-004, 0., 0., 0., 0., 0., 0., -4.75210691e-004,
          -4.87420853e-004, -4.40442655e-003, -4.18471493e-004, 0., 0.,
          0., 0., -9.58297096e-006, 0., -2.08287011e-003, 0., 0.,
          -4.18471493e-004, -2.47606891e-003, 0., 0., -9.50421381e-004,
          2.48291474e-002, -1.10233040e-003, 0., -8.18189656e-005,
          5.40630426e-004, 0., 0., -1.52816961e-003, -1.63245783e-003,
          -4.75210691e-004, 0., 0., 1.69576251e-005, 0.,
          -4.75210691e-004, -9.63605300e-004, 4.47472334e-002,
          -4.92373423e-004, -4.88394580e-004, 0., -1.00207923e-004, 0.,
          -4.75210691e-004, -9.58297096e-006, 1.62030570e-002,
          -1.42060663e-003, -1.30210433e-003, -2.05789506e-003,
          1.23784076e-002, 4.27949772e-006, -2.22709104e-002,
          -1.11119207e-002, 3.07979848e-004, -2.13693548e-003, 0.,
          -7.02713476e-003, 0., 0., 0., -6.00669384e-002, 0.,
          -4.18471493e-004, 0., -5.55434555e-004, 0., 0.,
          -6.35298085e-004, -3.94455381e-002, 0., 0., 0.,
          3.56459932e-004, 0., 0., -4.02610807e-004, -4.69062179e-005,
          0., 0., -9.58297096e-006, 0., -4.18471493e-004,
          -4.18471493e-004, -1.32533757e-003, -4.59168805e-003, 0., 0.,
          0., 1.45679296e-004, 0., 0., 0., 0., 0., 0., 0., 0., 0., 0.,
          0., -3.76545417e-004, 0., 1.27438363e-003, 0.,
          -3.27318208e-004, 0., 0., 0., -6.49463676e-004,
          -4.75210691e-004, 0., 0., -6.35298085e-004, 0.,
          -5.55653009e-004, 0., -8.14657949e-004, 2.10046725e-004,
          1.66899903e-004, 0., -3.69921187e-003, 0., 0., 0.,
          -1.41637670e-002, 0., 0., 0., 0., -8.67162365e-004, 0.,
          -1.28563389e-003, -1.03872772e-002, 0., -8.67162365e-004, 0.,
          1.96608104e-004, -4.02610807e-004, 0., 0., -9.58297096e-006,
          -1.95464279e-004, 0., 0., 0., 0., -1.84410356e-003,
          -2.56756833e-003, -5.34674665e-003, 6.33303151e-002,
          6.95327967e-002, 0., 8.11643247e-003, -4.75210691e-004,
          4.63242119e-004, 0., -1.96178048e-003, -3.25402943e-004,
          -8.28871445e-004, 0., 0., 0., 5.68279182e-004,
          -3.64335225e-004, -6.78656949e-003, 1.90187395e-001,
          7.88648427e-002, 0., 2.36482266e-003, 6.44152286e-004,
          8.53562728e-004, 0., -3.64406384e-003, 7.39360414e-003,
          8.65239557e-003, -9.43532621e-004, -2.70194001e-003,
          -5.26945433e-003, -1.54958358e-002, -1.24692116e-002,
          -7.87733793e-002, -4.76883352e-002, -2.41941102e-002,
          -1.69605855e-003, -9.20758117e-003, 4.07650834e-003,
          -1.66817720e-003, 1.41496176e-003, -2.11714096e-002,
          -1.76566967e-003, -6.54464005e-004, -5.55434555e-004,
          -3.52125062e-004, -8.08291545e-004, -3.38697108e-004,
          1.65756873e-003, 8.24325252e-004, -3.12114991e-002,
          -1.08822221e-002, -7.99780362e-004, -1.12510764e-003,
          -4.75808699e-003, -1.70535047e-003, -2.95853941e-003,
          -4.53665620e-003, 2.22614454e-003, -1.13096402e-003, 0.,
          6.48107671e-005, -1.73484324e-003, -5.10421954e-003,
          -1.51816709e-003, 1.31943068e-002, -1.19095109e-003, 0., 0.,
          0., -4.02610807e-004, 0., 0., 0., 0., 0., 0., 0.,
          -4.18471493e-004, 0., 9.71944770e-004, -8.67162365e-004,
          -3.01915454e-003, 1.57849363e-003, -1.07021106e-003,
          -8.67162365e-004, -1.60765951e-003, -5.58645814e-004,
          -2.67615484e-004, -9.01187886e-004, 1.00139631e-002,
          6.31100906e-004, 1.40426331e-003, 5.18593064e-004,
          -5.87999588e-003, 1.20776950e-003, 7.87192769e-003,
          1.56977903e-002, -3.18323378e-003, -3.09475558e-003,
          -4.88394580e-004, -8.18189656e-005, -1.18631637e-003, 0.,
          6.07180584e-004, 1.97629048e-003, 0., 0., -5.55653009e-004,
          -8.21082329e-004, -6.60275866e-004, -1.02357869e-003,
          -4.12639976e-003, -1.19657104e-003, 1.38906750e-003,
          -8.36918713e-004, -5.99766383e-004, -4.02610807e-004, 0.,
          -5.49062854e-004, 0., -1.33065926e-003, -4.02610807e-004,
          -8.77821469e-004, 0., -8.18189656e-005, 3.56459932e-004,
          -1.22101737e-005, -3.87463020e-003, -1.64297677e-003,
          -1.47727947e-003, -2.39050761e-003, 0., -4.02610807e-004,
          -6.37253514e-004, -1.22887036e-003, 0., -5.95000398e-004,
          -5.55653009e-004, -1.11371766e-004, 0., 0., 0., 0.,
          -2.91390903e-003, -1.68349722e-003, -3.54090817e-002,
          -1.57164736e-003, 1.45679296e-004, -7.17117044e-004,
          -1.50441588e-003, -5.55434555e-004, 0., -1.89600512e-003,
          5.33923581e-002, -4.87724261e-004, -1.86477357e-003,
          3.11415439e-004, 4.71923081e-003, -7.03680003e-003,
          3.15395813e-003, -6.01830485e-004, -2.90838024e-003,
          -2.81063782e-004, 0., 6.65228143e-002, -1.85796525e-004,
          1.77759340e-003, 3.07979848e-004, -3.85298650e-003, 0., 0., 0.,
          0., -8.18189656e-005, -5.50905592e-004, 0., -8.68500967e-004,
          0., -1.87509391e-003, 0., 1.24356570e-003, -4.88394580e-004,
          -1.22101737e-005, 0., -3.61902930e-005, 0., -4.50445004e-005,
          0., -8.40519671e-004, 0., -1.03790883e-003, 9.60230886e-004,
          1.09451935e-002, -4.75210691e-004, 0., 0., 0., 0., 0., 0.,
          -2.15348744e-004, 0., -4.18471493e-004, 0., 0., 0., 0., 0.,
          -1.44051970e-003, 1.43544155e-003, -5.49062854e-004, 0.,
          9.88741056e-004, 0., 0., 0., 9.40929283e-004, 0.,
          2.96675076e-004, 0., -7.91289320e-004, -5.55653009e-004,
          -7.91289320e-004, -1.71476451e-003, 3.92634654e-003,
          -1.18231832e-003, -3.56111210e-004, -6.20115607e-005,
          1.41494676e-001, 4.68476326e-004, -6.74191106e-004,
          -9.71057336e-004, 9.69634354e-002, 0., -5.13982552e-004, 0.,
          0., -7.53441243e-004, -1.22101737e-005, -5.46274714e-005,
          5.13882749e-003, 9.31973162e-004, -1.32729695e-003, 0.,
          2.42527365e-003, -1.12009177e-003, 0., -4.97977599e-004,
          1.97127531e-003, 0., -1.30922592e-004, 0., 0.,
          -1.49553944e-003, -3.64335225e-004, -1.45060977e-003,
          4.21923399e-003, -2.69299350e-003, -2.40013991e-002, 0.,
          4.52620676e-003, -1.27059617e-003, -6.44881045e-004,
          -4.88394580e-004, 1.26906224e-002, -5.49062854e-004,
          -2.27368600e-003, -9.58297096e-006, -2.70774239e-003,
          -1.34237309e-003, -2.10137176e-003, -2.90612224e-003,
          -1.46756694e-002, -8.87719262e-003, -4.05465486e-003,
          3.66737135e-004, 5.60493162e-003, 0., -7.28655432e-004,
          -1.03086373e-003, 1.23144146e-002, -1.07745212e-002,
          2.54150073e-004, -4.50445004e-005, 8.41521076e-004,
          -1.67562291e-002, -5.19983331e-003, -1.86459497e-002,
          -7.09168389e-002, -2.35917661e-002, -7.94811267e-003,
          -1.97544578e-003, -1.42855113e-002, -4.67335666e-003,
          -6.51490875e-003, -4.90365503e-003, -4.21426781e-002,
          -1.52487832e-003, -4.75210691e-004, -1.60765951e-003, 0.,
          -5.73407346e-003, -1.69539033e-003, -3.17182182e-003,
          -3.53394113e-002, 1.91451088e-002, 4.01077187e-003,
          -1.69971620e-003, -3.63538321e-003, 1.50939520e-003,
          5.51354932e-003, 0., 3.51638919e-005, -1.40686054e-003,
          -4.02020196e-005, -4.02610807e-004, -9.58297096e-006,
          7.69607941e-005, 1.74557138e-003, -1.15764961e-002,
          -9.36128013e-003, 1.56374183e-003, -1.85796525e-004, 0.,
          -4.88394580e-004, -1.85796525e-004, -1.00641954e-003, 0.,
          -6.35298085e-004, -1.22101737e-005, 6.96764211e-004, 0., 0.,
          -4.34829359e-004, 0., 0., -1.11670757e-003, 8.76161922e-003,
          0., -4.75210691e-004, -6.91880996e-004, -2.82029592e-004, 0.,
          1.09628343e-003, 1.05422921e-003, -1.03149062e-003,
          1.17673830e-003, 1.69576251e-005, 0., -4.27181870e-002,
          -9.83090256e-004, -9.00446251e-003, -1.65095204e-003,
          4.43487056e-003, 1.07111409e-003, 1.43658777e-003,
          -4.75210691e-004, -2.65853526e-003, 9.89442342e-004,
          -8.03499483e-004, 1.65260257e-003, -1.87025219e-003, 0., 0.,
          0., 1.48971891e-003, 2.56413507e-004, -6.36759738e-004,
          -4.84429765e-004, -5.23198070e-003, 3.56459932e-004,
          -6.35298085e-004, 1.36441915e-004, 1.69576251e-005, 0.,
          1.31814613e-003, -8.67162365e-004, -3.20670567e-003, 0., 0.,
          -2.05047254e-004, -3.34266719e-004, 3.40304279e-004,
          -1.21641555e-003, 1.07140420e-003, 2.51522462e-004, 0., 0.,
          1.36441915e-004, 1.49663398e-003, 1.09628343e-003, 0.,
          -1.99193091e-004, -3.64335225e-004, 0., 0., 0.,
          3.51007533e-004, 0., 1.96480402e-003, -6.89884182e-004,
          1.61431227e-002, 3.58386338e-003, -8.73108278e-004,
          -1.22101737e-005, 4.88930102e-003, 8.68984149e-004,
          8.55200517e-004, 0., 2.12500438e-001, 8.00180365e-004,
          -2.75436835e-003, -4.11971798e-003, 1.03924498e-002,
          1.89973752e-003, -3.56460130e-003, -4.83521679e-003,
          -1.31841679e-003, -2.38923030e-003, -9.58263816e-004,
          1.69079863e-002, 1.27227744e-003, -2.43996247e-003,
          -1.15065346e-003, -7.35801384e-002, 0., 0., 0.,
          -1.00731594e-003, -4.14820970e-004, 2.12911423e-003,
          -4.02610807e-004, -4.36470844e-002, 0., -9.87423118e-004, 0.,
          -8.99321109e-004, 8.79788538e-004, -7.91289320e-004, 0.,
          -2.00240221e-003, -8.36333784e-004, 0., -4.18471493e-004,
          3.40304279e-004, -8.18189656e-005, -8.18189656e-005, 0.,
          -1.30164484e-002, 0., 0., 0., 6.48284156e-004, 0., 0., 0.,
          -1.95443421e-003, 0., 0., 0., 0., 0., 0., 0., -1.33578270e-003,
          0., 0., 0., 1.06928102e-003, 0., 0., 0., -6.53425872e-004,
          -1.60765951e-003, -4.02610807e-004, 0., 2.08805734e-003, 0.,
          0., -1.95464279e-004, -6.45985035e-003, -2.04506121e-003,
          -3.35929240e-003, -4.18471493e-004, 3.01575717e-002,
          -1.22370536e-003, -2.50077719e-004, -2.09072969e-004,
          7.63207721e-003, -5.55434555e-004, 0., 0., -1.34719815e-003,
          -1.87529880e-003, -1.12232148e-004, -1.15555327e-003,
          -2.82885022e-002, 7.44808116e-004, -1.19685583e-005, 0.,
          1.43201125e-003, 0., 0., -1.22101737e-005, -5.39149810e-003,
          0., 1.02530503e-004, 0., 0., -1.11827347e-003, 2.74375174e-003,
          8.86378752e-004, -9.27013252e-003, -1.08758791e-003,
          -3.21760145e-003, 0., 8.81440588e-004, -1.11371766e-004,
          -1.81758369e-003, -2.15672236e-003, 7.18337856e-003,
          -1.11371766e-004, 1.43544155e-003, 0., 8.74796067e-004,
          2.36741477e-003, 3.56459932e-004, -2.60128058e-003,
          -1.88947626e-004, -2.40592333e-003, 2.52936594e-003,
          -4.18471493e-004, 1.09401345e-002, 1.46743772e-003,
          -6.74191106e-004, -1.15065346e-003, 5.11819543e-003,
          3.45458463e-002, 1.33402552e-002, -5.46274714e-005,
          2.48893630e-002, 1.17499596e-002, 7.98095018e-003,
          -2.71961675e-004, -2.95654230e-004, -3.13896500e-002,
          -6.69491151e-003, -3.75598320e-003, -3.41409072e-003,
          -1.06518762e-002, -1.79639540e-003, -1.01041878e-002,
          8.27563927e-003, -4.26305312e-004, 0., 0., -5.95000398e-004,
          -6.06420543e-003, -1.14406319e-003, -1.00911837e-002,
          -2.59845536e-002, -6.21420797e-003, -1.20316132e-003, 0.,
          -2.43033725e-003, -2.38175550e-003, 0., -2.09756033e-003,
          -2.88919383e-003, -5.48512349e-003, 0., 0., 0.,
          -1.28263561e-002, -1.03086373e-003, -4.65287752e-002,
          -2.28034519e-002, -7.44527089e-004, 0., 0., 0., 0., 0.,
          -1.95464279e-004, 0., -9.14871227e-004, 0., 0., 0., 0., 0., 0.,
          -1.47514814e-003, -5.13249217e-003, 0., 0., -1.04966760e-003,
          0., -5.55653009e-004, -5.95000398e-004, -4.88394580e-004,
          -1.80412568e-002, -9.87423118e-004, -4.75210691e-004, 0.,
          -3.06740385e-002, -3.22327745e-004, -1.42318355e-002,
          -4.79237409e-003, -4.05541528e-003, -5.95000398e-004, 0., 0.,
          -1.82874675e-003, -5.95000398e-004, -4.50445004e-005,
          -4.18471493e-004, -8.00872280e-004, 0., 0., 0.,
          -3.21503635e-003, 0., -5.46274714e-005, -1.13391818e-003,
          -1.03745749e-003, 0., 0., 0., 0., 0., 0., 0., -2.66425591e-003,
          0., -4.50445004e-005, 0., -1.11429882e-003, 0.,
          -5.95000398e-004, -5.95000398e-004, -6.22499065e-005,
          -1.17255014e-003, 0., -5.95000398e-004, -5.95000398e-004, 0.,
          0., 0., 0., 0., 0., 0., -4.88394580e-004, 0., 0.,
          -3.52125062e-004, -4.86717746e-003, -8.00872280e-004, 0., 0.,
          -1.27968390e-003, 0., 0., 0., -4.71990630e-002,
          -1.68316136e-003, 0., -7.91289320e-004, -3.82813886e-002,
          -5.49062854e-004, -6.90273568e-003, -3.77505552e-003,
          2.19754060e-003, 2.81168502e-002, 0., 1.15013383e-001,
          -5.95000398e-004, -5.55653009e-004, -4.75210691e-004,
          3.76481861e-002, 0., 0., 0., 0., 0., 0., -4.50445004e-005,
          -1.92210115e-002, 0., 0., 0., -6.35298085e-004, 0.,
          -4.88394580e-004, 0., -2.40407069e-003, 0., 0., 0.,
          -7.91289320e-004, -8.79372528e-004, -3.52125062e-004, 0.,
          -5.35077322e-003, 0., 0., 0., -4.18471493e-004, 0., 0., 0.,
          -3.02999560e-003, 0., 0., 0., 0., 0., 0., 0., -6.00697531e-004,
          0., -5.67863230e-004, 0., -4.87420853e-004, 0., 0., 0.,
          -4.75210691e-004, -1.22101737e-005, -1.01196009e-003, 0.,
          -6.30881812e-004, -5.89943258e-004, -3.61708022e-004,
          -8.11990525e-004, -8.64236988e-003, 8.65085237e-003,
          6.33156896e-002, -4.18471493e-004, 8.88919458e-002,
          -7.06051709e-004, -6.35348988e-005, -4.02610807e-004,
          1.47489220e-001, 0., 0., 0., 0., -2.05751951e-003,
          -1.04404765e-003, -2.05980823e-003, -2.17470918e-002,
          -1.22101737e-005, -2.50324514e-003, 0., 1.22290372e-003, 0.,
          0., 0., -1.43485016e-003, -5.95000398e-004, 0., 0.,
          -6.04268047e-004, 0., -7.91289320e-004, -1.34611770e-003,
          -5.29771997e-003, 1.48470085e-002, 9.26842242e-002, 0.,
          -3.69114913e-002, 1.69576251e-005, -1.60765951e-003, 0.,
          5.79300895e-003, -1.22101737e-005, -1.11371766e-004, 0.,
          -9.89378546e-004, -1.14580081e-003, -4.02610807e-004,
          -3.06836038e-004, -3.56511236e-003, 3.70231085e-002,
          3.25788371e-002, 0., -3.36924125e-003, 0., -7.90464692e-004,
          0., -1.04733789e-003, -9.70603526e-003, -6.36681728e-003,
          -1.41622522e-003, -8.48052558e-003, -1.08873742e-002,
          -6.96766889e-003, -1.46300951e-002, -5.76664321e-002,
          -2.59055905e-002, 1.17456131e-002, -1.51917955e-003,
          1.88785195e-002, -3.65260849e-003, 3.58796242e-004,
          -2.05596210e-003, 2.22755037e-002, -1.38546503e-003,
          -3.60470003e-004, -9.58297096e-006, 0., -5.82758989e-003,
          5.71901386e-004, -4.99207713e-002, -1.50986791e-001,
          -8.36577173e-003, -5.54669043e-003, 0., -5.79057902e-004,
          -1.74720702e-003, -1.37969665e-003, -1.43497624e-003,
          -3.63917346e-003, -3.24730575e-003, -4.75210691e-004, 0.,
          -9.07778100e-004, -5.35719423e-003, -4.84793651e-004,
          -4.79569547e-002, -1.24935493e-001, -1.47221680e-003, 0.,
          -4.75210691e-004, 0., 0., 6.63803541e-004, -1.22101737e-005,
          -5.95000398e-004, 0., -4.75210691e-004, 0., 0., 0., 0.,
          -6.07210561e-004, 0., -3.21789482e-003, -1.78066792e-003, 0.,
          -1.03745749e-003, -5.57029620e-004, -7.91289320e-004, 0.,
          -5.49062854e-004, -4.46543237e-003, -5.55434555e-004,
          -1.11130602e-003, -5.55653009e-004, -7.26217031e-003, 0.,
          -2.86440225e-003, -2.79724365e-003, -8.99654068e-003,
          -6.61528436e-004, 0., -5.55434555e-004, -6.83774066e-004, 0.,
          -9.58297096e-006, 2.07446585e-003, -4.75210691e-004, 0., 0.,
          0., -1.60847232e-003, 0., 0., -9.68055450e-004,
          -5.35511645e-005, -3.27471038e-003, 0., 0., 0.,
          -1.22101737e-005, 0., 2.62935355e-004, -9.74124530e-004,
          3.40304279e-004, 0., 0., 7.68190308e-004, 0., 0.,
          -4.88394580e-004, -2.57126777e-003, -8.12093029e-004, 0., 0.,
          -1.11371766e-004, -4.18471493e-004, 0., 9.10544768e-004, 0.,
          0., 0., 0., -4.75210691e-004, 0., 0., 0., -8.22855043e-004,
          -2.21548136e-003, 0., -4.75210691e-004, -8.67162365e-004,
          -1.30947691e-003, 0., -8.81378306e-004, -2.13837083e-002, 0.,
          -5.55653009e-004, -1.66521140e-003, -6.46328926e-003, 0.,
          -1.69709115e-003, -3.22446134e-003, 1.33224973e-003,
          2.39347536e-002, 0., 3.60412560e-002, 0., 0., -1.18750737e-004,
          1.20907398e-002, -8.67162365e-004, 0., 0., 0., 0., 0.,
          1.17739418e-003, -1.24747623e-002, 9.12205665e-004,
          8.40766006e-004, 0., 1.27188559e-003, 0., 0., 3.07979848e-004,
          5.28477365e-004, 0., 0., 0., 0., -5.55653009e-004, 0.,
          -1.03086373e-003, 4.43689380e-004, 0., 7.44808116e-004, 0.,
          6.63803541e-004, 0., 0., 0., 1.55262256e-004, 0., 0., 0., 0.,
          0., 0., 0., -4.50445004e-005, -4.02610807e-004,
          1.16126309e-003, 0., 2.28932520e-004, 0., 0., 0.,
          9.50658927e-004, 0., 0., 0., -1.22101737e-005, 0., 0., 0.,
          -4.42776177e-003, 6.24498772e-003, 8.11603442e-002,
          1.45679296e-004, 2.36724596e-002, -8.18189656e-005,
          -1.06638856e-003, 1.69576251e-005, 3.58855575e-002, 0.,
          -1.10471586e-003, 0., -5.49062854e-004, -5.55653009e-004,
          -5.55434555e-004, -8.77821469e-004, 8.85870401e-003,
          5.29677840e-004, 2.35046097e-003, 0., 2.73940313e-005, 0.,
          -4.22203884e-004, 0., 4.33018338e-003, 0., 0., 0., 0.,
          -1.95464279e-004, -8.67162365e-004, -9.50421381e-004,
          -3.54034803e-003, 7.52406986e-003, 2.44971856e-001, 0.,
          1.50871249e-002, 1.43544155e-003, 7.55280198e-004,
          8.86137830e-004, 7.14961300e-003, 0., -1.42563204e-003, 0.,
          -7.51117303e-004, 0., -1.76519540e-003, -5.98792627e-004,
          -7.96103675e-004, 1.62621103e-002, 4.05563749e-002,
          -1.89143594e-003, -2.86124437e-003, -1.40921585e-003,
          -3.77257448e-003, 2.06331199e-004, 6.47154450e-003,
          -2.20073271e-003, -3.21354810e-003, 0., -6.02300232e-003,
          -2.57183192e-003, -1.73243904e-003, -8.51086993e-003,
          -3.23655419e-002, 1.64966669e-003, 1.64263397e-002,
          4.12784197e-004, 8.03145394e-003, -1.76678244e-002,
          -4.91990475e-003, -5.86776715e-003, -3.56369615e-002,
          -1.50840636e-003, 9.60230886e-004, -8.36333784e-004,
          -7.44527089e-004, -1.25264777e-002, -4.21442091e-003,
          -2.75839176e-002, -1.26988843e-001, -5.41997608e-004,
          4.66751028e-003, -3.35167424e-004, 2.12042849e-003,
          -2.42104405e-003, -2.00911192e-003, -1.07750285e-003,
          -1.60793646e-003, -7.27085676e-003, 3.16882593e-004,
          -7.91289320e-004, -3.59508162e-003, -1.86399370e-002,
          -7.64814578e-003, -4.44246903e-002, -1.03605628e-001,
          5.02004928e-004, 3.25034751e-004, 0., 0., -4.50445004e-005,
          -6.35298085e-004, 0., 9.31973162e-004, 0., -4.75210691e-004,
          0., 0., -7.91289320e-004, 0., 0., -1.05295889e-003,
          -3.35999439e-003, -2.33275878e-005, 0., -5.49062854e-004,
          -1.69506331e-003, 6.63803541e-004, -8.67162365e-004,
          -1.59101002e-003, -3.06471460e-003, -4.18471493e-004,
          -9.58297096e-006, -2.21388624e-003, -7.23911542e-003,
          -1.49215420e-003, -6.88101165e-003, -4.00734926e-003,
          -4.02027881e-003, -1.69134629e-003, 5.49421646e-004,
          7.49415951e-004, -1.22342492e-003, 1.05123897e-003,
          -1.10785186e-003, -5.87483542e-003, 0., 0., 0., 0.,
          5.70265111e-004, -5.55434555e-004, -1.73392170e-003,
          -5.26627060e-003, -1.10704463e-003, 1.41347444e-003, 0.,
          2.13056360e-003, -5.29843266e-004, 0., -4.50276828e-004,
          -5.95000398e-004, 0., 0., 0., -8.18189656e-005,
          -2.38838606e-003, -6.47508248e-004, -1.65501027e-003,
          -4.61059855e-003, 1.26450264e-003, -5.09900448e-004,
          3.56459932e-004, -6.35298085e-004, -1.26911828e-003,
          6.63803541e-004, -5.11066348e-004, -2.46664463e-003,
          -4.75210691e-004, 0., 0., 0., -1.20976078e-003, 0.,
          -3.61708022e-004, -8.77120707e-004, -8.48982836e-006,
          -1.76432112e-003, 1.38575549e-003, -7.98359222e-004,
          -8.95249250e-004, -1.02427357e-003, -1.19073258e-003,
          -4.71308922e-005, 3.62553727e-003, -1.36745290e-003,
          9.31973162e-004, -9.56708391e-004, -6.45170128e-003,
          -3.97831015e-003, -5.61209861e-003, -9.39014833e-003,
          2.16594184e-004, 2.64469553e-002, 1.09628343e-003,
          3.54795605e-002, 0., -1.02028763e-003, 0., -9.61788290e-004,
          0., -1.08339498e-003, 0., 0., 0., 1.04457350e-003, 0.,
          -3.18079479e-002, -2.80868753e-005, 1.93395489e-003, 0.,
          3.53800162e-004, 0., 1.94303878e-003, -4.75210691e-004,
          -4.16428130e-003, 0., 0., 0., 7.44808116e-004, 0., 0.,
          -6.70674955e-004, -2.37205494e-002, 0., 1.40271301e-003, 0.,
          -3.81260790e-004, 0., 1.55262256e-004, 0., 0., 0., 0., 0., 0.,
          0., 0., 0., -1.26863466e-004, 0., -1.95464279e-004, 0.,
          -4.14820970e-004, 0., -3.52125062e-004, 0., 0., 0.,
          -1.11371766e-004, -5.46274714e-005, 0., -8.18189656e-005, 0.,
          0., -1.04078297e-002, 1.46842599e-002, 8.40528309e-002,
          -1.05325342e-003, 1.10405862e-001, -6.24514825e-004,
          4.65756748e-003, 3.41060339e-004, 6.50133491e-002,
          -6.35298085e-004, 0., 0., 9.23452550e-004, -5.95000398e-004,
          8.14127852e-004, -4.58253053e-004, 1.46901573e-003,
          8.57743027e-004, 1.75869290e-003, 9.31973162e-004,
          2.47813156e-003, 0., -1.27318781e-003, 0., 4.53102402e-003,
          1.23995298e-003, 4.43578552e-004, 0., -5.78878098e-004,
          -9.07559588e-004, -5.10702434e-004, 9.44648928e-004,
          -1.43284239e-002, 8.18021130e-003, 3.40406969e-002,
          1.23272534e-003, 3.79695147e-002, 1.26140460e-003,
          3.88500560e-003, 3.27653321e-003, 3.97814773e-002,
          -4.75210691e-004, -5.49062854e-004, 0., -1.12446072e-003,
          -1.18436094e-003, 3.73417570e-004, -3.51898518e-004,
          1.45315938e-002, 6.11157995e-003, 3.22260521e-002,
          1.54101767e-003, 1.69360563e-002, 5.52677491e-004,
          4.36677272e-003, 4.50983789e-004, 2.56665591e-002,
          2.98455032e-003, 1.30114588e-003, -1.12892804e-003,
          -1.52132905e-003, 3.86669883e-003, 5.39359311e-003,
          -5.24090184e-003, -1.11808246e-002, -9.67876054e-003,
          -3.20565858e-004, -3.80014209e-003, -1.71818375e-003,
          -1.99127942e-002, 2.55329348e-003, -4.19788714e-003,
          -8.25161859e-003, -4.56998125e-003, -1.56255811e-003,
          -3.52125062e-004, 0., -1.82017144e-002, -2.09837733e-003,
          -2.20585782e-002, -3.76894139e-002, 1.44642862e-002,
          2.53512291e-004, -6.35298085e-004, -2.22789915e-003,
          -3.69561464e-003, 6.87904481e-004, -2.47097388e-003,
          -2.70630699e-003, 5.60412067e-004, -2.72941054e-003,
          -1.14543701e-003, -1.47094845e-003, -3.79221626e-002,
          -6.08582282e-003, -1.11591592e-001, -1.05691738e-001,
          3.38037405e-003, 9.50569753e-004, 0., 0., 1.09628343e-003,
          -4.18471493e-004, -1.11371766e-004, -1.85796525e-004, 0.,
          -4.18471493e-004, 0., 0., -1.69449812e-003, -7.29327206e-004,
          -6.47508248e-004, -7.17117044e-004, 2.76892688e-002,
          5.01397764e-003, 0., -6.07210561e-004, 3.62101384e-003,
          8.74796067e-004, 0., -9.83892241e-004, 1.50084198e-002,
          3.89354653e-004, 0., 0., 2.51990883e-003, 1.83467334e-003,
          -2.50032842e-002, -2.22178567e-002, 1.64930318e-002,
          -1.14270125e-003, 0., -9.14019402e-005, 1.92256691e-003,
          -4.50445004e-005, 1.40683842e-004, -1.30315614e-003, 0., 0.,
          0., 0., -4.64255601e-004, -3.82976490e-004, -3.08279414e-003,
          -4.52148542e-003, 4.77761403e-003, 1.49537006e-003,
          -4.28054482e-004, 0., 9.39875827e-005, -9.58297096e-006,
          -4.50445004e-005, 0., 1.21169968e-003, 0., -9.58297096e-006,
          0., -6.60454202e-003, -4.18105716e-004, -6.65927725e-003,
          -1.51685430e-002, 2.18493510e-002, 9.42586164e-004, 0., 0.,
          3.93940462e-003, 1.37354527e-003, 6.63803541e-004,
          3.40304279e-004, 0., 0., 0., 0., 1.37807743e-003, 0.,
          -1.03986426e-003, -9.11152107e-004, 7.58103281e-002,
          7.71085732e-004, 7.32597953e-004, -1.20976078e-003,
          1.54836187e-002, -6.37253514e-004, -1.65845163e-003,
          -4.63021919e-004, 2.81002112e-002, -9.09457958e-005,
          -9.07559588e-004, 0., 5.73016852e-002, -9.34706826e-004,
          -1.59847494e-002, -1.82594731e-002, 3.58635705e-004,
          -1.93468737e-003, 0., -2.84200534e-004, -5.49062854e-004,
          -1.17507379e-003, 0., -9.46193875e-004, 0., -4.50445004e-005,
          0., 0., 0., -8.18189656e-005, 0., -3.35928751e-003, 0.,
          -2.99230684e-004, 0., -1.48597662e-003, 0., 0., 0.,
          -1.35590648e-003, 0., 1.02656901e-004, 0., -1.27485793e-004,
          -4.97003843e-004, 1.38575549e-003, -8.00872280e-004,
          -6.45388430e-003, 0., 0., 0., 0., 0., 0., 0., -4.88394580e-004,
          0., 0., 0., 0., 0., 0., -4.75210691e-004, 0., 1.44316046e-003,
          0., 0., 0., 0., -5.55653009e-004, 0., 0., 1.55262256e-004, 0.,
          0., 0., 0., 1.17699686e-003, 0., -7.55676161e-003,
          1.72686717e-003, 7.38275051e-003, 0., -9.13411146e-004,
          -8.54707323e-004, 1.48767745e-003, 0., 2.44646054e-003, 0., 0.,
          0., 6.88031287e-005, 1.49827101e-003, -9.58297096e-006,
          -5.55653009e-004, -3.83137725e-003, 1.70744048e-003,
          -1.00154439e-005, 0., -3.41792102e-003, -1.11108762e-003,
          -7.72613974e-004, 0., -1.07475440e-003, 1.72605971e-003,
          1.73951080e-003, 0., 1.36441915e-004, -3.77540651e-004,
          -1.15495420e-003, 4.43578552e-004, -4.89928946e-003,
          1.75028238e-002, 3.29054482e-002, -5.55653009e-004,
          3.00360145e-004, 7.37465552e-006, 1.30028592e-003,
          -6.48613423e-005, -3.36779305e-003, 1.36441915e-004, 0., 0.,
          -1.19264470e-003, 3.80816590e-003, -7.01022218e-004,
          -1.34237309e-003, -3.01979482e-003, 4.07321490e-002,
          4.54404391e-002, 1.36441915e-004, 2.65507028e-003,
          2.32837466e-003, 4.80461786e-005, -7.35743146e-004,
          1.92925596e-004, 2.94885151e-002, 4.23042513e-002,
          -5.55434555e-004, 2.09634891e-004, 5.21216989e-002,
          1.94721501e-002, 8.28710757e-003, -3.20994519e-002,
          -1.52660040e-002, -5.83144510e-003, 1.60995667e-004, 0.,
          3.46773886e-004, 1.15876738e-003, -1.26236735e-003,
          -1.48625858e-003, 1.72551966e-003, -4.75210691e-004,
          -6.35298085e-004, -4.75210691e-004, -7.75915617e-003,
          -1.77473389e-003, -3.23774219e-002, -3.05896606e-002,
          -2.39661150e-002, -7.44830072e-003, 0., 0., -3.32639250e-003,
          0., -4.75210691e-004, 5.11722232e-004, 4.74119186e-003,
          -3.66993016e-003, -4.75210691e-004, -6.04583358e-004,
          1.99982654e-002, -3.21465009e-003, -4.58413288e-002,
          -7.33908713e-002, -1.85344461e-003, -5.95000398e-004, 0., 0.,
          -8.18189656e-005, 0., 0., 0., -1.85796525e-004,
          -5.55434555e-004, 0., 0., -1.50246045e-003, 0.,
          1.38575549e-003, 3.40304279e-004, 2.20467392e-002,
          -2.90095224e-004, 0., 0., 6.54220523e-004, 7.90755032e-004, 0.,
          0., -1.76730426e-003, -6.07029302e-004, 0., 0.,
          1.15027530e-002, 6.21943473e-005, 2.18836293e-002,
          -7.79899955e-003, 5.97057957e-003, 1.43222034e-003, 0., 0.,
          3.68809735e-004, 0., 0., 0., -1.60765951e-003, 0., 0., 0.,
          6.62989158e-004, 0., 3.07979848e-004, -8.36918713e-004,
          1.02673087e-003, -4.30697663e-004, 0., 0., -1.69906137e-003,
          0., 0., 0., -4.16584499e-003, -1.03790883e-003, 0., 0.,
          -5.08957356e-003, -1.19390013e-003, 0., -1.38958253e-003,
          8.88105296e-003, 2.74894619e-003, 0., 0., 0., -9.51673661e-004,
          0., 0., 0., 0., 0., 0., -2.22159526e-003, 0., 1.36441915e-004,
          -6.61007187e-004, 8.47723112e-002, 1.00710218e-004, 0.,
          -5.49062854e-004, 1.32835901e-003, 0., 0., 1.69576251e-005,
          -1.37217706e-002, -3.64280725e-003, 0., -1.85796525e-004,
          -4.26380597e-002, -5.29069128e-003, -1.19736919e-003,
          -1.49522480e-002, -4.75210691e-004, 4.00594261e-004, 0.,
          -1.70410541e-003, 0., -4.75210691e-004, 0., -2.82029592e-004,
          0., 0., 0., 0., 0., 0., -4.75210691e-004, -2.21625203e-003,
          1.69576251e-005, -5.95000398e-004, 0., 0., 0., 0., 0., 0., 0.,
          3.07979848e-004, 0., 0., 0., 9.00819199e-004, 0.,
          3.55201587e-003, 0., 0., 0., 0., 0., 0., 0., 0.,
          -1.11371766e-004, 0., 0., 0., 0., 0., 0., 0., 1.42323144e-003,
          1.43544155e-003, 0., -4.18471493e-004, 0., 0., 0., 0.,
          1.40222220e-003, 7.44808116e-004, 0., -8.67162365e-004,
          -3.93800583e-004, -5.55434555e-004, 0., 9.99705167e-004,
          -2.25447631e-003, -5.24823833e-003, -1.95464279e-004,
          -7.00501085e-004, 0., 1.75408917e-004, 0., -4.18471493e-004,
          0., 1.36441915e-004, 0., 0., 0., 0., 0., -1.62209035e-003,
          3.10809631e-003, 5.97349775e-004, 0., -1.19000080e-003, 0.,
          -1.95464279e-004, -1.95464279e-004, 1.08150482e-004,
          6.80761121e-004, -2.15510765e-004, 0., 3.40304279e-004,
          -5.99766383e-004, -9.51673661e-004, 0., -1.86150032e-003,
          2.18792330e-003, 2.78014806e-003, 0., -3.32953932e-005,
          2.18024966e-003, 1.92551629e-003, 9.60230886e-004,
          -1.06950814e-003, 0., 1.69576251e-005, 0., -5.55653009e-004,
          -4.89325030e-004, 0., -1.27223250e-003, 5.83311683e-003,
          1.04137808e-001, 3.86175588e-002, -9.50421381e-004,
          -6.56808726e-004, 5.33338729e-003, -3.35636921e-003,
          1.36319071e-003, -3.25967302e-003, 3.66849750e-002,
          1.70119572e-002, 7.44158402e-004, -3.16497218e-003,
          1.04177166e-002, -4.46811784e-003, 8.65222141e-003,
          -2.77008414e-002, -2.55251210e-002, -1.12715103e-002,
          -4.75210691e-004, -3.42256948e-003, -3.62682506e-003,
          -2.20953533e-003, -8.99384439e-004, -3.54477158e-003,
          4.56933951e-004, -4.50445004e-005, 0., 0., -6.29316259e-004,
          -9.75815463e-004, -8.58965982e-003, -1.44688468e-002,
          -1.07645541e-002, -4.56538051e-003, -1.46216282e-003,
          -7.91289320e-004, -3.89578147e-003, -1.60765951e-003,
          -1.68497150e-003, -5.55434555e-004, 2.88416073e-002, 0.,
          -1.22101737e-005, 0., 2.19388269e-002, 3.34072416e-003,
          1.92545224e-002, -8.99527688e-003, -3.58649250e-003,
          -1.11371766e-004, 0., 0., -5.95000398e-004, 0., 0., 0.,
          2.09593381e-005, 0., 0., 0., -5.55653009e-004, 0., 0., 0.,
          9.78029519e-003, -2.73476494e-003, 0., 0., -3.43845598e-003,
          0., -4.18471493e-004, 0., 8.39390978e-002, 2.33879866e-004, 0.,
          0., 9.07356665e-003, -1.37651688e-003, 6.49894774e-003,
          -4.09966160e-004, -5.34958392e-003, -7.91289320e-004, 0.,
          -4.18471493e-004, 0., 0., -4.18471493e-004, 0.,
          1.55262256e-004, 0., 0., 0., -1.60765951e-003, 0.,
          -4.75210691e-004, -4.75210691e-004, -3.44077987e-003,
          -1.92012126e-003, 0., 0., 0., 0., 0., 0., 0., 0., 0., 0.,
          -1.09779998e-003, 0., 3.36972764e-004, -4.75210691e-004,
          -5.64350747e-003, -9.50421381e-004, 0., 0., -8.31491314e-004,
          -5.95000398e-004, 0., 0., 2.84788170e-004, 0., 0., 0.,
          2.53326190e-003, -5.65236027e-004, -4.75210691e-004,
          -7.30720465e-004, -6.73216581e-003, -3.13294493e-003, 0., 0.,
          -5.67826966e-004, -4.18471493e-004, 0., -1.79345591e-003,
          1.75164655e-001, 2.81301909e-003, -4.02610807e-004,
          -4.02610807e-004, 1.31485879e-001, 3.12198675e-003,
          -3.97781702e-003, -1.17118321e-002, -8.67162365e-004,
          -8.93682183e-004, 0., -1.83360744e-002, -1.03064522e-003, 0.,
          0., -2.04861034e-002, 0., 0., 0., 0., 0., -4.88394580e-004, 0.,
          -2.51698424e-003, -1.13621785e-003, -2.58192676e-003, 0., 0.,
          0., 0., 0., 0., -5.55653009e-004, -7.91289320e-004, 0., 0., 0.,
          -4.75210691e-004, 0., -1.82711170e-003, -9.58297096e-006,
          -9.50421381e-004, 0., -4.12193767e-004, 0., -1.46216282e-003,
          0., -2.20953533e-003, 0., 0., 0., 0., 0., -4.18471493e-004, 0.,
          -6.35298085e-004, -4.75210691e-004, -1.20316132e-003, 0., 0.,
          0., -9.58297096e-006, 0., 0., 0., -2.29971553e-003,
          -8.18189656e-005, -8.67162365e-004, 0., -4.75210691e-004, 0.,
          -2.95981928e-003, -3.94456089e-003, -5.28230006e-003, 0.,
          -8.45207367e-003, 0., -5.55653009e-004, 0., -2.05500945e-002,
          0., 0., 0., 0., -8.67162365e-004, 0., -9.06866102e-004,
          -2.08798563e-003, -1.93737342e-003, -5.55653009e-004, 0., 0.,
          0., 0., 0., -4.18471493e-004, 0., 0., 0., 0., -3.81260790e-004,
          0., -8.67162365e-004, -1.36889284e-003, -4.01734049e-003,
          -9.46238544e-003, 0., -2.73781689e-003, 0., 0.,
          -5.95000398e-004, -1.04223462e-002, 9.00819199e-004, 0., 0.,
          0., -7.91289320e-004, -4.75210691e-004, -2.40499969e-003,
          -6.29201252e-003, -3.40093859e-002, -1.41044175e-002,
          -8.93682183e-004, -8.59284960e-003, -4.55769198e-003, 0.,
          1.36441915e-004, -2.11928017e-003, -1.67365000e-002,
          -2.11798567e-002, -2.60209606e-004, -9.98071209e-003,
          2.25753468e-002, -1.46684377e-002, -4.73972317e-003,
          -6.05691746e-002, -4.06992435e-002, -2.00433750e-002,
          -2.25719623e-003, 2.49537849e-003, -1.36872008e-003,
          -1.54177856e-003, -4.56476817e-003, 1.36060826e-002,
          -1.55878766e-003, -1.36117509e-003, 0., -1.97767117e-003,
          -5.92564745e-003, -2.23605521e-003, -4.64836089e-003,
          1.33503322e-002, -2.26759557e-002, -3.79467313e-003,
          -3.97169555e-004, -1.12324383e-003, -3.24986712e-003,
          -4.63516015e-004, -3.75833898e-003, 2.16487097e-003,
          -6.13722065e-003, -6.44881045e-004, -1.11371766e-004,
          -2.35967920e-003, -3.48229706e-002, -3.83598218e-003,
          -2.09545512e-002, -1.31222717e-002, -3.55441589e-003, 0., 0.,
          -3.52125062e-004, -1.56416267e-004, -4.88394580e-004, 0., 0.,
          -9.50421381e-004, 0., 0., 0., -6.35298085e-004, 0.,
          -7.41231081e-004, -9.58297096e-006, -2.95046787e-003,
          -1.78613572e-003, 0., -5.55434555e-004, -1.51662610e-003,
          -5.55434555e-004, -8.40519671e-004, 0., 3.63132581e-002,
          -1.48924242e-003, 0., 1.03722105e-003, -9.49047208e-002,
          -1.58629823e-003, -1.50188664e-002, -1.19612226e-002,
          -2.62101693e-003, -4.07386478e-003, 0., -4.18471493e-004,
          -7.50814041e-004, 0., -8.67162365e-004, -2.87886569e-003,
          3.40304279e-004, -6.44881045e-004, 0., 0., 0.,
          -5.55434555e-004, -1.61899894e-003, -1.19073258e-003,
          -4.40384261e-003, -8.67162365e-004, 0., -5.57029620e-004, 0.,
          0., -4.50445004e-005, -5.49062854e-004, 0., -5.55434555e-004,
          -6.35298085e-004, 0., -2.84365495e-003, 0., -5.32465347e-004,
          -9.83006903e-004, -1.07228220e-003, -2.76454422e-003,
          -1.11371766e-004, -1.42136717e-003, -5.49062854e-004, 0.,
          -9.48981324e-004, -9.48981324e-004, 0., 0., 0.,
          -4.88394580e-004, 0., 0., -9.78534110e-004, -3.58824199e-003,
          3.62887257e-003, -4.16005350e-005, 0., -5.55434555e-004,
          -1.23146351e-003, 0., -4.18471493e-004, -4.75210691e-004,
          1.68780476e-001, 1.62403437e-003, -9.58297096e-006,
          -1.38237927e-004, 2.68274229e-002, -3.57044511e-003,
          -1.92551333e-002, -1.17058437e-002, -9.44664236e-004,
          5.38361352e-003, -4.02610807e-004, 3.38014439e-002, 0.,
          -8.85920250e-004, -1.34672388e-003, -4.00428139e-002, 0., 0.,
          0., 0., 0., -8.18189656e-005, -5.49062854e-004,
          2.26876442e-003, -8.18189656e-005, -5.05356677e-003, 0.,
          1.40749163e-003, 0., -6.35298085e-004, 0., 6.04397268e-004,
          -4.75210691e-004, 1.55262256e-004, 0., 0., -4.02610807e-004,
          0., -5.49062854e-004, -6.40307972e-003, 0., 0., 0.,
          1.36441915e-004, 0., 0., 0., -4.88394580e-004, 0., 0., 0., 0.,
          0., 0., 0., -1.22101737e-005, -1.11371766e-004,
          5.68279182e-004, 0., 1.38575549e-003, -8.67162365e-004, 0., 0.,
          9.31973162e-004, 0., 2.87362025e-003, 0., 4.60330956e-003, 0.,
          -9.01187886e-004, 1.55262256e-004, -4.75704297e-003,
          1.77589443e-003, 1.54771255e-002, 0., 1.96627572e-001,
          -1.05603936e-003, 4.24363388e-004, -2.01652269e-003,
          5.03844135e-002, 0., 0., 0., -1.11371766e-004, 0.,
          -1.75248086e-003, -5.33439103e-004, -4.87764599e-003,
          -1.50840636e-003, 2.20983085e-004, 0., 1.28071406e-003,
          -1.26977323e-003, 1.43544155e-003, 0., 1.88720750e-003,
          -6.35298085e-004, 1.88592836e-004, 0., -5.49062854e-004,
          -3.19948420e-004, -2.30987440e-003, -5.00999100e-004,
          -1.04208000e-003, -2.70512281e-003, -7.82429893e-003,
          -1.22101737e-005, 5.04685193e-003, -1.11108762e-003,
          -6.37472025e-004, -1.57367240e-003, 3.54194106e-003, 0.,
          -1.60920410e-003, 0., 0., -5.55434555e-004, -1.11050881e-003,
          -4.19456698e-003, -1.31402779e-002, -5.04307775e-003,
          -5.11694513e-003, -1.11371766e-004, 4.16157860e-003, 0., 0.,
          -6.35298085e-004, 1.11944543e-003, -6.41577644e-003,
          3.00519494e-003, -1.11371766e-004, 9.55408160e-003,
          -2.06864119e-004, -3.66958859e-003, -1.36990584e-002,
          -4.40647379e-002, -2.37173177e-002, 2.90055783e-003,
          2.26367055e-003, -7.90998898e-003, -2.62036291e-003,
          -2.12021940e-003, -3.68944323e-003, -2.29783058e-002,
          5.12245679e-005, -1.34672388e-003, 0., -1.01347186e-003,
          -2.41527078e-003, -7.86376768e-004, 1.26868451e-003,
          -4.76847449e-003, 5.00519294e-003, 4.74515278e-003,
          -1.68497150e-003, 4.62242926e-004, 1.82471087e-003,
          -1.93190732e-004, -2.16832501e-003, 2.67697033e-003,
          5.88489464e-003, -1.22101737e-005, 0., 2.62935355e-004,
          2.44722217e-002, 1.43279892e-003, -7.17918435e-003,
          7.26249418e-004, -3.06836038e-004, -6.44881045e-004, 0.,
          -4.88394580e-004, -5.55434555e-004, -1.37982517e-003,
          3.07979848e-004, -8.05221614e-004, -9.58297096e-006, 0., 0.,
          0., -8.18189656e-005, -9.58297096e-006, 0., -7.17117044e-004,
          8.03229585e-003, 7.34432979e-005, 0., -8.23050039e-004,
          6.89753797e-004, 0., -1.74296298e-003, 0., 6.59887344e-002,
          -6.50067173e-004, -1.14341441e-003, -4.47886821e-004,
          7.98170939e-002, 1.40207168e-003, 6.31459011e-003,
          -3.94651014e-003, -1.26637076e-003, 3.42445238e-003,
          1.43544155e-003, 5.59011591e-004, -6.52200077e-004,
          8.79624626e-004, -1.53804402e-004, -9.71807516e-004,
          -1.91533391e-003, 0., 0., 0., -1.45438069e-003,
          -4.02610807e-004, 9.51811380e-004, -2.82029592e-004,
          -4.51212516e-003, 0., 0., 0., 1.81073404e-003, 0.,
          -1.34672388e-003, 1.69576251e-005, -5.61541552e-003,
          -4.88394580e-004, 0., 9.19762941e-004, 8.92593467e-004,
          1.52880757e-003, 2.40555871e-003, -2.22907867e-004,
          -2.02437094e-003, 1.08368964e-004, -4.75210691e-004,
          -7.11900124e-004, 4.31701716e-004, -8.00872280e-004, 0.,
          -3.77614953e-004, -5.77149738e-004, 0., 0., 0.,
          2.00912450e-003, 0., 2.02990766e-003, 8.08802724e-004,
          1.93050376e-003, -2.71215686e-003, -4.88394580e-004,
          -2.61780369e-004, 4.92180814e-004, 3.07979848e-004,
          3.46876972e-004, 1.39039708e-003, 3.56553420e-002,
          -1.52836510e-004, -3.45871551e-003, -1.96125382e-003,
          1.12147890e-001, -6.59030047e-004, 1.75038148e-002,
          2.40314612e-003, -2.15348744e-004, 1.34480244e-004,
          3.56459932e-004, -1.44650275e-002, -2.15718523e-003,
          -1.86765438e-003, 0., -9.72037539e-002, 0., 0., 0.,
          -7.81672134e-005, 0., 7.98173132e-004, 0., -2.00639628e-002,
          2.75246683e-004, -4.88394580e-004, 0., -3.02709610e-004,
          -5.55653009e-004, 0., 0., -2.90454132e-003, -6.35298085e-004,
          0., 0., -7.42930628e-004, -5.49062854e-004, 3.98071104e-004,
          -6.83858874e-004, -9.01769940e-003, 0., 0., 0., 0.,
          -5.55653009e-004, 0., -5.49062854e-004, -2.05119234e-003, 0.,
          0., 0., 0., -8.18189656e-005, 0., 0., -1.03246758e-003, 0.,
          -2.39894865e-003, 0., -1.51689735e-003, 0., -4.75210691e-004,
          0., 2.84289679e-004, 3.56459932e-004, 1.06841512e-003, 0.,
          1.70074925e-002, 9.91597655e-004, 4.45462007e-004,
          2.64800969e-003, -8.08306690e-003, 2.45536387e-004,
          -1.14721460e-002, -6.35298085e-004, -5.73933832e-002,
          1.64905633e-003, -1.15242682e-003, -4.72622953e-004,
          -1.32831149e-002, -4.75210691e-004, 0., 0., 6.65241794e-004,
          -5.32539794e-004, -2.22840067e-003, 0., -6.51471177e-003,
          -5.95000398e-004, 1.40311930e-003, 0., -9.19076265e-004, 0.,
          -1.19095109e-003, 0., -1.33503566e-003, -4.50445004e-005,
          -5.32105216e-004, 9.31973162e-004, 9.00070358e-004,
          5.68279182e-004, -2.23400217e-004, -2.58759479e-004,
          -8.45892262e-003, -4.76545235e-003, -2.19270377e-003, 0.,
          -1.27698081e-002, -1.99047819e-004, 1.19995896e-003,
          5.40630426e-004, 3.62523104e-004, 7.44808116e-004, 0., 0.,
          1.28843309e-003, 6.54220523e-004, -4.47655300e-004,
          9.61350393e-004, 7.43772881e-003, -5.30777313e-003,
          -1.18668247e-002, 0., -5.17359190e-003, -2.98118597e-004,
          7.49879342e-004, 0., -1.64603163e-003, -1.07764909e-002,
          2.30292021e-003, -1.25478616e-003, 1.44790495e-002,
          -3.81752943e-005, 5.22985309e-003, -3.78631148e-003,
          -6.85474835e-003, -4.21662442e-002, 8.10828409e-004,
          2.93631083e-003, 1.06450720e-002, -5.48639661e-003,
          -4.82410612e-003, 2.32365215e-003, -2.04327749e-003,
          -2.27514980e-003, 0., 0., -5.13982552e-004, -1.31641643e-003,
          -2.65683746e-003, 2.90631391e-002, 5.95621616e-002,
          -9.66271665e-003, -8.09400051e-004, -1.19095109e-003,
          -8.09018384e-004, -6.97220326e-004, -4.88394580e-004,
          -2.24864925e-003, 3.54408030e-003, -7.50324596e-003,
          -6.60434598e-004, -1.58257864e-003, -8.67162365e-004,
          -9.23507847e-003, -2.87748664e-003, 4.02746722e-002,
          4.02601436e-002, -1.79500063e-003, 0., 0., -1.85796525e-004,
          -1.11371766e-004, 0., 0., 6.60447869e-004, -1.38539670e-003,
          0., 0., 0., -5.00604801e-004, 0., -3.52125062e-004,
          -9.86753614e-004, -1.53313635e-003, -1.58651674e-003, 0., 0.,
          -1.35289331e-003, 0., 3.11344303e-003, 8.87979986e-004,
          -6.57361792e-003, -1.22101737e-005, -9.47125431e-004,
          -2.23651808e-003, -2.01620441e-003, -1.70550914e-003,
          -2.21426622e-003, -1.62460306e-003, -4.38494887e-003,
          3.27549502e-003, 1.49807733e-004, -1.28635112e-003,
          -7.77192996e-004, -1.18158280e-003, -1.42536545e-003,
          6.80072524e-004, 0., -5.55653009e-004, 0., 0.,
          -3.97208321e-004, -5.55653009e-004, 0., -1.22040241e-004,
          -1.63883856e-003, -5.55434555e-004, 0., 0., -5.95000398e-004,
          0., -4.18471493e-004, 0., -1.16286357e-003, -1.01347186e-003,
          0., 0., -1.39372097e-003, -5.55653009e-004, 1.42154004e-003,
          -2.11818772e-003, 1.03077265e-002, 1.44587611e-004, 0.,
          3.56459932e-004, -1.06262672e-003, 0., -9.58297096e-006, 0.,
          0., 0., -5.95000398e-004, 0., 1.19429640e-003, 0.,
          -6.35298085e-004, -6.00697531e-004, -3.20516014e-003,
          -5.37921558e-004, -1.47121749e-003, -1.11927639e-003,
          -8.00887647e-004, 0., 8.30102421e-004, -1.11371766e-004,
          -2.11508665e-002, -6.82885118e-004, -8.00872280e-004,
          -3.61708022e-004, -8.35133251e-003, -4.64217598e-003,
          2.35591060e-003, -7.16680661e-003, 8.96136626e-004,
          2.96833320e-003, -4.18471493e-004, -8.21274519e-003,
          -4.24562226e-004, -1.43502560e-003, -4.02610807e-004,
          -1.20933661e-002, 0., -4.75210691e-004, 0., -1.17320730e-003,
          -1.95464279e-004, -5.95000398e-004, 1.05278799e-003,
          -9.56326071e-003, 0., 1.26858955e-004, 0., -9.48981324e-004,
          0., 0., 0., -2.09056842e-003, 0., -6.13935757e-004, 0.,
          -4.50445004e-005, -6.70674955e-004, 0., 7.98977329e-004,
          -8.48440547e-003, 0., 0., 0., 0., 0., 0., 0., -4.02610807e-004,
          0., 0., 0., 0., 0., -5.95000398e-004, 0., 0., 0.,
          -1.11371766e-004, 0., -4.50445004e-005, 0., 0., 0.,
          -5.55653009e-004, 0., -9.51673661e-004, 0., -1.15841700e-004,
          -6.40044862e-004, 0., -6.61931466e-004, -6.29193755e-003,
          -2.91244686e-003, 1.35487784e-002, 0., -4.92753519e-004,
          -8.73108278e-004, -1.72217871e-004, -8.62476300e-004,
          -9.95989982e-003, 0., -4.47655300e-004, 0., 4.22092358e-004,
          0., 0., 1.68911635e-003, -7.29101431e-003, -2.08287011e-003,
          -1.40376110e-003, 0., -1.65999241e-004, 0., -9.58297096e-006,
          -8.18189656e-005, -1.91389746e-003, -8.67162365e-004,
          -9.02661064e-004, 0., -5.95000398e-004, -4.75210691e-004,
          -8.27335753e-004, 1.15688199e-004, -8.24947655e-003,
          1.84937529e-002, 3.82259041e-002, 0., 2.26379111e-002,
          -1.71903125e-003, 2.36425805e-003, 0., 2.59861047e-003,
          -5.55434555e-004, -1.63795237e-004, 0., -3.52125062e-004,
          3.50646069e-003, -3.99509474e-004, 1.76232168e-003,
          1.05312178e-002, -8.76380887e-004, -2.49078078e-003, 0.,
          6.20317459e-003, 0., -3.43685760e-003, -6.35298085e-004,
          -8.40763655e-003, 1.44250691e-002, 1.31054949e-002,
          -7.80796923e-004, 2.05642264e-003, 6.37393678e-004,
          -6.76672347e-003, -2.50966125e-003, -4.45929468e-002,
          -1.76466536e-002, -1.66853629e-002, -1.18436094e-003,
          9.90700442e-003, -4.89939796e-003, -2.80403299e-003,
          6.47526328e-003, 3.01745087e-002, -2.06573936e-003,
          -5.86582464e-004, 0., -3.52125062e-004, -9.08398814e-003,
          5.83156589e-006, 2.26744097e-002, 1.32529765e-001,
          -3.32594709e-003, 1.09257484e-002, -4.50445004e-005,
          -7.51603860e-004, 7.96592969e-004, 1.40861166e-003,
          -2.47308426e-003, -5.95000398e-004, -9.99388471e-003,
          -2.33458099e-003, -4.75210691e-004, 0., -2.24284474e-002,
          -1.88453461e-003, -3.51289636e-003, 2.87350230e-002,
          2.17195041e-003, 2.57761357e-003, -4.75210691e-004,
          -5.95000398e-004, 0., -5.55434555e-004, 0., 2.86869030e-003,
          0., -1.85796525e-004, 0., 0., 1.36441915e-004, 0.,
          -7.50898849e-004, -1.90029829e-003, -4.13651625e-003,
          -2.04024394e-003, 0., 0., 0., 0., 0., 0., -1.24943992e-002,
          -4.18471493e-004, 0., 0., -5.86902630e-003, -6.49682188e-004,
          -8.75550695e-003, -6.17681118e-003, -3.03292088e-003,
          -2.38571782e-003, 0., -2.09605414e-003, 0., 0., 0., 0., 0., 0.,
          0., 0., -5.95000398e-004, 0., -1.08339498e-003,
          1.15670543e-003, -1.00846193e-003, -4.75210691e-004, 0., 0.,
          0., -4.18471493e-004, 0., 0., -1.57353457e-003, 0., 0., 0.,
          -1.61724247e-003, 0., -1.06402521e-003, 8.10001278e-004,
          3.17355851e-004, -3.70447437e-004, 0., 0., 0., 0.,
          -1.85796525e-004, -9.88900429e-004, 1.55262256e-004, 0., 0.,
          0., 7.44808116e-004, -4.75210691e-004, -1.56476698e-003,
          -3.56694940e-003, -3.73620316e-002, -1.22940540e-003, 0., 0.,
          -1.60765951e-003, 0., 0., 0., -2.52596978e-002,
          -1.11371766e-004, 0., 0., -1.34914862e-002, -9.86753614e-004,
          7.13085183e-006, -2.53615924e-003, 3.36972764e-004,
          -1.86214608e-003, 1.38575549e-003, 1.51241384e-003, 0., 0.,
          1.45274343e-003, 3.87077103e-003, 0., 0., 0., 0.,
          -9.97611205e-004, 0., -2.38221255e-004, 4.32430841e-002,
          5.40630426e-004, 2.28932520e-004, 0., 0., 0., 0., 0., 0., 0.,
          -5.55653009e-004, 0., 0., 0., 0., -3.07790609e-003,
          -5.89664152e-004, 0., 0., 0., 3.39152502e-005, 0., 0., 0.,
          1.76008698e-003, 0., 0., 0., 0., 0., 0., 0., -1.75889512e-003,
          0., 0., 0., -5.55653009e-004, 0., 0., 0., 0., 0.,
          4.68339218e-004, 0., 0., 0., 0., -5.72546742e-005,
          -8.22908711e-004, 3.63653572e-003, -2.09202431e-002,
          6.63803541e-004, 4.78087040e-003, 0., 0., 6.63803541e-004,
          -1.63291651e-003, 0., -4.75210691e-004, 0., 0., 0., 0.,
          2.42920709e-003, 2.59816907e-002, -1.04556687e-003,
          -5.24159381e-003, 0., 0., -4.50445004e-005, 0., 0., 0.,
          -7.47069542e-004, 0., 0., 0., 0., -8.18189656e-005,
          -2.21731211e-003, -6.38828089e-004, 3.85095514e-002,
          -2.57352404e-002, 2.04521418e-003, 1.77596621e-002, 0.,
          7.44808116e-004, 4.99257445e-003, 3.15454137e-003,
          1.02026341e-003, 2.41331942e-003, 0., -1.01654662e-003,
          -1.34906397e-004, -3.89475288e-004, 1.50402554e-003,
          1.32479435e-002, -4.17334661e-002, 1.28050800e-004,
          -7.48621067e-004, -7.35204713e-003, -4.88394580e-004, 0.,
          -9.13398049e-004, -1.29363528e-002, -1.15082730e-002,
          -1.93868414e-003, -1.72316364e-003, 5.46108407e-004,
          -5.68241999e-003, -3.18713486e-003, -1.55260433e-002,
          -5.84020838e-003, 1.51821403e-002, 1.31191043e-002,
          -1.33965933e-003, 1.89067628e-002, 1.27867342e-003,
          -4.73440764e-003, 2.41794679e-002, 2.34497674e-002,
          1.01833240e-004, 1.63323747e-003, 9.31973162e-004,
          -1.18750737e-004, 6.35658111e-003, -5.85421920e-004,
          1.60723720e-002, 4.88224588e-002, -5.97239146e-003,
          1.06400775e-003, -1.12543283e-004, 3.40894738e-004,
          -9.58297096e-006, 0., 8.41149013e-004, -2.44434807e-003,
          5.50712342e-004, 0., 7.44808116e-004, -3.52125062e-004,
          9.18726996e-003, 1.82237476e-003, 3.48493308e-002,
          2.93118898e-002, -5.95000398e-004, -6.61007187e-004, 0., 0.,
          0., 0., 0., 2.18024966e-003, 0., 0., 0., 0., 0., 0.,
          -5.49062854e-004, -1.14332594e-003, -9.30323615e-004,
          -1.11371766e-004, 0., 0., 0., 0., 0., 0., -3.86192440e-003, 0.,
          0., 0., -2.15871469e-003, 0., -1.14384596e-003,
          -5.32970007e-004, -2.54371041e-003, 0., -5.49062854e-004,
          1.43544155e-003, -9.53438925e-004, 0., -1.61389087e-003,
          -1.45239721e-003, 0., 0., 0., 0., 0., 0., -5.71487471e-004,
          -2.05516210e-003, -2.43033646e-004, 0., 0., 0.,
          -9.58297096e-006, 0., 0., 0., -5.55653009e-004, 0., 0., 0.,
          -4.97977599e-004, 0., -1.33469969e-003, 2.32878345e-004,
          -5.61144901e-004, 0., 0., 0., -5.55653009e-004, 0., 0.,
          1.55262256e-004, 0., 0., 0., 0., -4.88394580e-004,
          -5.55653009e-004, 0., 4.15940885e-004, -6.86336821e-003,
          -4.02610807e-004, -5.95000398e-004, -5.55653009e-004,
          -4.88394580e-004, 3.40304279e-004, 0., 0., -3.36683798e-003,
          0., 0., 0., -3.15325125e-003, -5.49062854e-004,
          -1.65527221e-003, 1.25146564e-003, 3.37025290e-003,
          1.45554673e-002, 3.56459932e-004, 6.77479547e-004,
          7.44808116e-004, 4.63242119e-004, -6.37889782e-004,
          -1.32357717e-001, 0., -6.47508248e-004, 0., 0., 0., 0.,
          1.43544155e-003, -6.81842119e-003, -5.95000398e-004,
          2.15563364e-003, 0., -1.55016931e-003, 0., 0., 0.,
          4.90531733e-004, 0., -6.35298085e-004, -8.67162365e-004, 0.,
          0., -5.55653009e-004, -5.46274714e-005, 2.63847411e-003,
          -3.52125062e-004, -6.35298085e-004, 0., 0., 0., 0., 0.,
          -7.79286551e-004, 0., 0., 0., 0., 0., 0., 0., -1.95139146e-003,
          0., 0., 0., 0., 0., 0., 0., 0., 0., 0., 0., 0.,
          -4.50445004e-005, 0., 0., 1.12013919e-002, -1.47839985e-003,
          -1.26986578e-002, 2.24444061e-003, 1.42503902e-002,
          5.94466110e-004, -1.69995986e-003, 4.93457657e-004,
          -6.70907721e-002, 0., 0., 0., 0., 0., -1.95464279e-004,
          -1.82474824e-003, 4.38034395e-003, 4.32908349e-003,
          2.13336479e-003, 9.31973162e-004, 1.25458185e-003, 0., 0., 0.,
          -6.28704380e-004, -4.18471493e-004, -4.88394580e-004, 0., 0.,
          0., 0., 7.20007287e-004, 1.81084662e-003, 1.35544175e-003,
          -1.20902965e-002, -8.76745326e-004, 2.66076997e-003,
          9.22390143e-004, 0., 1.62873743e-003, -3.84954526e-003,
          1.36441915e-004, 0., 1.69576251e-005, 3.40304279e-004,
          1.08368964e-004, -5.95000398e-004, 1.11663935e-003,
          1.57793034e-002, 1.35085965e-003, 1.82320643e-003,
          2.98371393e-004, -6.11369545e-003, -2.20265985e-003,
          -1.11972785e-003, 0., -2.66616023e-003, -3.74945928e-003,
          -2.18220917e-003, -2.92499200e-004, -2.40970007e-003,
          -2.67557730e-003, -2.69508455e-003, 4.04618477e-004,
          -1.58811957e-002, 3.74814286e-003, -2.98467046e-003,
          -7.26047147e-004, -5.54715632e-004, -3.38945934e-003,
          -1.97824999e-003, 1.05402106e-002, 2.20961845e-003,
          -1.48377335e-003, -4.02610807e-004, 0., 0., 1.92969255e-002,
          7.41354088e-005, 1.37351453e-002, 3.33636999e-002,
          7.34110130e-003, -5.15438197e-003, 6.63803541e-004,
          -8.67162365e-004, -9.59375291e-004, 0., 6.96764211e-004,
          5.99684019e-004, 4.37729061e-003, 9.14184900e-004,
          -1.93190732e-004, 3.40304279e-004, 1.29794367e-002,
          -4.78913309e-003, -2.70593651e-002, 1.93099715e-002,
          6.46621315e-003, 7.61250441e-004, 0., -5.95000398e-004, 0., 0.,
          0., 0., 0., 0., 0., 0., 3.07979848e-004, 0., -3.52125062e-004,
          -1.28965138e-003, 9.85354092e-003, 1.01013551e-003, 0., 0.,
          -5.49062854e-004, 0., 1.43544155e-003, 0., -5.29696699e-003,
          2.54191254e-004, -8.67162365e-004, 0., -4.17728387e-002,
          -1.06606598e-003, -3.77923017e-003, 1.13444142e-002,
          -4.19851975e-004, 2.01528962e-003, 0., 0., -3.24137835e-003,
          0., 0., 4.60985408e-004, 3.07979848e-004, 0., 0., 0., 0., 0.,
          1.69576251e-005, -1.70006545e-003, -2.39894865e-003,
          -1.60765951e-003, -1.22101737e-005, 0., -8.67162365e-004, 0.,
          0., 0., 1.36441915e-004, 0., 0., 0., -1.26348902e-003,
          5.81984525e-004, -1.26671267e-003, -8.65459209e-004,
          -2.92577781e-003, 4.25825035e-003, 0., 0., -2.02138349e-003,
          0., 0., 0., 0., 0., 0., 0., -1.18845887e-003, 0.,
          -1.22932077e-003, -5.55434555e-004, 2.06309138e-003,
          2.17004633e-003, 0., 0., -1.22101737e-005, 7.44808116e-004, 0.,
          0., 7.58545799e-003, -1.34611770e-003, 8.81250016e-004,
          -8.18189656e-005, 9.43106657e-004, -3.06588784e-003,
          -1.21184182e-003, -6.89272908e-003, 0., -9.20771854e-004, 0.,
          -1.46606041e-003, 1.43544155e-003, 3.40304279e-004,
          2.74894619e-003, -1.76496792e-003, 0., 0., 0., 0., 0.,
          -4.18471493e-004, -6.35298085e-004, 9.56233125e-003, 0., 0.,
          0., 0., 0., 0., 1.55262256e-004, -1.60765951e-003, 0.,
          -1.60765951e-003, 0., -1.60765951e-003, 0., 0.,
          1.85409468e-003, -1.55487098e-003, 0., 0., 0., 0., 0., 0., 0.,
          0., 0., 0., 0., 0., 0., 0., 0., 0., 0., 0., 0., 0., 0., 0., 0.,
          0., 0., 0., 0., 0., 1.69576251e-005, 0., 3.25953332e-003,
          1.12420842e-002, -1.45091990e-003, -6.93725795e-003, 0.,
          -8.05101078e-003, -1.49744167e-003, -1.03790883e-003,
          -1.22354264e-004, -3.88537277e-003, 0., 0., 0., 0.,
          -8.67162365e-004, 0., 9.77537478e-004, -6.93669030e-003, 0.,
          -1.95464279e-004, 0., -1.60765951e-003, 0., 0., 0., 0., 0., 0.,
          0., 0., 7.44808116e-004, 1.36441915e-004, 3.56459932e-004,
          -4.76307748e-003, 1.42517791e-003, 2.45602964e-003, 0.,
          -1.24422938e-003, 1.29627378e-003, -1.92608382e-003, 0.,
          5.35877235e-003, -1.26661151e-004, 2.84732250e-003, 0.,
          1.36441915e-004, 2.19755154e-003, 1.36319071e-003,
          6.73210365e-004, 4.35221664e-005, -1.98980188e-003,
          -9.50546283e-003, -1.95464279e-004, -3.65581154e-003,
          -2.78086681e-003, -2.87501467e-003, 0., -6.24639587e-003,
          1.56862158e-002, 6.85033016e-003, 1.10419304e-003,
          4.98666102e-003, -3.42258858e-003, -6.46733039e-004,
          -7.66005507e-003, -3.15492675e-002, 2.37360969e-002,
          8.56039766e-003, -1.14588568e-003, -1.10684605e-002,
          6.10582647e-004, 2.74317019e-004, 2.38243607e-003,
          -1.87101364e-002, 1.00774353e-003, 1.32678193e-004, 0.,
          1.43544155e-003, 5.32857794e-003, -4.12620924e-004,
          -3.51055595e-003, -4.02124003e-002, -5.76004561e-004,
          7.29729049e-003, -1.19655335e-003, -1.50176522e-003,
          -2.45406851e-003, -3.35022528e-003, -2.67116469e-003,
          1.92673516e-003, -4.70305001e-003, -1.95379485e-004,
          3.40304279e-004, 1.36319071e-003, -1.06167106e-003,
          -6.58451288e-004, 1.12053216e-001, -1.15319761e-002,
          1.00096816e-003, 7.44808116e-004, 0., -5.55434555e-004, 0., 0.,
          0., -9.58297096e-006, 0., 0., 0., 0., 3.40304279e-004, 0.,
          8.32139107e-004, 6.84680301e-004, -5.26714284e-005,
          -1.22701807e-004, -1.22101737e-005, 0., 0., 0., 0., 0.,
          7.80031434e-004, 0., 1.49963261e-003, 0., -1.62105693e-003,
          -1.60765951e-003, 7.75248185e-003, 4.14082222e-003,
          7.11877365e-004, -1.79539039e-003, 0., -4.18471493e-004,
          -4.82297828e-003, 0., 0., -4.02610807e-004, 0., 0., 0., 0., 0.,
          0., 1.31814613e-003, 0., -3.04830493e-003, -2.20265985e-003,
          0., 9.31973162e-004, -1.60765951e-003, 0., 0., 0.,
          -3.52125062e-004, 0., 0., 0., -1.60765951e-003, 0.,
          1.61567051e-003, -8.81539658e-004, 7.00671691e-003,
          5.00229793e-003, -1.85796525e-004, -1.95464279e-004, 0., 0.,
          0., -4.75210691e-004, 0., 0., 0., 0., 1.23272534e-003,
          9.31973162e-004, 2.31411681e-003, 1.47209980e-003,
          -9.61477868e-003, -3.28196073e-003, -4.88394580e-004, 0.,
          -1.60765951e-003, 0., 0., 0., -3.25008947e-003,
          -1.60765951e-003, 3.40304279e-004, 0., -2.33503468e-002,
          -3.85061698e-003, 7.13076349e-003, 9.27145069e-004,
          -4.18471493e-004, -8.19198973e-003, 0., -1.01026846e-002,
          -4.50445004e-005, 0., -8.67162365e-004, -2.01559346e-003,
          3.40304279e-004, 0., 0., 1.43544155e-003, -4.12620924e-004, 0.,
          -9.20655846e-004, -1.72379252e-003, 3.08491546e-003,
          3.56459932e-004, 0., 0., 0., 0., 0., -5.55653009e-004, 0., 0.,
          0., 0., 7.39344046e-004, 0., -1.26820733e-003, 1.18349714e-003,
          0., 0., 0., 0., 0., 0., 0., 0., 0., 0., 0., 0., 0., 0.,
          1.09628343e-003, -4.47170431e-004, 2.20990696e-004, 0., 0.,
          7.44808116e-004, 0., 0., 0., 0., 0., 0., 0., 0.,
          1.69576251e-005, 0., -1.54893717e-003, -9.75142349e-004,
          -2.31125532e-003, -2.34126598e-002, 0., -4.38480731e-003,
          -8.18189656e-005, 0., 0., -2.90407380e-003, 0., 0., 0., 0.,
          1.08670047e-003, 0., -1.57500093e-003, 2.12894520e-003,
          1.36441915e-004, -4.75210691e-004, 0., 0., 0.,
          -1.60765951e-003, -5.95000398e-004, 0., 1.43544155e-003, 0.,
          0., 0., 2.83970498e-003, 0., -3.19245807e-003, 1.64521288e-003,
          3.84068787e-002, -7.07834810e-002, -1.95464279e-004,
          7.58375553e-003, -1.22101737e-005, -6.88599481e-004,
          -2.71816680e-004, -1.36369409e-003, -5.57642838e-004,
          4.06023534e-003, 0., 3.10362643e-003, -9.63787315e-004,
          7.11564324e-004, 7.27100251e-003, -1.33208558e-002,
          3.61671597e-002, 8.84241832e-004, 7.34432979e-005,
          7.32973171e-003, -4.66957875e-003, -1.60765951e-003, 0.,
          -2.67582620e-003, 1.80922810e-003, 3.09372554e-003, 0.,
          4.52746218e-003, 2.35464517e-003, -1.07772388e-002,
          2.05584373e-002, -1.96772795e-002, -1.46956062e-002,
          5.25092287e-003, -1.07947865e-003, -3.25258402e-003,
          -6.65341085e-003, -1.70498353e-003, -3.16766137e-003,
          1.46816077e-003, -5.32831717e-003, 1.69576251e-005,
          2.74640974e-004, -5.55434555e-004, -6.51447615e-003,
          1.00771082e-003, 2.70144045e-002, 5.85088059e-002,
          -1.29652144e-002, 1.28136168e-003, 0., -1.89143594e-003,
          -4.18944331e-003, 0., 3.25402332e-004, -1.94069115e-003,
          -3.92335933e-003, 2.86596885e-004, 1.38575549e-003,
          -4.50445004e-005, -1.11005381e-002, 1.54622050e-003,
          1.33185145e-002, 2.45495774e-002, -1.19000080e-003,
          -1.65845163e-003, 0., 0., 0., 0., 0., -6.85509294e-004, 0., 0.,
          0., 0., -8.67162365e-004, 0., 0., 1.31307647e-003,
          -1.42197609e-002, -1.19547942e-003, 0., 0., -5.29843266e-004,
          0., 0., 0., -9.49530303e-003, -3.76438163e-003, 0., 0.,
          -1.47155505e-002, 0., -1.43259019e-003, 8.10481235e-003,
          -6.18861662e-003, -4.18471493e-004, 0., -1.85796525e-004,
          -1.61724247e-003, 0., 0., -4.87420853e-004, 0.,
          -8.67162365e-004, 0., 0., -7.60481809e-004, -1.95464279e-004,
          1.55262256e-004, 1.49807733e-004, -2.94821733e-003,
          -6.35298085e-004, 0., -5.55434555e-004, -1.60765951e-003, 0.,
          0., 0., 2.02868017e-004, 0., 0., 0., -4.67996905e-003, 0.,
          8.85540037e-004, -9.07314301e-004, 3.36232502e-003,
          -8.67162365e-004, 0., -4.18471493e-004, -4.84429765e-004, 0.,
          0., -1.67257909e-003, 0., 0., 0., 0., 0., 0., 0.,
          -6.09336607e-003, -2.47860216e-002, -4.52529406e-003, 0., 0.,
          -3.21531901e-003, -1.60765951e-003, -1.22101737e-005, 0.,
          -3.20155881e-002, 0., -4.20587719e-004, -9.58297096e-006,
          -4.60145846e-002, -4.59681777e-003, 2.34528678e-003,
          -7.48971850e-003, 3.82482685e-004, 1.39185565e-003, 0.,
          1.57845172e-003, -4.88394580e-004, -5.13982552e-004,
          -5.95000398e-004, 1.49485022e-002, 0., 0., 0.,
          -8.67162365e-004, 3.56459932e-004, 0., -2.31562555e-003,
          1.48197943e-002, 2.02825665e-003, 4.19759192e-003, 0.,
          -1.05295889e-003, 0., -1.22101737e-005, 0., -9.76789161e-004,
          0., 0., 0., -1.38114498e-003, 0., 1.36319071e-003,
          -8.67162365e-004, -4.54476103e-003, 0., 0., 0.,
          -1.14406319e-003, 0., 0., 0., -5.88407333e-004, 0., 0., 0., 0.,
          0., 0., 0., -1.38582289e-003, 7.44808116e-004,
          -4.18471493e-004, 0., -1.05376961e-003, 0., 0., 0.,
          -3.52125062e-004, 0., -1.52270251e-003, 0., -6.35298085e-004,
          0., -2.28975923e-003, -8.67162365e-004, -7.67463818e-004,
          1.92134362e-003, 1.14136562e-002, 0., 7.35267298e-003,
          1.36441915e-004, -8.67162365e-004, 0., 8.88640713e-003, 0.,
          3.40304279e-004, 0., 0., 0., 3.07979848e-004, 1.60530792e-003,
          1.56683661e-002, 1.50998717e-003, -7.36061484e-004, 0.,
          -6.35298085e-004, -4.18471493e-004, 0., -1.58257864e-003,
          -4.18471493e-004, 1.36441915e-004, 1.10126811e-003, 0., 0., 0.,
          -5.55653009e-004, -1.34035212e-003, -3.77272558e-003,
          2.50116792e-002, 1.65913496e-002, 0., 2.26439126e-002,
          -5.10702434e-004, -8.30762379e-004, 3.27248173e-003,
          2.90423213e-003, 0., 0., 0., -1.85796525e-004, 3.72199179e-003,
          8.19065783e-004, 1.03910221e-003, -5.68838092e-003,
          3.28567773e-002, 4.35456485e-002, -4.15384071e-003,
          2.06479407e-003, -1.30926259e-003, -4.08248138e-003,
          -9.87423118e-004, -6.06395630e-003, 1.31473833e-004,
          -2.78707244e-003, -1.19390013e-003, -2.51498597e-004,
          -3.84310004e-003, -1.27506172e-002, 6.91402983e-003,
          -4.18106578e-002, -2.17725113e-002, -1.57508925e-002,
          -2.24255165e-003, 2.12434772e-003, -1.05054555e-002,
          -1.24456768e-003, -4.10647644e-003, 1.33735128e-002,
          -2.27718777e-003, -5.65236027e-004, -1.81758369e-003,
          -8.18189656e-005, -5.82713168e-003, -1.06931804e-003,
          -3.83227551e-003, -6.07060036e-003, -1.16691068e-002,
          -5.19763865e-003, -8.18189656e-005, 5.29362354e-004,
          -1.01231562e-003, 0., -2.91529181e-003, -1.49251672e-003,
          1.93480426e-003, -1.14384189e-003, 0., -4.30681685e-004,
          -1.80795752e-002, -1.44088094e-003, -8.59172922e-003,
          -5.05357515e-003, 2.32126378e-003, -8.18189656e-005, 0., 0.,
          -5.13982552e-004, 0., -8.18189656e-005, 0., 9.31973162e-004,
          0., 0., 0., -7.91289320e-004, 0., -8.18189656e-005,
          -5.55434555e-004, 2.03494471e-003, -5.67863230e-004,
          -4.75210691e-004, -1.22101737e-005, 2.29121084e-004, 0., 0.,
          -6.30881812e-004, -1.96671765e-003, -1.60765951e-003,
          1.26858955e-004, -3.66279477e-004, -9.19375792e-002,
          -2.07269192e-003, -2.34552845e-002, -1.17863482e-002,
          2.10920293e-002, -6.61955634e-003, 3.56459932e-004,
          -4.18471493e-004, 3.88329895e-003, -1.85796525e-004,
          7.36428367e-004, -2.47939210e-003, 0., 0., 0., 0.,
          -3.09280702e-003, 2.58485321e-004, -1.77275599e-003,
          -1.75538973e-003, 1.37866684e-003, -9.07559588e-004, 0., 0.,
          -2.49887438e-004, 0., 0., 0., 3.56459932e-004, 0., 0., 0.,
          -2.86865467e-003, 0., -5.12500643e-004, -2.45429506e-003,
          1.53017910e-002, -6.60434598e-004, 0., 0., 1.95597438e-003, 0.,
          1.55262256e-004, 8.50154203e-004, 2.72638141e-003,
          -4.75210691e-004, 0., -1.11371766e-004, -6.36131736e-005, 0.,
          -4.50445004e-005, -1.76084461e-003, 2.79199183e-002,
          -1.02405658e-003, 0., 0., 4.86800540e-003, 0.,
          -3.19948420e-004, -1.51204341e-003, 1.33270383e-001,
          1.76410074e-004, -1.61986961e-003, 0., -4.09965143e-002,
          -3.84438527e-003, -1.86499190e-002, -1.03842411e-002,
          6.51874696e-004, -2.54175276e-004, -7.46669830e-004,
          5.36405900e-003, 3.46876972e-004, -2.15175189e-003, 0.,
          8.74824300e-002, 0., 7.44808116e-004, 0., -2.44203475e-005,
          -5.95000398e-004, -8.67162365e-004, -5.86582464e-004,
          8.98617879e-003, 0., -2.63535674e-003, 0., -1.14406319e-003,
          0., -8.76745326e-004, 0., -6.67024811e-004, 0.,
          -5.86582464e-004, 0., -4.75210691e-004, -1.29996170e-003, 0.,
          -9.58297096e-006, -8.82897619e-003, 0., -1.11371766e-004, 0.,
          2.95634451e-003, -6.35298085e-004, -4.88394580e-004, 0.,
          9.97583731e-004, 0., 0., 0., 0., 0., 0., 0., -8.27335753e-004,
          0., -2.36962293e-003, 0., 3.38020572e-003, 0., 0., 0.,
          2.82119703e-003, -9.58297096e-006, -1.46321265e-003, 0.,
          1.39396014e-002, 0., -1.04265567e-003, 0., 7.07802502e-003,
          1.63249224e-002, 7.39457272e-003, 7.44808116e-004,
          8.94818548e-003, 1.86439871e-003, 7.43433880e-003,
          -2.80554639e-003, 1.19854035e-002, 0., 0., 0.,
          -5.49062854e-004, 2.67240894e-003, -8.19859051e-005,
          -4.02610807e-004, 1.26316948e-002, 3.42197309e-004,
          -4.85898042e-003, 0., -2.40707700e-003, 1.40769896e-003,
          -1.11371766e-004, -1.20976078e-003, -1.14548579e-003,
          -1.11371766e-004, 1.38575549e-003, 0., -1.50441588e-003,
          -4.02610807e-004, 0., 0., -6.40399149e-003, 1.06277913e-002,
          8.16371106e-003, -9.58297096e-006, -2.32703984e-003,
          2.26470715e-004, -1.46296388e-003, -2.44069682e-003,
          5.61219687e-003, -3.52125062e-004, -1.11371766e-004, 0.,
          -2.75009690e-004, -5.55434555e-004, -1.42580818e-003,
          -2.08953931e-003, -9.31773335e-003, 1.11664664e-002,
          1.62871052e-002, -6.35298085e-004, 2.26156041e-002,
          -1.06941711e-003, 0., 5.51617413e-004, -3.99839552e-003,
          7.67890085e-003, 4.17972310e-003, 4.71288455e-004,
          3.28210331e-002, -1.60501841e-002, -7.50652794e-003,
          -1.11117838e-002, -7.97078162e-002, -3.38452160e-002,
          -8.89132451e-003, -3.56469047e-003, -3.84350028e-003,
          -7.72846537e-003, -5.13424026e-003, -5.96206309e-003,
          -3.57323103e-002, -1.88900961e-003, 0., 0., 0.,
          -6.65371073e-003, -2.90556974e-003, -6.70678634e-003,
          -1.53331999e-002, -1.24167462e-004, -1.41622568e-003, 0.,
          -5.55434555e-004, 1.03747169e-003, -5.47504576e-004,
          -1.04382914e-003, -2.42095091e-003, 1.13906255e-002,
          9.40553378e-004, 0., -1.85796525e-004, 4.95304391e-002,
          -3.51795752e-004, -9.90723376e-004, -5.59394201e-003,
          -1.02368963e-003, 0., -5.95000398e-004, -7.91289320e-004,
          5.94466110e-004, 0., -4.75210691e-004, -5.95000398e-004,
          -4.84429765e-004, 0., 0., 0., -6.84640370e-004, 0.,
          -6.00479078e-004, -1.10471586e-003, -3.76322563e-003,
          -6.49627880e-004, 0., -1.95464279e-004, -1.27416023e-003, 0.,
          6.64439809e-004, 0., 4.28852253e-002, -6.38512603e-004, 0.,
          -6.66806300e-004, 1.71867490e-001, 2.99495296e-003,
          1.51640791e-002, 6.29104348e-003, -7.39884796e-003,
          1.02981471e-003, -5.88407333e-004, -9.63605300e-004,
          -5.21926535e-003, -6.07210561e-004, -3.97169555e-004,
          -6.72508322e-004, -1.02894439e-003, 0., 0., 0.,
          -2.51390855e-003, -1.22101737e-005, -1.61847996e-003,
          -8.82195192e-004, -1.70934014e-003, -2.17931447e-005, 0., 0.,
          -1.23951188e-003, 0., 0., -1.85796525e-004, -4.03150031e-003,
          0., 0., -7.99780362e-004, 7.15811795e-004, 0.,
          -4.18471493e-004, -4.88394580e-004, 8.36025865e-004,
          3.07979848e-004, 0., -4.88394580e-004, 4.90111997e-004,
          -2.30841018e-004, 0., -5.49062854e-004, -9.12620279e-004, 0.,
          0., 0., -6.63317769e-005, 0., 9.31973162e-004,
          -5.29104203e-004, -1.77587580e-003, -4.50445004e-005,
          -8.67162365e-004, 0., -9.97006078e-004, -6.35298085e-004,
          6.03782246e-004, 2.17649314e-004, 1.40432920e-002,
          -3.95488023e-005, -1.34672388e-003, -2.11860333e-003,
          1.13441259e-001, 2.74122716e-003, 1.91459116e-002,
          1.30134239e-003, -3.99811601e-004, -1.16236333e-005, 0.,
          1.66942105e-002, -9.56708391e-004, -1.02013105e-003, 0.,
          -4.92233410e-002, 0., 0., 0., -4.06365551e-004,
          -9.58297096e-006, -7.42253556e-004, 0., -2.61831023e-002, 0.,
          -1.36933208e-003, 0., -1.68508699e-003, -5.55434555e-004, 0.,
          0., -5.00604801e-004, 0., 0., 0., 5.57969091e-004,
          -1.85796525e-004, 0., -7.41231081e-004, -7.56282313e-003, 0.,
          0., 0., 0., 0., 0., 0., -1.69792469e-003, 0., 0., 0., 0., 0.,
          0., 0., -8.32717807e-004, 0., -8.91005388e-004, 0.,
          -5.55653009e-004, 0., 0., 0., -1.74829771e-003,
          1.55262256e-004, -5.78042760e-004, 0., 2.72436510e-003,
          -1.99193091e-004, 2.97152816e-004, 1.79190154e-003,
          1.41616538e-002, -4.37249709e-003, -6.86782086e-003,
          1.38575549e-003, -3.57118547e-002, -4.39562229e-003,
          3.08260875e-004, -1.86214608e-003, 1.62883359e-003, 0., 0., 0.,
          1.55262256e-004, -8.73108278e-004, -4.50445004e-005,
          -7.91289320e-004, -9.54406057e-003, -6.92706031e-004,
          3.07979848e-004, -1.95464279e-004, -7.81672134e-005, 0.,
          1.69576251e-005, 0., 2.85416562e-003, -5.46274714e-005, 0., 0.,
          4.70814848e-005, 0., -4.88394580e-004, 0., -4.66746278e-003,
          -3.30693787e-003, -1.01565775e-002, -1.60765951e-003,
          -1.63029041e-002, 3.56459932e-004, -4.18471493e-004, 0.,
          4.02516313e-003, -5.95000398e-004, 0., 0., -4.18471493e-004,
          0., -7.64206125e-005, -6.35298085e-004, -6.74340874e-003,
          -1.07980371e-002, -1.70816649e-002, -3.06751259e-004,
          1.07604929e-003, 0., -8.79766827e-004, -1.12353220e-004,
          -4.27394640e-003, -5.30551095e-003, -1.28155446e-003,
          -4.01919382e-003, 8.93303193e-003, -2.03976268e-003,
          -4.80878586e-003, -6.72766985e-003, -4.36903462e-002,
          -1.23056946e-002, 6.73426199e-004, -9.36913828e-004,
          -3.41809297e-004, -4.60538594e-003, -4.29902459e-003,
          -2.92604417e-003, -2.55742967e-002, -3.35291354e-003, 0., 0.,
          0., -4.50509693e-003, 9.11136274e-004, -1.80367345e-003,
          -2.54528248e-003, -7.96054024e-003, -2.21904018e-004,
          -4.50445004e-005, -7.51117303e-004, -1.91135367e-003, 0.,
          -5.55653009e-004, -4.60160850e-003, -3.87552264e-003,
          -1.57992658e-003, -5.55434555e-004, -1.85796525e-004,
          -1.38947051e-002, -1.83511840e-003, -1.93692166e-002,
          -9.95553285e-003, 2.12634169e-003, 0., 0., 0., 0.,
          -9.58297096e-006, 0., 0., -9.63605300e-004, 0., 0., 0.,
          -4.88394580e-004, 0., -1.95464279e-004, 0., 3.65527137e-003,
          -4.18471493e-004, 0., 0., 0., 0., 0., -1.52816961e-003,
          -6.01897342e-003, -4.87420853e-004, -5.55653009e-004,
          -4.88394580e-004, -2.79762782e-002, -6.02074142e-004,
          -1.18265385e-002, -2.32335925e-003, 1.63734378e-003,
          2.00682832e-003, 0., -1.60765951e-003, 8.20552651e-003,
          -7.06372142e-004, -5.95000398e-004, -1.15065346e-003,
          -1.85796525e-004, -1.85796525e-004, 0., 0., -2.52952822e-003,
          -5.55653009e-004, 0., -1.57992658e-003, -8.19298497e-004, 0.,
          0., 0., 2.48203892e-003, 0., 6.88031287e-005, 0.,
          1.38575549e-003, 0., 0., 0., 2.99205276e-004, 0., 0.,
          -2.59928545e-003, -5.50440606e-003, -8.67162365e-004,
          -2.47454678e-004, 0., -1.01795734e-003, -5.95000398e-004, 0.,
          0., 0., 0., 0., 0., 1.19037589e-003, -1.10471586e-003, 0.,
          -4.88394580e-004, -1.65166780e-002, -1.11371766e-004,
          -1.22101737e-005, 0., -1.50806189e-003, -1.95464279e-004, 0.,
          -4.50445004e-005, 5.68868872e-003, 0., -1.38628972e-003,
          -3.81260790e-004, -1.41070830e-002, -5.55653009e-004,
          -6.08903635e-003, -4.27307421e-003, 2.96104490e-003,
          1.53398197e-002, 0., 5.74366972e-002, -4.88394580e-004, 0.,
          -9.77085787e-004, 3.05086598e-002, 0., -1.11371766e-004, 0.,
          0., 0., -8.67162365e-004, 0., -1.99936051e-002,
          -4.18471493e-004, 7.24748243e-004, 0., -1.67230814e-004,
          -6.35298085e-004, 0., 0., -1.35577482e-003, 0., 0., 0.,
          -5.49062854e-004, 0., -5.95000398e-004, 0., -7.18549779e-003,
          0., 0., 0., 0., 0., 0., 0., 1.69576251e-005, 0., 0., 0., 0.,
          0., -8.18189656e-005, 0., -6.40044862e-004, 0., 0., 0., 0., 0.,
          0., 0., -1.80312374e-003, -3.35167424e-004, -6.30881812e-004,
          0., 1.42323144e-003, 0., 0., 2.94217421e-003, -2.64812098e-003,
          7.19819497e-003, 3.97854559e-002, 0., 5.80397286e-002,
